301 100
了 -0.00025098163 0.0014394963 0.002834605 -0.0045118383 -0.0043240795 0.003912445 0.0010020197 -0.0028664537 -0.0037630294 0.0030361777 -0.00045312638 -0.0012555426 -0.0044160276 0.00032222393 -0.0015843849 -0.00040229675 -0.004638264 -0.004615064 0.002510663 0.004281566 0.0024391366 0.0007285016 0.0046171006 -0.0018752451 -0.003668945 -0.000859226 -0.0002193193 0.0009696683 0.003296516 -0.003047797 0.0023976364 -0.0005816545 0.004632579 -0.00021872546 -0.0037671647 0.00083617785 -0.0028378388 -0.0044454397 0.0029958664 0.0012528046 -0.00055985805 0.0046366625 -0.00041298202 0.0008357811 0.0041998643 0.0001527228 0.001664262 -0.0009165959 -0.0030219653 0.003503064 -0.0050150068 0.0030939751 -0.0001938057 0.00022026729 -0.0038034176 0.0005343086 0.0033323113 -0.0037484532 0.0014825448 -0.004282857 -0.001055761 0.0014054907 -0.0039213686 0.0036007368 -2.7920003e-05 0.0042586187 -0.003590317 -0.002005223 -0.003996822 -0.0033596382 0.0026725077 0.00014990104 0.0042627007 0.0040066415 -0.0035491814 0.0039911005 0.003942712 -0.00434517 -0.0004246419 -0.004051798 0.0025408987 -0.004819722 0.004515259 -0.001793336 0.00047231393 0.0038760738 -0.00448846 0.0042950055 -0.002700969 0.0038689778 -0.0044448487 0.0044130427 -0.0014061825 -0.0036583736 0.0043969112 -0.0043361727 0.0034386823 -0.0032235277 0.0036787817 -0.0039979336
的 0.0043781106 -0.004361612 0.0037465454 -0.004104947 0.0043147686 0.00054475904 0.0010461917 0.00041353318 -0.002222513 0.0019294712 -0.0022718296 -0.0030128695 0.002381548 0.0034033086 0.0017890851 -0.0035890294 0.0041734534 0.0009958013 0.002044708 -0.0033573143 0.0031957636 -0.0046032774 0.0042727813 -0.0031849644 0.0019409038 0.004530377 0.004757148 0.00096911663 0.0033163072 -0.003290939 -0.004603165 -0.002849426 -0.0019679556 -0.0018142833 0.00015808521 0.00091111084 -0.004206296 -0.001053772 0.0021869608 0.00062575244 -0.0009153901 0.0030434646 -0.0048348308 0.0008253687 0.00021979102 0.0025261794 0.0033727735 0.0043881517 0.0048546484 -0.0011623356 -0.00046661947 -0.0033339034 0.0013220487 0.004878296 -0.0019706606 0.0046023065 0.0014345887 0.0033588852 0.0018349887 0.0035149157 -0.003167426 0.0040699453 0.0041629216 -0.0035522212 -0.0001607757 -0.0018584238 -0.0048463107 -0.0041965186 -0.0022642342 0.0044883676 0.004747409 0.002981464 0.0006916112 -0.0037564803 0.0040418054 0.0005581369 -0.0039005624 0.0012735508 -0.00039064392 -7.395614e-05 -0.0038284366 0.0029273827 -0.0025819617 -0.0030097975 0.0014119105 0.0016252412 -0.0009660992 0.0018317598 -0.0004278998 0.0012438805 4.5495264e-05 -0.0036407567 -0.004291212 -0.0001190735 0.0040888037 -0.00036881285 0.002192661 -9.091802e-05 0.0026992566 -0.00011304552
去 -0.0039632763 -0.0045222146 -0.0018203311 0.003721657 0.0027564652 -0.0010916732 -0.00041883756 -0.0037100867 0.0033141698 0.0019349598 -0.0047715767 -0.0030667614 1.9577623e-05 0.00341353 -0.0037943302 0.0036913948 0.00043936403 -0.002102154 -0.000111636575 0.0035446454 0.00024394065 0.00273173 0.004493125 0.0013307353 -0.0025397406 -0.00043046032 0.005169569 0.00042717133 -0.004865887 0.00045229957 -0.0040503913 0.00090232614 0.004229948 0.0033605227 0.0008459831 -0.0032747085 0.004694295 0.00027142494 -0.0028898069 0.003495355 0.0016459872 0.0020713855 -0.0048367623 -0.0050533745 0.0014447254 0.003378621 -0.0026142683 0.0039255233 -0.0015176904 -0.00077616796 0.0042677294 0.0044162096 -0.004086207 -0.0029867527 0.0014588154 0.0012007928 0.0029839033 -0.0041831844 -0.003538511 -0.0044818735 -0.0024825654 -0.004413887 0.0008043412 0.002000446 -0.001173348 3.7890186e-05 0.001407051 0.004154843 -0.0043137344 0.0026067458 -0.0011458122 0.004608944 -0.004186653 -0.003030535 -0.005021297 -0.0027225355 -0.0036676885 -0.0029724669 -0.0028866362 0.00018099055 -0.0039062246 -0.0038584766 -0.0028500145 0.00417585 0.0033211957 -0.0008881667 -0.0033814877 -0.0017169476 0.0027798505 0.0009231596 0.0016295979 0.0021554353 -0.0034288494 -0.0041411365 -0.0006483686 0.0010532347 0.0040032603 0.0038581463 -0.0032571503 0.0010784742
号 0.0045315376 -0.0028151388 0.0009176055 0.00042822817 0.0019262859 -0.004789333 -0.000113121976 0.001909434 0.00036830266 0.00054056826 -0.0011095817 -0.0002697975 0.0038733815 -0.0049495464 0.002469255 -0.0010996899 0.00011590799 0.0012598645 0.0016923123 -0.004510654 -0.0047580507 -0.0043775425 0.00075719616 0.0002518188 -0.0014936777 0.003511815 0.0047521726 -0.0010751467 0.0005600603 -0.0042498894 0.0027040292 0.0043406156 0.0035027273 0.0045825555 -0.0032252737 0.0029009422 0.0030162286 0.0024832983 0.00035082203 -0.0018220679 0.0038582936 -0.0016112006 -0.002352308 -0.0035217989 0.0020738188 0.0047873287 -0.004324439 0.0032177754 -0.0044480073 -0.0042628027 -0.0017144646 -0.0006642302 -0.0040199463 -0.0044023064 0.0004598968 -0.0008114752 0.0029875091 0.00071341876 -2.7277056e-05 -0.002938169 -1.9447762e-05 0.004886057 0.0026148192 -0.0037574244 -0.00060665864 -0.0032252823 -0.0040525347 0.00295451 0.00086842565 -0.0027877945 0.0009168701 -0.0033918722 -0.004081904 0.0009688623 -0.0018847663 0.00035936804 0.0040270807 -0.0049473466 0.0005693963 -0.0030906294 0.0040426184 0.0012651666 -0.0041990704 0.0036035345 0.0018521303 0.0012236857 0.0043549966 0.0027117005 0.004301834 -0.004887079 -0.0049587903 0.0039584036 0.0019836293 -0.0012261493 0.0027698528 -0.002577177 0.0016188626 -0.0035383967 0.001223544 -0.0005827346
挂 -0.0020592706 0.001573069 -0.00058724976 0.004394261 0.0030021002 0.0050097187 -0.0014645692 0.0044678682 0.0004721822 -0.004624274 0.000660198 0.002557463 -0.004390946 0.0045506135 -0.0043215305 -0.00028321604 -0.0047522485 -0.00023387131 1.5516467e-05 -0.0028770184 -0.0012379141 0.0030388862 0.0010035526 0.0033689414 0.0033524742 0.003000932 -0.001957489 0.002576992 -0.0031310185 0.0031171853 -0.004904694 -0.0013817117 0.0026540207 -0.0017174428 -0.0027629721 -0.0038298527 -0.0007020921 0.003366474 -0.001337611 0.0025839398 0.004618755 -0.0023378518 0.0019502566 -0.004569624 0.0041046636 -0.0013958006 0.0002272589 0.0008181769 0.0030137475 -0.0010518543 -0.0035577847 -0.0048203985 -0.0022436345 0.0048438683 -0.0034052627 -0.0043530054 0.0020613526 -0.0010010438 0.004660928 -0.0024948693 0.003440629 -0.0026793396 -0.001352329 0.0009746545 -0.0020189176 -0.0015638525 0.0013721832 -0.0030194863 0.0016158668 0.0016286944 0.0015691106 0.0050361883 -0.0045483205 0.003061525 -0.0037934913 0.004038482 0.0011853233 -0.00089536153 -0.004839457 0.0049345717 -0.0028520871 0.0042718146 0.001635504 -0.0031692656 0.002312034 -0.0032252932 0.0030774716 -0.0032056123 -0.00024878362 0.0016836803 -0.004102651 -0.0047734 0.0016771023 -0.0030144977 0.0020049098 -0.0027786056 0.0019498856 -0.00058169325 0.00087878306 0.002303288
是 -0.0037036 -0.0047108005 0.004566364 0.0028249244 -0.0046342793 -0.004387416 -0.00012286456 -0.0025340747 -0.0010408685 0.004929998 -0.0009900565 0.004294505 0.0030108185 0.0026441228 0.0036774338 0.0025060822 0.001304325 0.0034211595 -0.00033602028 0.0039032863 0.0017740652 0.0021176485 0.00021192676 0.0028970076 -0.0011281008 0.003018849 0.0021947522 0.0005645908 0.0018595149 -0.0041753007 0.00072334375 -0.0045001917 0.0018951207 0.0003547443 0.0002842801 -0.0028350193 0.001450376 0.0019429234 -0.0024840874 -0.0011004839 -0.003623436 -0.004098651 -0.0029529012 0.004807506 0.0005237572 -0.00031250837 -0.002662998 0.002634914 -0.004306198 0.004716978 -0.0009307176 -0.0036393767 0.0035174391 0.0017650567 -0.004107297 0.0013841548 0.0015720064 0.00428167 0.0032604588 -0.0046030674 0.0036241452 -0.004079427 0.0018732544 -0.0043163006 -0.0020050637 0.0032221144 0.004561837 -0.0047505223 -0.0039678235 0.0006286001 -0.003433347 0.0042905225 -0.001260382 0.0041939807 0.003932834 -0.004712645 -0.0026554589 0.0003724225 0.003006458 -0.00063114107 -0.0015016868 0.0032838592 -0.0024679655 -0.0047025755 -0.005047194 0.003973642 0.001975212 0.0027504063 -0.0020309482 -0.0040347446 0.0011235586 0.0041502593 -0.0013764054 -0.0027337405 -0.0026688026 0.002345902 -0.0037602338 0.0035405802 0.0012833036 0.0009926222
有 0.0018415053 -0.0039359606 -0.003125102 0.0028344535 0.0017842131 0.004515046 0.0020152393 0.0031206303 -0.0051151044 -0.0010820881 -0.00093267224 -0.0032051478 -0.0013739512 0.0025654512 -0.0023683198 0.0046924716 -0.005002031 -0.0032162818 -0.0025847699 -0.0038396516 -0.0018109023 0.004105938 -0.0035800175 -0.0013610119 -0.0004238339 0.0004965895 0.00028412679 -0.0038807783 0.0015078818 0.0006744946 -0.003942892 -4.1775744e-05 0.0049069165 -8.3843646e-05 -0.0033118231 0.0017834496 0.0030453217 -0.0024092621 0.00067828625 0.0020994914 -0.0028577766 0.0048848945 -0.0010590416 -0.0045239995 -0.002917311 -0.004918377 -0.00020803654 0.00088657223 0.004936659 -0.0011257185 0.0016334817 0.0020197346 -0.0037185831 0.0014869904 -0.0020421122 -0.0031036967 -0.004458474 -0.0050366824 -0.00031232336 0.003155102 0.001256045 0.004511703 0.0042440314 -0.0028285221 0.0035784922 -0.004759248 -0.004628782 0.002465021 0.0001697937 -0.00082002196 -0.0034192773 -0.00027699323 -0.003802395 0.0014918062 0.00405897 -0.0045643477 -0.00015349523 0.0028384516 -0.00020378367 -0.0008606718 -0.0043579363 0.0023833234 -0.0022060936 0.004808557 -0.0043507963 0.004104419 -0.0016668764 -0.0023841336 -0.0032250462 -0.0050774124 -0.0049650343 -0.002792361 -0.004622561 -0.002290636 0.0002684308 0.00020394128 0.0017353835 -2.249876e-05 -0.00021112271 -0.004133478
水 0.00086714706 0.0038898697 -0.004638555 -0.004202934 0.0021957513 0.00057888485 -0.0041440716 -0.0010472651 0.0046793795 0.0034385023 -0.0034902007 0.004237604 0.001446969 -0.0011270775 0.00033149807 0.0007023028 -0.0032373478 -0.0019001421 -0.001750526 2.7129807e-05 -0.0022904223 -0.00013109663 0.003713602 -0.004826474 -0.001254117 -0.0022126876 0.0015549979 0.002629639 0.0039134515 0.0001283423 0.0023559704 0.002267894 0.0039949715 0.001493721 0.003880511 -0.005030727 0.0023801306 0.0010244695 0.0009396829 -0.0041152947 0.0037310165 -0.0018890658 6.0175415e-05 -0.0023671563 -0.0048876037 0.004077285 0.0002025015 -0.0017165948 0.0009846037 0.00022867837 -0.00020743517 0.001739795 -0.0012084806 -0.0030805776 0.00027543854 -0.0016855102 0.0015827541 -0.0049807825 -0.0040053963 -0.0006120733 0.0010174476 0.0016906043 0.003856458 -0.003865938 -0.004005067 -0.00023137752 -0.004191462 -0.0030837404 0.004194796 -0.0044166017 -0.0041942177 -0.0028240227 0.002477629 0.0026797394 -0.00047085003 -0.0022800232 -0.0018947601 0.003186583 0.0037481296 0.0033878048 -0.0047506043 -0.001375062 0.0049675074 -0.0044900263 -0.003855579 -0.0006680332 -0.0002059376 0.003400072 0.0049827187 -0.0031188575 0.000881813 -0.0020146226 -0.0008892902 -0.0042042662 -0.0022450166 0.0041191382 0.004574102 -0.001387649 -0.0013469652 0.0020901759
不 -0.004842885 -0.001109365 0.0024315936 0.0018852941 -0.0049110097 -0.00463175 -0.00372167 0.0035248646 -0.0023425883 -0.0007988647 -0.0029306358 0.00030237366 0.0047651245 -0.003568894 -0.0016126985 0.0019729368 0.0005168103 -0.004540353 0.0026113421 -9.0738155e-05 0.003689874 -0.0014548815 0.001503433 -0.0028050249 -0.0005682952 -0.0013946922 -0.0007290441 -0.0031129334 0.0029287373 -0.002498451 -0.0020278932 0.004764595 0.0034499122 -0.00022690353 0.0033226719 -0.00022107095 0.004177897 0.0029587504 0.0021498771 -0.0031612527 -0.0025574933 -0.0010326112 -0.00055349345 -0.00038719893 -0.00035386183 -0.004103327 0.003977874 0.0018832689 0.0022974368 0.0037478288 -0.0043976386 -0.0030502032 0.0020467145 0.0013275156 -0.0013478318 0.0021878723 -0.0024944483 0.0042423625 -0.0038746444 0.0023292045 -0.0003734652 0.0040722555 -0.0043712906 -0.002593845 0.0041492577 0.0028103518 -0.002931613 0.0017356428 -0.0034887376 -0.0014204296 -0.0019767713 -0.004490315 0.0047552856 0.00316293 -0.00045482285 0.0031850748 -0.0013571836 0.0034487396 0.0033975923 0.0016356992 -0.000418567 -0.004290322 -0.0030506218 0.0010793963 -0.002871346 -0.0043036635 -0.0032887296 -0.00038929225 -0.002907356 -0.0012375978 0.00471788 -0.0014089204 -0.003965325 0.002827949 0.0035529644 -0.0018771491 0.00076216145 0.0014961624 -0.0018367405 -0.00047136622
我 0.0047690957 -0.00058877555 0.0031221297 -0.0024853772 0.003236535 -0.0033750935 -0.0010178334 0.0007181147 0.0044962824 -0.0041328724 0.0001803517 -0.00019570821 -0.0015417028 -0.0019819615 0.004365311 -0.0013144371 -0.0010630173 0.0046241176 0.0030429522 -0.00455903 0.003845655 0.00039190135 0.002201514 -0.001280675 -0.0017637253 -0.0030774258 0.00279262 -0.0026364215 -0.0047244816 0.0030718485 0.004510164 -0.0044232584 0.0037522656 0.0020638087 -0.004767207 -0.0010138375 0.0034227907 -0.001757422 -0.0015504445 -0.0010018438 0.0015706046 0.0021930651 -0.0021330183 -0.0039888304 -0.0025493482 0.0026487114 0.0035176303 0.0025769426 0.0012887213 0.0022360638 -0.002737854 0.0040620556 0.00487401 -0.0040130415 -0.0027064988 -0.001249617 -0.0031493541 -0.0015179325 0.0050329147 0.0024800238 0.00025320478 0.0035604145 -0.004313505 -0.004025456 -0.0044181785 0.0034151024 -0.001735776 -0.0017104308 -0.0033750604 0.0046586944 0.0011654536 -0.0037205706 0.00390731 -0.004832388 -0.0035393096 0.00067856826 -0.004293192 0.00080889463 -0.0008633259 0.0028975704 0.0020601894 8.096379e-05 -1.4585345e-06 -0.003578527 -0.0037925448 -0.0034244044 -0.0004820702 -0.0034336387 0.00047195822 0.00064103835 0.0016360616 -0.0003522114 -0.0045654024 -0.003488508 0.00018490132 -0.0014854863 -0.00082277396 0.0042788787 0.0019128941 0.004606053
月 0.0014202314 0.0008663754 -0.0033089085 0.0049180826 0.0047982954 0.0032642102 0.0046172123 -0.0014664507 0.0009802077 -0.0012444 0.0047224895 -0.0043815966 0.0013430355 0.001977354 0.004754283 0.0025163465 0.00079276337 -0.0028814028 0.00021930713 0.0002010784 0.0036106664 0.0024898623 -0.0023112828 -0.0011819401 -0.00041076497 0.0049063885 0.00010086129 -0.0032455327 0.0032991725 -0.0010460896 -0.0018194092 0.0019502111 -0.004034411 -0.0021994517 -0.0026875602 0.002502371 -0.0036022638 0.0024970411 0.004617299 -0.0008153422 -0.0009582754 0.0022515638 -0.0045301965 0.004650733 0.004677383 -0.0022049122 -0.001312893 -0.0002949426 0.00037273124 -0.00063453737 0.0020386677 -0.0049105715 -0.003111332 -0.00011014256 0.00076853024 -0.0017771277 -0.0016437101 0.002781731 0.0029938177 0.003150853 0.00013623238 -0.003339609 -0.0041127307 -0.0022180073 0.0045305626 -0.0024403199 0.0022361407 0.0039814906 0.0008393045 0.004169118 0.0014419953 -0.0012918165 0.0041183974 -0.003686931 -0.0007897377 0.0027463513 -0.004270722 -0.0025702 -0.0021624998 0.00203663 0.0030947812 -0.0006923542 0.0030336215 0.0037504993 -0.0017776645 8.803868e-05 0.0019780567 0.0043806625 -0.00057986134 -0.0031078486 0.0032153816 0.0040517184 0.0040343506 0.0010308853 -0.0038915137 0.0017899497 0.0018402135 0.0011138294 0.0034348916 -0.00451284
又 -0.0005572002 0.0028840776 0.0017865484 0.0026168034 0.0025652612 -0.0013344625 0.0005316412 -0.001778158 -0.004080686 -0.0014879236 0.0005043376 0.004147299 0.0020877596 -0.003332449 -0.00010761305 0.0003363658 0.0031308709 -0.0037699305 -0.002686005 -0.00091549585 0.002789353 -0.0036182438 0.0040265378 0.0008598099 0.0030630713 0.0029603646 -0.0041918075 0.0023526014 -0.0014672562 0.003055323 0.002209053 0.0003500053 0.0042149536 -0.0021748121 0.001532808 -0.0019947467 -0.0030727568 0.0021051448 -0.0013226953 -0.0026583779 -0.00031365055 0.00070935074 8.093832e-05 0.004786556 0.0040878924 -0.0027743482 -0.002000186 -0.003150148 0.0006475183 0.0027261137 -0.00500076 -0.0040780087 -0.0030481378 0.004395307 0.004874821 -0.003351187 0.004285877 0.0039157183 0.0032747397 -0.002775294 -0.0043354062 -0.0023765438 0.0032942845 -0.0022109768 0.0047133174 0.0032508466 -0.0039364225 0.0038149587 -0.0031571505 -0.003447434 -0.00071965624 -0.0016970304 0.0023657088 0.0022325453 0.0028341347 -0.00012952898 0.0020868871 0.0030000242 0.004388545 0.004187996 0.0046107117 -0.004928762 -0.0036818006 -0.00069428503 0.00039650575 -0.0042523067 -0.0020368248 0.0024472864 -3.9942788e-05 -0.0046416004 -0.003220779 0.0015957686 0.0015414556 -0.004174411 0.002366393 0.001723574 -0.004365976 -0.0013745697 -0.0009387414 -0.0009458952
医院 0.0020470587 -0.0031890708 0.004798478 -0.0029398012 -0.0048002317 -0.0007419992 -0.004141878 0.0012473208 0.0040426115 -0.0035459807 -0.0044829417 -0.0027416407 -0.0020717136 -0.0033269397 -0.0036924335 -0.004290342 0.0012267848 0.0029384568 0.003846183 0.003292325 -0.0014586075 0.003260441 -0.0046123634 0.000467822 0.0031886688 0.0025702743 -0.0013372025 -0.004175902 -0.003787446 0.003947837 0.0048117135 0.0028860637 -0.0031704733 0.00049651304 -0.003614703 -0.0012521031 0.00036305265 -0.0031413129 -0.0012327209 -0.0011343707 0.004873315 0.0009370376 -0.0028697024 -0.0018703196 0.004760313 0.0016500572 0.00025940413 -0.0037572328 -0.0020955612 -0.0013251364 -0.0023502551 -0.0024640004 -0.004676628 0.004392346 0.003450148 0.004150751 -0.0023106376 -0.0012095582 -0.0007327367 -0.0007565055 0.001367365 0.0018814724 0.0016512702 -0.0025182972 -0.00014704272 -0.0041295616 0.0028541824 -0.002812585 -0.0010028764 0.00018081027 0.0015042714 -0.0022067367 -0.00443756 0.0018903916 -0.004359927 0.0039885812 0.002320832 0.0010376321 0.0006558754 -0.0042769895 0.0015221502 0.0036573634 0.0013553697 0.0019226596 0.003858569 0.0012701036 0.0016446135 -0.0022572633 0.0047815247 -0.0020930434 0.0009911248 -0.0026027767 0.0006591483 -0.0024440119 -0.0045600478 -0.0015220968 -0.003122826 -0.0032078493 0.0029939984 -0.0034534917
也 0.0009771389 0.0031540086 -0.0003365751 -0.00455862 -0.0018568683 0.0021803095 -0.001235063 -0.00423012 0.002997441 0.00097412494 0.00495935 -0.0031757762 -0.0025034517 -0.0015028032 0.0029537037 0.001067175 -0.0013244948 0.0035852587 -0.0038117552 0.0034550976 -0.0023876943 0.0027080143 -0.0035703275 -0.0012116443 -0.0040963674 0.0036340219 0.0010396214 0.0015543778 -0.0020437385 0.0018380847 -0.0030780907 -0.002926645 0.0027403617 -0.0034117042 -0.004082749 -0.004845294 -0.0017504864 -0.002873671 -0.004474045 0.004379418 0.0049312357 0.0010744251 -0.0031882164 0.0032161877 0.0032988074 -0.0037050012 -0.0017241618 -0.00014692696 -0.003299756 -0.0024086756 -0.001715973 0.0023701699 -0.0027962432 -0.0017538513 0.003574233 0.0008582521 0.0020016802 -0.001106672 0.00143513 0.0037661537 -0.0006980532 0.0047891843 -0.004263556 0.0021232697 -0.00022305337 -0.003197854 0.0020886657 -0.003285475 -0.003368692 0.003552831 0.0048584635 0.00014239458 0.0010716566 -0.0022061288 0.0034726951 0.0026103712 -0.0034574044 -0.001882025 0.0009653204 0.0010824284 -0.00080291217 0.0017268559 -0.0033239722 -0.00499689 0.0008099046 -0.0005450414 0.0014506255 -0.0019464534 -0.00021318399 -0.0044471305 -0.004911178 -0.001943514 0.0045840056 -0.0034231588 0.0005734845 0.0030869516 -0.0023085736 -0.003752896 -0.004889254 -0.0047438387
什么 -0.0028241149 -0.0012822128 -0.0038594925 0.0014730146 0.004605086 -0.0026630745 -0.0026834456 0.0030758672 -0.004227236 0.0021039138 0.0017161169 0.0044954657 0.0017627156 0.00041967662 0.0032217477 0.0031109531 0.0037512009 0.0012548194 0.0038694385 -0.00057433057 -0.0016382913 -0.000120158074 0.0027241965 0.0017173293 0.0019781173 0.0049718353 -0.0032559568 0.0045870603 -0.00043291674 -0.00065749825 0.0040329425 0.001044095 -0.0036947837 -0.00025611886 0.0014729156 0.00077480555 0.002348842 -0.00067605486 -0.0022628875 -0.0046161227 0.0043000137 -0.0013405748 0.0040277382 6.994818e-05 -0.004792843 -0.0028644814 0.002064847 -0.0016750804 0.0046225507 0.004819632 -0.0035191705 0.003968343 -0.00010144727 -0.0031573304 -0.0034212265 -0.0023680332 -0.0029766082 -0.004093695 0.004166413 0.0035711527 -0.0011116012 -0.002969497 0.0012046146 -0.0015091765 0.0033354114 -0.0047811475 0.00022932907 -0.0010338607 0.004301362 -8.687311e-05 -0.003485078 -0.0036481672 -0.00212101 0.00357145 0.0033290521 0.00048804184 -0.0009829304 0.0036794327 -0.0005888403 -0.0038598615 -0.004902931 -0.004984683 -0.002224285 0.0020502587 0.0027918783 0.00076345145 -4.431577e-05 -0.00038601598 -0.0048970184 -0.00022673614 0.004241459 0.00013193135 0.0044901064 -0.0037362066 -0.002214924 -0.00028945846 0.0037266288 -0.0018579559 0.0036359292 -0.0022667027
咳嗽 -0.0041120383 -0.002221885 -0.0022390562 0.0012802368 -0.004181608 0.0047047916 0.0039748484 0.0016228373 0.0021767106 0.001321299 0.0011234998 -0.002106366 -0.003442323 -2.1398047e-05 0.0046181125 6.501112e-05 0.0031005477 0.0013137065 -0.0027767543 -0.0016176221 0.0042764344 -0.00267918 0.003583581 -0.0030912543 -0.0003038012 0.0005854792 0.0032595124 -0.0015880696 0.0046699247 0.0036362102 -0.0034089459 -0.0039035033 0.0047959713 0.004533298 -0.0018454369 -0.002970684 0.0029275336 0.0037147352 -0.002269822 9.460602e-05 -0.0035781413 0.003024171 0.0031619645 0.0022836914 0.0016463405 -0.0047766836 0.0045376252 -0.0015000575 0.0027250843 0.0047241235 -0.001259709 0.00030800368 -2.140477e-05 -6.892426e-05 0.0014447082 -0.004539952 0.0047502597 0.0011445637 -0.00082306634 0.0014800747 0.00082828273 -0.0008394031 -0.0041041146 -0.0025372093 -0.0037558377 0.00072898465 0.001013218 -0.0024637836 -0.0023285323 0.003104068 -0.0030035551 0.0016342591 0.0018208657 0.003925614 -0.0029613744 -0.00015637351 0.001598323 0.0014464278 -0.0028636195 0.00086942216 -0.0009633858 -0.0047915964 -0.00065542513 0.0015133377 0.0044992324 -0.0041481224 -0.00035010432 0.0022485685 0.004105184 0.0021745607 -0.004619254 0.0037532398 0.0005715353 -0.0019128135 0.0035928302 -0.00212746 -0.0027465888 0.0035991268 -0.0035419066 -0.0009571887
就 0.0027259034 0.002175845 -0.0038770149 -0.0029281133 -0.0045989575 0.003912068 -0.00090800156 -0.0019939428 -0.0029790262 0.0039991518 0.00012528151 4.0089475e-05 0.004037369 0.0038742744 -8.7186316e-05 0.00040955102 0.0012947717 0.0019683768 0.002249799 -0.0027223786 -0.00083734386 -0.004596482 -0.0038761282 -0.0036324493 -0.0025216118 -0.004711353 -0.0038041808 -0.0003016761 0.0044981516 -0.0018371302 -0.0032600188 0.0011855706 -0.0013797709 0.0008886365 0.0009376222 0.0014018079 0.001453894 0.0003793574 0.0035810792 0.00021696444 0.0048286044 -0.0013024267 -0.0015513076 0.0042845597 -0.0004973355 -0.0002050834 0.0034906322 -0.003191094 -0.003643057 0.0045794137 -0.0004702321 0.0003796165 0.0034037046 0.00026281786 0.003167649 -0.00010708293 -0.0034058075 -0.0013963088 -0.0018373223 0.0049106632 -0.0048822947 -0.0020348455 -0.0019204747 -0.0042797113 -0.00019997043 0.004474676 -0.0005571505 0.000869305 -0.004602589 -0.0025597983 -0.003541159 -0.0044720764 0.004811921 -0.0017139168 0.0021084591 0.0037474495 0.0033351257 -0.0026139736 0.0034035116 0.0032666249 -0.0007768798 0.0024552231 0.0047669522 -0.0036846038 -0.00056935777 0.0014227665 0.0040820953 0.0018966222 -0.0044830437 -0.0014742127 0.00045001946 -0.003599384 0.004154264 -0.0032556404 0.00048247774 -0.0026811005 0.00082089525 0.0032822874 -0.0045256717 0.002151903
发炎 0.0044833426 -0.0038316753 -0.0039039857 -0.002371614 0.0035486284 -0.001012994 -0.00090890215 -0.0048139235 0.001159177 -0.00036076928 -0.00081367313 -0.0009391623 0.0012044411 0.0016855769 0.004265887 0.0017935077 -0.0037154434 0.001644699 0.0037258908 -0.00458521 0.0024795723 -0.004730557 -0.0011937987 -0.0005519486 0.0037549098 0.0038098623 0.0040058475 0.0023404718 0.003872977 -0.0034592946 0.0032805472 -0.003006438 -0.0030814197 0.004792976 -0.0029592304 -0.0028673068 -0.0049567744 -0.0038818251 -0.00454571 -0.0045183627 -0.0012263155 0.0015048898 0.0020816047 0.004340961 -0.0023159494 -0.0043158866 -0.0023469336 -0.0007417714 -0.00025141862 0.0027843663 -0.003860453 0.0031571952 0.0028309645 -0.00325523 -0.0046324152 -0.001806362 -0.002388729 0.002883924 -0.0011221899 -0.0016734067 0.003766396 0.004988538 -0.0025334903 -0.0005454654 -0.00049921946 -0.0033382194 0.0035190939 0.00081055093 0.0022065446 -0.00074988336 -0.000469882 0.004710391 0.0009073449 -0.0012409495 -0.0038657004 -0.0020553546 0.004419753 0.0036257682 -0.00032084007 0.0041234717 0.0019261185 0.0034435007 -0.0046056667 -0.0039006777 0.000650618 -0.0048007076 -0.0012001249 -0.002646258 -0.0018436766 -0.0025709819 0.0029834497 -0.0009145024 0.00065756025 0.0007620109 -0.002634072 0.00040301908 -0.0043763225 0.0003188469 0.0029985209 -0.0010852078
要 -0.003722127 0.00043207206 -0.0002253655 -0.0016194538 -0.0025820844 0.0039425213 0.0007720849 -0.004075269 -0.0011032791 -0.0007909737 -0.00182375 -6.2138074e-06 0.0024409206 0.0011646595 -0.0035822233 0.0024363576 0.0022427326 -0.004388541 0.0037127796 -0.0028588783 -0.0018076084 0.0045127524 0.0030048543 0.0002728642 -0.0037977032 0.004711324 0.0026277367 -0.0035722302 0.00029107207 0.0012642744 -0.0039422614 -0.00056052004 -0.0017274473 0.0044592223 0.0012606449 -0.001476389 0.004792835 -0.0034511555 0.00339981 -0.0015634167 0.0049637207 -0.0012998095 0.0036242611 0.0012508883 0.0028853933 -0.0034588946 0.003677081 -0.00447973 -0.0047103898 0.004892705 0.0012385105 0.0029939646 0.002524333 0.003710006 0.002482174 -0.0006393736 0.0018074334 -0.0009923705 0.0044603245 -0.0024044816 -0.0020985617 0.0042189066 0.0030336338 0.0037056648 -0.001272932 0.0029545932 0.0027974793 0.0018299031 0.003399786 -0.0020885488 0.0048629036 0.0047298605 -0.003126862 -0.0022271893 0.00016802058 0.0034398392 0.0032088882 -0.0026498842 -0.001212856 -0.00059814815 -0.004221131 -0.0019225609 -0.0013651764 4.2420117e-05 0.0021434368 -0.0004455606 -0.00029118155 -0.0045512975 -0.0011878131 0.0036800315 0.0029076901 0.0043141465 -0.0015886329 0.0037544658 -0.004542392 0.004481779 -0.0028222522 0.000708749 -0.003291204 0.0031701687
儿科 0.004954433 -0.0044234768 0.0026951863 0.0001651193 -0.004550333 0.0044661355 -0.00019763899 0.0017699655 -0.0026660115 -0.00435651 0.0030263322 0.0048752474 0.0025042095 -0.0032543717 -0.0039283913 0.004540929 0.0021442103 -0.00029855137 0.002926937 0.002874109 -0.003809024 -0.002406616 0.0035321773 0.0030585278 -0.0035641184 0.0026114327 -6.579965e-05 -0.001446437 -0.0024666763 0.0019827054 -0.0006844716 0.003971056 0.00010709824 4.8529528e-05 -0.001834159 0.002107751 -0.0038451415 0.00052174303 -0.0010053046 0.001306456 0.0019636778 0.003613659 0.003070093 -0.002391393 0.0030421708 0.003291526 -0.001032493 -0.0007014326 0.0018256292 0.0008082071 0.002173327 -0.0031760104 -0.003403977 -0.0045982664 -0.003865766 0.0025259953 -0.004569771 -0.0047384067 -0.0037639814 -0.0033494518 -0.0010227109 0.00267965 0.0009354915 -0.0049919975 -0.0014580897 -0.0026707018 -0.0016182662 0.0003765294 0.001228428 -0.004437177 0.004949331 0.003025183 -0.0009914171 -0.00026232612 0.0029798832 0.0015526122 0.0034505296 0.0008813505 0.0044658347 -0.0009902369 -0.0031871619 -2.8853199e-06 -0.002677609 0.0038912015 0.004214562 -0.001271395 0.0025005145 0.00057664304 0.00042867434 -0.000820189 2.7063363e-05 -0.004044826 0.0011548807 -0.0011545568 0.0040138923 0.0034040546 0.0040826923 0.004444273 0.00360394 0.0017599034
看 -0.003329791 -0.0005895844 0.0030509208 0.00033915503 -0.0028002353 -0.00457136 -0.0016291895 -0.0037279814 -2.1791098e-05 0.0047474615 0.0012702169 0.0026544505 0.0023997393 0.000117440766 -0.0020164384 0.0039801733 0.0045903246 -0.00071180164 0.00011341966 0.0042184144 -0.0022435563 0.0023315828 0.0016410637 0.0014648732 0.0035488543 -0.0015318699 0.0021188287 -0.0030188092 0.0037533203 0.0044801524 0.002059144 -0.0026720627 -0.0019635274 0.003590394 0.003906697 0.004730195 0.0039742533 0.0020132088 0.0034402139 -0.0012425494 -0.0011761561 -0.003610982 -0.00012144962 0.00039486834 -0.0044197724 -0.00393881 0.0049945456 0.0023853127 0.004655377 0.0014800987 0.0039920923 0.00071555015 0.000909195 0.0021614037 6.993571e-05 -0.00049352134 -0.0010709788 0.0021521547 0.002750281 0.0037913423 -0.0045731463 -0.0030523886 -0.00252589 -0.003471168 -0.003826657 -0.0014334762 -0.0050479528 -0.004174932 -0.0016871083 0.0018585846 -0.0034368373 0.0035387075 -0.0019648718 0.0025608675 -0.001959542 -0.0045374795 0.0005885115 0.0010212915 9.846692e-05 5.3969503e-05 -0.0033990608 -0.004537237 0.0030336226 -0.0027905204 -0.004641497 -0.0009859288 0.0022317602 -0.0039579566 -0.0015682434 -0.0045220377 0.0043556145 -0.003386513 0.003702075 -0.002392428 0.0028593193 -0.0006828436 0.0048017367 0.0036284481 0.0041142763 -0.0031224114
需要 0.0014954772 0.0021432461 -0.0017551264 -0.0003066619 -0.0010152975 0.00059106667 0.004443067 0.00059574196 -0.0026222132 -0.0035222024 0.004545238 0.0005138573 0.0028192154 0.00026666644 0.0017904544 -0.0023822233 -0.0022285928 0.0034069018 -0.004085092 -0.0007105913 0.0017955526 0.00055313815 0.0022931572 0.0021697013 0.0011384849 0.0029593857 -0.004593761 0.0021948759 0.0025987504 -0.0038403005 -0.0028416004 -0.003915229 -0.004852799 0.004600224 0.0017723251 -0.0007510995 0.0015357633 0.0033763754 0.003193053 -0.0035470736 0.0008614544 -0.0033247569 -0.0005207399 -0.0017576012 -0.00027809534 0.0007873924 -0.00040192288 -0.0014871999 0.0024269274 -0.0023436418 -0.0049840617 -0.0014053794 -0.004766035 0.004128505 -0.003970745 0.00022763699 0.0031243819 0.00051504234 -0.0007142733 0.0019415189 0.00042690634 0.00441128 0.0010221711 0.004720597 0.00081270596 0.0049495706 -0.0025042582 -0.0004808738 -0.0022859615 0.003573751 -0.004769356 0.0050295033 -0.0015270774 -0.002172294 0.0009128075 0.00016747894 0.0039814687 0.00043690018 0.002352412 -0.0020509032 -0.00089570705 0.004154145 -0.0032929431 0.0027805527 0.00073577836 -0.004471638 -0.0047248364 -0.0045163245 -0.0013098055 0.0043250285 -0.0044993316 0.0036775325 -0.0017381081 0.0018380998 -0.0046905857 -0.00033059323 -0.003477718 -0.0022673106 -0.0040644757 0.00042957187
吃 0.0012626811 -0.0031490654 -0.00084154145 0.00059517013 -0.002270319 -0.003458207 0.00034909596 0.0027658415 -0.0017858978 0.0025098468 -0.0017720001 -0.0020012099 0.00018741225 -0.0007936126 0.0015815821 0.0020020017 -0.0044035446 0.0027097687 -0.0008906969 -0.0011914187 0.004609349 -0.0010382315 -0.00024523342 -0.0030602831 0.004702236 -0.0043605217 0.0011827196 0.004904418 -0.0024961014 0.00025594843 0.00073854835 0.004148987 -0.00014573558 0.0019673866 -0.0011492159 0.0038569951 0.003276849 0.002182324 0.0014461898 0.00030071958 0.0038805068 0.0032788783 -0.00051112083 -0.004393419 0.00046737 0.00083039305 -0.004344944 0.0022665502 -0.0003998232 0.003607339 0.0035771127 0.00072725065 0.0022204444 0.0008244862 0.0023142807 0.0027535504 0.0025113425 -0.002622237 0.00127911 -0.0012399304 0.004753646 0.001399955 0.0010407108 0.003222593 -0.0010853392 0.002440502 0.0009896895 -0.0043904698 0.00043854554 -0.004590765 -0.0031349182 0.0040825675 6.223009e-05 -0.003942448 0.004153153 0.0019742528 -0.0041052513 -0.0020152966 0.004591497 0.0005848949 0.0029418096 0.0048367805 -0.0035706484 -0.004813689 0.0031590753 0.004509988 -0.0005625879 0.0016519441 -0.0037623825 -0.0031494673 -0.0025366256 -0.0016664932 0.003089463 -0.0020108637 -0.0013030319 -0.0038268613 0.00024234314 -0.0030928513 0.0024028493 0.003902427
药 -0.0031345126 0.0026427468 0.0007578021 -0.0048938026 0.0042661196 -0.0019755475 0.0045354036 0.0024208014 -0.0045562475 -0.003770631 0.0030259707 -0.0032328148 0.0004300248 -0.00069274585 -0.002288825 0.0013808466 -0.0048299967 0.0037434672 0.002367344 -0.0041130437 -0.0032733488 -0.0025081234 0.0014282537 0.00025070008 -0.0010154078 -0.0007322005 -0.0014409004 0.0012732685 0.0041941926 -0.0025244253 0.002405297 0.0038830382 -0.0033043036 0.00035040124 0.0018185447 0.0043956465 0.0018393295 -0.0030779098 -0.0015406708 -0.001846101 -0.0022233818 0.0026330228 -0.0020230897 -0.0043213735 -0.0049688686 0.0044197994 -0.0042060264 0.0033184171 0.0044939243 0.0029148178 -0.0031739092 0.0010135679 -0.0008605859 0.0009725131 0.0008241754 0.0028970274 0.003283496 -0.00022902415 -6.6901055e-05 -0.0026090406 0.003755734 -0.004049035 0.00047922108 0.00066649646 -0.004756982 -0.0032146801 0.0043053236 0.0028693418 0.0044262805 7.920839e-05 0.004259027 -0.002200083 -0.000107274594 -0.0015044912 -0.003506552 0.0035816028 0.0011637732 0.0015752919 -0.0013582017 0.00023026376 0.001879353 -0.0009354907 0.0011035082 0.005005122 0.00060832745 -0.00039843444 -0.0033796048 0.0026706671 0.0021302307 0.0036218564 -0.0017664202 -0.0043396764 0.0025907657 -0.0008757108 -0.0012180913 0.0037936762 -0.001657851 -0.004911074 0.0038733752 -0.0024843237
孩子 0.0044295825 0.0010712036 -0.002887379 0.0019081829 -0.0020052383 0.00381492 0.0017397656 0.0023758905 0.00046081858 -2.6593152e-05 -0.00036476046 0.0031804855 0.003479947 0.0033869618 0.0029858241 -0.0011661772 -0.0039077285 0.0048539825 -0.004124773 0.0045067505 -0.00025161772 0.0016518926 0.0042338134 -0.0026521601 0.0004336913 -0.0012216865 0.0019725668 0.0018026275 0.0046762936 0.00010132598 -0.0047975667 -0.0020827777 0.00033497548 0.00011750758 -0.001532766 -0.001040596 0.0041904952 -0.004774998 -0.0020584464 0.0027344245 0.0020411909 -0.002732145 0.004790804 -0.0022384613 0.0014379725 0.0031772838 0.0032832138 0.0019469556 0.0013547033 -0.001767768 0.001257511 -0.0005412612 0.00446192 0.0030520412 -0.0011288474 0.004331447 -0.0024010222 0.0011151076 -0.0015705434 -0.003496013 0.00044741217 0.0035160307 -0.0004659627 -0.0033655379 0.0027209285 0.0005850929 0.0043481137 0.004330143 0.0036236262 -0.004276356 -0.004950588 0.00036009215 -0.00064192427 0.0012469908 -0.002635789 0.00028461666 -0.00063520466 0.0023590373 -0.0047763446 -0.003136592 -0.002762234 -0.0040906775 0.0015470679 -0.0008155634 -0.00038139953 -0.0047214613 0.0016954136 -0.0026115926 0.00018388129 -0.0003015928 0.0014575976 0.0038636492 -0.0042251954 0.00046354407 0.00013707331 -0.0011116591 0.0017978387 0.0018902803 3.937364e-05 -0.0002013342
在 -0.000591027 -0.0019176728 0.0012312931 0.0047543794 -0.00464215 -0.0019496061 -0.0038829693 -0.0025971495 -0.003949521 -0.004129024 0.004209742 0.0034750362 0.002436382 0.002936084 0.0018710485 0.004974816 0.0042031477 -0.0007479204 -0.003745431 -0.0032877028 -0.0023484929 0.0013824499 -0.0020896134 -0.0028501397 -7.502035e-05 0.004462835 -0.0010555135 0.0020494678 0.0035273694 0.004011226 -0.0020929547 -0.00482393 0.003891906 0.003444169 -0.0004500199 0.000792128 -0.0016628712 -0.0022865809 0.0025340512 -0.002802315 -0.0010079889 0.0026358399 -0.0025415702 -0.003047003 0.004594208 -0.0036511882 0.0015886646 0.001822339 0.0031101073 -0.0013749264 -0.0018759134 0.0041494183 -0.00015853118 0.0023688395 0.0029936177 -0.00050141464 0.003993757 0.0028857435 -0.0018333729 0.0027820186 -0.0005902279 -0.004616465 -0.00065369974 -0.003013689 -0.002397939 -0.004336529 8.4017396e-05 -0.0027998637 -0.003832626 -0.00066942384 0.0038557225 -0.0022488886 -0.0019731692 -0.0015591717 -0.0010691716 0.001716999 0.00080511736 0.001622079 -0.0022947288 -0.004867351 -0.004436756 0.003983114 -0.0020980092 -0.0017614507 -0.0012988143 -0.0015688082 -0.0036758273 -0.0042589 0.0015112364 0.0048767934 -0.0021509165 0.003663662 0.0038260343 0.0039719213 -0.0026063637 -0.002494017 0.0046375445 0.0040346617 -0.002245681 -0.004895742
检查 0.0034456505 -0.004239058 -0.0002759737 0.004063654 0.0028453334 0.0019153837 -0.0036027187 0.0031181404 -0.0030921136 -0.00085567037 0.0035218636 0.0032569584 -0.0015356459 0.0005261548 0.0015707867 -0.002358187 -0.0038192442 0.004537527 -0.0025686256 -0.0022749044 0.003842341 3.7933387e-05 -0.0030406513 -0.0014192689 0.003074459 -0.0047669904 0.004920288 0.0004530761 -0.0019750341 0.00449805 -0.0023511585 0.0017413812 0.003457639 0.0013090742 -0.00062430464 -0.00035840203 -0.003800526 0.00359372 -0.0019544833 0.0044845673 0.0042933594 0.002939258 0.001895951 -0.0007558128 -0.0022955316 -0.005044073 0.0006350295 -0.0011489752 0.0018394554 0.0034098055 -0.0025391704 -0.0046255155 0.002320357 -0.0047966926 -0.0042262967 0.0023271577 0.0033025497 -0.00047363775 0.00063143007 -0.004533213 -0.0037653735 0.004396619 0.0025364447 -0.00042974352 0.004711185 -0.0034652948 -0.0040285955 0.003850947 0.0031184177 -0.0017073223 -0.00035988668 -0.0024559952 0.0050032614 0.00449238 0.00052220316 0.0034017898 0.0038325214 0.0023341472 0.0015399359 0.0014143338 -0.0025108352 0.0007435186 -0.0011624187 -0.004487944 -0.00318749 0.0034911067 -0.0027151085 0.0024069902 -0.0013822966 0.0027308771 0.0007492741 -0.0037419475 0.0032798718 0.0016905708 -0.00055345515 0.001939883 0.0044189007 -0.0029839005 -0.0032329913 0.0038066513
现在 0.0039677685 -0.0019089244 -0.0022680575 -0.0018257655 -0.0016541302 0.00030453427 0.0026407856 0.004570978 0.001633291 0.00092225027 0.00050012517 0.00188889 -0.0045608785 0.0039065364 -0.0028933943 -0.0016956412 0.0026701458 0.0039884173 -0.00045826117 -0.004371418 -0.0037763077 -0.004275451 0.0019022502 0.0005293032 -0.0034155496 0.0005127409 -0.0019573236 0.0035624155 0.004354196 -0.00068809796 -0.0026738893 -0.0026146646 8.0640166e-05 0.0002389013 0.0031661892 -0.0022181538 0.0003841296 0.003866148 0.004527827 -0.0017747111 -0.00082983024 0.0021166424 0.0039672754 0.0021786985 3.5021058e-05 -0.00046943408 0.0011366627 0.0016438947 0.004963341 0.0031707839 0.00096368854 -0.004085042 -0.004529757 0.0021952956 -0.00023846835 -0.0017824881 -0.0015792613 0.004946456 0.005060613 0.0010077319 -0.003704343 -0.00083701283 0.0030842905 0.0010066179 -0.0014232504 -0.0044769174 0.0015051574 0.0030784274 0.0025774029 -0.0026492602 0.0042528016 0.0012533332 0.0041503357 0.004637959 -0.0037147335 -0.00032660287 0.0036843126 -0.004509979 0.0018112623 -0.00029104596 -1.8775365e-06 0.002379173 -0.0017924584 0.0033895292 -0.0045792344 -0.00429714 -0.0037881704 0.005011927 0.00032653287 0.0030335626 -0.0009059117 -0.0016017567 0.00019546396 0.0036455668 -0.0048442595 0.00068882725 0.0026158371 -0.0041765994 0.00086931547 0.00023026133
问题 0.0012168417 -0.0038357445 -0.0027792917 0.0040642144 -0.0014861884 -0.00034927306 0.0020462861 0.0044619893 0.003424429 -0.00085073715 -0.0045858175 -9.6792086e-05 -0.0026832698 -0.002830516 0.0036321415 -0.0036550746 0.0010211782 0.0043141795 -0.0038114667 -0.0027051875 -0.0009884486 -0.0032223593 -0.0036157868 -0.0017487336 -0.0015454717 -0.00067162816 -0.0015641365 -0.0016835354 -0.0032400906 -0.00092667155 0.0046528396 -0.004934132 0.00020511023 0.00090857875 -0.0006498561 0.00029614053 -0.0031609721 0.0020996884 -0.0026000708 -0.0006594911 -0.00032099162 -0.0017973436 -0.0018130796 -0.0008325817 -0.002721931 -0.00018587706 -0.0008287158 0.0010965172 -0.00017695791 -0.00093585113 -0.0028776652 -0.0020218038 -0.0027264336 -0.0010375433 0.004073165 -0.0020294192 0.0022015788 0.0016387266 0.0008939923 0.0011748793 0.0029771037 -0.000775586 -0.0002461032 -0.0004037202 0.0024567568 0.0020282208 -0.0017816471 0.0019129021 -0.0020681457 -0.0017418772 -0.0005414806 -0.0015979592 0.000350664 -0.0025814539 0.0025071865 -0.004434952 0.0015409365 0.0009626909 0.004130556 -0.0035135953 -0.0038714516 -0.0012226276 0.0047924407 0.0017938387 -0.0046552676 0.002891041 0.0032312688 -0.0027645838 -0.0015671843 9.931378e-05 0.004819226 0.0046113515 0.003682723 -0.000377683 0.0005868052 -0.0038957703 0.0035851542 -0.0023936501 0.0015601965 0.00015760807
严重 -0.004823661 -0.00016100453 -0.0011347826 0.0025650572 0.0036459046 0.0022333385 0.001416425 0.0007262269 0.004901604 0.0014307895 -0.0014680078 -0.004066541 0.0005650858 -0.0047939876 -0.0004089201 0.0050146226 -0.0038401315 0.0019879427 0.0030398984 0.0003472797 0.0023112413 -0.004327355 0.0015161599 0.0050037317 0.001296885 -0.00046079673 0.00443874 -0.0019373085 -0.0011411618 0.0028118826 -0.0019735722 -0.0041538365 -0.0024455918 0.0026105857 -0.0027075363 -0.0028806257 -0.00459855 -0.0020547225 0.0024965082 0.0018612205 -0.0030469045 -0.002987556 0.00037968397 0.0010816415 -0.0014746911 0.0006055881 0.00069590646 0.00017738383 -0.0049755997 0.0024466875 -0.0030176325 -0.0030738432 -0.0029178779 -0.0026697149 -0.0021409262 -0.002538458 -0.0017892541 -0.0021427055 0.00013159601 -0.0018821167 0.0041704946 -0.00475133 -0.0005974556 0.0016871723 -0.0031034925 0.004806069 -0.0042337286 0.0041934145 -0.0023565672 -0.00027356148 0.003402506 0.0013984451 -0.00480372 0.0006555339 -0.0021079516 -0.0033496853 -0.0035161374 -0.0036645667 -0.002495634 0.0011042636 -0.00084015884 0.004984457 0.002457791 -0.0006481371 0.0009824018 0.0013517382 -0.002025739 -0.0023469974 -0.0011215613 -0.0034498693 -0.0013229069 -0.0016351471 0.0043254476 -0.00051774835 -0.002856764 0.0038824396 0.002396472 -0.0044219117 -0.0037078834 0.0004932273
科 0.0019907602 0.00066239166 -0.0004923818 0.002137841 0.0010754542 0.0007897143 0.0046789306 0.0039517274 -0.0010265298 0.004852269 0.0043178825 0.0047264323 1.7942304e-05 0.002474036 0.0005812436 0.0048916438 0.0039934963 0.004103654 0.0025329127 -0.0016781968 -0.0017326034 0.00452994 0.0024947156 7.126284e-05 0.0040331883 -0.0037759726 0.004993791 -0.0022152578 0.0027320997 -0.002883226 -0.0013069552 -0.0024857468 -0.0006900601 0.0043957317 0.00024518577 -0.0037869583 -0.0037485939 -0.00093697535 -0.0035313603 -0.0042976313 0.0011092427 0.0047215074 -0.0013895138 -0.0040411754 0.0024425176 -0.00020356703 0.0013801942 -0.0026790926 -0.0005903575 0.0006269381 0.002125653 -0.00055381644 -0.0013465729 -0.004489437 -0.0017481238 0.0046944288 0.00013760447 -0.0031537607 -0.0035744011 0.0010028947 -0.0010058916 0.0045486023 -0.0023977607 -0.0009205002 -0.0009730642 -0.001886693 0.00030203146 0.00045207032 0.0024966416 0.0027618574 -0.00068355334 0.0021293852 0.0030425417 -0.0036116191 0.0042698174 -0.002835687 0.0019535813 0.0022985656 0.0030127405 0.0020146822 -0.002458532 -0.004282865 0.002555684 -0.0034103917 -0.0044715577 0.0036260048 -0.0046715974 -0.002630712 -0.004030149 -0.0022203024 0.0040791533 0.0042157974 0.0030094464 -0.0045582424 -0.0011775376 0.0040276656 1.648265e-05 0.0030264733 0.0008862835 0.004604404
开始 -0.0011416189 -0.0025469393 0.0032182748 0.0018812655 -0.004532263 0.0048243674 0.0024372076 -0.0026549732 -0.0019159948 0.0012091227 -0.0014658623 0.0025155384 -0.00021997961 -0.0010621429 0.0017897312 -0.0027973242 0.0043691644 0.0019077066 0.0012870713 -0.002175943 0.00091911864 0.002503965 -0.0046993494 0.0025280819 0.0007975222 -0.0017575071 0.0026220651 -0.0030482358 -0.0040388387 -0.00070444256 -0.0027834817 0.0009454456 -0.0007093191 -0.0017367405 0.0029654927 -0.000631383 -0.0013826161 0.0046299356 0.00230969 0.0013707471 0.0018646767 0.0006191498 -0.0034799345 -0.0019562473 -0.0020537511 -0.0019910473 0.0050069024 0.0046407916 0.0032845559 0.0043110466 0.0020365512 0.0028355045 -0.0015021513 -0.0043342747 0.004359252 -0.0033428096 0.0049224864 -0.0008185222 -0.00393794 -0.003973106 -0.001065678 0.00029965412 -0.0012128964 -0.0026978406 -0.0023858713 -0.00094136334 -0.0018773559 -0.00051681104 0.0017216183 -0.0037897038 0.004508022 0.001389482 0.0047843023 0.0024020427 0.001976447 -0.0019054579 0.0032511994 0.0023237644 -0.0039769583 0.0033371095 -0.0041453685 -0.0035927668 0.0042764917 0.00168706 0.0017350046 -0.0005964644 -0.004820088 -0.0031735792 -0.00090130797 0.0045970976 0.00058534526 -0.0036034551 0.004616129 0.002270321 -0.0015934004 -0.004978733 -0.0037470683 0.0023570817 0.002649226 -0.0041672937
吐 0.0041615968 0.0040777614 -0.00079891004 0.0015835029 6.769838e-05 -0.0021784683 -0.0024116016 -0.003914007 0.00012230761 0.0017344407 -0.0006309587 0.0030180092 -0.0022400788 0.00016973254 -0.0047524725 0.0043545384 0.0002722083 -0.002688979 -0.004314888 0.0037456783 0.0010545447 0.00042178392 0.00012890091 -0.0022816984 0.001736465 -0.002539431 0.0010750582 0.0042775734 -0.0038174663 -0.0027431198 -0.0010328994 -0.0049992516 -0.003943978 -0.0032631715 0.0034058662 0.0013816232 -0.0026356652 0.00051292876 0.0022879846 0.004485327 0.0007185743 -0.0041669677 -0.0046497625 -0.003896255 0.0015456987 -0.004286174 0.0017676477 -0.0036332046 -0.0037838724 0.00024841592 0.0041509382 -0.0008182608 -0.0020445506 -0.0033674715 -0.0045608394 0.00048210562 0.00060786895 -0.0033785948 0.0009498556 -0.0038706064 0.0029854025 0.0048755044 -0.00013016109 0.0014458837 -0.0036212236 0.0009526237 0.0045785555 -0.0013725037 0.0016859593 -0.0038184382 -0.0011996771 -0.00069394294 -0.004594852 0.0022188646 0.0002848552 0.001378132 -0.0018739488 0.0019362295 0.0004003995 0.0027161164 0.0034187776 0.0014822545 0.0010697924 0.0029223054 0.0024715653 0.0018347375 -0.00017398846 -0.0008446793 0.002234408 -0.0029805172 -0.0033049416 0.0037053742 0.0014359875 7.335994e-05 -0.004832663 -0.0001702866 0.001381423 -0.0032006996 -0.0038981014 0.0042276923
验血 -0.004443552 -0.0009555496 -0.0015565674 -0.0027161539 0.0036970486 0.0012216128 -0.00077319663 0.001370048 0.0042553465 -0.0039967434 -0.0010253116 0.0010516791 0.004181815 -0.0019059827 0.0007589375 -0.0037287937 -0.0018845784 -0.002070127 -0.004809545 0.0046349796 0.0020163583 0.0020216051 -0.0041751214 -0.0009457505 0.003659802 0.0010821716 -0.0022187459 -0.0032675238 0.003446688 0.0042701615 -0.00096496986 0.004673811 0.00444739 0.0041079116 0.000887327 -0.0029618647 0.0021093795 0.0017630401 -0.0029029 -0.0048197843 0.0015798018 -0.0012142952 0.0015160727 -0.0029791822 0.0018640897 -0.000851684 -0.00012720865 -0.0019864156 -0.0019074392 0.0032143048 0.0047601317 0.0048403116 -0.0032274327 0.0031982006 -0.0024411606 0.0039452934 -0.0021296812 0.002010094 0.00023352451 -0.002078546 -0.0012875346 0.00071306113 -0.00012819753 -0.0044284146 0.0047286847 -0.0044535184 0.00045435983 0.00027224043 0.0019647968 0.0009960735 0.0029904654 -0.00091449596 -0.0019325839 -0.0023481995 0.0016765044 -0.001622731 0.004432063 0.00032290563 -0.004565568 0.0014115007 0.0045296615 0.0039653643 0.0043669785 -6.1104955e-05 0.0014528753 -0.004508358 -0.0007583157 0.0039305394 0.0008779573 0.0008828798 -0.004782065 0.0005491879 -0.004476935 0.0048541576 0.004437032 -0.00090446 0.0018860629 -0.0036633757 -0.00054771797 0.004050488
后 0.0022948596 -0.001058136 0.0032633026 -0.0023637542 -4.2108935e-05 0.0035746782 0.0050001917 -0.0047797123 -0.0018094514 0.0044783046 -0.004663471 0.00092365313 0.004369957 0.0021270337 -0.0012440945 -0.00082317204 -0.004213237 -0.00079156365 -0.0035860972 0.0035747965 0.0016391517 -0.0013384335 0.0026530505 -0.0035504466 -0.0024281642 0.0012672909 -0.0011053302 0.0026560496 0.004400443 -0.0023415177 -0.0037432555 -0.0028295354 -0.0013851617 0.0009607919 -0.00018026357 0.0021520038 0.000635187 -0.0027344807 0.0043469407 0.0014841739 0.0031531854 -0.0025282593 -0.0031164484 -0.0045544165 -0.00087333523 0.0036558448 0.0048882687 0.00017955087 -0.0014243311 0.0025317671 -0.004534987 0.0008561361 0.004600954 -0.0033439244 0.00061923603 0.0028400354 0.0005213918 0.0031426477 -0.00067806477 -0.00053729606 0.00063310436 0.0013799624 0.0011653258 0.0008873327 -0.0017590385 -0.0031005547 -0.0033089034 -0.0042997603 -0.002606889 -0.0044367802 -0.0013343118 -0.0013199032 0.0029000754 -0.0044291047 -0.0028900087 -0.004586521 -0.0035534045 -0.003417825 0.0012463438 0.00033594365 0.00095703837 0.0047653187 0.0027902 0.0022615558 -0.0035128973 0.00076085853 8.8673405e-06 0.004671707 -0.0043336423 0.002859401 -0.0014810164 -0.0015193187 0.0030903097 -0.004729223 0.003774474 -0.00251631 0.0006118563 -0.004864064 -0.0025857484 0.0041210437
都 -0.0028776182 0.0014334323 -0.003424607 0.0015310618 0.004180431 0.0022934743 -0.0048386734 -0.0014404951 0.00346385 0.0038884145 -0.003326113 -0.0033531433 0.0018556608 -0.0045046336 -0.0012838165 -0.0007966713 -0.0010607636 -3.8887665e-06 0.0045285006 0.002949037 -0.00077000016 -0.004063467 -0.0014092483 0.0022309653 -0.0005203419 0.0014049282 -0.00010733104 0.0024131627 0.00456425 0.002918045 0.0048334952 0.0036043008 0.0030717216 -0.0045402613 0.0046935943 0.0037608142 0.0046779043 -0.0010708517 -0.0009947085 0.001171569 0.004886543 0.0018506475 0.0048605367 0.0022543457 0.0044725183 0.004724943 0.00089961605 -0.0032498892 0.0006274974 0.004728317 -0.0018114719 -0.0032575454 -0.0049165506 0.00214341 -0.0048967237 -0.000544146 -0.00070792704 0.0013186652 -0.0043296795 0.0028784052 0.0013475552 -0.00036654348 -0.0045488263 0.0031902452 -0.0026089172 0.0040412704 0.0009922255 -0.003823868 0.00324391 -0.0026079167 -0.0047047683 0.0042755525 -0.0017561158 0.0021453507 -0.00046893337 -0.0007308225 -0.002398322 -0.00298249 -0.0013420493 -0.003727614 -0.0033108508 0.0013210347 0.0010117334 -0.0015404003 -0.003557376 0.0012896396 -0.0033267448 0.004443575 0.0019361937 0.0015880014 -0.0031751199 0.0038857036 -0.0011462963 0.0018563806 0.0007544578 -0.0031045685 0.00010724081 -0.0017260382 -0.0026405393 -0.0021760853
吗 0.00042135798 0.004279804 -0.0010520497 0.0030085281 0.0027117922 0.0023198365 0.00235866 -0.0004290722 -0.00043522418 -0.00012591282 0.0040829466 0.0028831956 -0.0012219849 -0.0038450034 -0.002419607 -0.0041885595 -0.003819377 -0.0031808258 0.004878016 -0.0025448746 -0.0037889197 -0.0002379293 0.001365667 -0.0019812402 0.0027088374 -0.0005248352 0.0033656573 -0.0027476964 0.002727569 -0.002739578 0.0048058997 -0.0012802737 -0.0037035432 -0.0035812156 0.0034220803 0.0003185875 -0.004090019 -0.002678531 -0.0029821992 0.0014052927 0.0019074619 -0.004527344 0.0030115303 -0.0019154854 -0.0027871933 0.0019981277 0.0037831685 0.0042310483 0.0013678428 -0.0027744528 0.0009227801 0.00029258765 -0.004856188 0.002863594 0.0040912507 -0.0044593057 0.001605856 -0.0006086613 0.0013479332 -0.00029499448 -0.0014981893 0.0049601244 -0.0048642596 0.00161976 0.0033975656 -0.003305879 -0.00253953 -0.00043040517 -0.0038328643 -8.773653e-05 -0.0008249605 0.0003426948 -0.0033713488 0.001614994 -0.002419176 -0.00036026983 0.00017847252 0.0015979811 -0.003673081 -0.0042834235 -0.00465632 0.00080304337 0.0037237336 0.00169937 -0.0041620964 0.0034219397 0.0037966275 0.004154195 -0.0011557661 0.0036533554 -0.0049860235 -0.0031357382 0.002781462 -0.0016526766 -0.0030360892 0.00471753 -0.0049892967 0.0011584908 -0.00016608895 -0.00474586
说 -0.0035245393 -0.0011319037 -0.0019201061 0.0034180228 -0.00057144597 -0.0016926875 0.004538322 0.0013624196 -0.0015115475 0.0028053166 0.0019481678 -0.002481745 -0.00014379201 0.003217667 -0.0017681358 -0.0007542088 -0.0043319273 -0.004327934 0.004087216 0.0036980845 0.00025121373 -0.0035493285 -0.00394244 0.002450018 0.00071351364 0.0020156214 0.0045419526 0.0031862129 0.0016689296 -0.0006514738 -0.0010823952 0.0030070643 0.0006224213 0.0049745683 -0.0015849599 -0.0026466225 -0.0031553297 0.00281979 -0.0026585846 0.0035623147 0.00066947093 -0.0025198068 -0.0032301075 -0.00018164176 0.0031960579 -0.0002833912 -0.0013348906 -0.0037868728 -0.0047602947 0.003455847 -0.0020506089 0.004738765 -0.0015969016 -0.003144512 -2.1039092e-05 -0.004739304 -0.0019603998 0.0025450804 -5.944688e-05 -0.0048248707 -0.0022912154 -0.003508693 -0.0010032867 0.0045709345 0.0005617147 -0.00068316556 -0.0035284443 -0.0032753963 -0.0042976327 0.0023323046 0.0007240591 -0.0023424178 -0.0035107753 0.0031586797 0.00133292 -0.0006700862 -0.0017740518 0.0048586577 0.0025517612 -0.0014616428 0.0042475327 0.0026569173 0.0037313337 -0.0026088196 -0.001030143 0.0029533922 0.0022485862 -0.0018725334 0.0020864261 0.004922888 -0.0032184827 -1.702044e-05 0.0016900306 0.0024659098 -0.001140225 -0.0035068288 0.00012296157 0.004372273 -0.004173013 0.00041772742
出来 -0.0043603 0.00082750584 -0.003354897 -0.004975864 -0.004707956 0.004707187 -0.0026219196 -0.0007560917 0.000359235 0.0047685555 0.0021745802 -0.004101485 0.003967161 0.0047212886 0.003124259 0.00020246582 0.004501322 -0.002676185 -0.0030324413 0.0034471108 0.0010270039 -0.0046071755 6.96562e-05 -0.0011117927 -0.00091157947 0.0015160087 -0.0017833324 0.0022425249 -0.0030955467 0.0010882941 -0.0016036606 -0.0041070003 0.0023287165 -0.0037473668 -0.0038093706 -0.0039071715 -0.003682876 -0.0011818894 -0.0041222544 -0.0033420136 0.002539217 0.0006874911 0.0011156695 0.0045934357 -0.0033307665 -0.0001984423 0.0029247783 -0.00419937 -0.004091161 0.004896969 0.0019032934 -0.0023829623 0.0037605292 0.0038692763 0.0019236677 0.0043194466 -0.0049609356 -0.0047082235 -0.0044726264 -0.0042053643 -0.0034661978 -0.0023511352 -0.0011778004 -0.001326767 0.0048156315 0.0010197762 0.00021798078 0.0040674787 -0.001140833 0.0029394198 -0.0017709048 -0.0038616378 0.0026491657 -0.002261489 -0.0010292737 0.002437436 0.0020768559 0.004767205 -6.1005874e-05 -0.0037698734 -0.0049814754 -0.0004316936 0.0037562945 0.00097351486 -0.0042330204 0.003084938 -0.0021136717 -0.0019494245 0.00028155747 -0.0038063955 0.0009058612 -0.0035371257 0.0039364453 -0.004628803 -0.00020143809 -0.004036505 0.0018372573 -5.4628697e-05 -0.0030336229 0.00019790132
因为 -0.004358234 -0.002215868 -0.003945653 0.0012290577 -0.004770005 -0.0024565049 0.0011570646 0.0031509805 -0.002600624 -0.0017471975 -0.004975274 0.00074731605 -0.004263162 -0.003973082 -0.0030678022 0.0029599816 -0.0026079838 0.0019256177 -0.003608195 -0.0022921255 0.00073701254 0.0014643506 -0.0012360204 -0.00090843707 -0.0029349292 0.004594675 0.0020479618 0.00077540166 -0.004211366 -0.0030988152 -0.001444744 0.0004123969 -0.002126743 0.0048777577 -0.001701595 0.0018457992 0.001335333 -0.0046770335 0.0046076225 0.004800363 -0.0024394488 -0.004461101 -0.0026422858 0.0029322638 0.0043488564 -0.0013255163 -0.0035692614 0.0044974885 0.0038183604 0.003261235 0.0033762283 -0.00049490266 0.0020173704 0.0043840585 0.0025955993 -0.0014217852 0.0017072597 -0.0031298965 -0.0015847615 -0.0015821861 -0.0011368018 0.0032158305 -0.0048500597 0.0029725533 0.0028579694 -0.004994791 0.0033529971 0.004069857 0.0042111776 0.0017488158 0.0036666815 -0.0012380172 0.0031996442 0.004447569 -0.0024208834 0.0019540007 -0.0046687657 0.004372668 -0.0037564666 -0.0006215584 -0.0040796055 0.0020298623 0.0038497578 -0.0026647248 0.0001470978 -0.0015627645 -0.0020476556 0.0048085144 -0.0045253863 0.0034107568 -0.002874967 -0.0016655375 0.002049891 0.0020589798 0.0030250046 0.0023026501 -0.004361038 0.0007768216 -0.0031767306 -0.0019007607
请问 0.002098491 0.003268756 0.0015306751 0.0010621226 0.0047787414 -0.003927456 0.0013601772 0.0007248786 0.0032000314 0.00025814012 0.0033443114 -0.0027267714 -0.0047397874 0.0035079173 0.0034038068 0.00493829 0.0043723583 -0.0010280244 -0.0003363484 0.0021657497 -0.0049617635 -0.004667916 0.0020669422 0.0006651691 0.00050775 -8.648449e-05 0.004944326 -0.00019569937 0.0014178089 4.8747803e-05 0.0047841165 0.0020681317 -0.0028070514 -0.004299874 0.00286671 0.0026649158 -0.0049196235 0.0046156007 0.0012547898 -0.0037265196 -0.004247468 -0.00046800962 0.004523071 -0.0029468767 0.0043008453 -0.0032124599 0.004677257 -0.004586953 -0.0032339308 0.0037691523 0.0034420409 0.002460603 0.0031458132 0.0033508427 0.0014039415 -0.0011311844 0.0048566293 0.00013034265 -4.8553597e-05 -0.00089284976 0.00056523434 -0.000745503 -0.0043122848 -0.0029051052 0.0011751266 0.0024306227 0.0022600468 0.00419145 -0.0027261246 0.004195661 -0.0006166921 -0.00048210865 0.0013207708 0.0024200398 -0.0018879357 -0.0008192543 0.0002880764 0.0016905862 -0.0039993166 -0.00025351674 -0.004732132 -0.003047448 0.0012172372 -0.003091004 0.004837549 -0.0045702728 0.004134861 -0.0033046096 0.004158039 -0.0049756933 0.0019396234 -0.003943394 -0.0018784273 -2.8267017e-05 -0.0016745547 -0.0025471824 -0.0010888263 -0.0019046222 -0.0027706507 -0.0041214954
这种 -0.004661911 -0.0013460293 0.0010429996 -0.002935526 -0.0040282006 0.0017732393 0.00029344315 0.0012716606 0.0018449292 0.00040788742 -0.0030789846 -0.0025114852 0.0035623035 -0.0014114027 0.0029468115 -0.00012713594 -0.0045598834 0.0026524877 0.0031775949 0.00041571085 -0.0022710548 0.0028188506 -0.0013820371 -0.0011987617 0.0024410053 0.0021130557 0.0033733964 0.0003369485 0.0019148011 0.0029225163 -0.002012308 0.0041219145 0.0040723956 -0.0042576734 0.00200647 -0.0050269533 0.0029373367 0.0029660168 -0.00068020663 -0.00024246657 -0.0041880915 -0.0019530056 -0.0033269736 0.0029628216 -0.003098314 -0.004221744 0.0024618022 -0.0014996544 0.00054249796 -0.003985403 0.0031510533 -0.004537304 0.0019830116 -0.0036229251 -0.004037157 6.3552085e-05 0.0015729069 0.0044299783 0.0006826244 -0.0025880896 -0.002991267 0.0033868274 0.001236497 -0.0007832693 -0.002749036 0.004296442 0.0027290792 -0.0013358936 -0.00032425494 -0.0044621434 -0.0023261402 0.00076447084 0.005004419 0.0038622876 0.00044389642 -0.000654622 -0.0014933174 0.0019849916 -0.0019442856 -0.0021938398 -0.0036904379 -0.0024825616 0.0009507657 -0.0030170903 -0.004313647 0.0014835179 0.0031660395 -0.0046595763 0.0016201279 -0.0013555152 -0.0025689725 -0.0003486314 0.00429746 0.004673615 -0.002811846 -0.0005465746 0.0024450936 -0.00062766264 0.0045764814 -0.0045398376
情况 0.0009558542 -0.0008860639 -0.0018290236 -0.0017458944 0.0031473474 0.004741838 -0.0025290784 0.0028691564 0.003036293 -0.0026207152 -0.0018756259 -0.0018183523 -0.0017593544 -0.0033248046 0.0028803705 0.0039065084 0.0003276748 -0.004509617 -0.0016009868 0.0034344029 0.00022986627 -0.0004917699 -0.0011536996 0.003484139 0.004239878 -0.0034929097 -0.004328797 0.0033193377 0.0018033118 -0.003196618 0.000318687 -0.0032695753 -0.0025604689 0.0003118857 -0.0040052026 -0.0030899171 -0.0035603254 0.00027170122 -0.0036632484 -0.0036206762 -0.0040482352 -0.00017963964 -0.0018964055 0.00041865496 0.0011481941 -0.0004874147 0.004198432 -0.0022517093 0.004185835 -0.00084334053 0.0017841911 0.0010758466 -0.0045279292 0.002725418 0.0019399012 -0.0036391004 -0.0018203723 -0.0012456034 0.00021632233 0.00026504757 0.00462626 0.003362325 -0.0015117683 0.0011691347 -0.0015980159 0.000109235196 -0.0026329358 -0.0034437883 -0.0029112967 -0.0019210636 -0.0025459754 -0.0035255253 0.004635422 -0.0012843676 -0.0016156579 -0.0028761686 0.0043440815 0.002173981 -0.00069518015 0.004119429 3.2557582e-05 -0.002348975 0.0016043758 -0.0028825398 -0.0023409068 0.000720987 -0.0044619446 0.0044630594 -0.0035768794 0.002090799 0.0015029431 -0.0009906677 0.0024836801 0.0010593159 0.0042672236 -0.0013009427 -0.003308807 0.0044565857 -0.0037397034 -0.0004259763
感冒 -0.0009248094 -0.0048766155 -0.0038415543 0.0013683343 -0.00069816015 -0.004454166 -0.0043164333 0.0019719289 0.0017334571 -3.419535e-05 0.00093290943 0.0023630902 0.00077738485 -0.0019232543 0.003998007 -0.0019213228 -0.004133949 0.0043137246 0.00317251 -0.0048843683 0.0032417416 -0.00031686822 0.0049118157 0.0018911023 0.001440656 -0.0031536506 -0.0014982298 -0.001785849 0.0014854311 0.0045364946 -0.00014596878 0.0024029429 0.0008263575 -0.0024996107 -0.0011179862 -0.0040283143 0.0011935233 -0.004742992 -0.0028803516 0.0021977252 0.0048736543 0.0039616027 0.0039997934 -0.0023302617 0.0018992574 0.0009444853 0.002141061 -0.0037040738 0.004364999 -0.0010159101 7.751248e-06 0.0001709896 -0.0022836153 -0.00042470155 0.0038531423 -0.0010398352 0.00011712374 -0.0018814674 0.00245309 -0.0040158806 0.003475445 0.0040844963 -0.0015683158 -0.00147112 -0.0046439003 -0.0016077679 0.001818817 -0.004532596 0.004862398 0.00044369983 -0.0014001421 -0.0019336592 0.0029394452 0.0025817917 0.004304336 0.00045622114 -0.0017720738 -0.0018389864 -0.002638592 0.0043087425 0.0017460033 0.00041113625 0.00075873075 0.00041801418 -0.002451076 0.0005962464 0.0017923883 -1.420408e-05 -0.003622451 0.0032558881 -0.002229862 -0.0031305288 -0.004314947 0.0008709193 -0.0040987944 -0.0012250178 0.0012603194 -0.004666186 -0.002343194 0.0019669267
流鼻涕 0.0010721042 0.0009811353 0.004637748 -0.0004761581 0.002505735 0.0046277735 0.0005545636 -0.0028669825 -0.0044613075 0.004320952 0.0031781471 0.00078985444 -0.00086892257 0.0020002935 -0.0044312654 0.0018961786 0.0046182377 -0.0038889183 0.004480874 -0.0020286487 -0.0007695949 0.0021980242 0.0045737564 0.001208448 -0.0012085469 -0.0035772026 0.0028649506 0.0029427805 -0.0018238614 0.0028487875 0.0029468418 -8.329597e-05 -0.004916433 -0.00010834114 0.0018903436 -0.0032268353 -0.0034242098 -0.004105435 -0.0022692394 -0.003863827 -0.0017788201 0.0010748005 0.001441119 -8.601537e-05 -0.0007902189 -0.0006356423 0.0047714394 -0.0042123017 1.0448536e-05 -0.00012779172 0.0006317299 0.0017665062 -0.0033077106 0.0018531573 -0.0013016339 -0.0026171766 0.0017223404 -0.0015289468 -0.0018618079 -0.0044122855 -0.0005612019 0.0011003065 0.00016598646 0.0025775703 -0.0014600684 -0.00018109352 -0.0014595595 0.0011294419 -0.00034047698 0.0034773955 -0.0029596167 -0.00086541584 -0.0010756208 -0.0036473947 0.0004228126 0.0034244063 -0.0012612684 0.001959528 0.00363019 -0.0014888152 -0.0035290308 -0.0015942327 -0.0035472126 0.001482989 0.0008066598 -0.0020022015 -0.0016952031 -0.0011676436 0.0020592608 -0.004368604 0.0029099535 0.0007746193 -0.00077082834 -0.0018730774 -0.000107225445 -0.0013420339 0.004555602 0.0025019574 0.0016612802 -0.00011867721
咨询 -0.004867629 0.0014917359 -0.003736317 0.003319407 0.0041336496 0.0044249427 -0.00078130007 0.0041020843 0.0044524167 0.0018696977 -0.003789232 0.00046539112 -0.00019424263 -0.0021464177 -0.0013666017 0.0035408875 0.0046723536 0.0025436266 0.0042308215 0.0013925565 -0.003640277 -0.003932461 0.0034863926 0.004461062 -0.0049904347 0.0009572525 -0.0032341261 0.0006478517 0.0011567514 -0.0035519523 -0.0022255538 -0.0028432568 -0.004401406 -0.004494512 0.002049386 -0.0036904134 0.0027231202 -0.002271184 -0.0039015205 -0.0025895238 -0.0010029146 0.00014423013 -0.0027137285 0.0020883034 -0.0040410403 0.0022712643 0.004633129 0.003683191 0.00059345656 -0.002570117 0.002864644 -0.0041086283 -0.0014623234 -0.004566716 -0.0020626092 -0.00027945996 -0.004119752 0.0006110008 -0.0033262365 0.0041312664 0.0020161993 -0.0044678655 -0.003507665 0.0019610897 -0.001124937 -0.00122976 -0.00387433 -0.0036360915 0.0025427316 0.0005988618 0.0029133058 0.00017916111 -0.00456366 0.0041192714 0.0049524014 0.004977922 -0.0012645633 -0.000625681 0.00018972729 -0.003328205 0.004636352 0.0025755216 -0.0016049166 0.0044514774 0.00070911075 0.0027885204 0.0011688829 -0.0023510437 0.00394808 -0.0048000426 0.0036092505 0.0037961148 -0.0037664806 0.0019340016 -0.0017956728 -0.0036518439 -0.003857784 -0.0045224936 0.00065159233 -0.0031961831
尤其 0.0021002777 0.0012899315 -0.0042533586 -0.00060009153 0.0035078272 -0.0029041672 0.0038141676 0.0029223477 -0.0024257335 0.0025001497 -0.0036499358 0.00012232864 0.00044860883 -0.0020498382 0.0029357166 -0.0023340357 0.0042488785 0.0015946574 -0.00041454186 -8.383604e-05 8.668204e-05 -0.0038721988 0.0037224493 0.004198247 0.0003461296 -0.0020115655 -0.003085846 -8.444083e-05 0.0034652357 -0.0024719643 -0.00067364034 0.0031955705 -0.0026145845 -0.0011701937 -4.2203963e-05 0.0029978517 0.0021481183 0.0036639536 -0.0032289333 -0.00093697663 -0.0047217384 -0.0049222275 -0.0020451627 -0.003423288 0.0039073313 0.0021681532 -0.0015568738 -0.0028949967 -0.0010873025 0.0032306546 -0.0010376532 -0.0004184342 0.0020483509 -0.0019008279 -0.0008087962 -0.0005848152 -0.002982439 -0.004359078 -0.00091113686 0.0023867006 -0.0012302109 -0.004529269 0.00025117275 0.0042214803 0.0009334513 -0.0047825137 -0.0018188882 -0.002807596 0.0019499562 -0.0013041052 0.0047646877 0.0046138805 0.0042253435 -0.0029662575 -0.0038145548 0.0041622813 0.00054437947 -0.0006217394 -9.896123e-06 0.0034496603 -0.0029080415 0.0010786126 0.004514284 -0.00075561804 0.0042074937 -0.004270825 -0.0016888255 0.00021407782 0.0004427148 -0.0038571572 -0.0012983509 -0.00216746 0.001401922 -0.002865093 -0.0042881826 -0.0010486427 0.0035310243 -0.004079252 0.0041620443 -0.0006348392
有时候 -0.0036401034 -0.0009988255 0.0039027596 -0.0046966476 -0.00017916181 -0.0029017194 0.0041695666 -0.004439151 0.0024067408 0.0048426767 -0.0036711574 0.0041275257 0.002911501 0.00095387764 -0.0006202343 0.0014261046 -0.0023708472 -0.0014223931 -0.0024699392 -0.0022335697 0.0035548569 -0.0032562867 -0.0043824976 -0.0007048958 -0.0043323184 -0.0015047133 0.0031719985 -0.00071584096 -0.00044347034 -0.0013065265 -0.0034571697 0.0005021597 0.004758203 0.0038053342 -0.0007877667 0.0010708362 0.0044133402 0.0039599994 0.0045013316 -0.0010741727 0.0025296116 0.0025658386 0.0010139229 -0.004199809 -0.0010078168 -0.00072491163 0.0020636986 0.0011181687 -0.004811529 0.004735824 -0.0010311737 0.003078093 0.0046883496 0.003087807 0.0022909401 0.0021871678 0.0017862872 0.0006071409 -0.0014975668 0.004631078 0.004679617 -0.0033334661 -0.004092571 -0.002285277 0.0030895313 -0.0042805127 -0.0039476794 0.0033041507 0.0013461412 0.00081136083 0.002736515 0.0019114196 0.0030701712 0.004773237 -0.0006419156 0.0028798077 0.0039059594 0.002301808 -0.0028852844 -0.0024874362 0.0033601136 0.0011621781 0.0007576832 0.0019673526 -0.0026911113 -0.004875009 0.0036247098 0.0036092529 0.0026777147 0.003937883 0.00011183926 0.0026976543 -0.0027304632 0.00082055025 0.00014742298 0.0024432119 0.0019947714 -0.002193671 0.0018329386 0.0001916657
儿童医院 -0.0018087738 -0.0020288243 -0.0017413066 -0.0013486363 0.0040541883 -0.0045382627 -0.0042075114 0.0048181913 -0.004559316 -0.00088558474 -0.00062366494 -0.00143438 0.0021204865 0.002932459 0.0011276037 0.000655338 0.0008718613 0.00024047201 -0.0048599374 0.0022371819 -0.004957166 0.0016314882 -0.004366959 0.0035764147 -0.0031051142 0.0030424653 0.003997011 -0.0010874233 0.00024619704 0.00470152 -0.0034061167 0.0007333517 0.0039916276 -0.0042622485 -0.002711636 0.0040080943 0.0033944268 -0.0049458127 -0.0036780953 0.004902384 0.0018762939 -0.0023696653 -0.00014737964 8.293809e-06 0.0047139316 -0.0011420582 -0.000775705 0.004765851 -0.0025684668 -0.00087235746 -0.0017413297 -0.0028363036 0.0010465498 0.00090900884 -0.0037098695 0.003135735 0.0038833814 0.0004156094 0.0017705373 -0.0018758064 0.0024668162 -0.0040150443 -0.0030463072 -0.0017315225 0.0010417779 0.00087037333 -0.00054548535 0.004716005 -0.0018907818 -0.0017911915 0.0037310764 -0.0044472455 0.004416126 -0.001598653 -0.0040709986 0.00037091557 0.002390885 0.0038587835 0.00095583836 0.0035730884 -0.003193631 0.004675042 0.00083659694 -0.004755894 -0.005067171 0.001520988 -2.6095562e-05 -0.00061692495 -0.0012303501 -0.00066056935 0.0041538156 -0.00046306814 0.0038213544 -0.0028761863 0.0031382623 -0.0034288564 -0.0046345857 0.002108448 -0.0033554556 -0.0034649626
CT 0.00087705144 -0.0037023453 -0.0043782694 0.0008846654 0.0046698377 0.0034878554 -0.0042603286 0.00084256724 0.0012152991 0.0005103765 0.003950859 -0.0024495018 0.00012638423 -0.0005725019 0.0029082177 0.0017215866 -0.0047255415 -0.0028101285 0.004524963 0.00063207804 -0.0032496767 -0.00027090395 0.0028637243 -0.003979744 0.001549269 -0.0027195548 0.0019069483 0.0048613762 0.0021319485 0.0019063118 0.0025685243 0.0036448056 -0.0036714834 -0.0031194112 0.0036734594 -0.0018256875 0.0017081855 0.003525673 0.00032748582 0.00037498094 -0.004695078 0.0037477475 -0.0037726297 -0.0009693523 0.002595979 0.00016890415 -0.00082319626 0.0048548076 -0.0011658603 0.0048684715 0.0011747759 0.0021208758 -0.0015667073 0.0042634266 -0.0036070526 -0.0022155007 -0.0013718185 0.004468851 0.0034763734 0.0019519321 0.00029456316 0.001477834 0.004830217 0.004194692 -0.0037469913 -0.0034261819 0.00022932557 -0.004787695 -0.0016112041 -0.0023011728 -0.0031636641 -0.00040286343 0.0028823111 -0.0035089252 -0.0044804052 0.0019319797 -0.004470041 -0.0020519968 -0.0015528479 -0.0012228149 -0.0040056743 -0.0020115972 0.003956168 -0.0048462916 0.0019900003 0.0040215086 0.0030019353 -0.0034208999 0.003153621 -0.003830613 0.004326324 0.00081743987 0.002945531 -0.005003493 0.0030125089 0.0037599953 -0.0042304955 0.0042137033 -0.0037393852 0.0029527438
腺样体 0.004388963 0.004107674 0.004387891 -0.0014436695 -0.0030577998 0.0049916166 0.0027659982 0.0048994306 -0.0010612962 0.0041914643 0.0037426727 0.0031581298 -0.0018985417 0.0013555629 -0.0032159842 -0.0020581463 0.0006329253 -0.0036919985 -0.00082611537 0.0043334556 0.0011375941 0.0007192716 -0.003874999 -0.0022791743 -0.003835906 -0.000244671 0.0045986446 0.0017076207 -0.0046936376 -0.004190393 -0.0017818522 0.00080483046 -0.0039587184 -0.001733062 0.004518897 -0.003726946 -0.0026393349 0.0039042498 -0.002467071 0.0021358703 -0.001967694 -0.0009690054 0.003713158 -0.002935026 -0.0029277029 0.00194158 0.0032016132 0.00297085 -0.001717241 0.0023817676 0.0017736573 -0.00021494034 0.0024120745 0.0006093697 -0.00069099327 -0.0040145987 0.0037355437 0.0017833773 0.0004884403 -0.0040583215 0.00015792469 -0.004039477 -0.0023411596 0.00028975657 0.0038501187 -0.0017965893 -0.004367377 0.0042341407 -0.004334648 -0.0029275557 0.003498402 0.003965268 -0.0038338997 -0.0026346098 0.0026157144 -0.0014868182 -0.0015523428 -0.0022678133 -0.003233946 0.0034189313 -0.0010616289 0.0009797909 -0.0048798616 0.0023248147 -0.0048150974 0.004844157 -0.001202846 0.0038683997 0.0037490246 0.0004918605 0.004169122 -0.0003181733 -0.0026973535 0.003048962 0.0009149253 0.0027717103 -0.004787738 0.0020664658 -0.0015442783 0.004257401
和 0.0011690799 0.0017685527 0.002630079 0.0003759444 -0.0034143124 0.003041638 0.004651282 0.0040136785 0.0013935466 0.00012542463 0.00020927849 -0.00043846233 -0.0007421056 0.0023532698 0.0017188393 -0.0038778537 0.0038002746 -0.0044727926 0.0021024614 0.0023029891 0.0004647914 0.004461958 -0.0019325448 0.0035234482 0.0021003694 0.0038108386 -0.0044422722 -0.0022433223 0.0048376806 -0.0044599446 0.0024649252 0.002374085 -0.001380528 0.004319828 -0.0017318511 -0.000658664 -0.003153442 -0.00033302594 -0.0023568268 -0.0013030922 0.0038222652 0.0034269877 -0.004585249 -0.0025350323 0.0014970971 0.001979142 0.0016937865 -0.0049179597 -0.0032805416 -0.0042289933 -0.0036067767 0.0026170234 0.00026665107 -0.0022106224 0.0022010973 0.0047039143 0.002366467 -0.0047870185 0.0027285754 -0.0035002003 0.0026839278 -0.0037451747 0.00259993 0.004028068 -0.0009805482 -0.0028586383 0.001821805 -0.0019235214 0.0028545626 -0.0033065812 0.0018209185 -0.0040078843 0.004918689 0.0041792565 0.002042998 -0.0015869479 0.0011790929 0.0007627237 0.0017466064 -0.0030598394 -0.0037963656 -0.0003394252 -0.0005069623 0.0012403973 0.0016744445 0.004431806 0.0021435835 -0.0006546942 -0.0008900772 -0.0036722533 -0.0032604055 -0.002272316 0.0007822143 0.0013733031 -4.1161118e-05 0.0031291123 0.00055065355 0.003548986 0.0032451611 -0.0042200363
肺炎 0.00039667275 0.0036090547 -0.0027274422 -0.0033843934 -0.0037375628 -0.0025799442 -0.0019622438 -0.0044577993 -0.000486493 -2.4590094e-05 -0.0018435144 -0.00014403767 0.0049813488 -0.0047646263 0.0013391349 0.00082811055 0.0014792536 -0.0033977106 -0.0014460539 0.0026741284 -0.00010399807 0.003634917 -0.0013134718 -0.002241994 0.0034954285 0.0036174215 0.0030042399 -0.0029784883 0.0039710547 0.0028117471 -0.0036577822 -0.0008372697 0.0018322251 0.002361699 -0.0023814857 -7.072546e-05 0.0027408435 -8.129124e-05 -0.0016025403 -0.00189788 -0.00027651948 -0.0036198655 -0.0017879879 0.0048910878 -0.003158065 -0.003290039 0.0022666056 0.001256576 -0.0023624436 -0.00025918687 -0.0028994146 -0.0015431448 0.0035076374 0.00090009446 0.0018558844 -0.0023063447 -0.0030207874 0.00034518875 0.0016276711 -0.001775637 -0.0039330884 0.0036265156 -0.0035689664 0.0038067668 -0.0021933352 -0.0018623115 0.00060635555 -0.0009844704 -0.0012476515 0.00421666 -0.00040398998 0.0014183058 2.5400199e-05 -0.00018767656 1.9977078e-05 -0.0032151795 -0.0042437194 0.0039258422 -0.0016085884 -0.000503164 0.00019468224 -0.0011317221 -0.00357879 0.0041452544 -0.0029168054 -0.0048004915 0.0048453165 -0.003311664 0.0009681566 -0.003800867 -0.00086732866 0.0018977404 -0.0048246332 -0.004865038 -0.0021643182 0.0033377071 0.00076661265 -0.00039246574 0.0011917885 0.00024015685
感觉 -0.0009009897 -0.002914193 -0.0044948007 0.0026157997 0.00096189487 -0.0039268113 0.001773328 -0.0039436338 0.001993104 -0.003175976 -0.004074944 -0.0046321275 0.0031162307 0.0015696182 -0.0014252487 -0.004760639 0.0046184477 0.0025572095 -0.0010943401 -0.002203413 0.0018916306 -0.0008485858 0.000705749 -0.004072978 -0.0027314047 -0.0024540322 0.0032110268 0.0020071648 0.00250156 9.357875e-05 0.0004990454 0.0047869985 -0.00439978 0.001354429 -0.00016819664 0.003506247 -0.0011061856 0.002206905 0.004514596 0.0024145355 0.0020506217 0.002425783 -0.0029978494 0.00030906484 0.002202693 0.0045802156 -0.0018684287 0.0013781921 0.0010711531 -0.003835161 0.002547611 0.00044244347 0.004522037 -0.0048948014 -0.0010630346 -0.0020147979 0.003968529 -0.0012240285 0.0023920068 -0.003705575 -0.003925936 -0.0041777603 0.0015856158 -0.0011221545 -0.00016925357 -0.0022454162 -0.0032378219 0.0032080275 0.0036543387 -0.0019882813 -0.0014131058 -0.0029967981 -0.002911673 -0.001941666 -0.0020330169 -0.0034484146 -0.0008541164 0.0014407538 -0.0009135071 0.0042977156 -0.002874331 -0.0013765111 0.0009416924 -0.00026969655 -0.0019634285 0.0035399138 -0.0020436596 -0.0048322594 0.0033738194 0.0010053758 0.0034460956 3.7667203e-05 0.00472524 -0.0023952466 0.0018319655 0.0014099042 -0.00448844 0.0030568459 0.0048273904 -0.0020313456
但是 0.0027563313 0.00088761764 0.00380359 -0.0049935477 -0.002263497 -0.0032961445 0.0021117907 0.004298481 -0.002333096 -0.0027606478 -0.0026475133 0.0007894143 0.003956534 0.0023288901 0.0039066435 -0.0019269144 -0.0020980774 -0.0022972804 0.0043559913 -0.003486534 0.0011283897 0.0027008045 -0.0029014978 0.0030863523 -0.0027124002 4.6004687e-05 -0.0035649452 0.0045036077 -0.0019485427 0.0033573261 -0.0006712339 -0.00050471554 -0.0015009181 0.0035542678 0.004595262 -0.0025469288 0.0027891176 0.003680116 0.0014808779 -0.0015680006 -0.0039281812 -0.0009511266 0.0030559206 -0.002322144 0.0028692093 -0.0004928382 0.0048282994 0.004683621 0.004766372 -0.003778068 -0.002060815 -0.0037041595 0.0025676917 0.0040569543 -0.0048284056 -0.0021276684 0.003427965 -0.004614559 0.0037258351 0.0034195166 -0.0003894208 -0.0013558054 0.004383297 -0.001091229 -0.0015819479 -0.001884617 0.0018871017 0.004654715 -0.001508026 -0.0032254816 -0.0032597666 -0.0022950259 -0.0005421297 -0.0009865641 -0.0025556413 0.0019738118 0.0021213868 0.00015457884 -3.85562e-05 -0.0009366291 0.00095445465 0.0046637845 0.0042130803 -0.0025337795 -0.0010576124 0.0036618267 0.0016910078 -0.00039244394 0.0037812851 -0.0047747283 0.0005584803 -0.0027792135 -0.0013436435 0.0024114258 0.0005065076 0.0048362883 -0.0032343753 0.0020948595 0.0006449569 0.000893188
让 -0.00030393086 -0.0039437087 -0.0021546471 -0.00061722426 0.0011270752 0.0045656688 -0.001460014 -0.0017131782 -0.0019469691 -0.00011727254 -0.0037085335 0.00059278304 -0.003614425 0.003588603 -0.0035853488 -0.0013812319 0.0022028463 0.0049991743 0.004219584 0.00049874716 0.0015026798 0.004511218 -0.0033648033 0.0031926238 -0.00057547406 -0.003608033 0.0013794207 -0.0044645853 0.0004675268 0.003218525 0.0049652127 -0.0011128982 -0.0022247832 0.000310968 0.00043002385 -0.004961038 0.0020297058 0.004156914 -0.00395901 -0.00044057812 -0.0001458843 -0.0002643262 -0.004002176 0.0012812786 -0.0011816836 -0.00041789562 -0.0023268526 -0.0016599651 0.00034308835 -0.0014997708 0.0021727611 8.662336e-05 0.001386694 0.002687165 -0.00020815205 0.0023169704 -0.0035565987 -0.002707144 -0.0017241071 -0.001303939 -0.0032031261 -0.00091093447 0.0018584057 -0.00020730388 -0.004549585 -0.0027427555 -0.0021737097 0.0025817466 0.00080811454 -0.0020092574 -0.0014342162 2.0866433e-05 0.0034398332 0.0004132894 -0.002068235 0.002624438 -0.0018707927 0.0023732958 -0.0036994172 -0.0031115797 -0.0028967105 -0.0007884449 0.0047086 -0.0027878112 0.0014564478 0.0023661065 -0.0012200307 -0.0020994735 -0.0034023 0.0016316124 0.0043533873 0.0022697565 0.0023422835 0.00044274927 0.0030654974 -0.0022882116 -0.0011903651 0.0018351243 0.0021606793 -0.0022806528
其他 -0.0011609263 -0.0048547285 0.002576687 0.002627988 -0.0046989373 0.00085222453 0.0040943534 0.0048975586 -0.0045661344 0.0009342987 -0.0010013239 0.0010417235 0.003329442 -0.00042204408 0.00032930882 -0.0041648927 -0.0021265321 -0.002188913 0.0011693162 7.883155e-06 0.0032242103 -0.00080724276 -0.004401769 0.0012407822 -0.0041942433 -0.0044872053 0.0032961909 0.0011898298 0.0006998925 0.0028440233 -0.0016170033 0.0005361806 -0.001973928 -0.00061454816 -0.0016497959 -0.0013285835 0.001558563 0.00018389648 -0.0013148027 0.00043630807 -0.0022857664 0.0016824672 0.0007052435 -0.00047556296 0.0009124237 0.00032366975 -0.004702363 0.0013951341 -0.0018839014 4.548539e-05 -0.0014765773 -0.004394273 -0.0028055725 0.00040309306 0.003218761 -0.004083948 0.0024277682 0.0006364628 -0.00022441728 0.00074453634 -0.0013897151 -0.0033013027 0.0016568977 -0.004994318 0.0048734806 0.0009147358 0.0015342189 0.0038528494 -0.00063083536 -0.00055799657 0.001696428 0.0019066936 -0.0041264924 -0.004788526 0.004289441 -0.002159953 0.0049098735 0.0011847498 0.001536488 0.00051235314 0.0018124239 0.0011092211 0.0014748536 0.004660189 0.0026296752 -0.0021168566 -0.004264371 -0.0017372108 -0.0010816363 -0.002658432 0.004253633 -0.00063157704 0.0011192708 -0.0028714552 0.0026174986 0.002962449 -0.0024863079 0.004850071 -0.00016214646 -0.0006469723
没 0.001976728 0.004398873 -0.00032620886 0.0008294878 -0.003908776 0.0014165703 -0.0003022398 -0.0049254093 -0.004255873 0.0019701605 -0.0035347596 -0.004220085 -0.0049557528 0.0005691231 -0.0010996723 -0.0013782319 0.0023823893 0.0042505753 -0.00013705721 3.1442916e-05 0.0045638704 0.0032336398 -0.0022483824 -0.0022732532 0.0030485252 -0.0016700007 0.004783591 -0.0010738157 -0.0030448022 0.0013197648 0.0033483761 -0.0032887105 0.003388224 0.0026218393 0.0036941287 0.00091544114 0.0042109406 -0.0042371666 -0.001193866 0.0008099364 0.0029358526 0.004850704 -0.0005192384 -0.0036698938 -0.0011515683 -0.0028963876 -0.0029572495 0.0039556967 -0.0003849579 0.0026337465 0.00031285826 0.0029438534 -0.0006255759 0.002756616 -0.00038804644 0.00058026426 0.00348919 -0.0015971324 0.0020134933 -0.0028566457 -0.00399996 0.0035132938 0.0042019067 0.0023261814 -0.0036014426 -0.00383112 0.0009883218 0.00038852097 0.0036758662 -0.0011102394 -0.0033337679 0.0033852675 -0.0038529271 -0.0038197886 0.0018941277 0.002440302 -0.00053391705 0.0011182539 0.0034998346 0.004346826 0.0025076044 -0.0021822727 0.0015179364 0.00213737 -0.0026603136 0.0021502476 -0.0028227556 0.004523018 0.00029603162 0.003889403 0.004455035 -0.004755894 -0.004138209 -0.00043568862 0.00341163 0.0038324755 -1.3968975e-07 -0.0046599284 0.002376466 -0.004635103
幼儿园 0.00018631044 0.0012005556 -0.0038553162 -0.0024813677 -0.0010727023 0.0036012318 0.0007903509 0.0044485275 0.0048652384 -0.0047674864 -1.1739729e-05 0.0018396456 -0.0036823063 0.0023710458 -0.0020965503 -0.0013573618 0.00079894473 0.0013442428 1.211875e-05 -0.001756444 -0.0021703576 -0.0037642969 -0.0015479405 0.003983514 -0.001724776 -0.0027047985 0.003129472 0.0021172997 -0.00056384754 0.0035073478 -0.003467106 -0.0034955426 -0.003018436 0.00046161757 0.00042140056 0.00053303764 -0.00095801335 0.00018072089 0.0039579673 0.0030889667 -0.003218736 -0.0033186595 -0.0015627146 0.0031674 -0.0031181723 0.0022127286 -0.0020367221 0.0013694662 0.0024749655 0.0015074319 0.0029123505 0.0016153053 -0.0030385046 -0.0012400177 0.0016128863 -0.00076547184 -0.004794426 0.0028784657 -0.0041661435 0.004628098 0.0044559385 0.0043532713 -0.002056475 -0.0015778106 0.00031805717 -0.0038244238 0.0044579078 0.0040401393 0.0018513561 -0.0014072161 0.0011841697 0.00077497965 -0.000950067 0.0044449936 0.0015428477 0.0013117729 -0.0002115189 -0.0043142405 -0.0028302637 -0.004141953 0.0015935103 -0.0043302113 -0.0016982134 -8.6359805e-06 -0.00065345457 0.004044143 0.004160474 -0.0013829387 -0.0024951065 -0.0039783316 -0.00014614896 0.0025724529 -0.003456226 -0.003069606 0.002491271 0.0013079869 -0.003397159 -0.00393133 -0.004334475 -0.0043112366
晚上 -0.0008921511 0.0019129904 0.00067246973 -0.00056680536 -0.0036433688 -0.0024802897 -0.0039613135 0.00037845754 0.0037882803 0.0049453876 -0.001019666 0.0013139581 0.0036408843 0.0007564114 -0.0016868463 0.003548538 0.001961245 0.004560586 0.0006123362 0.0034517597 0.003337131 0.0011314745 0.0012646711 -0.00070936204 0.0048567103 0.0026620463 0.004484432 0.0018455255 -0.0011062251 -0.0047506993 -0.002004641 0.0043464545 -0.0016661584 0.001327302 -0.0027162898 -0.00097401673 0.0036147826 -0.0019489629 -0.00027720517 0.003231684 0.001652818 0.00048043093 0.0043871338 -0.004706715 0.0021133383 -0.004793489 0.0017857634 -0.0023908033 0.004873686 0.00393263 0.0037583224 -0.0036330093 0.0037492558 0.0039049955 -0.001450934 0.0024636586 0.0012932308 -0.0042888625 -0.0009762598 -0.0040731104 0.000134325 0.0011268171 0.0048137386 -0.0036779994 5.7778518e-05 0.0036897222 0.0036285596 -0.00391241 -0.0048198756 -0.0036320915 0.0023954445 0.0021472399 0.0033452632 -0.0044381274 0.0029782348 0.002357007 0.0050239703 0.0019511253 0.003681188 -0.0029403958 0.0012600422 0.004470181 0.0025730596 0.0009331139 0.00018756028 0.00016645712 -0.0032037904 0.0027856156 0.0047837263 -0.0021223954 0.0042912504 -0.0047367755 -0.0045573246 0.0006875409 -0.0036274134 -0.002112085 -0.0002883561 0.0013912339 0.0038525304 0.002132427
当天 0.0007841435 0.0015134717 -0.001214784 -0.0033829613 -0.0008732613 2.6580276e-05 0.0034889448 -0.001440215 -0.0035589407 -0.0034334266 0.0036430997 0.004604506 -0.0003808746 -0.00095725263 -0.0038072364 -0.0049052224 0.0034893348 -0.0017983598 0.00026417174 -0.003733352 -0.003572478 -0.0043255165 -0.004107423 0.0044899723 -0.0029402303 -0.0032820029 0.003529537 0.0038148377 0.0013558507 -0.0026607565 0.002924734 -0.0047790026 0.0047806255 0.004920974 -0.0034739752 -5.080156e-06 4.6670408e-05 -0.0035331803 0.00043277792 -0.004567214 -0.0037783443 -0.0006914416 0.00328149 0.0037130502 0.0022112478 0.0008938451 -0.00179971 -0.0030200903 0.003241706 0.0023358273 0.0033152874 0.004395471 0.004839074 0.0041995053 -0.00020993904 -0.00085321814 0.0040745875 -0.0043789707 0.004163387 -0.002456032 0.003772312 0.0011918586 -0.0019743172 -0.0033198497 0.002552081 -0.0044291476 -0.00248697 0.0026714392 -0.0009985577 0.0034424625 -0.0023004124 0.0037809385 0.0010360564 -0.00014882887 -0.003282382 -0.0020702886 -0.0026451228 0.0030246163 0.00263636 0.003893505 0.0023086048 0.0040223366 0.0013488589 -0.0049064797 -0.0017960849 0.003407838 4.8941863e-05 0.0049210335 -0.004113298 0.0016172164 -0.0045767655 -0.0032616695 0.004075862 0.0017731613 -0.0013996911 -0.0046909875 -0.0023666085 0.0021951145 -0.00013551734 0.0030796619
是不是 -0.002332173 -0.0014082938 -0.0033750075 -0.0039130202 -0.002589358 0.004662774 0.00023761713 0.004232318 -0.004090476 0.0010945679 -0.0030558703 0.0039993594 0.000905815 -0.003867415 -0.0038597607 -0.0015447803 0.00071978744 0.0021164066 0.0047621457 -0.0017513902 -0.0033383898 -0.0023531318 -0.004958495 0.003080198 -0.0027297125 0.0046902206 -0.0009961302 -0.004696167 0.00049091084 -0.0029777791 -0.0042833323 -0.0013226841 -0.0041661267 0.001501973 0.003907 -0.0022782693 -0.00441996 -0.0041434765 0.004429494 -0.000342709 -0.0022339332 0.0019801597 -0.000997622 -0.0017010947 0.0024620863 -0.0019897006 -0.0044722366 0.0033466897 -5.218763e-05 0.0019970802 0.0049507697 -0.0019602503 0.0008411394 -0.00029779386 0.0043638353 -0.0022243054 -0.0018255918 -0.003335466 0.00039288655 0.0019624108 -0.0015776018 0.0005013492 0.00451723 0.0014118965 0.0013653362 -0.0011340525 0.004210977 0.004889868 0.0033682561 0.0011651446 0.0038114788 0.0023448945 -0.0012555583 0.0043299934 0.0033695425 0.0004629632 -0.0036019268 0.0009225882 -0.003705988 0.0015627174 0.0047894665 -0.0008018171 -0.0018688705 -0.0042265863 -0.0005304036 0.0010453225 0.001275313 0.0016297958 -0.0022992864 -0.0027551374 -0.00078817934 0.0036373304 0.0041329474 -0.0020055538 0.002471767 -0.0036617157 0.001649329 -0.0026662438 0.0028639634 0.0047660754
早上 0.0004737081 0.0045208 -0.0009865293 0.0020933356 -0.001749017 0.0014210739 -0.00468784 -0.004883347 0.0026332745 0.0012278849 -0.0044848425 -0.0013834118 -0.0021260749 -0.004716137 -0.004285496 -0.002229543 -0.0014738875 -0.00092858623 -0.0021964544 0.001417843 0.0038830223 -1.728164e-05 0.00014156269 -0.004612056 -0.0035634725 0.004899619 0.005127267 -0.0034953707 -0.0043107253 -0.0024349084 0.0014068759 -0.003488442 0.0032106773 0.00081712095 -0.0031219537 -0.0020580278 -0.0016969256 0.002827008 0.0010886177 0.0032399711 0.0014574823 0.0032073108 0.0036016076 -0.0021103362 -0.0008238858 -0.0047173696 -0.004107832 -0.001218025 0.0003712726 -0.0034382066 -0.00455245 0.0002598382 0.0011367046 -0.00071007275 0.0037917425 -0.0013945274 0.0019844659 0.0040431623 -0.0023861595 0.004813204 0.0036578537 -0.0011543683 0.0039861985 0.0025223417 -0.0038777213 -0.004789755 -0.0018219907 0.0024289705 -0.0012191695 0.0004865342 0.003305036 -0.0034491536 0.003623363 -0.00217928 -0.0043433183 -0.0039980467 0.0048197214 -0.0028076353 -0.0046109483 0.003903873 0.004688268 0.0017122997 -0.0008732912 0.0035995159 0.004239017 -0.003494732 -0.0010855861 0.0005604286 -0.0029866933 0.003221621 0.0047562104 0.0009845744 -0.004776018 -0.0014777236 0.002850183 0.0033789505 -0.002793377 -0.00043842642 -0.0048702774 0.0009602627
一直 0.00053884485 0.00051613746 0.0038317023 0.0010160224 -0.0026597434 0.0014900916 0.000523676 0.0016006335 0.0032875321 0.003930706 0.0002859744 -0.002206706 -0.0005215833 -0.004913216 -0.0037439214 -0.0034585837 0.0028231365 -0.0049033067 -0.00032671783 0.0041710907 -0.0026184593 -0.00022013464 -0.0006268039 0.0012198855 0.0010023186 -0.00021054242 0.0016557862 0.004959507 0.0030317977 0.0042053866 -4.174634e-05 0.0024596592 0.0044313013 0.004941269 -0.0039339736 0.002281871 -0.0013534325 0.0011440564 0.003375972 -0.004635248 0.0042731157 -0.0046521216 -0.001930688 -0.0037574626 0.0046190224 -0.0013611931 -0.0014067785 -0.00044874518 0.0028204797 0.0021461416 -0.004052132 -0.0020528564 -0.00022417752 0.0035382034 0.00052611803 0.0027082884 0.0037043074 0.0010194633 0.0013149942 -0.0015341283 0.0032996591 0.0005179135 -0.0029700927 6.482233e-06 -0.0008756837 0.0017838198 -0.0025963779 -0.0015714988 -0.0036418065 -0.0040563648 0.0025186085 -0.002519668 -0.0005174213 -0.0046667065 -0.0030120735 4.772009e-05 0.0027321666 -0.004645941 -0.001962986 4.4124703e-05 -0.0021014498 -0.004288867 0.0020581349 -0.0025669117 -0.0019763832 0.0005648114 0.0034726956 0.0011593468 0.003920394 -0.0032335508 0.001679095 -0.001652995 -0.0014845536 -0.0026093596 0.003997405 -0.0043756543 -0.00028296353 -0.0016700192 0.0028216862 0.0039356244
就是 -0.00082835683 9.016158e-05 0.0009908549 -0.0015728527 -0.0026837974 0.0048981854 0.0025149118 -0.004248791 -0.0009243632 0.0034894524 -0.0048400164 0.004582356 -0.0005046101 0.001256678 -0.0032225496 0.0035195143 0.0009362991 0.0019866095 -9.163572e-05 -0.0037208714 0.0038440658 0.0037643525 -0.0011305746 0.0050016013 -0.0007516712 -0.002182961 0.0039137807 -0.0035550897 -0.00074502314 -0.0010151601 -0.002166193 0.004123127 -8.899029e-05 0.0024957217 6.463855e-05 0.0030126972 0.0024792587 -0.004322559 -0.0041606924 0.0048052412 0.002856427 -0.0014708784 0.0008418664 0.004375272 0.0005831192 -0.0049416753 -0.004926614 0.0038644732 -0.0004032682 -0.0012569022 0.0012275232 0.0006413767 -3.8578564e-05 -0.004415833 0.0019125717 -0.0024722638 0.0023827793 0.0028052868 0.003964655 -0.000464861 5.1413604e-06 -0.0018654452 0.003229216 -0.005021957 0.0010821508 0.0011135986 -0.0040944824 -0.0019726467 0.0019322652 -0.0017376837 -0.0046952474 -0.000559921 0.0031475236 0.00059183926 0.0020195812 0.0015767853 0.0039266204 -0.0005085546 0.004055026 -0.0001068344 0.004727122 -0.0006037375 0.0046805805 -0.0015023239 -0.0029970391 0.00011658574 -0.0007239677 0.0045623635 0.0007333528 -0.002174319 -0.0023018895 0.0014516695 0.00011341351 0.00030295752 -0.0026351444 0.0039374614 -0.004895947 -0.0013944983 -0.00041012096 0.0049386336
全吐 0.003243167 -0.000959342 0.0043342346 9.0839e-05 0.0027919246 0.0014729066 -0.0030163229 -0.002480283 0.0037459694 0.0039959652 -0.0049705575 0.00067586283 0.0040059043 0.0021375814 0.0032974528 -0.0021361923 -0.0010113552 -0.0026590459 0.002164682 -0.003433536 -0.0021098007 -0.0036474268 0.004992076 -0.0038879123 0.00458257 0.0020847048 0.0026330522 -0.002018141 -0.0035993953 -0.0013021149 0.0017615758 0.0016216581 -0.00019872589 -0.0041204533 -0.0019884098 0.0013079153 0.0042898078 -0.0030667775 -1.0779644e-05 0.0011123691 0.0028532085 -0.0035511777 -0.004189573 0.0020539484 -0.0023918583 -0.003881117 -0.0030989046 0.0011713532 0.0007990514 -0.0035946064 -0.0002502516 0.0025052687 0.0005211365 -0.0039663236 -0.00035135445 0.0016220362 0.000942289 -0.004711092 0.0028748144 -0.00015578783 0.0008960714 -0.0029796958 0.004984573 -0.004578388 -0.0024727145 0.0013492416 -0.004562325 0.0049069654 -0.0023970904 -3.1661853e-05 0.0032834888 0.0044927443 -0.004449575 0.00029450536 0.001416769 0.0013923458 0.0035832445 0.0008189658 -0.00075815537 -0.002460986 0.003733259 -0.0011035755 0.001979198 0.004927542 0.004269081 0.0017331825 -0.0014456009 0.002933805 0.0031960018 -0.004263019 0.0015708107 0.0035030846 0.0020795164 -0.0007427981 0.0011494948 -0.0014700833 0.0020804128 -0.00010810041 -0.0022972964 -0.0015562167
下午 -0.004899867 0.0033633034 0.00045521595 -0.004615614 0.003623738 0.003853777 0.0011870667 -0.0035104442 -0.0024552466 -0.00054817874 -0.0010114558 -0.0043960083 0.004074399 -0.0041409796 -0.0016528042 0.00039957993 -0.003837253 0.00048154127 0.00408205 -0.002768928 -6.86166e-05 -0.0038067293 -0.0039469106 0.0014947909 0.0011398628 -0.004240885 -0.00072652556 0.001928138 -0.0021515884 0.001991903 -0.0049375203 0.0034074646 0.00044167042 -0.0016241925 0.0027810563 -0.003592419 0.00071835116 0.0021510504 0.0012146761 -0.0007014182 -0.0003051876 -0.0045297584 -0.0033917704 0.0036144939 -0.0037728334 -0.0012730189 -0.004142703 -0.0037125102 -0.004216885 -0.004251823 -0.0037120068 0.0016346034 0.0013343142 0.004507353 0.004754399 0.0009163971 -0.0016602348 0.004227567 0.0020371266 0.004637486 0.0037237753 0.0011830148 -0.0013137656 0.0018559258 0.00409666 0.0019943048 -0.00011722885 -0.0041124336 0.0037159845 -0.0019456495 -0.004101249 -0.0009141293 -0.00093562796 0.0023308734 0.0031483956 -0.0028360155 -0.00013913495 -0.004389936 0.0032207808 0.0024953296 0.0021519996 0.0037890456 -0.0032825174 0.0031270257 -0.003900382 0.0041156486 -0.004235536 -0.0032131793 0.00036394416 -0.00041456727 -0.0007125402 0.0018825076 0.004438239 -0.00048681666 -0.00040863486 -0.0045408825 0.0050356644 -0.00041614217 -0.003581404 0.0010587997
然后 -0.00067186524 0.0013593428 -0.003347939 -0.002465719 0.0018365945 0.0016543276 0.0015487557 -0.0034611286 -0.0043458827 0.0048619285 -0.0010314704 0.004142834 -0.003461371 0.0009828194 -0.0016696097 0.0007951923 0.0009278764 0.0042239903 0.0044458266 -0.004589384 0.003299221 0.004617565 -0.001970844 -0.0011310723 0.003764604 0.0028523922 -0.0007023889 0.004329482 -8.654399e-05 -0.0044362703 0.0007304836 0.0049543143 -0.00016659025 -0.0032016744 0.0033442636 -0.0044311318 -0.004812893 -0.0033438404 -0.002439186 0.003117031 0.0013094821 -0.0014081955 0.002866023 -0.00032626835 -0.0043673473 0.00044105103 0.0030312047 -0.0013723014 -0.00417541 0.0037257217 -0.002451332 0.004921985 0.0026671311 -0.0034871725 0.00038348977 0.004996109 -0.004359834 -0.001147154 0.0014097738 -0.0017308629 0.00271002 0.0015508599 0.0028039683 0.0047679977 -0.0018177176 -0.00036040207 0.0042094616 0.0036995683 0.0014613124 -0.0008926123 0.0027701543 -0.00067135104 -0.004138476 -0.004391199 -0.004382234 0.0038231814 -0.0018546412 0.0005525646 -0.0014673116 0.002515873 0.0017394335 0.0028844723 0.0037627523 0.0006991593 -0.0050143003 0.0025199887 0.0017827894 -0.004836859 -0.0042186915 0.0031506002 0.00443631 0.0025948435 -0.0003239722 0.004646115 -0.0014751749 -0.0003937082 0.0025046663 -0.0040537836 -0.00496816 0.0019239299
她 0.0033470239 0.0037151494 0.0035889281 0.0010913422 -0.0018565148 0.0017039472 -0.00066858606 0.00056119286 0.0022232018 -0.0043933257 0.0046838387 0.0020385238 0.0007660311 0.002740143 -0.0035382295 -0.0022938133 -0.0032045362 0.0019758157 -0.004793099 -0.0022926326 -0.0011376207 0.00046350466 -0.0009498167 -0.002764677 -0.00014317675 -0.00046185384 -0.0029474963 -0.001074033 0.0019241059 -0.0023073342 0.002267781 0.003195714 -0.0037388573 0.00036726976 0.004530871 0.0022177442 0.0011918686 0.0016325815 6.880076e-05 -0.004764479 0.0044795345 0.00150692 0.0018843841 0.004769972 0.0032157975 0.0037159885 0.0009326456 0.0032823274 0.0024391767 0.0009049635 0.0019487079 0.004942791 0.004469061 -0.0021234013 -0.00072041363 -0.0031499732 0.00032363477 -0.0046708384 -0.0030813874 -0.0011588758 0.0042826794 0.0014549359 0.0017643656 0.0014264238 -0.0033397013 -0.00046752562 0.0024361713 0.0031971873 -0.0004978203 -0.00041198396 0.0028301182 -0.0041497094 -0.0032197633 -0.0009612653 -0.0048988475 0.00096709415 0.0004753528 0.0032548087 0.0024601158 -0.0040722066 0.00030947558 -0.003200614 -0.0020290718 0.0048990306 -0.00016908975 -0.004451975 -0.0013638034 -0.003246643 0.002653918 -0.0004966648 0.004586209 0.0043317005 -0.00022162418 -0.0041757454 -0.0013654126 0.0013296693 -0.0013370925 -0.0014694363 -0.0011348248 0.004612214
发现 -0.0007102163 -0.0026623134 -0.004780197 -0.0030448162 -0.00026262738 0.0010288235 -0.004569573 0.0041013244 -0.0003864445 -0.0028696368 0.0025142657 0.0029906763 0.00461064 0.003825348 -0.0018320328 -0.00061940314 -0.004218996 0.002834659 -0.0031691715 0.0007828273 0.0027756058 0.0012142758 -0.00016508035 -3.556079e-05 0.0029797608 0.0024579002 0.0014998786 0.0040937057 -0.0017302172 0.0033174513 -0.0014467213 0.0013465076 -0.0014107125 -0.0032456806 0.0035654495 -0.004184431 -0.00174772 0.0019465357 0.0007993298 0.0034794866 0.004989679 -0.00048213123 -0.0009816858 0.0045290533 -0.002384039 0.0003468526 0.002774138 -0.0033707342 -0.001913024 0.0019739838 -0.0011094675 -0.003893059 -0.0049573784 -0.0011659748 -0.0029477712 0.0043578483 -0.0036343809 -0.0020769811 0.0033135344 -0.0028972323 0.00207917 0.0027218556 0.0034430246 -0.0038264631 -0.00031536768 0.0029756997 -0.0006522275 -0.00051491073 0.0037380587 -0.003605844 0.0025443148 -7.511901e-05 0.0020286776 0.0030394297 0.0014024698 0.0045875204 0.0015028474 -0.004006596 -0.00024998054 0.00033082813 0.0023907246 -0.00087500515 -0.0025167929 -0.004783262 -0.0033471487 -0.00016985254 -0.0049415515 0.004304948 0.0049597323 0.00077269145 0.0016695644 0.00010979107 0.0038784223 0.0033023048 0.0050054234 0.0033640165 0.0049868617 0.0042602937 0.0014819013 -0.0022989472
白细胞 -0.0013951926 -0.0023269758 -0.004876636 -0.0023366492 0.00021522469 0.0018785249 -0.0015356378 0.0048829047 0.00076096004 -0.0025653436 -0.0040249517 -0.003180605 -0.0023757217 -0.0006988081 -0.0012589438 0.004156315 -0.0018109598 0.0043747514 0.0048490213 0.0038918345 0.0043158727 0.00011749254 -0.0018190345 -0.00063168316 -0.002980977 -0.0031514033 0.004084433 0.0030121575 0.0022119982 -0.0012682399 -0.0027650283 0.004543634 0.0006559666 0.0007049315 -0.004238783 0.0037163943 -0.0037021728 -0.0027144558 -0.0009479903 0.00059183623 0.001785698 -0.0009857984 0.00062416226 0.0037336072 -0.0013817314 0.0039014223 -0.002968368 -0.00016291016 0.0005882256 0.002518893 0.0009984598 0.00010506815 -5.0747007e-05 0.0024836971 0.00011761958 0.0015989741 0.0033759654 0.004727443 3.519159e-05 -0.0039836713 -0.000995534 -0.0024957072 0.0011830586 -0.0039863097 -0.0039029457 0.0038636173 0.003922728 0.004940666 -0.0025764473 -0.0029646691 0.00093523285 -0.0014266995 -0.0015956549 0.0010716213 -0.0025083735 -0.003628553 0.0041422653 0.0016664958 0.0032888844 -0.0011989328 -0.003921709 -0.0037744727 -0.000709727 -0.003664262 -0.0007474639 -0.003675363 -0.0020905056 -0.00046986333 -0.0021693432 0.0020859558 -0.0030811708 -0.0001865661 0.001151624 -0.0011634841 -0.0010355252 0.003184298 -0.0027557637 0.0030046916 -0.004673397 0.0009810022
感染 -0.0017385852 -0.005001243 0.0012272355 0.0032416736 0.0038037603 -0.0045021614 0.0020773765 0.002358457 -0.0017456625 0.0033203734 -0.0013240918 0.0022617516 0.0036442718 -0.00021345099 -0.0024370467 -0.0046038353 0.0008119336 0.004791188 -0.0024116635 0.004914063 0.0049081156 0.0033055798 0.003987711 0.0030668057 -0.0010596899 0.0018499941 0.005046665 0.0036724166 0.0033862449 -0.0025009841 -0.002947328 0.0006382911 0.0021904411 -0.002324573 0.0046599954 -0.0020724374 0.001177539 -0.00389054 -0.0008518073 0.0032263882 -0.00071878225 0.00248056 0.004850295 -0.004337694 0.0033183836 0.0012750889 -0.0020575502 0.0011118955 0.0012135382 -0.0038303854 -0.0047780797 -0.004597199 -0.00030535445 0.0004546637 -0.0039345687 -5.37439e-05 -0.0012586905 0.002375643 -0.0028720056 -0.0010691958 -0.0025310277 -0.0039513204 0.0042924117 0.0024097492 -0.004481004 -0.0041505536 -0.0049997107 -0.0049391775 -0.0013459665 -0.0040230765 -0.0011367092 3.8350216e-05 -0.0007913333 0.0037110012 -0.00028035528 -0.0007326212 0.003822462 -0.0012540546 -0.004502673 -0.0045539537 -0.0027352413 0.004395063 -0.001267976 0.0036320502 -0.003047082 -0.0041362317 0.003144702 0.0046474054 0.0024882846 -0.0042288564 0.001680901 -0.0041054254 0.0028438286 0.0034311533 0.00037259294 0.0013400413 -0.0029881194 0.0019267341 -0.0010385205 0.0036201547
咽炎 0.003634127 0.0046330723 0.0025620651 0.002816259 0.0006713922 -0.0030811054 0.0028659217 -0.004505725 -0.003572852 -0.0014860996 0.00023845072 -0.001007478 0.003412345 0.0005578859 -0.0038671908 -0.0048937835 0.00041067656 -0.0010942692 -0.003989246 0.0039819498 0.0031712127 -0.0019165055 -0.004377479 -8.8241635e-05 0.0016693968 -0.0023269912 -0.004380733 -0.002582609 -0.0005426096 0.0018821215 -0.00047538264 -0.00023948618 -0.0015352338 -0.0037280614 0.0011834091 -0.0019738253 -0.0015294137 0.004477278 0.001265948 -0.00468434 -0.0048902985 0.004235641 0.00239069 -0.003773268 -0.0023946124 -0.0038890142 0.0050093457 0.0034591292 -8.0460755e-05 0.0018609639 -0.0024259917 -0.0016702361 -0.00037331073 0.00244848 -0.0034481683 -0.0014129892 0.003752028 0.0045035616 0.00032578607 -0.001069145 0.0012911183 -0.0010643211 0.0031942085 -0.0027081813 -0.0015652642 0.0024127625 0.0027065044 0.0013194241 0.0016054381 -0.0032840108 -0.0028978758 -0.0010809058 0.0049848002 -0.003862934 0.0010818761 0.0037598265 0.0034108672 -0.003730936 -0.0032485817 0.0047188415 0.004619399 -0.00453448 0.0022602838 0.0027835937 0.001982962 0.002963707 0.00096236874 0.00045306145 -0.0030142604 0.00066463905 -0.004260732 -0.0039057888 -0.0019256324 0.0031708442 -0.0008934761 -0.0028123863 -0.00016735191 0.0045422553 0.0030859236 -0.0020663848
杨 0.0013905021 -0.0013217598 0.0042285603 0.0044660806 -0.0027616185 0.00501371 0.0009651789 -0.0026690187 0.002554286 -0.000653635 -0.00083271676 -0.0026492984 0.0011479396 0.004445973 -0.0030386013 0.003882581 0.001288944 0.003398496 -0.0014613391 0.0013371963 -0.004013012 -0.0033522344 -0.0015675636 0.0045214407 -0.0030259483 -0.0038991875 0.0024175365 0.0028369515 0.0012971049 0.00060965057 -0.00404439 -0.0011548534 0.0023904573 0.0040463433 0.00091799925 0.004882109 -0.00056469045 0.0025955252 0.0049768 -0.0016683405 -0.0030780716 -0.00072559674 -0.0014718972 -0.004073494 0.002107231 -0.00036819288 0.0023512735 -0.0016311394 -0.004200889 -0.0046216305 -0.0025627597 -0.0016146684 -0.00062711496 5.2461583e-05 0.004606041 0.0014858599 0.0050125276 -0.0035164193 0.0047962223 0.0025383567 -0.004810071 0.004870714 -0.0010164141 0.003544979 0.00038127092 -0.001935079 0.00040347385 0.0048504295 0.0018092651 -0.0003039614 0.004384118 0.0035724824 -0.004296098 0.0021712326 0.0008709082 0.001304362 0.0011424718 -0.0039045988 -0.0011806509 -0.0010680618 -0.0018627485 -0.003419271 -0.0046486687 -0.0010595922 0.00045658433 0.0009289088 0.0010216073 -0.0012378369 0.0034131333 -0.0016370261 0.002486454 -0.0027213413 0.0026682222 0.0023363894 0.0003082257 -0.00274778 0.004091367 -0.0031434535 0.00040680272 0.0041838097
