307 100
了 -0.00019218567 0.004928245 0.002055783 0.0011804835 0.003369243 -0.0013673772 -0.0032259482 0.0022456578 -0.004002328 -0.0035218075 0.0015608949 0.0044009928 0.00090234366 -0.004265034 8.820659e-05 0.0027244436 0.0034553818 0.0015247539 -0.0021954468 0.0045873513 0.0013356424 -0.0030759482 -0.0027900352 0.0033426434 0.0006490108 -0.0029543256 0.003090004 0.0028316937 -0.0004248798 0.0046420395 0.0049468987 0.0038343326 -0.0037684839 0.0022817783 -0.0038477203 -0.0037001038 0.003467599 -0.004335905 0.0026829985 0.0030451703 0.0022566142 -0.0012897466 -0.0020863004 -0.002016704 -0.0027390555 -0.0040268544 -0.0025622856 0.0047053588 0.004990957 -0.00096690044 0.0039730775 0.0045125047 -0.003831346 -0.0017856336 0.0016071157 0.003027761 -0.0009175884 -0.0013957092 -0.004266296 0.0026342722 -0.0018431027 0.0017247469 -0.0030468586 0.0025708438 -0.0028005391 0.0017530378 -0.003697521 0.00083516334 0.0022171007 0.0018402684 -0.0043129125 -0.004429254 -0.0035036225 0.0032463507 -0.0040111663 -0.00500837 -0.004682981 -0.0013108978 -0.004851634 -0.00475961 0.0036767798 -0.000265196 0.0033371167 0.0012028447 0.0025809822 -0.0019050242 -0.0004415506 -0.0010583507 -0.0016974843 -0.0031756826 -0.0019786053 0.0026556107 -0.0029904977 -0.0037051844 0.0024939862 0.0016922142 0.004983314 -0.002352414 0.0029181635 -0.0009756597
， 0.004518343 -0.003440151 0.004460619 0.0041927025 -0.0046344884 0.0041821646 -0.003443049 -0.004558898 0.00043843008 0.0010105772 -0.0040119113 0.0031255165 -0.0019684096 -0.002095158 0.0048049754 0.0050869468 0.001997992 -0.0019428997 -0.0024287237 0.0007377878 -0.004221631 0.00067936245 0.0016331631 -0.0043269247 -0.0006237169 -0.0012727632 -0.004048959 -6.76865e-05 0.0011344616 0.004020662 0.0018864126 -0.0017941197 0.00025771212 0.001584004 0.00045403038 -0.0028793346 -0.0019507683 0.0044533783 -0.0021397483 0.0048303367 -0.0019621367 0.004705464 -0.0002513227 -0.0042146766 -0.003341942 -0.0046508955 0.0018153912 0.0049462127 0.00440551 0.0005103683 -0.0043003825 0.00028722832 0.0024918157 0.00078967866 -0.002201208 0.00463915 -0.00090613397 0.001435753 0.0041661435 -0.0019158863 -0.004195127 -0.003117535 -0.004147741 -5.792754e-05 -0.0040053916 0.0011327036 0.0031070767 0.0042311554 -0.0038892159 0.0014055962 -0.000568653 4.6735513e-05 0.0017208426 0.0044120536 -0.0043488196 -0.0035585423 0.0019846773 0.0045633516 -0.00016436563 -0.0037997253 -0.0012156271 0.00296398 -0.0031959333 0.0015495244 -0.0043816883 -0.0037533063 -0.0011263659 -0.0012099989 -0.0019225352 -0.0008301946 0.0034046154 -0.001962615 0.002221985 0.0036772431 -0.0026216402 0.0013488246 -0.0042771706 -0.0034854808 -5.0059964e-05 0.002523078
的 -0.0047561424 -0.00042262068 -5.7579688e-05 -0.0011351982 -0.0024549828 -0.0019169307 -0.002774311 -0.00059396 -0.0039302493 -0.0050361203 0.00034580225 -0.0029056133 0.0032321177 0.003874871 -0.0003459039 0.0010481904 -0.004223529 -0.003016805 -0.003505179 0.0013246774 0.00436995 -0.0035859512 0.004124439 -0.0015299214 0.0033791321 0.002070218 0.004701348 -0.004563531 -0.0017856542 -0.0016589637 0.002900476 0.004746453 -0.00046581365 0.0035732111 -0.00035336902 0.00199163 0.0036758496 0.0017764152 -0.0029567804 0.0022673581 -0.0004183736 0.0032403206 -0.0022106885 -4.8256334e-05 -0.0015150446 0.00012736242 -0.0041079815 -0.0012785983 -0.0048960997 0.004471826 -0.001202395 -0.0024265174 -0.0036830744 0.0036431917 0.0046761353 0.0031779609 0.0035006467 -0.00087830966 0.00026412716 0.00040632478 -0.004363456 0.00463915 0.0027243516 0.0003892901 -0.00060320983 0.00012338687 0.0043593133 0.004274435 0.0026424136 0.0013636799 0.0016219936 -0.0014114748 -0.0027342038 -0.0026769293 -0.003432823 -0.004282612 -0.0019000389 0.004657188 0.0023972008 -0.0031375682 0.0041039255 0.0030017474 -0.0019270445 0.0010392158 0.0014544098 -0.0018565883 -0.0043786857 0.0026205603 -0.0002066913 0.0017861802 0.002134311 -0.0001236648 -0.0042132246 -0.004136402 -0.004937026 0.0037559054 0.0045816894 -0.0019695295 -0.0008884814 0.0024751269
去 -0.0031605666 0.00069153536 -0.0020854818 -0.004613223 0.003138178 -0.0013537132 0.0042058765 -0.0035737907 -0.0031097012 0.004863312 0.0024833526 0.0042692428 0.002718826 -0.004847837 -0.003367741 -0.0032397103 -0.004708058 -0.0009715101 -0.0019621432 0.0005936332 0.0037949525 0.00048148868 0.0013465194 0.0010624625 -0.0034203134 0.002586242 0.0015284725 0.0037061938 0.0012694785 -0.0034011293 0.004171509 0.0018870372 0.0048135086 -0.0020624977 0.004840772 -0.0011073747 0.004367464 -0.004630195 0.004047607 -0.00095727126 -0.0005325019 0.0020549044 -0.0004841091 0.0010672553 0.004345921 -0.002219376 -0.0017853089 0.0017917993 -0.0021083192 -0.001712235 0.0020843262 0.0043232436 0.0030166493 -0.004577145 -0.0027569747 0.0011926512 0.00062099803 0.0023025875 0.0017879315 -0.0014322059 0.0040891953 -0.0010080852 0.0006495441 0.0040304014 0.0010460765 -0.001862111 0.004520492 -0.0013797287 -0.00059178326 0.0015550128 0.0013662239 0.0018328481 -0.0014929438 -0.002877019 -9.620101e-05 -0.002216447 0.0013988807 0.0013108733 0.004256885 0.0014476301 0.002320336 -0.0017721658 8.1693695e-05 0.0011513678 -0.0019314137 0.0030706294 0.004639429 0.0033715642 0.004316794 -0.0012571613 0.00012490126 0.0044561145 0.0047099395 0.002183492 -0.0012612825 -0.0011888302 4.605625e-05 -0.002985448 0.0020415848 0.002456846
号 -0.0044758543 0.0033889455 0.0012792095 0.0042789835 -0.004755783 0.0035811346 -0.0032591352 -0.0005932171 0.000253525 0.00077979936 -0.0004105506 0.0017203947 -0.0039887917 -0.0013583044 0.0027373815 0.0039725536 0.0010480371 0.0020680707 0.0033936342 0.0015768365 -0.003929073 -0.0035925382 0.00016444828 -0.00038107173 -0.004385111 -0.00067108026 -0.002676811 -0.0025125733 -0.003631713 -0.002181946 0.0023301137 8.7212764e-05 0.00217627 0.000281664 0.0014092614 0.0038119594 0.00018378708 0.0042295926 -0.0020866962 -0.0038414716 -0.0026283627 -0.00026955258 0.0032476843 -0.0023517977 0.0038416502 -0.0002416831 -0.0010461627 0.0029218844 0.0035261356 -0.00011852282 0.0044055283 -0.002444896 -0.0028071906 -0.0032454154 0.0049092844 0.0031793825 0.0027172146 -0.004415442 -0.0034463555 -0.0015961593 0.003931669 0.0021764478 -0.0040951706 -0.0036136075 -0.0032729818 -0.004893581 0.0014127411 -0.0021352468 0.0047434033 -0.0010921492 0.0006657286 0.0006421145 -0.004500334 0.004793288 -0.0046779597 0.003914086 -0.0042250054 -0.0031350076 0.002501831 0.003734481 -0.0016855991 0.0020312509 0.0049188007 0.0030385798 0.0009831153 6.5559485e-05 -0.000895986 -0.0005230532 0.0031594702 -0.00045784286 -0.0011152753 0.0026810865 0.0045634615 -0.00011215583 0.0023749892 -0.002061685 -0.0040360778 0.00035610254 0.0034246559 0.004630179
挂 -0.004784764 0.0028086854 -0.004112046 0.004940339 0.0028196753 0.003212427 0.0036919133 -0.003174456 0.0013191516 0.0026027204 0.0026193783 -0.0012785918 -0.0037156686 0.0043494776 -0.0017056657 0.004509571 0.0038999883 -0.0015385092 -0.002399064 -0.00029466607 0.0026835394 0.0039038886 0.0010730699 -0.0017110193 0.0025449751 -0.0013776069 0.0046119285 0.0033212902 0.00034112937 -0.0035934371 -0.0009277052 -1.3165846e-05 0.0049715578 0.0007493877 -0.0026293718 0.0027629714 0.0028190564 -0.002016489 0.00063334097 -0.0005436959 -0.0028359839 0.0019897614 -0.0010995473 -0.0020732374 -0.00062979 -0.0017301142 0.004625032 -0.002257112 0.0009629165 -0.0010143208 -0.001152985 0.0046857605 0.0021584558 0.0046333834 -0.0013876141 -0.0022368957 0.0009923888 0.004679512 0.0003756838 0.0042784624 9.108266e-05 0.0012151293 0.004333429 0.0044290856 0.00034067186 0.0033587618 0.00088009576 0.002166944 -0.0019530506 0.004470998 0.004181557 -0.001296159 -0.0018460756 0.00058493705 -0.0001520143 -0.0024384472 -0.00043609244 0.00053307065 -0.0044351877 -0.0014729118 0.0036196918 -0.0017119595 0.0033189696 0.0033099125 0.0028076982 0.0030814821 -0.004456705 -0.00048697047 0.004176115 -0.0007321708 0.0020721355 -0.0024471013 -0.0028763602 -0.0032680961 -0.004797861 -0.0029642978 -0.001995316 -0.0034990907 0.004610177 -0.0011653915
是 -0.0009874197 -0.0021062104 -0.0029037802 -0.0018548559 -0.00022116245 0.0028873025 -0.002340508 -0.004740309 0.0047366624 -0.0007505107 -0.0020042842 -0.0022242412 -0.002283077 0.0003494468 -0.0014521693 -0.003910032 0.0047414685 -0.0021746326 -0.0045793266 -0.0006550999 0.001931902 0.0018080394 0.0009798078 0.0010563894 -0.00053970463 0.0018067476 0.00073265034 0.003161643 -0.0035576741 0.0033483217 -0.0017188028 -0.004917943 0.0040202285 -0.0037735328 -0.0034153622 -0.0027905458 -0.0033443572 -0.0042395443 -0.0005190272 0.0027780002 -0.005044912 0.0011124576 0.0007547618 -0.0019398797 0.00016281208 0.0030625036 -0.004633988 0.0016244559 -0.001922896 0.0045194547 0.0005767473 -0.0046259654 4.572834e-05 0.0012818534 0.0021479 0.00035306517 -0.0002985544 -0.00058849744 0.0047041634 0.0027672786 -0.0048064967 0.003576259 0.004745913 -0.0048334766 -0.0024453187 0.0005885432 0.0022272586 0.003997977 -0.0039329967 -0.0024130442 -0.0037173037 0.0023239283 0.0035375652 -0.0030569336 0.003089869 0.0010096829 0.0014337007 -0.004138103 0.0028498743 -0.0030132767 0.00036510124 -7.61058e-05 -0.004332453 0.002688861 0.00085000263 -0.001503907 -0.0002695857 -0.00068162044 -0.0034634366 0.0030653458 0.0012294167 -0.0016335429 0.0037752367 -0.00014326304 -0.00064705615 0.00023375185 0.0023769503 0.0019387776 0.00094442524 -0.003128259
有 0.003394023 -0.0019559248 0.004155268 -0.004191594 -0.00441812 -0.0005003783 -0.0008778398 0.00017777015 0.0037665013 0.0027958762 -0.0032488916 0.0035429064 0.0037811438 0.0014778923 -0.0012316258 0.0012855169 0.0025953918 -0.004308018 0.0010891344 -0.0005035823 0.00095718 -0.0014422383 -0.0030559695 -0.00037622516 0.004251219 -0.0025541494 0.0029672938 -0.002108529 -0.0029453218 0.0002724558 0.00089461467 0.0029062573 0.0032622342 -0.003245325 -0.0005252986 0.0021767197 -0.0019002083 -0.0043117604 -0.0011998023 0.0040856446 0.0020017163 -0.0014821461 0.0009870772 -0.00044556303 0.0032336435 -0.00070050155 0.0032643452 -0.00027536508 0.003963718 0.0019121732 0.00049598096 -0.0010669143 0.0036810017 -0.004089224 -0.004571102 0.0025011683 -0.0014494243 -0.0027635267 0.0017929265 -0.0020068404 0.0022845746 -0.0015597481 0.0047640163 -0.0013930487 0.0027700057 -0.0013931546 0.00347535 -0.00037057546 0.0021623266 -0.001797121 -0.0014070981 0.0047512134 0.0034441447 0.0025511987 0.0017812739 -0.0021488694 -0.002145093 -0.002490712 -0.0012017452 -0.00049771316 -0.001882345 0.0033431572 0.0023360061 0.0044501056 -0.0044738133 0.002045081 0.002318384 -0.0016879484 0.0034156414 -0.0048452686 0.0012610261 0.0045359763 0.0035263728 0.00037286052 0.003281595 -0.0019820947 0.0006894936 0.0024588734 0.004681999 -0.004613289
水 -0.0027151464 -0.003390339 -0.004573004 -0.0046785623 0.0035233912 -0.0014321571 -0.004854303 0.00418096 0.0024411352 -0.004527619 0.0020244238 0.0022380014 0.0025331238 0.0012420277 -0.003944501 -0.002382912 -0.0009328993 0.0046963 -0.0020596394 0.0048843953 0.0010716255 -0.0016621093 -0.0034923467 0.0034723019 0.0035563628 -0.0047637434 -0.003628228 0.0027176365 0.0045254705 -0.0021761262 0.00065429177 -0.0013617211 -0.0027431864 0.0001704994 -7.571417e-05 -0.0026639309 0.001244205 0.0046149762 -0.004546202 -1.7198277e-05 0.00010832318 -0.0017963502 -0.0031944935 0.004530751 0.0035605154 -0.0012610528 0.0027756812 0.0024625524 0.0045194863 0.0024481846 -0.0009519695 0.00033561428 0.0046600667 0.0030349088 -0.003449553 -0.004393599 0.0045952913 -0.0024882813 -0.0026919658 -0.004137125 0.0011869085 -0.00350856 -0.0041652955 0.0010766599 0.0042489055 0.0038616778 0.00329169 -5.3392985e-05 0.0010101552 -0.0021119064 -0.0036243016 0.003848256 0.002047327 0.0037858952 0.0046822303 0.0019759429 0.004015192 0.0035755492 -0.0050068293 -0.00092295127 -0.001605048 0.0029289967 0.0019611467 -0.001318873 0.0012149664 0.0017291602 0.0033237988 -0.0014577096 0.00061225914 -0.004293692 -0.0014352852 -0.001094441 -0.0013055752 -0.0023088094 0.0030331772 0.00083796703 0.0034798032 0.0019396336 0.003848217 -0.0016478114
不 -0.00327894 -0.0018984416 -0.0043325713 -0.0015132877 0.0047444715 0.00255344 -0.004986456 0.0024618504 -0.0024559014 0.001204635 0.0022045372 0.0029085404 0.0036374643 -0.0033940973 0.004606617 -0.00048226342 0.0019971738 -0.0005875569 -0.0013228178 0.0003127373 -0.0015601789 -0.0038437217 0.00217152 0.0046543432 0.0020405664 -0.00429057 -0.0046043834 -0.0017730768 0.0021816692 0.004579103 -0.0017658726 -0.0043814736 0.000118951 -0.002267939 0.00042281492 0.002497786 0.00045543397 0.0038380635 0.0049045677 -0.0023114833 -0.005098024 -0.002508865 0.0005287795 0.0010300855 0.003296346 -0.0028391974 -0.0028897063 -0.0036960097 -0.0037205142 0.0045107827 -0.0044147037 0.0014190408 0.004869993 0.0019037066 0.0011395197 -0.0021848846 -0.0020192727 -0.0027501998 -0.003848917 0.003289912 0.0044387295 -0.00362715 0.00032515696 0.0040757856 -0.00022973385 -0.004302593 -0.0015246815 -0.0049011735 0.0014047604 -0.0011360473 -0.00024547093 0.0011286791 0.0019156566 0.0025234756 0.0030501669 -0.0028468093 0.0012097565 0.0021141262 0.00046370932 -0.0017952266 0.0025482834 0.0007994281 -0.0025814103 0.00310279 -0.0038493655 0.0029051227 -0.00045892844 0.004994939 0.0022396685 0.0039522843 -0.0034040455 -0.0035738389 -0.0034393405 0.0025780536 0.0015775277 -0.0017052181 0.004609412 -0.00075269426 -0.0018528724 -0.004582073
我 -0.0011693684 0.004834954 0.0023788041 0.00094500795 0.0017861099 -0.0048756124 0.00043428087 -0.004871377 0.0032242518 0.0037596468 0.0048043383 0.0039623696 -0.0027834296 -0.0008369561 0.00037491883 0.0016270109 -0.0006311502 -0.004736567 0.00030019137 0.0029120473 0.00097193045 -0.004171775 0.004286792 0.00033902875 0.0035748642 0.002404259 0.0020000967 -0.001427964 0.0013926479 0.0049645603 0.0025327867 -0.0033316875 0.0038447843 -0.002871002 0.0049312655 0.0034358576 0.00018638391 0.0018893275 -0.0047774483 0.0011546377 -0.0035203018 -0.0018775461 0.00035751238 -0.0017929781 0.0035007247 0.0019375711 0.0018762129 -0.0032275366 -0.0042935666 0.0049859323 0.0021227468 0.00080812833 -0.0046261786 0.003508305 -0.0015334389 0.0018137776 0.0005677108 0.0007056038 -0.0044830223 0.004818549 0.0039461246 -0.00356704 -0.003647321 0.0021396007 0.0029431968 -0.003961337 -0.0045824577 0.0003962321 0.003296098 -0.0015934915 0.00016044208 0.003803678 0.0014209683 -0.0044301404 -0.0012953032 -0.00018578181 -0.0048375125 0.001210921 0.0010304969 -0.0031529893 0.0016825137 -0.0043256404 0.0036258046 0.0022037458 -0.0039399527 -0.003533061 0.0019590768 -0.0012491932 0.0047555175 -0.0017454245 -0.00050771656 -0.0015727906 0.0010275048 -0.0033258032 0.00090560917 -0.002889514 -0.0049592536 0.0015323736 0.0035073967 0.0015999856
月 0.0018314852 0.0044952845 -0.004480767 0.0042214147 0.0003771241 -0.0046129203 -0.002154334 -0.0032139793 0.002191133 0.0030771606 -0.0005391384 0.004199583 -0.0033664973 0.0010349592 -0.00050114165 0.004210602 -0.004451525 0.0047446312 -0.004054636 -0.0013386848 -0.0028643538 -0.0014529944 0.0039478834 -0.00046435278 0.0039315363 0.0050333515 0.0012902202 -0.0039060188 0.004022553 -0.003591181 0.0018569776 0.0006420129 -0.004906969 0.0021474168 -0.0031923943 0.0041850917 -0.0014806667 0.0036021748 0.00061026873 0.0009857884 0.0011203818 0.0021375841 -0.0011275704 6.694305e-05 0.0035985718 -0.0034235048 -0.0042559044 -0.00036031942 0.0036407663 0.002221708 0.00026694228 -0.0009145638 0.0039247572 -0.00021363926 0.0037967744 -0.0018551162 -0.000619505 -0.0009961267 -0.0037960315 0.0019015974 0.0011229425 -0.0035944318 0.0033260689 0.0014489017 0.0021588923 -0.0004934585 0.0006697091 0.003454514 0.004624292 0.0021190085 0.0005179766 -0.0036150047 0.0012360194 0.005017617 0.00092651165 0.004029522 0.0043938598 0.0037066932 -0.0049895225 0.0031790077 0.0022660575 -0.0037677735 -0.0024645457 -0.0012675821 0.0011659797 -0.0029100734 -0.0037202516 0.0032983285 0.004810617 -0.003334928 -0.0044409605 -0.0034414472 0.003518343 0.0025831175 0.0029146033 0.0030300606 0.0018305097 -0.0046541975 -0.0013727347 -0.0046511893
又 -0.0034951046 -0.0032336796 -0.0033869066 0.0024678519 -0.0046050777 0.0012819836 -0.0038515734 0.0028190687 -0.0015642508 1.1877496e-05 -0.0039915266 -0.0040766643 -0.0020750538 -0.0017374114 0.0011046854 -0.0026508681 0.00036132007 0.0012185285 0.0010479024 0.004302527 -0.001334947 0.0017069798 -0.0006378164 0.0044759805 0.002011792 -0.0019639018 -0.0032734973 -0.0010430254 -0.003145309 0.003919897 -0.00188864 0.0023531686 -0.0020506354 0.0011221851 -0.0010586932 0.00388095 -0.002097043 0.004403711 0.003994198 0.0044360966 0.004806999 -0.0012183966 0.0020657135 -0.00087273476 -0.004275743 -0.0018359126 0.004314168 0.0015984013 -0.0034742495 -0.001037652 0.0020142249 0.0038196878 -0.00022869928 0.0024788612 0.004256403 0.002131494 0.0040685097 0.0045935707 -0.0011037978 -0.00082393555 0.0031470046 0.0021223659 0.0027001514 0.0018273013 0.003296551 -0.0049772738 0.0014678657 -0.0034038005 -0.0009135315 0.0034483536 0.00057298184 0.0027834838 -0.001254327 -0.0027349016 -0.0041527124 0.0029757817 -0.00041990879 0.004336099 -0.00063995493 0.00464541 0.0006402901 0.0021751868 0.0043761674 -0.0018575964 0.0026057027 -0.0034132043 -0.0018611096 -0.00011863299 0.003083278 -0.002331679 0.000660955 -0.0031474608 0.0033827587 0.0025154771 -0.00013966387 -0.0026342166 -0.0014519744 -0.0007037809 -0.0001567503 -0.00046880989
医院 -0.0012474123 0.0034980094 0.0015724595 -0.0041832314 -0.0021925527 -0.0012136466 -0.00063649024 0.00468756 -0.0022996617 0.0047542914 -0.0005660943 0.0021263561 0.0024956798 0.00084261916 -0.003973123 0.0020685126 -0.0010565198 -0.0011100448 -0.00486267 6.779911e-05 0.00079285796 0.0037580323 0.0047481623 -0.0045278906 0.0038549306 -0.0031675168 0.0043178946 -0.003446656 -0.002369476 0.0003182763 0.004191701 -0.004857027 -0.0022514295 0.0048396788 0.0027745515 0.0035462219 0.0005058267 0.0043869074 -5.5537785e-05 -0.0016323286 0.0020413664 0.0031949775 0.0015331235 1.1388455e-05 -0.0018960312 -0.0026901898 0.0036952663 0.0042169886 -0.003837663 -0.004163057 -0.002981147 -0.0005511784 -0.0023004534 0.0013966566 -0.0008906413 0.0039415574 -0.0048647085 -0.0020494917 0.0028149278 0.0050260015 -0.004916134 0.0002200389 -0.003953987 -0.0022782674 -0.0031695375 -0.0019080924 -0.0011199276 -0.0005391161 -0.001129793 0.0010933188 -0.0032188054 -0.0031429892 0.0023546694 0.0011120314 -0.0035939943 -0.00087311596 -1.4613573e-05 0.0023057004 -0.0034176768 -0.0033861063 0.0033377684 0.0034429785 -0.0017024148 0.004079904 -0.003962019 -0.00027865448 7.0011796e-05 -0.0035296697 0.0016549666 0.00059188524 0.0020242322 -0.0035096852 0.0032620651 0.00024509756 -0.0012495035 0.0048555466 0.0047553387 -0.0014441315 0.0030273192 -0.004474953
也 0.00035869022 -0.0030387808 0.00012012729 0.002927492 0.0016359923 -0.0025609536 -0.004256656 0.00040720456 0.00079215725 -0.0032094498 0.0014006713 -0.002661745 0.0002847519 -0.0036117092 0.0013860593 -0.0021369383 -0.004171046 -0.003550899 0.0019307188 0.0018459709 0.0039321934 -0.0017511423 -0.0040171156 0.0048767026 0.0030379554 0.0043986016 -0.003453062 -0.0015904256 0.0017835115 0.00014132407 0.0024266026 -0.0042881747 0.0001537479 -0.004412624 0.004090097 0.0025145954 -0.003998955 0.003200343 -6.36711e-05 0.00040531793 -0.004617526 0.0037366475 -0.004245571 -0.0038564187 0.004324449 0.0015269432 0.0018810639 0.0018311105 0.0021617787 0.0018141454 -0.0048171394 -0.002130094 0.00151127 0.0042758784 0.001193558 0.004015478 -0.004525752 -0.0005500296 -0.0021779423 -0.0040993677 0.0027813632 0.0003466046 0.0011570163 0.0020912874 0.0021060926 -0.0025323909 0.00096526055 0.0008079436 0.0032403073 -0.0049065715 0.0038912357 0.004515064 -0.0018180663 0.0012331759 0.0026517916 0.0040974333 0.0017731161 0.00072643184 -0.0015951635 -0.0010215362 -0.0013498989 -0.0029522197 0.0030707042 -0.004181976 0.00042921773 0.0035076044 -0.0041007623 0.0019774504 -0.0042723836 -0.00012845993 -0.00055762276 -0.00059621315 -0.0006512957 -0.0013880517 0.001703338 0.0041952366 -0.00059896917 -0.002964782 -0.0023791494 -0.00014022243
什么 0.00081053714 0.0029369046 -0.004197397 -0.0009483886 0.0012243297 6.475588e-05 -0.00034797098 -0.0041135596 -0.004779768 0.0010635216 -0.004780799 -0.0046310937 -0.00016176314 -0.000707566 0.00238987 0.0024641962 -0.00079075753 -0.004121898 -8.7002554e-05 -0.003872435 0.0016646329 -0.0048111854 -0.004295843 -0.0017437786 -0.00070900435 -0.0017756602 0.003973222 0.0032744359 -0.004528056 0.00484014 0.0030828775 -9.816417e-05 -0.0046210485 -0.0031174105 0.0034142907 -0.00031403053 -0.0004829806 0.004338882 -0.004743752 -0.0014934763 -0.0047989935 0.0028606083 0.003207074 0.0021906432 0.004978263 -0.0030930592 0.0015240429 -0.00049776275 0.0012544375 -0.0005493432 -0.0031668597 -0.0036557247 -0.00010643609 0.00033143934 0.003460976 -0.004094283 0.0016571591 -0.004404076 0.0020043252 -0.004798586 -0.003259097 0.0046751103 0.0012347127 0.0034098334 0.00214003 0.0008483648 -0.0016675862 0.0004299625 -0.0041019903 -0.0039329403 -4.1070857e-06 -0.0019689219 0.0020184084 -0.00089830894 0.0008837364 -0.0020317412 0.0038341798 -0.0028834532 0.0017755253 -0.00028647186 -0.004768542 0.002459675 0.0003968354 -0.002812929 -0.0035193714 0.004544071 0.0014740685 0.0017995816 -0.00491639 0.0023907202 0.0026548638 -0.0030806637 0.002563619 -0.003683979 -0.0028344272 -0.0029899336 0.0036820963 0.0026102182 -0.0024244967 -0.0016441583
咳嗽 -0.003300741 -0.002138414 0.00011268407 -0.0015420275 0.003635294 0.0025437283 -0.00238333 0.0045363605 0.0040964363 0.00047842442 -0.004492103 0.004337375 0.0002101303 0.0029265252 0.0042442004 0.0035814673 -0.0032203607 0.00035743858 -0.0045006103 0.004412429 0.0019258491 0.0026201068 0.003832971 0.0039352397 -0.0021105488 0.0023554023 0.000506768 0.0025137244 0.0033674533 -0.00096449454 0.001465316 0.00067043677 0.0028632847 0.0047855424 0.00036101646 -0.0015312965 0.0032533333 -0.0026616366 0.004752189 0.0045658117 0.0036971632 0.0036736822 0.001875834 0.0014869573 -0.0041340343 -0.0029393618 -0.0004057664 0.0029258137 0.0032601813 0.0037122634 0.00010078935 -0.0015983895 -0.0017469986 0.004196203 -0.0008997782 0.0038404013 -0.0008442372 -0.0028106172 0.00019378413 -0.0031449932 0.001409626 -0.0004849783 -6.536578e-05 -0.0028188364 -0.0034670227 -0.0023732407 -0.004387581 -0.004152474 0.0025190294 0.0016973213 0.0015519051 0.00077718304 0.0028228324 0.001563967 0.0025747365 -0.0038999105 0.0002051419 0.0033602943 0.004566505 -0.0042457166 0.0014707564 -0.0040563857 -0.0025531824 -0.0047397506 -0.0013603175 -0.0034119848 0.003514326 0.004368895 -0.0007124101 -0.003212125 0.0018898743 -0.0046534697 -0.0033868586 0.00013888339 -0.00075752556 0.0024462426 0.002052473 0.003015237 0.0025787163 0.004583891
就 0.00079365034 0.000969142 0.0050028516 0.0043531605 -0.0019087967 0.004486946 -5.4274704e-05 -0.00042716617 0.0012048907 -0.0015751797 -0.0028210692 1.2811879e-05 -0.0029048685 -0.0031801523 0.0011248535 0.0029188707 -0.0046511292 0.002438338 -0.0025682778 -0.0025210907 0.0041269306 0.0047390866 -0.0020336013 0.004971507 -0.0031705892 -0.0013143342 -0.0027770484 0.0027225933 -0.0013990208 -0.0036362603 0.004492883 0.0027884718 -0.0015366023 0.004368034 0.0009666304 -0.0037988895 -0.00088919204 -0.0021939713 0.0030707577 -0.004503339 -0.0024521821 0.0022328985 -0.00266898 -0.00019298297 -0.0011536687 -0.0022684145 0.004740737 -0.00012335162 -0.0017294764 0.0047353804 0.002859641 0.0046120044 0.0037879667 0.001975996 0.003069272 -0.003547021 0.00021882768 -0.001089162 -0.00507929 -0.0038045421 -0.00013483006 -0.0033612656 -0.0025760108 0.0038380367 -0.0030258687 -0.0023685757 -0.00037368305 -0.0029228455 -0.0015932077 0.0021734687 -0.001598965 0.003041654 0.003918809 -0.003525039 -0.003297246 0.0011910441 0.0047432124 0.0035749187 -0.0020098628 0.0005190481 -0.0035340227 -0.003118549 0.0001607759 0.0028845088 0.0010488963 0.0047842017 0.00015460623 -0.0039066924 0.0037513557 0.005002144 0.0022785787 0.0029778352 0.0024423522 0.0037725386 -5.8061787e-06 -0.00259205 0.0020532703 0.0030373249 -0.003169271 -8.032413e-05
。 0.0009449782 -0.0024676905 -0.0034511513 0.002512484 -0.002515808 0.0041898084 -0.0022024761 0.0017196407 -0.003280309 0.0047126343 0.0024942106 0.0020979918 -0.00077352347 -0.0019256317 -0.0045323796 0.00039711792 0.003988072 -0.0022009045 0.0024675662 0.0043410445 0.0047870968 0.0024720733 -0.00070365804 0.003030069 -0.0046032984 0.0040590614 0.003714132 -0.004335269 0.0023009495 0.0034065999 -0.00017199558 0.0013540016 0.002159629 0.0049896417 0.0012218927 -0.00026261297 0.004529214 -0.00110094 8.3771876e-05 0.0039358335 -0.004371189 -0.0008116928 0.0035848382 0.0042739133 0.0035788477 0.0039220513 0.0040184828 -0.0020991445 0.00057760393 0.003642734 -0.0003923063 0.0005393317 -0.0024565214 0.001086159 -0.0020243297 -0.0012272809 -0.0035702388 0.0046583503 -0.002599542 0.0026099503 -0.001122368 0.002736754 0.0038755557 0.004499747 0.00082221965 -0.0009278419 0.0044356864 0.0003624175 0.0049453024 0.0030434488 -0.0036957192 0.00069849734 -0.003535785 8.367842e-05 -0.00076502457 -0.0039493823 0.003906951 0.0020879568 0.0049000815 -0.0010125672 0.0024492636 -0.0013128013 0.0039193807 -0.00015816528 0.0007188813 0.004011877 -0.0039297664 -0.0018512642 9.221151e-05 -0.0002818835 -0.00030270364 0.0017547966 -0.0045710886 -0.0017448748 0.0003977663 -0.0043971194 -0.004517339 0.0048883595 0.0049484544 0.0024018968
发炎 -0.0016201793 0.0021710573 -0.0035527 0.0019862303 0.003111305 0.0008778535 -0.003877972 0.003214365 -0.0013995672 0.0038871616 0.0011107284 0.0042727673 0.004858414 -0.0022954177 -0.0034646883 -0.0023411396 -0.0014580383 0.0012725155 0.0015456682 -0.0029182385 -0.0019055193 0.001613264 -0.0020224936 -0.0034913523 -0.0028680305 -4.0883988e-05 0.0049258154 -0.004719515 7.18817e-05 -0.0022512944 -0.0007558883 0.0030078208 0.00434908 -0.0048959786 -0.0042633493 0.00057836925 0.0008122515 -0.0016971256 0.0009296024 -0.0011189812 -0.0040831435 0.0038852026 -0.0010136209 0.0007380156 0.0034992925 0.00079726597 -0.0041480307 -0.0003253415 -0.00016434547 -0.0004947691 -0.0038835334 -0.0016160735 0.004231513 -0.0047951895 0.0020676 -0.0046222396 0.004631117 0.0044637118 -0.0030504288 0.004436556 -0.0016554969 0.002625244 -0.004287135 -0.003556441 0.0042912588 -0.0012160591 -0.004399523 1.3209777e-05 0.0005549102 -0.0033208772 0.003668391 -0.0016166611 -0.0006000579 0.0023303959 0.004123379 -0.0015071341 -0.001222488 -0.004050062 0.0034038809 -0.00021604971 0.003795887 -0.00045579005 -0.004726343 -0.0014201902 0.0024680684 0.0008675055 0.0020414768 0.004598818 -0.0018830625 -0.0045533977 -0.00038485273 0.00056904176 -0.0018176159 0.0010949931 -0.0045400513 0.00016615175 0.004186446 -0.00048149395 -0.0042109536 0.003919474
要 -0.004423548 0.0014216295 0.0043474836 0.004625071 0.00041696065 0.00057335594 0.00042512832 -0.0028400517 -0.0026701111 8.5639724e-05 0.004902697 -0.0009354163 -0.00060555735 -0.0021090235 0.000832662 0.0039489837 0.0013562179 0.00037642822 -0.002266186 -0.003853136 -0.0027288583 -0.0036552716 0.0010618016 0.0043411604 0.004021258 -0.00047189658 0.00039972912 -0.00022957347 0.002398075 -0.0037449063 -0.004564375 -0.002508421 0.00051587983 -0.004808092 -0.0015270283 0.004958862 -0.00019878185 -0.0039609238 0.003567183 -0.0018249574 0.002545924 0.001137246 -0.0026477417 0.00048256348 0.0048543788 0.004333242 -0.0015451622 0.0025892092 0.002967126 -0.0049002096 0.0046070996 -0.00020648853 -0.0030906312 0.004440562 -0.0010276042 0.0027291018 -0.0028175018 0.0028705765 -0.00053674047 0.0032874101 -0.003428521 0.0037969223 0.0024967028 -0.0043759774 -0.002107773 0.00015847947 -0.00036303868 -0.003226975 -0.0008693118 0.003328414 0.0032686647 0.0011909462 -0.0019679388 -0.0039958805 0.0008237236 -0.0038911758 -0.0032048796 -0.0037311038 -0.0032612567 0.0014408176 -0.0033561229 0.0019592438 -0.0031468088 0.0047482485 -0.0014344371 0.00055358675 -0.004148292 0.00024242568 0.0025970316 0.0010983092 0.00040676593 0.0039288946 0.0047982726 -0.0032589354 7.127009e-05 -0.0018353037 -0.0034943027 -0.0047026617 -0.0045276764 -0.0026001337
儿科 0.0035086966 -0.0037462704 -0.00050454366 0.0025425528 0.0006147841 0.004285674 0.0018097552 -2.6450492e-05 -0.0040157665 -0.0022748332 0.0049353135 0.00026517804 -0.0034931193 0.0036918188 0.002791733 0.0025902484 0.0017155427 -0.0030127277 0.0035707993 0.0025448524 0.0009728931 -0.00090251 -0.0049935402 -0.0015920759 0.0040010614 -0.0010535244 0.0037851594 0.00011498201 -0.0035109937 -0.002189587 -0.00401344 -0.003328741 -0.0039158114 -0.0037941465 -0.0020513455 -0.004143388 5.839029e-05 0.0044767605 -0.0045623467 0.0034543648 0.00062639767 5.2934054e-05 -0.0031198435 0.00018293149 -0.0027196694 0.0003486969 0.0014667126 -0.004424259 0.0021630602 -0.0021086934 0.00014356562 -0.0029180532 0.0020768743 -0.0006632104 0.0030848556 -0.00014551007 0.0025829594 0.0036936884 0.0036405302 0.0029710967 -0.0003345661 0.0019464205 -0.0032596749 0.004426262 -0.0046788356 0.0008575188 -0.003570369 -0.004166021 -0.0033203682 9.102017e-06 -0.0007733754 0.0030421386 -0.004723743 0.00032582495 -0.0005890221 -0.0026157103 0.004790975 -0.004666001 -0.0033582835 -0.0045538256 0.0038262487 -0.0005783926 -0.00044392588 -0.0012143366 0.0029285322 -0.0035828054 0.0020437425 0.0037919062 0.0010899953 0.0036384477 0.0018646426 -0.003202297 -0.004939701 -0.0022920468 -0.0006473544 0.00038755426 0.0026658315 -0.0013489899 -0.0035339515 -0.0006073255
看 0.004335243 0.0035325247 0.0021037448 -0.0025505386 -0.0027418132 0.0021697003 0.0028061152 0.001151422 -0.0014607884 -0.0036623394 -0.0021924158 0.0034587027 -0.00372584 0.0049526794 -0.0028635208 0.0036369432 -0.0006556273 0.0030464453 7.5183285e-05 -0.0021028833 -0.004616702 0.00468984 -0.00063867756 -0.0031989894 0.0039168126 -0.003787448 -0.00015163374 -0.0028980917 -0.002758335 0.002642146 -0.004545196 0.0039396007 0.0021329173 0.0024032625 0.0042806696 0.004733815 -0.0029179188 -0.0033052843 0.00012445459 -0.0025335234 -0.004580826 -0.0032498657 -0.00082284043 0.002514298 0.0020059317 -0.0019432054 0.0039239023 -0.00035248455 0.00016306859 0.0034756598 0.004769404 -0.0038243348 -0.00043039542 -0.00050362735 0.004232016 -0.004502087 -0.004863027 -0.0049942215 0.0025656885 -0.0044839047 0.00088846846 0.0028438414 -0.0031995724 0.0024359873 0.002234189 0.0048351376 -0.0006553641 0.00041511818 -0.0006839832 -0.0034863362 -0.0014818559 0.0026090497 0.0019568496 0.0023004946 -0.0007101232 -0.004850801 -0.004642677 0.0050393557 0.0019015452 0.0022069446 0.0020709625 0.003413754 -0.003396171 -0.0037619222 0.003113447 -0.0030875467 -0.0041205194 0.003181913 0.0042955694 -0.0040592737 -0.0019005134 -0.0026752385 -0.0028878204 0.0007151547 -0.00072555454 0.0049076574 0.0006723605 0.000968408 0.00099883 -0.0025675439
需要 -0.0010682024 0.0023855574 -0.0022130627 0.0034704176 -0.0028798657 0.0007214197 -0.0040248963 0.0030355903 -0.0045955125 0.0007254992 0.0032695131 0.0046067927 -0.0038478854 -0.003927161 -0.0006210401 -0.0027958166 -0.00402385 -0.0046493527 -0.00052692485 0.00016504985 0.0028857512 -0.0026691395 -0.0012517112 -0.00034104963 0.002910615 -0.00037530295 -0.0015723956 0.0013916714 -0.004607522 -0.0029816392 0.00044167376 -0.0036587508 -0.004265444 -0.0005800999 -0.00069584366 -0.000724095 0.0028216257 0.0013046694 9.858518e-05 0.0005821356 -0.004328317 0.0016298725 0.0020997224 0.0028611687 0.0007361549 0.0037196777 -0.0040249545 -0.0012333571 -0.0044597625 -0.0008936 0.0017284679 -0.0042751497 0.0034031377 -0.0033367246 -0.0011077294 -0.0035058402 -0.0036653066 -0.00037903208 0.00022814673 0.004584946 0.0041656652 0.0036989802 -0.0041625607 0.0028619303 0.0011602696 0.004962312 -0.00033484068 -0.0013955956 -0.001705614 -0.0039889663 -0.0017058684 -0.0023145403 0.0031389575 -0.004343742 -0.0013676481 9.605908e-05 0.0019916699 0.0026110949 -0.0029825342 0.001833696 6.190165e-05 0.00046373974 0.0025690042 0.003943549 0.002117808 -0.00018281653 -0.0038145252 -0.0040500094 0.00373303 0.0046026567 0.0013182486 0.0041915583 0.0008222876 -0.0018181463 -0.0016603874 0.0043154266 -0.0010230903 -0.001075285 0.0024681857 -0.0027514668
吃 -0.003924485 0.0037795766 -0.00079250813 0.003196916 -0.0030336734 0.0034079105 -0.0040111262 -0.0021102382 0.0016422536 -0.004927939 -0.0004650326 -0.0018980274 -0.00016331312 -0.000726466 0.00065218506 0.0030445205 -0.003260349 0.0015363682 -0.003339805 0.0022036277 -0.00049946614 -0.003426271 0.004197758 0.0027945484 -0.0040747127 -0.00442412 -0.004201839 0.004359575 -0.0017775777 -0.0009237017 0.0050468324 -0.0033079977 -0.0034320874 -0.0034392716 -0.0007935393 0.0020242357 -0.0013323856 -0.0015165703 0.0013912087 0.004389015 0.004535371 0.004708984 0.0047065676 -0.0037876742 0.002661808 -0.0032146748 -0.0043080095 0.0026144064 -0.0010029222 -0.0021717045 0.0048961025 -0.004448792 -0.0030932073 0.0035083226 -0.0039025736 0.0030325556 -0.0038977638 0.002613871 -0.0009371136 -0.0015115121 -0.000763439 0.0029403127 0.0022481524 0.001662624 0.0049533937 -0.001038022 -0.0029352938 -0.0017724846 -0.0042093005 -0.0031862543 -8.303593e-05 -0.001769466 0.0048546023 0.0023423783 -0.003949402 0.0034290364 -0.00012021296 0.0019426041 -0.0045262035 -0.00023638326 0.00053504895 -0.0017852694 -0.003264693 -0.0009224401 0.0034715885 0.00016558023 -0.0022840602 0.004408486 -0.004132071 0.0041446215 0.0021995497 -0.0035182328 0.0009494105 -0.0047246525 -0.0008650498 -0.0011723972 0.0012440208 -0.003461857 -0.0042062853 0.0031132852
药 -0.0047379383 0.0040239436 -0.004112043 0.0015401123 -0.0013269203 0.0011745908 -0.00050694746 -0.0022256775 0.002509592 0.0043998873 0.0012339322 -0.004442693 -0.0024670453 0.0021117122 0.0015667011 0.00095831376 -0.0014812057 0.0017934156 -0.0027053533 -0.0020725648 -0.0013646268 -0.0026131324 0.003351315 0.003512937 -0.003356963 0.004548443 0.0026152716 0.0026616347 -0.0018324915 -0.004125983 0.0011796219 -0.0047587715 -0.0015146841 -0.00017461812 0.0039786454 0.003579254 0.0020360586 0.0033173836 0.002494884 0.004902804 -0.0018879363 -0.0039040938 0.002411042 -0.0027155615 0.003595563 0.0049545267 0.0026785748 -0.0007214416 -0.0047802543 -0.0020120249 -0.002438186 -0.0048391125 -0.0005522451 0.0016849999 -0.00020425644 0.004249867 -0.004136454 -0.0044021993 0.00050533505 -0.0049219117 -0.00056580204 0.002088963 0.0048099807 0.00063725683 0.001823036 -0.004085831 -0.0029269063 0.0039542173 -0.0023736295 0.000927169 0.004956723 -0.0021724422 0.0027295651 0.001847297 -0.003157897 0.0038010587 -0.0025540316 0.0021605475 0.0039231973 0.004333064 -0.0035452682 0.0035720635 -0.0021499477 0.00344655 0.0014044056 -0.0014685935 -0.0034749547 -0.0021390808 -0.0026717887 -0.0010297765 -0.0025205754 -0.00051171385 -0.0036154673 -0.003879672 -0.0020163308 0.0018222267 -0.00024062669 0.00063912856 -0.0025365695 0.0020632097
孩子 -0.0043078153 0.0019689056 0.0003321809 -0.0028386754 -0.0007182319 0.0028557966 -0.0016613972 0.0011698694 0.003681156 -0.0026023572 0.0028029028 -0.0020503057 0.0043738126 -0.0011723554 -0.003079311 0.004592049 -0.0032126338 -0.002715132 0.00063728093 0.0027338169 -0.0035029 -0.0038820184 -0.0016936826 -0.0025251387 -0.0024686358 -0.004753181 0.002621954 -6.242838e-05 0.0033696503 -0.0007096292 0.0022165163 -0.0020178466 -0.0031191013 -0.00071046327 -0.0018569641 0.0041730464 0.00462386 0.002393219 0.0048346412 0.001022676 0.0042947107 -0.0039017857 0.0015812144 -0.00012480374 0.0006498532 0.0026354208 0.0025126112 0.0037041684 -0.0017728064 -0.0013964869 -0.002415432 -0.0019318911 0.0007024168 -0.0011686467 0.0010360122 -0.0021535603 0.0046236096 0.0033071125 0.0013140574 -0.0043131704 -0.0035040039 -0.00072243396 -0.0016033079 0.0010027825 0.004662567 -0.0003811676 0.00079887774 0.003251921 0.0006432955 0.0028251042 -0.002366725 0.0020000543 0.0040534385 0.0021839717 0.0026140055 -0.004514568 -0.004032559 0.0040446664 -0.0040695546 -0.003263564 0.0013456318 -0.00344268 0.0017564049 -0.00032945356 0.00066067016 -0.0039634383 0.004048832 -0.004923403 0.003164844 0.0016484117 -0.003237512 0.0003328524 -0.0007797431 -0.0012193699 0.0022936405 -0.0012716124 0.0025151102 0.000578761 -0.0040524085 0.0030696515
在 0.0046905135 -0.0013105514 -0.0034409042 -0.0037537408 0.0033481235 0.0037720213 0.003224017 0.004723633 -0.0032536038 0.0012082881 0.0038716174 -0.0026885783 -0.0041115065 -0.0001753688 0.0033454865 -0.00034224935 0.002930931 -0.0004336397 0.0014609236 0.004164699 -0.0006595515 0.000657891 0.004633185 -0.0043957112 -0.0034143284 -0.0029102606 0.0037702203 -0.0007670672 -0.0025412713 0.0020013559 0.0028455795 -0.0020170345 -0.00083718577 0.0043567587 0.0008627814 0.0013792447 -0.0014462466 -0.00021840031 0.0021873543 -0.0006820138 0.0008805017 0.0046323156 0.0014301859 -0.0024474773 -0.0021821405 0.00022956445 0.004858597 0.0010764314 0.0031344001 0.00041085144 0.004269365 0.00495969 0.004808558 0.0048829736 0.004143806 -0.0035534468 0.0026292847 -0.0028501267 -0.0024289042 -0.0031335612 -0.0017386904 0.0023028948 -0.00077785423 -0.004026911 -0.0033742238 -0.0026983542 -0.003631787 -0.0030004692 0.003626878 0.004857121 0.0019488322 0.0019241102 -0.0020992423 0.0014327571 -0.000984979 0.0021560634 -0.002563075 -0.0034492484 -0.0039784373 0.0029815775 -0.0025495924 -0.0037644831 0.0029820732 -0.0018181874 0.004005559 -0.0036519822 0.0011030171 -0.0026328985 -0.004121735 -0.0030372806 -0.002812545 0.0028999627 -0.003716037 -0.00058826973 -0.001802619 -0.00068249647 0.0014393008 0.004610308 0.00080851314 0.0026407472
检查 -0.003678094 0.0013779035 -0.0019282637 1.0883803e-05 -0.0018060452 -0.004227833 0.003377867 -6.0997663e-05 -0.0028349943 -0.0020377212 0.0003665063 0.0031433676 -0.0016899793 -0.00428615 -0.004674525 0.004113512 -0.0037653472 0.004441923 -0.0008767291 -0.004730196 -0.0023080616 -0.00020490255 -0.0025159859 0.0014788426 -0.0015095647 -0.0013182518 0.0030154942 -0.0013506018 0.00063338137 0.00030992023 0.003570914 -0.0044365134 0.002197634 0.00085505424 0.0029012687 0.0034277544 -0.0025569287 -0.0013956317 -0.0036263268 -0.0016878247 0.0046972954 0.0007461546 0.004997839 0.0017709847 5.590282e-05 0.0010215525 0.002273411 0.0041631595 0.0045796144 -0.0043904693 0.0004976552 -0.0046784524 0.004574017 0.003324237 7.874047e-05 0.0015862418 0.0018795171 0.0028399148 -0.0010485864 -0.00322609 0.0027324385 0.0035258466 -0.00068442576 0.002647881 -0.0008557858 -0.0028794084 0.0035609186 -0.0041896515 0.0027681042 0.0041101673 0.00068436126 -0.0036628337 0.0037719114 -0.00370156 -0.0026978054 -0.0002771992 -0.0048011015 0.0017296283 -0.0032849016 -0.0038798223 0.0019580384 0.0038515027 0.0049899686 0.0046563614 -0.0028226597 0.003496819 0.0018861974 0.004313355 -0.0037932438 -0.0015600865 0.0009801498 0.0043965974 -0.0012940158 0.00102917 0.00045767555 -0.0006202058 0.0042915326 0.0039822166 -0.0021905757 0.0034723962
现在 0.0027729708 0.0021610586 -0.0025702282 0.0018023817 0.001304304 -0.002433191 0.0022476518 -0.0015667869 0.00097274414 -0.0036127614 0.0035615796 0.003740491 0.004540736 0.00022094062 -0.0024591954 0.0035641906 -0.0012689296 -0.0011445472 -0.000107697604 -0.0020957289 -0.0028972523 -0.0009829864 -0.001995208 0.0039161183 -0.0039391625 0.002493091 0.0018363479 -0.0032670137 0.0029541883 0.0015163603 -0.0014672842 -0.0024946071 -0.001593274 -0.0024358637 -0.0029113516 -0.004538038 0.0013805871 0.0037449936 0.004077522 0.0022208474 0.0038144197 0.003758546 0.0039244294 0.003876316 -0.0025105097 0.00053947355 0.002014086 0.0003451031 -0.00092366495 0.0009837537 -0.0013008954 -0.002058116 -0.0007963493 -0.0043600663 0.0024551903 -0.003217682 -0.0047765994 0.0033457964 -0.002606844 0.004314501 -0.0016483702 -0.0038714076 0.0014872015 -0.0009370081 0.0018739934 0.0048461407 -0.0018171028 -5.122029e-05 0.00020019905 0.0025870882 0.0038616518 -0.004159644 0.004560376 -0.0042749993 -0.004326587 0.0020848347 -0.0020584618 -0.0017929834 -0.004034817 0.004524817 0.002735053 -0.0031401943 0.004424114 0.0034145385 -0.004334178 0.0044851983 0.0022953448 -0.0028862094 0.0029639658 0.0012761927 -0.004571794 -0.004734297 0.0026031688 -0.003677773 0.0017447614 0.0012994095 0.00094273174 -0.00044125452 -0.0038572755 -0.0033300293
问题 -0.00087911624 0.0034551749 0.0014605685 -0.0019088949 0.0004826945 -0.0009881061 0.0015976956 0.0037671458 0.0009413217 0.0048656906 0.0013683173 0.0025156126 0.0010704225 0.0034474689 0.0035007596 0.002563628 0.0049024415 -0.00012771503 0.0043676673 0.0028872306 0.0037792001 0.0039620977 0.00038945177 -0.0034786065 -0.0040632575 0.0035486128 -0.0023601598 -0.0035423602 -0.0019312372 0.003662633 0.0035835912 0.002709135 0.0035477204 0.00450257 0.0050325193 0.004059078 -0.0046246946 0.0012701751 0.00422351 -0.0035526908 -0.003049484 0.0016845788 -0.00022301186 -0.0024724728 -0.0009078086 -0.0010579138 -0.00454209 0.0022674513 0.004425991 -0.0029604689 -0.003488492 -0.00054672844 0.0039796396 -0.0022512653 0.0008016267 0.00044674988 0.00026975444 -0.00032584905 -0.0027977903 -0.00033725702 0.0032364714 -0.0018176236 -0.0031620117 -0.0035041568 -0.0028116978 0.0019159941 0.00042773978 0.0039905296 -0.0018037391 0.004422249 -0.0031869204 0.004007719 0.0049622706 0.0014267573 -0.004980289 -0.00095851003 0.004342381 0.0035259821 -0.001958659 0.0006487001 0.0030392127 0.00091822434 -0.0012531267 0.0012572653 0.0044850614 -0.0015508239 -0.003747205 -0.0033372708 -0.0015941246 -0.0039969245 -0.0013662098 -0.0024568297 0.002386696 -0.0024579505 -1.6962758e-05 0.0012155788 0.0044578365 0.0025257524 0.0012099912 0.0017756325
严重 0.0034033908 -0.0026719612 0.0016134131 0.00092532794 -0.00039699537 8.5716325e-05 0.0022632382 0.0020133292 0.00484969 -0.0024873726 0.0003902113 -0.0016273344 -0.0039788494 0.00049361744 -0.0023916818 0.0033755337 -0.0012010236 -0.0032484906 0.0026047921 -0.00010397757 -0.0017467643 -0.00055669056 0.004159699 0.004029746 0.0035612364 0.0018030872 0.003979525 0.0044722585 0.0016508739 0.0010358957 0.0011420504 -0.0009104008 -0.0038302196 0.003939256 0.0046313955 0.00018414424 0.0023537301 -0.0044668084 0.0015683906 -0.002830776 -0.001460627 0.0030604792 -0.002609242 0.0015366776 -0.0003032812 0.001332667 -0.001021696 -0.0012579773 -0.0013651552 0.0034411757 0.0018869013 0.0037651923 -8.050705e-05 -0.0008861974 0.00040554197 0.0014426504 -0.0011071209 -0.004224305 -0.0026867373 0.003976047 -0.0021157125 0.0012858964 -0.003670459 0.00076864904 -0.0023267649 0.0027668525 -0.00010892179 0.0039408975 -0.0030768437 0.00097371027 -0.00360853 0.0032597282 -0.004827025 -0.0029281548 -0.005085079 -0.0010816762 0.00150244 0.0006787213 0.0023617502 -0.0010558501 0.0035335126 0.00070045097 0.002995829 0.0048024105 -0.00089573156 0.003866945 -0.00081215356 -0.00068952044 -0.0026251017 0.0027045822 -7.4298754e-05 0.0013219676 -0.0033026 0.004297782 -0.0015897849 -0.0031502515 -0.003152601 -5.7759175e-05 0.0032970274 -0.0034397333
科 -0.0028922015 0.004531806 0.0009519767 -0.001669479 0.0024171122 0.0024531323 0.0027203248 -0.004605663 -0.004049801 -0.002590855 2.1957332e-05 -0.004558763 0.004003073 0.00040759976 -0.0021143672 0.002285516 0.0038088998 0.0041923807 -0.0033242672 0.0039419546 0.00473986 0.0014116366 0.0017747555 0.0032770804 -0.0045188284 -0.0038602962 0.00018748529 0.0009929588 0.0026575194 -0.0049912026 0.0025465877 -0.0012017754 0.002554403 0.00067370327 -2.481344e-05 0.003680947 -7.833829e-05 0.0039307885 -0.0028457744 0.0035383508 -0.0018601309 0.0025414375 0.0016841005 -0.0031022474 0.0037600878 -0.0017628504 -0.0017292072 -0.0012902333 -0.0031556045 -0.0021952423 -0.0045278203 0.0016701415 -0.0032533023 -6.5411485e-05 -0.0033583588 -0.0017432129 -0.004410801 0.0031533425 -0.00022624989 -0.0029197624 0.003981726 -0.004400721 -0.001648258 0.0034110623 -0.003094225 -0.004512541 0.001173022 -0.0038924387 -0.004968346 0.0027183823 -0.0020187828 -0.0014956098 0.000845612 -0.0022183696 -0.002268527 -0.0010801494 0.0009082329 0.003877715 0.0027971752 -0.0012067435 0.0027966397 0.00043095034 -0.0015357523 0.0033380773 0.0032719984 0.0043005734 0.0021604942 0.0040364047 -0.0045211683 0.0012503419 -0.004035778 0.0016289633 -0.0040864227 -0.0044141957 0.0018590302 -0.0023600818 -0.0024253803 -0.0008660212 0.0040255184 0.0011952127
开始 -0.004013225 -0.0028022956 -0.0007754714 0.00404676 0.0044960626 0.00081447465 0.0021689378 -0.0040549748 -0.0017038339 0.0009879903 9.088976e-05 -0.0022678112 0.0030737778 -0.0035742426 0.0022383058 0.002462786 0.00033453584 -0.0039309855 -0.0047848877 0.0029193007 0.0042131227 -0.0040814136 -1.4376953e-05 -0.0020251225 -0.0011791948 0.0012216407 -0.0030072157 0.0023728053 0.0032628274 -0.0049271365 0.00042286023 0.0037937262 0.004548284 -0.0031292404 0.0012148699 -0.0037979297 0.0007202467 0.0011868352 0.00077877764 0.002112463 -0.003321482 -0.002702284 -0.0028608216 -0.0029706983 -0.0022952664 -0.0014089787 -0.0032338197 -0.0040593613 -0.0046887877 -0.00022345402 -0.0037798758 0.0036236488 0.0027240044 0.0019666164 0.0021052365 -0.0007844791 -0.0043213735 0.0033673851 -0.0027450558 -0.002183785 -0.0015621033 -0.002761746 -0.0026915583 0.0010916296 -0.003333796 -0.0036056542 -0.002989215 0.0025315273 -0.00388272 0.004918125 -0.0024593633 0.0042493087 -0.0047241696 0.0026620713 -0.0047096745 -0.00029105984 -0.002931338 0.0017217647 -0.0022606573 0.0045952974 0.0012056907 0.0021509512 0.0016473741 0.0017469032 0.0045561357 0.00046739 -0.0015218345 0.0030438823 0.0030610438 -0.0033586684 -0.00017333002 0.0007823408 -0.0040090866 0.0019649265 -0.0027177653 0.0019563052 0.00075921137 0.0015987147 -0.00044695204 0.0016629504
吐 -0.0030678038 -0.0016673638 -0.004754164 -0.0037659912 0.0046947524 0.0043010027 0.0008934579 -0.0033221422 -0.0045748544 -0.0009994784 0.0025025224 -0.0044586593 0.00028544362 0.0026345644 -0.004534548 -0.0036391008 0.0013897143 0.0038008618 -0.004165303 0.0030960883 0.0038785336 -0.0012592945 0.002004464 -0.0038388227 0.00032183068 0.0012737004 -0.0028061937 -0.0032866409 0.0040694815 0.0028422263 0.0025509086 0.0020830687 0.0037341209 -0.00056454126 -0.0005677929 -0.00063128624 -0.0036361073 0.0017376068 -0.0025980135 -0.001528585 -0.0020770587 -0.00030828136 2.6859083e-05 -0.0013747567 -0.0011335211 0.0046272147 -0.0030877618 -0.0006174349 -0.0033857678 0.0048683374 -0.002945969 -0.0025055266 0.00047375815 0.0035319922 0.00328034 0.0028518303 0.0018077956 -0.0028967902 -0.0019711861 0.0014352378 -0.00024012901 -0.0020842014 -0.0019717445 0.00058372575 0.0024086453 -0.0038583663 0.0009292236 0.00083225407 0.0033300756 -0.004111775 0.0027809045 -0.004630193 -0.001925989 0.0043571377 0.00095168484 -0.0022526418 -0.00057000166 0.0037640296 0.0015539885 -0.00468363 0.00455283 0.00025236077 0.0012975755 0.002975443 0.0003288792 1.6900967e-05 -0.0038754216 0.0041272063 -0.0001536883 -0.004232718 0.0034704509 0.0044175647 0.0021013669 0.00018411245 0.0012941228 -0.0015864547 -0.0013540626 0.000267672 0.002560695 0.00049372757
验血 -0.0002423807 -0.0046874415 0.0027739725 0.0026125116 -0.0019771773 0.0010186821 -0.0026103803 -0.0030511864 0.0012531367 -0.00050649216 0.0038729743 0.003001058 0.00072728825 0.000938401 0.0014373979 0.00327708 -0.002266483 0.002685547 0.0015099905 -0.0003679562 -0.00011242055 -0.0005342868 0.0020039168 0.0035754726 -0.0038785117 -0.00079533074 0.00042922763 0.0011183259 0.0016841764 -0.0039574457 0.002005468 -0.003306779 0.004228043 9.8856464e-05 -0.004576933 -0.0010080289 0.0049777464 -0.00419099 -7.1549143e-06 -0.003300982 0.004139965 -0.001131938 0.0014418173 -0.004119804 0.0028841998 0.0028167856 -0.0009474395 -0.0026096099 0.0009554621 0.0010796288 0.00043865707 -0.001209391 -0.0022277317 0.004727392 -0.004000441 0.00021685599 0.0028819828 -0.0010632233 -0.004949556 -8.786578e-05 0.00016705935 -0.00031224667 0.0034403752 -0.0008431207 -0.0004534379 0.0038174696 0.00399741 0.0048716515 -0.004842591 -0.0033325201 0.0005513064 -0.002121404 0.002670057 0.0032977893 0.0012766775 -0.0005238597 0.0047359234 -0.0040611993 0.0045255353 0.004854201 0.0005736108 0.002283992 -0.0035669042 0.0004239213 -0.0006643986 0.0010448516 -0.0008368716 0.004739937 -0.00248388 0.00022939206 0.0029338498 0.0016332255 -0.0044348086 -0.004760705 0.0014262922 -0.002631964 -0.002069199 -0.0027087633 -0.00028061643 0.0034903234
后 5.98113e-05 -0.003295469 -0.0011310396 0.0019264271 0.0018965877 -0.0022068867 -0.0011085338 0.0038544172 -0.0039263004 0.0035446603 0.004124971 0.0035143727 -0.004160595 -0.0007370005 0.0029376694 -0.0039671725 -0.0035886695 -0.0030871946 -0.0027902853 0.001963055 0.004589877 -0.004984408 -0.0021213985 0.00050722214 -0.002761655 0.0023374925 0.0029241361 -0.003844141 0.0043168804 0.0044720154 -0.0039788424 0.002454415 -0.0002904199 -0.0002588517 0.00059072603 -0.0010714896 0.0015883269 -0.0023064143 -0.0034668106 -0.0038289474 0.004001872 0.0017234846 0.0038427913 -0.0041500977 -0.004823089 -0.004449307 -0.0024649631 0.0041839723 -0.0043446594 0.0016682503 -0.004939581 -0.00028689468 -0.003690239 -0.0023660017 0.00069499353 -0.0027617451 0.004679006 0.00486703 0.00397573 0.0038098749 0.0013752391 -0.004383801 -0.0022936636 -0.003427379 -0.0024104146 0.0016253113 0.004593813 0.0039746924 -0.0010959875 0.0024936204 0.0042687906 0.0019205353 0.0015352909 -0.0021747635 -0.0047459556 -0.0044576633 0.0029460764 0.0036823258 -0.004522946 0.0030538626 0.0024059396 -0.0028729648 0.0015504541 0.0007014638 0.00034963893 -0.0036081926 -0.0049856342 0.004801446 -0.0022026203 0.0018842876 -0.00014243895 7.026346e-05 -0.0038147683 -0.003538637 -0.002975176 0.0017129513 -0.002010474 -0.0035422177 -0.003287669 -0.0034571863
都 -0.0029497503 0.003573521 -0.0010180294 -0.0013711036 -0.0033096245 -0.0013502031 0.0045475555 0.003987573 -0.004145061 0.00091059774 0.0035945347 0.0022284994 0.0015688632 -0.0019100519 0.0006694649 -0.001818158 -0.004302616 -0.0016641857 0.0009177842 -0.0016062874 0.00059571065 -0.0038801152 0.0015700944 0.0021340165 -0.00131188 -0.0023727224 -0.003693497 0.00082915206 -0.002329947 0.0015577635 0.001385023 -0.004300229 0.00021913201 -0.0012640792 0.0044017346 0.0014278939 -0.0014803397 -0.00014707979 -0.00070825027 0.0030300631 0.0034156379 0.004334439 -0.001383186 0.0010400916 -0.002016585 0.0012374682 0.0010856949 -0.0050215037 0.00014740217 0.00065699505 -0.000116148054 0.0033838842 0.0024124351 -0.0033181282 -0.0048528872 0.0003045947 0.0024543293 -0.0037429996 -0.0049236654 0.0012820496 0.0041266596 -0.003891781 -0.0010919725 0.0033795913 0.00028632276 0.0038414004 -0.0013521939 0.0016684694 -0.0031148347 0.004018087 -0.00042880935 0.0037034715 -0.0016542674 0.0011378292 0.0006171037 -8.954918e-05 0.003779874 -0.004798115 0.000764958 0.0018147075 -0.0014531885 -0.0017637563 0.0040636207 -0.0009998619 -0.0042066476 -0.0034439657 0.0029601725 -0.001154872 -0.0049658027 0.0037975176 -0.0039393073 0.0020118009 0.0031579537 0.0041795303 0.0038789993 0.0022565925 0.004992037 0.0046279617 -0.00017942772 -0.0022469815
？ 0.0031035782 0.0042419233 0.0028768883 -0.002094095 -0.0043085646 -0.004524514 -0.004570273 -0.0031471984 -0.004090356 -0.0035717937 -0.0043768967 -0.0009159802 0.0043853982 0.003022707 0.0049501224 8.828862e-05 -0.0012744056 0.0041142935 -0.0040805573 0.004139215 0.0031587859 -0.0038624057 0.004366802 -0.0038692048 -0.0045950147 0.0014712457 0.0016480515 0.00049892266 0.0016936125 0.0040431074 -0.002132918 -0.0025693916 -0.0023914909 -0.002896501 -0.0009498243 -0.0026877047 0.0013082192 -0.0023000876 -0.0019920485 -0.002291718 0.0037379197 0.0016874768 -0.0026531888 -0.0030909998 0.0010647514 -0.0018086375 -0.004360832 -0.003565671 0.0025745048 0.0044704853 -0.001200308 -0.00022951877 -0.0019533797 0.0036186313 -0.00040020543 -0.004705569 -0.002871798 -0.0039703427 0.0004622508 0.0021452857 0.00040345133 0.0027646306 0.00036951978 0.0006188249 0.0047010807 0.0026003632 -0.0016341525 0.0041768868 -0.00024150439 -0.003388079 -0.0025720084 -0.0032929827 0.00014539018 0.003600127 -0.002620535 -0.0015313558 -0.0012365041 -0.0033323544 -0.0045616855 0.003916526 -0.0031187888 0.0038563143 -0.002862428 -0.00043439734 0.0010414149 -0.0039220545 0.00037122768 0.000770463 0.0035189418 -0.0010755726 -0.0044332165 0.0015695337 -0.0035886772 0.0012006382 -0.00022613168 0.0040187775 -0.0037574316 8.376932e-05 -0.0039149253 -0.0011508669
吗 -0.0004558456 -0.0002437592 0.0041171834 -0.00083438406 -0.00070380553 0.0037428697 -0.0022017797 -0.0025382622 0.00068589195 0.004429169 -0.0019320166 0.004311461 0.0010830784 -0.002981007 0.002164192 -0.0027121007 0.00022815721 -0.00065078354 0.0037794427 0.00021011566 -0.0015211146 -9.509785e-05 -0.000753555 -2.8501565e-05 -0.0029185058 0.0020126298 -0.0042279838 -0.0036817621 0.0019197165 -0.0015338826 -0.0017556621 -0.0006155113 -0.00202256 0.004588133 0.0018800797 -0.0045006233 0.001546874 -0.0022904717 -0.0039418614 0.0046722637 -0.0050179516 -0.003170225 0.0022569767 0.0010417352 0.001957259 0.0036336845 0.0037276826 0.0004515688 -0.0049517583 0.000896721 -0.0037487366 -0.0047004744 0.003137002 0.001983667 -0.0005985378 0.0016578819 -0.0012693182 -0.001606705 0.0022267413 -0.00011225255 -0.00068271696 0.0028558653 -0.0023234684 -0.0006161801 0.002250701 0.004847028 -0.0047702165 0.00066605373 -0.003934701 0.00090780156 0.0005071322 0.0045376066 0.0021038922 0.0032597156 0.0034264138 -0.00069088355 0.0033565783 -0.0039503947 0.004992831 0.004713698 -0.0034738088 0.0023225415 -0.00018673963 -0.00013819769 -0.0013825444 0.0029682089 -0.0022634931 0.004615253 0.0018740502 0.0032878467 -0.0032631748 0.00486215 -0.001139158 -0.0032549894 -0.0034385726 -0.0039265477 -0.0026393367 0.0029150657 0.004187434 0.0037425768
说 -0.0025328072 -1.9761674e-05 -0.0028335946 -0.0042001004 -0.0013244151 0.0017837943 6.639507e-05 0.004943385 0.0007265749 -0.0029827063 0.0048959623 0.0015827785 -0.0029193708 0.0010158635 -0.00038965777 -0.0008295662 0.004588032 -0.00010463922 -0.002701985 0.0004091971 1.9145582e-05 0.0027462868 0.003946417 -0.0033156122 -0.0035630544 0.002755676 0.0048399167 -0.001812993 0.0038918045 -0.0037545357 0.0043471362 -0.0037770607 0.0049441443 0.0014891985 0.0017223841 -0.0014622046 0.0038600583 -0.003928495 0.003592593 -0.0015638949 -0.00095439673 0.00013507748 -0.0006693132 0.002709299 0.002734555 -0.0018592566 -0.0002310792 0.0011691877 -0.001003169 0.004975312 0.0041893283 -0.0035464033 0.0032348651 -0.0048292894 -0.00452284 0.003583219 -0.0043624532 0.003869941 -0.0012397829 -0.00041513456 -0.0016518203 -0.004761926 0.0025600079 -0.0028784752 -0.0027773166 0.0015105444 0.0016852501 -0.004958552 -0.0031689594 -0.004262803 0.0033775293 0.0020825346 -0.0037697311 -0.0016983999 -0.0023716367 -0.003180525 -0.0033532358 0.0027024702 -0.0020859928 -0.0043071117 0.004653476 0.0048627453 -0.0027535914 -0.004418715 -0.0022763868 0.0009047908 -0.0025940156 -0.003330185 -0.0033997404 0.0042621717 -0.0024059364 -0.0045347377 -0.0007943296 0.0014298697 -0.00018459882 -0.0010975634 0.0011848223 -0.0049321563 0.000121901416 0.0023424276
出来 -0.0043724845 -0.0019778896 0.003218551 0.0030924988 0.0006207234 -0.0008873039 0.0008117492 -5.2771443e-06 -0.00037429313 -0.002065228 -0.0041762027 -0.0013871335 -0.001751564 0.0031181958 0.004336154 -0.0025510285 -0.0029442345 0.0034808982 0.004713498 0.003558925 -0.0019992995 0.0028725958 -0.0034471788 -0.0028408244 -0.0022339164 0.0005677035 -0.0049720393 0.004054861 0.0023520153 0.0031658208 0.0040615713 0.002156791 -0.0011259636 -0.00053452526 -0.004024421 0.0035606695 0.0036448804 0.0048959227 -0.0025953774 0.0006343455 -0.0023603647 0.002878369 -0.0046258154 0.0024677333 -0.0038681068 0.0049289917 -0.0047898404 -0.004990933 -0.000824839 -0.001506647 0.003776415 -0.002815821 0.0012932528 -0.00018854348 0.0032707083 0.0034076194 -0.00066339853 0.001535509 0.00083207537 -0.002648613 -0.003102616 -0.0005074551 0.0007734908 -0.0028222958 0.0007439654 0.0048990888 -0.0005436504 -0.0033366196 -0.0027894734 -0.00191142 7.434107e-06 0.00093379366 -0.00089907186 -5.1041814e-05 0.0036908807 0.0025487985 -0.0041301874 0.0019198377 0.0011518348 0.0018444412 -0.003795591 0.0002853456 0.0007215528 -0.00027401108 0.0011493049 -0.0013498551 5.6317305e-05 0.003665783 0.0027527825 0.0009946574 0.0021022903 0.0013558685 -0.0038253197 0.0012705823 -0.0028978263 0.0037559625 -0.0028384596 -0.0037507697 0.0002592392 0.00030969447
因为 0.0022643472 0.0022272558 -0.0020709203 -0.0015442962 0.00031300198 0.00033741255 -0.002415564 0.0013111222 -0.0046784934 8.595263e-05 -0.0031195506 0.0044075754 -0.005003543 0.00010327999 -0.0036521968 0.0045298263 0.0009551929 0.00077030057 -0.001303277 -0.004318766 -0.004544758 -0.0029597532 -0.0041517024 0.0036406687 0.004933954 -0.0036985367 0.0033083048 0.0021752955 -0.00022396399 0.0013513395 -0.0028382142 -0.0004174708 -0.0008708223 0.0042976625 -0.003837937 0.0032983173 -0.0022581643 -0.00016671425 0.0042856284 0.0034905844 0.0021634938 -0.0025890868 -0.0018729107 -0.0007219204 0.0031513353 -0.0032300681 0.0007091218 -0.0019954292 0.0041403365 0.0034443496 -0.0025406405 -7.7798824e-05 -0.0046503413 0.0024288213 0.0038952455 0.0022622503 0.003371353 0.0013005035 -0.0017062946 0.0027836282 0.0020879847 0.0019796267 -0.0008510356 -0.0003108919 0.0025568828 -0.003474509 0.0020875412 0.0010437836 -0.0031686001 -0.0014584545 -0.0030792514 -0.0012265452 -0.0021400626 0.0022685586 -0.0032602 0.003589265 0.0044611422 -6.927411e-05 -0.0039561107 -0.0030064923 0.002523625 0.00013453286 -0.000894673 0.00078318495 -0.0019268435 0.004174147 0.0030059821 0.0041228645 0.0026470344 -0.0007741432 0.0024874262 0.0048954342 0.004511193 0.00038427842 0.0027643787 0.0024708519 -0.0034522025 -0.0020221467 0.00011192522 -2.5497035e-05
请问 -0.0037138767 -0.0038486482 0.0029418543 0.0030390592 -0.003510864 -0.00067519804 0.0034881108 0.0036019804 -0.0033076734 0.0041851075 -0.0025747041 0.0039609126 0.0037092478 -6.647037e-05 0.0049137254 -0.0047005545 -0.0048903176 0.00409043 -0.0014960297 0.002951172 -0.00074882247 0.0038407326 -0.0017983208 0.00088364905 0.0037162842 0.0017634886 0.0007538745 0.0036912018 -0.0023122292 0.00471529 0.0012901932 0.0029572162 -0.0040885685 0.0027288413 0.004676982 0.0010900944 0.0017166571 -0.002729419 0.0042230156 -0.0017335082 -0.0028200971 -0.00026863816 -0.0047964808 -0.001086492 -0.00026730867 -0.0004265823 -0.00039898156 -0.0045104423 -0.0037334803 0.0028831735 0.0021265994 0.004635099 0.0005416546 0.001846707 0.0007566454 -0.0018681687 0.00218756 0.0018680735 0.0023080888 0.00060439453 -0.0017603191 -0.0024380726 0.0032823714 -0.001086706 0.0011886293 -0.0040182658 -0.0042588576 -0.0010609208 -0.0025445516 0.0009121251 0.0017859928 0.004034054 -0.0042844373 -0.0009855622 0.00031612028 0.0005491372 -0.00068899506 0.00041840365 -0.0015645727 -0.002633116 0.0031598841 -0.0019149098 -0.0030191978 0.0029773482 -0.0012223698 0.00017060523 -0.0007714701 -0.00029193747 0.002345001 -0.004545367 -0.0028359336 0.004688331 0.0017819902 0.0042901104 -0.004248718 -0.0047891927 0.0006384305 -0.0031501772 0.00029767383 0.0031515518
这种 0.004552547 0.0007407757 -0.0020754326 -0.0037273099 0.0049842508 -0.0033941776 0.0004818641 0.002739499 0.0034565304 0.0026953332 -0.00034488062 -0.004857735 -0.0013333155 -0.0030108283 0.003470494 0.004509684 0.004267661 -0.0028793397 -0.00042564838 0.001963608 0.0026801198 -0.0013223559 0.002153203 -0.004906401 0.0044314163 0.0049760216 0.0019456975 -6.6469474e-05 -0.003968838 0.00072792824 -0.001073572 0.002041059 -0.0010900891 0.0033287688 0.003306932 -0.004104473 0.0047796704 0.00071750296 -0.004470695 0.0005863808 -0.0020317005 0.0040514898 0.0022813256 -0.0021679958 0.0024390994 0.0025163754 0.0032767195 -0.0010404978 0.0018739493 0.0014964549 0.003560697 -0.00037571503 -0.0025505112 0.0025203552 0.0029914118 -0.003937928 -0.0012348278 0.004624266 -0.0009620883 0.0023782058 -0.0023994166 0.0011310418 0.0048839594 0.004053252 0.00037402892 0.0014969645 0.0015934505 -0.00090020744 -0.0026922976 -0.004926539 -0.0042289863 0.004217584 -0.00060046243 -0.00013722036 0.0017703325 0.004456423 -0.0033664335 -0.0012075684 -0.0042832 -0.001885753 -0.0036585485 0.0020428544 0.0010631963 0.004102418 0.0036596383 -0.0021295657 0.004327168 0.004970898 0.0021721313 0.0040241093 0.004373814 0.00260977 -0.0008999194 -0.0018381381 0.0046321847 -0.0025747165 -0.002061811 -0.0028606057 -0.0027854773 0.0013321419
情况 -0.0024914185 0.0014845434 -0.0024487125 -0.0025706564 0.0031259821 -0.004457042 0.0014327412 0.004987873 -0.0013716149 0.00051365746 0.0018306652 0.0037849545 -0.0044729104 0.0032129558 -0.0010588289 -0.0026231331 -0.0026818204 0.0013110369 -0.003633052 0.0028834431 0.0018170666 -0.0015579223 -0.0044562775 0.00032264434 0.00017630965 0.002939265 0.0037225236 0.00075051055 0.00033761593 0.001358469 -0.0013223472 0.0008421358 -0.0004768354 -0.002026591 -0.0011391084 0.0030569057 -0.0047079716 -0.0024331268 -0.0022159014 -4.5213845e-05 -0.0021228625 0.004833842 0.0021754338 -0.001672995 -0.002605266 0.0036602684 -0.000359027 0.00025256735 0.0046045785 -0.001594637 -0.0008037765 0.00225044 -0.0029819282 -0.0035929126 -0.0016351974 0.004082299 -0.0025037082 -0.0036815142 -0.0033169405 0.00076281955 -0.00039334456 0.0001721995 0.00053776964 0.0033727633 -0.0026844156 0.0031433268 0.000271849 -0.004190318 0.0038885262 0.0036735013 -0.0008067368 0.004741236 0.00059757975 0.0032430128 0.00437252 -0.0005905179 -0.0036551838 6.3552716e-06 -0.004865867 -0.0040994897 -0.00030170067 0.00031408248 0.0049378457 0.004828211 0.0015734623 0.0027246245 -0.00018802019 0.0010347473 2.2470526e-06 0.00042546404 0.0011335353 0.0038929174 0.0030845017 0.0016673497 -0.0026387454 -0.0022110837 0.0038660832 -0.0017115199 0.000319682 -0.0031830252
感冒 -0.0018833912 0.0015556944 0.0049959524 0.0013018183 0.0008403775 -4.6031484e-05 -0.0008739217 -0.0027053172 -0.0013198317 0.0029805978 0.004473009 -0.0025392491 -0.0035718046 -0.0017335104 0.002024707 -0.004092162 0.0022083651 -0.0033489303 -0.004773907 0.0030753934 -0.0020972842 0.0025224683 0.004184344 0.0014253283 0.0038351866 0.0045431936 -0.0045770835 -0.00053617655 0.0040894453 -0.0029399637 -0.004060143 -0.0018509394 0.0028132922 0.0032454215 -0.0005863992 0.004319146 0.0033072014 -0.0046000555 -0.0014876106 -0.0008556522 -0.0020423473 0.0010944094 0.0003674809 -0.00079336925 0.0039617815 -2.2886656e-05 0.0046953266 -0.00053884933 0.0021217999 0.0010501669 0.0020297265 -0.0038033472 0.0040131994 0.0042962763 0.00046338385 0.0048023094 -0.0037621313 -0.0018884456 -0.004122618 -0.00086446217 -0.0024459488 -0.0029827228 -0.0001864066 -0.0015466796 0.0011899367 4.205329e-05 -0.0021538772 0.00014634925 0.0037533906 0.0046007847 -0.0032642458 -0.0028615983 0.00414929 -0.00015531482 0.0014703546 0.0031722486 0.0041233734 0.0010859879 0.0016870081 -0.0032681131 -0.0022698215 0.0028762433 -0.0027893765 0.0027767506 -0.0015456141 -0.0012556623 -0.002735341 0.0012154664 0.004670389 -0.0016248543 0.0034397305 0.0046889395 0.0006242226 0.002048801 0.0036391697 0.0049735885 0.0014977119 0.0048212796 0.0048634564 0.0004118793
流鼻涕 -0.0025705001 -0.003221966 -0.003143818 -0.004852378 0.003113609 -3.944072e-05 0.003503305 0.0047718026 -0.0005453201 -0.001489018 0.0048659784 -0.0030502887 -0.00012918335 -0.0020697713 0.0023421044 0.0019104179 0.0030107258 -0.0044417405 -0.0033133538 -0.0007839438 -0.0042572664 -0.00021434386 -0.0033851524 0.0029648528 0.0039308355 0.0013506451 -0.0019041412 -0.0031329053 0.00011435295 0.0019134198 0.0032137695 -0.001365854 -0.0015035683 -3.6315992e-05 -0.001491558 0.0021477 -0.0017967891 -0.0046087666 0.0016210454 0.0013948395 -0.002109297 -0.0024392947 0.0026629926 0.003636498 -0.0008751817 0.0023210044 0.003895122 -0.0022689472 0.0045889793 0.0024711706 0.0038173962 -0.002498934 -0.003983185 0.0019070762 -0.0010858929 0.0019882934 -0.0025868162 0.0049933624 0.002273481 2.3067938e-05 -0.0040800045 -0.0025458524 0.0044249026 0.00079909153 0.0024564448 0.00426348 0.0010972164 -0.002448046 0.0010324093 0.0022899667 0.0038808733 -0.0005081859 -0.0016271343 -0.0015213244 0.0005759257 0.0030756171 -0.0046558124 0.0040653544 -0.0018085468 -0.0023581437 0.0025555894 0.003001711 0.0012186224 0.004530127 0.0035559898 -0.0017832625 0.0037376406 0.0026248952 0.0017265761 0.0017051487 -0.0020958672 0.0017159531 -0.0034137121 0.0018758422 0.0005211697 -0.00067757576 -0.0032616511 0.0008578089 0.004712591 0.00041804733
咨询 -0.0005210825 0.0017182946 0.0045050015 0.0042213234 -0.0045398325 0.00084544276 -0.0021394277 -0.00093944144 -0.0038863537 0.00014584401 0.0038648986 0.0024550867 -0.001780761 -0.004880021 0.0045512733 -0.0035650842 0.0016628111 0.0026572037 0.0030670322 0.0045027114 0.0026959712 0.002046608 -0.0049084257 0.0009532871 0.0010025188 0.0042982614 0.00082938996 0.000797892 -0.0028038598 0.00075340515 0.002159402 -3.280041e-05 -0.0027325603 0.0018829383 0.0041949456 0.0032264767 -0.004906211 0.00052993005 0.0021351303 -0.0012674276 -0.0020351396 0.0027511292 -0.004736264 0.0014821572 -0.0008737854 -0.00483337 -0.00047368335 -0.0048027853 -0.0047603254 -0.00039973354 -0.0032534811 0.0035456982 -0.003721559 9.012293e-06 -0.004561611 -0.0038918697 0.0016524564 -0.00073445 0.003999442 -0.0012927548 0.002634825 -0.0047898553 -0.0027342064 0.0012841959 -0.00092368526 -0.0037202646 0.0009973339 -0.0007504522 0.0032589813 -0.0035049664 0.00395466 0.004141859 0.0032842937 0.0011766417 -0.0039853496 -0.0006383701 -0.004977719 0.0026121861 0.0015108972 -0.0027627128 -4.4617133e-05 -0.0012888679 -0.00033729922 0.0040436797 -0.00044209696 0.0041238433 -0.0006257717 -0.0030504903 0.0018971522 -0.0006912168 0.0047371825 -0.0025805733 -2.3033126e-05 0.0009930927 -0.00046644328 -0.0031553246 0.0039459732 -0.0041586007 0.0018460406 0.004307803
尤其 -0.0046122647 -0.0026863194 0.003568614 0.0018510246 0.0028862972 -0.0023045284 -0.0030393652 -0.0025014502 0.0012735378 0.0029767773 7.485321e-05 -0.0007878781 4.679672e-05 -0.004261766 0.00021667387 0.003416419 0.0020065503 -0.0038677393 -0.0048211985 -0.0031265297 0.0031112137 -0.0016517894 -0.00094920216 -0.002117633 -3.924166e-05 -0.0048183138 -0.0038009272 -0.0019749345 -0.0040958896 0.0034229252 0.00031654115 -0.0017222421 0.0031606157 -0.0034218829 -0.0024202703 0.0033716785 0.0015255569 0.00032274975 0.0037572586 0.0040278854 -0.0029300544 0.0029997933 0.00085642334 -0.0018328618 -0.001071869 0.00010892432 -0.004310059 -0.0005379777 -0.0012309183 0.0030698797 0.0048883143 -0.0030925625 -0.0041842666 -0.0040311506 0.0030706062 0.0038726153 0.0046555544 0.00436738 -0.0008736805 -0.0014194612 -0.0021069287 -0.0032216674 0.0044409675 -0.00020412494 0.0025206592 -0.00067067554 -0.0045823636 -0.0032577713 0.00059002097 0.004553945 0.003924705 0.00035161298 -0.0042799427 -0.0006645131 -0.0021960335 -0.0034632469 -0.0017741864 0.0037278105 0.00020416973 0.0010566914 -0.0039566364 0.003390369 -0.0036436052 0.0030602417 -0.0036492455 0.002275653 -0.004063614 0.003934423 -0.0010399354 0.002992089 0.0026792325 0.0050075413 -0.0026386583 -0.00097467285 -0.0017814426 0.0008130472 0.0045013544 0.0041653034 0.0016559225 -0.00041338173
有时候 -0.0033532886 -0.0035507546 0.00026445015 -0.0004856726 0.0001422191 -0.0029377388 -0.0044412157 -0.0025083136 0.004583216 0.0023567914 -0.0006924953 0.0019210054 0.0016315838 -0.0041126674 0.0049780365 -0.0028516264 -0.0002817106 -0.00087221 -0.0048914896 0.0033125815 0.0024047818 -0.0021343639 0.0046051783 0.0015760065 0.0033711973 -0.00041959056 -0.0039895806 0.00017028284 0.002554731 -0.004294029 -0.0005448133 0.0041184127 0.0036860376 -0.001572658 -0.0026544768 0.0014835036 0.0038914056 0.004036779 0.0033982024 0.004787075 0.0022674163 -1.4707258e-05 -0.002186447 -0.004789159 -0.00081921526 -3.365214e-05 -0.0009805008 0.0043374505 -0.0014711538 0.0015848252 0.0026064417 0.002787297 0.00014408887 0.0035843088 -0.003260402 0.0017782883 -0.00457029 0.0036028884 0.001330412 -0.0029317357 -0.004327413 -0.0021098407 0.0046283645 0.0010618309 -0.0018730725 0.0023590762 0.0030489196 -0.0013520288 -0.0041295113 0.001284508 -0.0004417561 -0.00088299264 -5.832249e-05 -0.0012480665 -0.0010055171 7.316897e-05 -0.0016424905 -0.0044252095 0.0024346658 -0.0019624385 0.0016823825 0.0024765902 -0.0030110741 -3.1239844e-05 -0.0031433594 -0.004046432 0.0036149728 0.0032474683 -0.0038594075 -0.0021325452 -0.004152829 -0.004746916 0.0046397843 0.003921643 0.001137913 0.00087546953 0.0020869956 0.0015773894 -0.0005458259 0.0013921493
儿童医院 0.002285659 -0.00021289915 0.0025733921 0.0009086797 0.002961153 -0.002036752 0.002375401 0.0031478486 -0.004319314 0.001984101 -0.004377139 0.00067157915 0.0014464231 0.0012902635 0.00076412933 -0.0021420657 0.004847611 0.0017938021 -0.0018773167 0.0019319035 -0.0036947427 -0.0018842681 -0.0048367274 -0.0015629212 -0.00487134 -0.0006978488 -0.0006703818 0.003364477 0.0029039613 -0.000373209 0.0029076012 -0.00014700142 0.0019508767 -0.00054659497 0.0041244985 0.00041720376 0.000666109 -0.0049917423 0.0046008998 0.0016418945 0.0022819857 -0.0034223925 0.003468558 0.0046182834 -0.004938436 -0.002714766 0.00048322248 -0.0033232842 0.0014021832 -0.0024482163 -0.0031123222 -0.00019752944 -0.0044459566 -0.00358941 0.0017656441 0.0011330772 -0.004947621 -0.003145134 -0.0034202645 1.0591074e-05 -0.0034980744 0.00079105963 -0.003799302 -0.0042324164 -0.0013612808 -0.0019025682 0.0005603063 -0.0043171057 -0.0023801946 -0.001999712 -0.00043191318 0.003360314 -0.0014068845 0.00012248862 -0.0007320019 -0.0019376228 -0.00081084244 0.0034481217 -0.00415789 0.0012708927 0.0017154 0.0017312205 -0.0044220076 -0.0032867223 -0.002848302 -0.0026180341 0.0033924216 -0.0007254712 -0.002449842 0.0028881445 -0.00070751907 0.0010690974 0.003739827 0.0013975918 -0.0036067304 0.004112236 -0.0033963318 0.0017066189 -0.0004429705 0.0041708783
CT 0.0029428944 -0.0028590516 -0.004160647 0.003604403 -0.003501836 0.00084670173 -0.0018518304 -0.0012307323 -0.0006323356 0.00020393933 -0.0034408618 -0.0044011986 0.0009482946 0.0010426291 -0.0009920781 -0.0016771852 -0.0010172805 -0.0050076502 0.004837845 0.00033208058 0.0039045175 -0.0029716282 0.0027833555 -0.0040163244 -0.0040632347 0.00010405205 -0.0022799436 -0.0034486384 -0.0028949974 0.0010114363 0.00043528207 0.00215957 0.0028388523 -0.002756781 -0.0045925924 0.0025518055 -0.001922513 0.0047315634 -0.0016143118 -0.004771664 0.0009245936 -0.0046007475 -0.0029384112 -0.001956677 -0.0010256018 0.00075204147 0.0026520567 -0.0033531613 -0.0031887745 0.0035025398 -0.0042956686 0.0048426064 -0.0029203915 0.003597125 0.0022970357 0.00072933314 -0.0008286416 -0.0022801363 -8.2391016e-05 0.0042327964 0.0018087189 0.0014389812 -0.0028376977 0.0032615196 0.0010967945 0.0006405225 0.0031452796 0.0025739803 0.0035027845 -0.00092986954 -0.0036300307 0.0039008295 0.0021731192 -0.0048212647 0.00091615756 0.0014097682 3.484431e-06 0.0023150032 -0.0016407903 -0.0020660567 -0.0010741836 0.0019320855 -8.6309476e-05 -0.0045475652 0.004854825 -0.0011071465 -0.0014009713 0.00075333554 -0.002997342 -0.0027247977 0.0042467318 -0.0044803214 -0.0009914516 0.00043965573 -0.0011851089 -0.001661845 0.0011997452 -0.0009331032 0.0009219445 0.0037687789
腺样体 -0.0045683947 0.0007726582 0.0012221058 0.00025964365 0.0021574048 -0.0011575536 -0.004931387 -0.0019750926 0.004703598 0.0012544316 0.0041189953 -0.0022488043 -0.0042358995 -0.0020367785 0.00054769 0.003741031 0.0026730723 -0.00059995 0.0027853763 -0.0045936424 0.00082199596 -0.0043627857 -0.00077050936 0.0027099003 -0.0020436677 0.0040017273 -0.0010933793 0.0023340276 -0.0008932877 0.0009261458 0.0016131328 -0.0037049684 0.0042674895 -0.0010671074 0.0035474761 0.0006387906 -0.002152644 0.0018553251 0.0038485928 0.0049542817 0.0020016572 -0.0012946961 0.002763323 -0.0013442378 0.001695831 0.0045747603 -0.0039318614 -0.0027482214 0.003654041 0.0032772366 -0.0014707868 -0.0042479257 0.0002553013 0.0020881924 -0.004403268 -0.004332456 -0.00046108162 0.0032255687 -0.0031431292 -0.0036039795 0.0047175665 -0.0031605216 0.00029029214 -0.0003339597 -0.00062004727 -0.002670465 -0.0032137984 0.0011393148 -0.0018850841 -0.0025252549 -0.002982325 0.0018991596 -0.0034974478 -0.00011810115 0.002741094 -0.00027726928 4.5879005e-05 -0.0013719199 0.0034750258 -0.00137618 0.0014824552 -0.0029671835 -0.003593264 -0.0015702433 0.003687075 -0.002433376 0.0007681592 0.004182562 -4.9840037e-07 0.0029455388 0.0013127453 -0.0027719554 -0.004156376 0.004061037 0.0009325713 0.00024545984 -0.0022083395 -0.003378035 -0.00448003 0.0033277413
和 0.004465063 -0.00023599969 0.0002454495 -0.0015035756 0.0009598871 -0.0010467177 0.0038795653 0.0032842704 -0.0024098207 0.0035313035 -0.0033414823 0.0017161384 0.0049100826 -0.0024020232 -0.002467348 0.001936471 -0.0002661495 0.001002298 0.0040836115 -0.0010300295 -0.003590765 -0.0022977924 0.00037648197 -0.0029421682 0.00058071123 0.0006306392 0.0013685242 0.00037587123 -0.00029830536 -0.0046993787 -0.0023407205 -0.0020737243 -0.0025359492 0.0015957819 0.0015306631 -0.0036502935 0.0024760433 0.0048567564 -0.0036462562 -0.0015736177 0.002413604 0.001660862 0.0019918892 0.002568853 0.001953519 -0.00077854696 -0.001894725 0.0034932836 0.003701978 -0.004228371 0.0035710603 -0.0026890575 0.00073435437 0.0024723513 0.0038511548 -0.004583216 0.003937877 -0.0045585292 0.0001020837 -0.0029808257 -0.0032886134 -0.003783722 0.0020667 -0.003811964 -0.004463318 0.0040897727 -0.004783109 0.0026296217 0.0044105356 0.002209473 0.0014009483 0.0033213994 -0.003316142 0.0036996605 0.002543919 0.0014601225 -0.0014615466 0.00015397968 -0.002274238 -0.00016803216 0.0036067548 0.0005694951 -0.00326768 0.002399805 0.000692361 0.0017587326 -0.000958689 0.002882737 -0.0029027283 -0.0006048693 0.0015218485 0.0019685663 -0.0015823796 -0.00039651466 -0.004742728 0.0022885243 0.0018560365 -0.0018592532 -0.0011592759 -0.004654586
肺炎 0.0011299397 -0.003758152 0.0027630893 0.0016090578 1.8703196e-05 0.0038617563 0.003709051 -0.0040371455 -0.0005192199 -0.0038067752 0.0018553821 0.0021332658 -0.0007357484 -0.0018252715 -0.003152026 0.0012354837 0.0041192407 -0.003185311 -0.0037454385 0.0022930568 0.0045621814 0.0017501025 -0.0006009025 -0.0027791108 -0.0011509743 -0.003974416 -0.0019107617 -0.0005507739 0.0022673956 -0.0013043693 0.0037665295 0.00038759946 -0.003496359 -0.00021334089 0.002445943 2.0152936e-06 -0.0006863009 0.0047991974 0.00208546 0.004414483 0.0016590545 -0.0034710946 -0.004064532 -0.0025087313 -9.3825365e-05 0.0004000011 -0.0036543072 0.0043027014 3.0396799e-05 -0.004664918 -0.0040480057 0.0012162155 -0.0016225734 0.0045383833 0.0018098394 -0.0020780526 -0.004361335 -0.0025751675 0.0007715804 0.0010936955 0.0030233976 0.0015788893 -0.0020150123 0.0008688289 -0.00023627121 0.0013668363 0.0019034095 -0.0007243327 0.0028144475 -0.0043347687 0.0034381212 -3.0267061e-05 -0.003819552 -0.00120876 -0.0007161539 0.004011284 0.0018425623 -0.0025304314 0.0030631234 -0.0029834234 -0.0025449134 0.0039735083 -0.002238721 0.00013517383 0.003144411 0.0011466315 0.0030662392 0.0029276703 0.00020895619 -0.00035981296 0.0039851647 -0.00010993924 -0.003708336 0.0032095055 -0.0042059654 -0.0016423166 -0.0006224403 -0.0028333678 0.0045641395 -0.00045984107
感觉 -0.0006030497 0.0013461021 0.00088243384 0.003853192 -0.002455568 -0.0037582256 -0.0008344035 0.00022952324 0.0024417217 -0.00054445706 -0.004765673 0.0049311505 0.0045460393 -0.0013898321 -0.0030337789 0.0011494128 0.0049874065 0.0012680334 -0.0037972792 -0.0019530528 0.00017292853 0.0031377045 -0.0018184073 -0.0048291036 -0.0013576655 0.0028276483 0.001943194 -0.0020449841 0.0014946684 0.005003546 0.0022148031 0.0010558615 0.0021445383 0.0018756265 -0.0043044807 0.0035968414 -0.002143516 -0.0029652833 -0.0021556935 0.0014077824 0.0015546487 0.0029812374 0.0010233863 -0.0038841935 -0.0013431786 0.0024231132 0.0011070162 -0.0013280144 -0.0027951547 0.003394671 0.0025463854 -0.0041200593 -0.0029287154 0.002989908 -0.0006723249 0.002929128 0.0013971666 0.00418122 0.0036067264 0.0041564815 -0.0046394975 0.00048494263 -0.0017456661 -0.000225388 -0.0042300206 -0.0012234263 0.00397596 -0.0017993929 -0.0029304805 0.0001068076 -0.0026920098 0.002320258 0.0009868819 -0.0015272775 0.004758023 -0.0016938727 0.0046971417 -0.0048351404 0.0031472053 0.0021667557 0.0034743112 -0.00072645675 -0.0013559216 0.004259177 -0.0007502163 -0.002000861 -0.0024357908 -0.0031435718 -0.00492995 -0.0029371905 0.0013803046 -0.00074478454 -0.0019464917 -0.004807439 0.0030615516 0.0030102495 -0.00048050008 -0.0036203982 0.0030109212 -0.0045351083
但是 0.0032540073 -0.0037699663 0.0007925788 0.003573614 0.0029917061 -0.0008654796 0.0020228948 0.0004635317 -0.0050097774 1.25993465e-05 -0.0037059106 0.0047251093 -0.0033983928 -0.0027117056 0.0035213223 -0.00403603 -0.00010532452 -0.0047648083 0.0030767058 -0.0036760007 -0.0038597826 0.00066534546 -0.003907522 -0.00062387786 -0.0019563239 0.002615364 0.0008546526 -0.004110346 -0.0004398719 0.00096024247 0.0045615695 -0.0006959756 0.0043230313 0.0021935718 0.003432974 0.0029206427 0.003010715 -0.0022538942 -0.00046094507 -0.002366323 0.0041803634 -0.00033174249 0.0006995844 -0.0004814657 0.003568867 0.0016250883 -0.002642217 -0.0015000014 -0.001771447 -0.0014736449 -0.0050016474 -0.0016844646 0.0017157537 0.00031727873 -0.00349222 -0.0016623925 0.0030021726 -0.0037598587 -0.004848813 -1.436698e-05 0.0037070636 -0.0013827763 -0.004696785 -0.0019875348 0.0014786734 0.0049257176 0.0012721961 -0.0012123816 -0.003744469 0.004375314 0.0036800206 0.0013665213 0.00067889463 0.0049124854 0.003816585 -0.0024665133 0.003901372 -0.0033228549 0.0018635251 0.0015687231 0.004294223 0.0037621513 -0.0018018679 0.0014890947 -0.004797911 0.0036659113 -0.0038416204 -0.0047010076 0.0013492538 0.0048147286 -0.0036124985 -0.0020916064 0.00036262418 -2.1349122e-05 -0.0047754883 -0.000905731 -0.0024102705 -0.0014447559 -0.0032767013 0.0004584671
让 -0.00447136 0.0007905893 0.0014504786 0.0027872077 0.004746199 0.0016328108 0.0003979221 0.002365648 -0.0038171266 -0.0029043194 0.0017535286 0.0046373648 -0.0030779883 0.0026307364 -0.0034861686 0.0015693447 0.00068062154 0.0045861695 0.0022254295 0.0022140548 0.0046007168 -0.0033133575 0.0011965994 0.0034999573 0.00041763042 0.0030009155 -0.0009980411 0.00096516334 -0.004377783 -0.0025992282 0.004662643 -0.0030514924 -0.0037599541 -0.0026798358 0.0045486134 -0.0013031639 -0.00083268713 0.00022542138 0.0030770754 -0.0049288413 -0.004938265 0.0021810296 0.0042497134 0.0010484629 -0.001540415 0.003610256 -0.0049709333 -0.0011657164 -0.0010128128 -0.0045867893 0.0010740949 -0.0029100177 0.0020634683 -0.0006726788 0.0015419527 -0.004398077 -0.00025592945 -0.0027171131 0.00070174906 0.0023844808 -0.0014893449 0.0044347453 -0.002914917 -0.003033909 0.0003863452 -0.004594884 0.003901484 -0.0025637145 0.0011494705 -0.0035861249 0.0005398352 -0.0028804443 0.00093165593 -0.0012672661 -0.0012382797 0.0011780879 0.004871869 -0.003006775 0.001738896 -0.0018036789 -0.00034281766 -0.004060444 0.002979145 -0.0048349644 -0.0025482285 -0.0015531684 0.0024988924 0.0043021115 0.0043157823 -0.0048183133 0.0024554164 0.004639992 0.0016759628 -0.00022404247 -0.0010710132 0.0031309375 0.0017111987 0.0040561105 -0.0017598273 -0.0025237433
其他 0.004733073 0.0016089306 0.004161546 -0.001244744 -0.0018735669 0.0013012465 -0.0048945467 0.0034443135 0.0041545364 -0.0027794784 -0.0034602943 -0.002342098 0.0022678985 -0.0030648778 -0.0023792454 0.0005131746 0.0043322463 -0.0003455552 -0.0037602286 -0.0026240877 0.004662828 -0.0012551992 0.0038107294 0.0036348305 0.0017826081 0.0024339347 0.0019904154 0.0048954184 -0.0036469435 -0.0020600033 0.0021975322 -0.0016548153 0.002073527 -0.001266611 -0.00043080474 -2.5163386e-05 0.003177914 -0.0009760527 0.001390324 0.0046266797 0.00037999247 -0.00062437286 0.0021399586 -0.0010492223 0.0027385731 -0.0016024442 0.0020099035 0.0022717258 0.0010277255 -0.0027585719 -0.0028818971 0.001531813 0.004085503 -0.0022241054 -0.00010524623 0.0012473641 -0.0012099288 -0.0005867696 -0.004602206 -0.00033765697 0.0019303438 0.0013905287 -0.00385899 -0.00048806117 0.0023775587 0.0021423283 0.0045319125 0.004595746 -0.0008904182 -0.004538533 -0.002650374 -0.003376549 0.00221835 0.00069564284 0.0046997233 -0.004116969 -0.0040059923 0.0030455114 0.003704641 -0.0016735726 -0.0027154107 -0.0037706774 -0.0039490415 0.002348296 -0.0020996016 -0.0022043998 -0.0047614477 0.0020350362 -0.0034637507 0.0035339596 0.0026120313 0.0025384182 -0.0014843721 -0.0038323 -0.002952773 -0.0005519403 0.0039532213 -0.004968958 0.0032496145 0.0031822682
没 0.001274485 -0.003631374 -0.000396381 -0.0031103918 0.0047493717 0.00152034 -0.0005561722 0.0035336295 -0.0049778456 -0.0008020213 -0.0022203599 0.0026674552 0.00361563 0.0019094023 -0.004973428 0.0033367923 0.0028059066 -0.0020334683 -0.0010512243 -0.0026231897 0.0025525442 -0.0007375553 -0.0013151062 -0.0006404672 0.0024794845 0.0004909054 -0.001452716 0.0045351908 -0.00018555464 -0.001913232 0.0039067287 0.00023111493 0.0026521883 -0.0024317484 0.004204661 0.0025594053 -0.0019757631 -0.002147847 0.0020061927 -0.00063877 -0.0039003007 0.0023908576 0.0012543226 0.0041046995 -0.002050182 -7.3083174e-05 0.0007219246 0.0021848644 -0.0039348463 -0.0007624604 -0.0044223084 0.0022715707 0.0036335601 -0.0029510364 0.0018950248 0.0008558528 -0.004423788 -0.0043971664 0.0043028775 -0.004096078 -0.0026509552 -0.00071315566 0.0046283207 0.00425498 0.0034637211 0.0005260561 -0.0022724723 0.0012279392 -0.0016529842 0.0019706502 -0.0047776187 -0.00114407 0.0032429565 0.0022608687 -0.0042793686 -0.0010624547 -0.0031031463 0.001153265 0.0048886184 0.0047601108 0.00261708 -0.0012792659 0.0020688889 -0.0021613743 -0.0043265424 0.0005341883 0.0018163049 -0.0044286437 0.004548581 -0.0014738296 -0.00055509567 -0.004891188 -0.0018376684 -0.003941508 0.00080874265 0.0015986783 0.0018516919 0.0005406589 0.003232585 0.004774844
幼儿园 -0.0038033354 0.0010354943 -0.00028669907 -0.00018777618 0.0018723174 0.0038986285 0.0022115542 0.003736012 -0.004058594 -0.001635487 -0.0031627878 -0.0029258989 0.0041109137 -0.0006801856 0.0040647076 0.0021865247 -0.00044821747 -0.0019538645 -0.0043426156 0.0025686573 -0.0038846554 -0.0010829044 0.0049306965 0.0008172452 0.00022681436 0.0012175966 0.0004979883 0.0010080844 0.0044313488 0.0029275848 0.0050878236 0.0016357541 -0.0032299354 0.0010896953 0.0029785456 -0.0040338915 0.0026946906 0.0025353841 -0.0047019073 0.00026042233 -0.0023534817 0.0038341447 0.0033367244 -0.0026369018 -0.0034759245 -0.0044865035 0.0023469457 -0.0034528635 -0.0027093636 0.004650644 0.00089260814 -0.0004965254 -0.0015924831 0.0025643664 0.0021598216 -0.0011322033 0.0037885008 0.0045358757 -0.0028580627 0.0007165822 -0.0023524244 -0.0038518002 0.0017589586 0.00012248759 -0.004542041 0.001991118 -0.0009706846 -0.003138897 0.004439677 -0.00068400754 -2.8323608e-05 0.0033707656 0.0008585131 -0.0024634516 0.0048797047 -0.002122533 -0.0016270268 6.385199e-05 0.00010658293 -0.0028889892 -0.0018457259 0.0045179077 -0.0015724686 -0.0023450456 0.00020293474 0.002354777 -0.0025783046 -0.00086515665 -0.0031297128 0.004993999 -0.003702383 0.0028082575 -0.0027074658 -0.0021279412 -0.0008795785 -0.0015720997 -0.0040518856 -0.0027573234 -0.0025543452 0.0040454753
晚上 0.0036137786 -0.0017613926 0.004566835 -0.00066012784 0.0037488479 0.0011373145 0.00041704293 0.0038094183 -6.610702e-05 -0.003409866 0.003349919 0.0016226214 0.0031007016 -6.31918e-05 -0.0020109967 -0.0034277402 0.002710141 0.0002672148 -0.0027434381 0.00044217153 -0.0032323299 -0.0031260487 -0.0033386636 -2.7048098e-05 4.2485e-05 -0.004170776 0.0027475858 -0.00015409499 0.0018697964 -0.0048548593 -0.003771366 -0.0029203943 0.004214543 0.00096556154 0.0046434784 0.0041156798 -0.004554138 -0.0043528248 -0.0034788402 -0.0025940493 0.0044791563 -0.0007063803 0.0029948845 0.0027303027 -0.0014572354 -0.0030075551 0.0031877826 -0.0032904989 -0.001688211 0.0006632694 -6.30927e-05 0.0045052445 0.0012650125 -0.00036233888 0.0014365885 0.0022616182 -0.004521997 -0.0014662787 0.0038742947 -0.002364309 0.002559744 0.004441119 0.0002729881 -0.0041536037 0.004003427 0.003986822 0.004578601 0.002687419 0.0048361463 -0.0049586142 -0.0039184527 0.0034869015 -0.0013644099 -0.0025520986 0.0005090176 0.001805672 -0.0009778109 5.6877918e-05 0.00036827743 0.003272124 0.002541151 0.004428262 -0.002343967 0.0032964575 -0.0011146797 0.003334529 -0.0014949467 0.00029758917 0.003945374 -0.001904581 -0.00089893234 -0.001244524 -0.00015867784 -0.00087166636 0.0005518191 -0.00055840204 0.0002455684 -0.0011896266 0.002796373 -0.003337903
当天 -0.003253902 -0.004281977 0.0033142397 0.0034568547 -8.7813394e-05 8.055451e-05 -0.0015453643 0.0012609776 -0.004446427 -0.0026145347 -0.0016985673 0.0027857523 0.0019439694 -0.00011522044 0.003896298 0.002518102 -0.0007677914 -0.0047310116 0.003581918 0.001000428 0.0049070176 0.002001808 -0.0031991096 -0.0028712158 0.0032773088 0.0027749885 0.00083835906 -0.0014608401 0.00069637265 -0.0048289937 0.0025675085 0.0013874447 -0.0044430597 -0.0022100103 -0.0016799908 0.0029182995 -0.0049047507 0.001122621 0.004972829 0.0004806939 0.0036709323 -0.0041258046 0.00018034266 -0.0012891135 0.0018814743 0.0026216165 -0.001171169 -0.0036447996 0.0029793552 0.003682729 0.001369693 0.0014322146 0.0010473127 -0.00076495373 0.003966307 0.0028757583 -0.003531498 -0.0017770394 0.002913087 0.0038547309 0.00316747 0.004022623 0.0035244515 0.0033444841 0.0042206724 -0.0043873102 -0.0049374634 0.0029523985 -0.002946943 -0.0029836404 -0.0006821057 0.0017373861 0.0027738782 0.00086808525 -0.004707165 -0.0005825871 -0.001569346 -0.004851351 -0.00087199884 -0.00018229225 -0.004566369 -0.0031132875 -0.0049711373 -0.001724715 0.0044590556 0.0015793921 -0.0020751632 0.0003841245 -0.00033167566 -0.003190012 -0.0045991447 -0.0014721869 -0.0033594612 -0.0021209808 -0.0016761794 -0.00082328945 -0.00094702817 0.0019093765 0.0034118264 -0.002775826
是不是 0.002913759 0.004722308 0.0037970939 0.0035539337 -0.002635066 0.0034747894 0.0047961026 -0.0015404737 -0.004549348 0.0024288727 -0.0005314212 0.0023038187 -0.003932743 0.0045015663 0.0012289298 -0.002688314 -0.0020646018 6.6721324e-05 0.0027073263 -0.0036843114 0.003987626 -0.0014875532 0.004016557 0.0048043393 0.0032547992 -0.0017521108 0.004367195 0.0030457913 -0.0028281198 -0.0032808539 -0.0018168744 -0.0043852623 0.0022660377 -0.003182139 -0.0015596389 -0.0024975305 0.004331474 -0.0029272295 -0.003960728 0.004716879 0.0026828258 -0.0025292737 -0.0031051342 0.0006423973 0.0021158764 -0.0048373532 -5.084396e-05 0.0037190926 0.004016646 -0.0048035793 -0.0020851584 0.004205678 -0.002637678 0.0019881714 -0.0014004981 0.0043660817 0.0020768538 0.00077946595 -0.002205846 -0.0030729915 -0.0003290831 -0.004107042 -0.003425816 -0.0016253621 0.004017677 0.0035890383 0.00059724273 0.004099708 -0.0041454653 0.0026891252 0.0012606403 0.002143795 -0.0013016706 0.0011465586 -0.00011545577 -0.003107931 -0.004141977 0.002171458 0.001002721 0.001267352 0.004698993 0.0040337616 -0.0046012006 0.0049240147 0.004358497 -0.004546199 0.0011875427 0.002119522 -0.0014091101 -0.0033014037 0.0012376643 0.0023250494 0.0017515494 -0.001180558 -0.00237837 -0.0024980672 0.0018055997 -0.002453367 0.0020567854 -0.0015903015
早上 0.0039831866 0.00076189457 -0.0027299451 -0.0009595973 0.0025837556 5.4985067e-06 -0.0045779943 0.004877258 -0.0039854343 0.0017730588 -0.0034706397 -0.004757704 0.0032723248 -0.00027034493 -0.0049663363 0.0007939848 -0.0036026966 0.0038023458 -0.0039633582 0.0048135486 0.000405101 0.0017635596 -0.0014160111 0.00021767495 0.0024809288 0.00389588 -0.0035664449 -0.0012683576 0.0037129202 0.0024950712 0.0033628894 -0.0027600422 0.0002849342 -0.0001825603 0.003334635 -0.0033178094 -0.003594024 0.003022738 0.004156453 -0.004766432 -0.004997649 0.0044585858 -0.0013750528 0.0034695384 -0.0041944105 -0.0010842857 -0.0015231895 0.00042690706 -0.0032158077 -0.0031362928 -0.0002672066 -0.004922719 0.00447311 0.0026539704 -0.004548868 -0.0006932301 0.0016508193 -0.0020708316 0.003020006 -0.0020342392 -2.4142704e-05 0.0037281748 0.0034778977 0.0017881899 0.004477812 0.0022946266 0.0035522236 0.0028759837 0.004720556 0.0036651467 0.0046686297 -0.0017005785 -9.576386e-05 -0.0015610129 -0.0036614975 0.00022286718 0.001703315 0.0041840435 0.0043414654 0.0041396935 -0.0008894244 -0.002551511 -0.0039195493 0.0010008467 0.0038731245 0.002351203 0.003530967 -0.0036908197 -0.0010114176 0.0026219576 -0.0025570756 -0.0011611772 0.0017330444 0.0025953727 0.0030367987 -0.0003599998 -0.00087732973 -0.0025782164 -0.0013630847 0.002319945
一直 0.0045966795 0.0020316467 0.004021288 0.0023383398 -0.0032847794 0.0050285477 -0.0009798788 -0.0004775731 -0.0029027672 -0.0018011569 0.0021476757 0.004296913 0.0021519854 0.002282225 -0.0018137667 0.001097017 0.0006971074 -0.0042022327 0.0027290443 -0.00375936 -0.003230834 -0.003623195 0.0024726407 0.004375772 0.0002754585 -0.0023928175 -0.0036674598 -0.0029352955 -0.0037740646 0.0045049377 -0.0016460582 0.0021478524 -0.0037483643 0.0046553616 -0.0027208885 0.0022461182 -0.002360641 0.0017723127 -0.0041039293 0.0037002629 -0.0027964334 0.00033777143 -0.0015580119 0.003060666 -0.0016108393 0.0010563984 -0.0025465323 0.0043159407 0.0027044748 -8.070999e-05 0.0044832253 0.0019305577 0.0042202584 -0.0005721477 -0.0047040386 0.002777755 -0.004421582 0.003796277 0.0027249507 0.0043795793 -0.004194584 0.0016898969 0.00071640196 -0.0029595199 -0.00020230163 -0.00017486994 -0.0021809686 0.00064697815 0.0010424097 -0.0023182763 -0.0029075325 0.0016508064 0.0019548135 -0.0016331892 -0.0049754004 0.0023505415 -0.0047647166 0.0043259496 0.0022038145 0.0030456488 -0.0040912163 -0.004202324 0.0015174961 -0.0025964102 0.0018450466 0.004112218 0.00096741266 0.0007085539 0.004841207 0.002943266 -0.002528337 -0.0026562226 -0.0018271194 0.0028037443 -0.0019446317 -0.004345216 -0.0015522155 0.0014335291 0.003143135 0.002110509
就是 -0.004444591 0.0006575194 0.0034266382 -0.0033110515 -0.0025653725 -0.0045827692 0.0011126616 -0.0033564381 0.0034842426 0.0018990098 -0.0029545578 0.0011839845 -0.00157122 -0.0003169707 0.0029278025 0.0024679168 -0.0013295042 0.0036233247 0.0023050841 0.0043154205 -0.0022776863 -0.0022501198 -0.00040853163 -0.0043250127 -0.0006563522 0.0027268901 0.00017701938 -0.0049800775 -0.0020664136 0.00022602927 -0.0045485543 0.0045215776 -0.0024832126 0.000911567 0.004860661 -0.002332983 -0.0037338706 -0.001050853 0.0025873312 -0.002387511 -0.0012000739 0.0008256825 -0.004793433 -0.003525374 0.00051611714 -0.00035548004 0.0048099468 -0.0045762123 0.0043569207 -0.00090231653 -0.0045945663 -0.0037542041 0.0024754119 0.0035522648 -0.0026160676 0.0039456394 0.0017492826 0.0035916844 -0.0030716015 0.0038080127 0.0040179337 0.00065586664 0.0024522876 -0.00399046 -0.0028699345 -0.00261047 0.0045258496 0.0011822766 0.00042763024 0.002007081 0.0022494413 -0.0020829644 -0.0025874374 0.0005190416 0.0048829312 -0.003499843 -0.0003908265 -0.0029556805 0.0036764953 0.0010339578 -0.00014257165 0.0009232354 0.00406583 -0.0012477858 -0.0019533783 0.002620757 -0.0042034187 -0.0034680692 -0.0016887017 -0.0015024851 0.004863749 0.0023290424 -0.00020403734 0.0021686521 -0.0038883663 0.003957198 0.0001213785 -0.00050563185 -0.0039222594 0.0036583876
全吐 0.0029127474 0.001783659 0.0030101 -0.004668647 -0.0029130154 0.0030731692 -0.0010498154 0.0026654429 -0.0043198834 -0.0021359609 0.0035605838 0.0030331307 0.0028895761 0.0045426283 0.0033110566 0.0001927016 -0.0044970745 -0.0038394548 -0.004110082 -0.0018680489 0.0012422353 -0.0009948526 0.0034339896 -0.00024940388 -0.0016511291 0.00337546 -0.0047822013 -0.0023189625 0.0018066688 -6.2930565e-05 0.004207119 0.0036589322 0.00013552463 -0.0041359337 0.0023179587 -0.0002845602 0.0020790086 0.0045300955 -0.0043275487 0.0024388826 -0.0028221877 0.004619858 0.0029859694 0.0025946489 0.0040017185 -0.00312082 0.0033514006 -0.004844535 0.0044390517 0.002024821 0.0021572935 0.004968302 -0.003066235 0.0035197875 -0.0021336193 -0.004730131 0.0034793073 -0.0027809995 0.0041659004 0.000978284 0.0029711635 -0.0010340952 0.0017437212 -0.00034839075 -0.004459924 0.004891585 0.0019039304 -0.003313336 -0.0040526153 -0.00094758347 -0.0027286257 -0.0006186251 -0.0033349001 -0.0015908713 -0.00040784414 -0.004870602 -0.0019835774 -0.000316681 0.0010924427 -0.0030602557 0.0042192102 0.0027707904 0.0048486395 0.0003883405 0.0045732227 0.0007950889 -0.0023499324 -0.0038132323 -0.004398644 0.00020580774 -0.0031272757 -0.00051964005 -0.0023974641 -0.001759422 0.004675182 -0.0016335584 -0.000111303605 0.0010655478 0.0049702385 -0.0039237808
下午 -0.003163671 -0.003562339 0.0034983077 -0.0023213078 0.004294495 0.005040997 -0.0042211027 -0.003293324 -0.0039049287 -0.0038924005 -0.00447544 -0.0024651224 -0.0038547632 0.003404967 -0.004868457 -0.00047339097 0.0009220903 0.00041219764 0.004573694 -0.004752078 -0.0044511133 0.0020911777 -0.0014808268 0.00025225888 -0.00449772 0.0033412215 0.0011043723 -0.0015757283 -0.003136296 0.0004098795 0.003400671 -0.0021722175 -0.0020201341 0.00028816573 0.0027841018 0.00039355157 -0.004741869 0.00017990691 -0.0015708145 -0.00426453 -0.0044053867 0.004623108 -0.0029603937 -0.0034434588 -0.004869779 -0.0011938277 0.0016893676 0.0014413327 0.0040394207 -0.0021608446 0.00064696226 0.00035269253 0.00024010922 -0.0037732276 0.0026821643 0.004514054 -0.0029127996 -0.0029989893 -0.000498543 0.00494941 -0.00011386757 -0.0035295407 -0.0045079277 0.0031463616 -0.0023775517 -0.0044150245 -0.00018145525 -0.0026693635 0.00020888877 0.0011744465 0.0029162352 -0.0012976347 -0.0024722898 -0.00095953874 -0.001249705 -0.00014873144 -0.00022384679 0.0035063024 0.0007211913 0.0045491615 0.002246255 0.0028960644 -0.00046251988 0.004533558 0.0012778373 -0.00023561428 0.0036891878 0.0037513361 0.0047847847 -0.00078850094 -0.0040430613 -0.0011386436 0.0011001646 0.0026924522 -0.0014960555 0.004025667 -0.004256312 0.0025414154 0.0035932956 -0.0038577146
然后 -0.002588855 -0.0026290899 -0.0008446322 0.001158377 -0.0013003361 0.0007114946 0.0047113034 0.0019157799 -0.0031568687 -0.00292331 -0.0010684023 0.002489158 -0.0016525974 -0.0040979204 0.0007273162 0.0040803165 0.003180171 -0.0031082784 -0.0013690274 9.5105715e-05 -0.0019426872 -0.001684855 -0.004075871 -0.0024860837 0.00033891303 -0.0017639764 -0.0021825908 -0.003354789 0.0045506665 -0.00494527 -0.0045219883 -0.0044261343 -0.0031749536 -0.0039907913 0.0016585619 -0.000570339 0.0027973747 -0.0041224062 1.4736639e-05 -0.001308323 0.0034050853 -0.004274318 0.0026579378 0.0044972217 0.00063213694 -0.0020894385 -0.0018259535 -0.0034528498 -0.004626601 0.0007390088 -0.0038084649 0.0014407643 -0.0043380684 8.42796e-05 0.0045901793 0.0027459897 -0.00045754635 0.004023702 0.0031250985 0.0029404587 -0.0016053752 0.003219835 0.004966384 -0.0016187096 0.0036608824 -0.000827205 -0.0034541048 -0.0013089873 -0.0019872205 0.0002439207 0.0039097765 -0.0013490896 0.0031991557 0.0022987253 -0.0032647073 0.00023763941 0.0045281886 0.0028547633 0.0018948973 0.0047574695 0.0005135741 0.0029646622 0.002406694 0.0047072237 -0.003680833 -0.0014566457 -0.00016569479 -0.001755833 -0.0007634507 -0.004917564 0.003886565 -0.0030211722 0.0016694105 0.0031230436 -0.0019489679 0.0046656607 -0.0039755385 0.003113758 -0.003191292 -0.0033452893
她 -0.0024242057 0.0005712935 -0.004767435 0.0039622267 -0.0016680983 -0.0041994946 0.00058817456 0.00088073924 0.0011412018 0.0035956604 -0.0009186866 0.0017292283 0.0049520484 0.0035682057 -0.001225379 -0.0046420195 0.004716071 -0.0019812528 0.00097652985 0.0018516189 0.0040863706 -0.0040348168 -0.0044536367 -0.0047352216 0.002469749 -0.0010382611 -0.002903522 0.002354103 -3.9573724e-06 0.0033748755 0.0009801888 0.004290938 -0.003518505 0.0034304596 0.002631632 -0.0014929614 -0.0009792689 0.003027564 -0.0040284498 -0.0006133102 0.002115109 0.0031794591 0.00474327 -0.0028490664 -0.004343205 0.0011588513 0.0041766963 -0.0050017918 -0.0041964846 -0.004334221 -0.0012779449 0.001312854 -0.004821143 0.00060793746 -0.0013181828 -0.0024778487 0.0032054472 0.0010961948 -0.0028347864 -0.00017168278 -0.00041761048 0.0006025104 0.0014050475 0.004288582 0.00054388 -0.001060898 -0.003984048 0.0016238284 -0.0034960173 -0.0035053832 -0.0014466515 -0.0006821114 -0.0009255587 -0.0007805914 -0.003715739 -0.0006028924 0.0019948455 -0.004800356 0.0047812695 -0.0025462443 0.0020632243 0.0021986393 -0.0040402063 -0.0018060533 -4.8872196e-05 0.004258426 -0.0049518105 -0.002420582 -0.0043632668 0.0028960893 -0.0012174598 -0.0041174386 -0.0050235735 0.004341927 -0.004303974 0.0015763893 0.0038511157 0.0039398912 -0.0003568751 -7.844905e-05
发现 0.003928275 -0.00016644206 -0.0031905589 -0.0021448457 0.0007519771 0.002555739 -0.0027696167 0.002435048 -0.0030100292 -0.0023310906 -0.0031439103 0.0039243065 -0.00090909336 -0.0013323702 -0.004219537 -0.0042008637 0.0010648246 0.0029569357 0.0021718186 -0.0033906281 0.0035878175 -0.004368355 0.004685306 0.003771789 -0.00084790285 0.0027824377 0.0025196588 -0.00357013 0.0033916535 -0.0014244112 0.0043750503 0.004713271 -0.00283597 0.002042773 -0.0025680158 -0.0027757562 -0.004816905 -0.0042632795 -0.0006493367 0.0042661396 -0.0011700097 -0.0021700158 0.0044510565 -0.001497697 0.0032020316 -0.0016239054 -0.0034862747 -0.003021484 -0.0008504046 0.002121707 0.0042740554 0.0006802339 -0.0027335626 -0.00454324 0.0013331111 -0.003234112 -0.00015948282 -0.0021543012 -0.0040755426 0.0021234574 -0.0035912525 0.001457298 0.0022671702 -0.001336465 0.000401155 0.00040720738 -0.0017735413 -0.00177659 0.0003977137 -0.002360391 -0.0031125208 0.0028415371 -0.0025105353 0.0031616862 0.000801072 -0.004614421 -0.0026661176 -0.0014773925 -0.00045229908 -0.0022021662 -0.0040819934 0.0021706312 0.002336148 0.002072984 0.0031220245 -0.004078688 0.0027035617 -0.0032176145 -0.00077690237 0.00333057 0.0038464647 0.0020115788 0.004437455 -0.003398637 0.0030784823 0.0002990437 0.0047716354 -0.00050800847 -0.0018809481 -1.3061268e-05
白细胞 -0.002829896 -0.0032766028 0.0026841324 0.0013129056 -0.00057062745 0.0011484447 -0.003169943 0.0047647017 -0.0044753375 -0.0018617978 -0.0017292931 -0.0019744632 0.0004414464 -0.003364702 -0.00078590284 0.005030455 -0.0034127391 0.0013652693 -0.0039980393 -0.0036491307 0.0047925236 0.0002790095 8.293638e-05 0.00013158059 -0.0025960929 0.0039288234 0.0033596223 0.00017918948 3.48733e-05 -0.003404962 0.0041530216 0.0023641416 0.0006720319 -0.0041707573 -0.0031582748 -0.0009194147 -0.0013355928 0.0029386822 -0.00083443825 0.0013364787 -0.0035075422 -0.0015541916 0.004356533 0.002401871 0.0041508623 -0.0034439596 0.0040781484 0.0033814942 0.004537913 -0.00076780096 0.0042973654 0.0043383758 -0.003438735 0.0027785401 -0.0049016248 0.0010520127 0.0036307208 0.0028275908 -0.004012925 0.0010768317 -0.0040826728 -0.0015600463 -1.4020461e-06 0.00035594727 -0.0035685685 0.0017787783 -0.002377592 -0.002318852 0.00020416336 0.00025564386 -0.003046099 0.0020068865 0.0026278365 0.004527193 -0.0027503893 -0.0034785462 0.0014256536 -0.0026013514 0.0011313903 -0.0010544594 0.0045450856 0.0034835516 0.0025135644 -0.00071078516 -0.001177132 0.0036444122 -0.0006249275 -0.0008417346 0.0005735349 0.0031961019 -0.0013410018 -0.0039204597 0.00096159085 -0.0015659092 0.0033755216 0.0026715177 0.004080381 -0.0022233 0.0037530207 -0.0041009514
