312 100
了 0.0004819424 0.0006810094 -0.0025035657 -0.003864552 -0.0036089132 -0.0014022515 -0.0036176825 0.0036661422 0.0008758343 -0.0030003448 -0.0023926494 -0.0013625604 0.0031213053 -0.0042791204 -0.0024853835 0.0012074101 -0.0030133994 -0.00048003846 0.0014414802 0.0046049594 -0.00029354886 0.00441405 -0.0030323756 0.0026486996 0.00026803123 -0.0045002457 -0.00071106665 -0.00072507 0.0044342754 -0.0021132124 0.00079283776 0.0025263946 -0.0035643617 -0.0024301372 -0.00032572905 0.0021828574 0.0037383093 0.0048350734 0.0039558704 0.0038844852 0.0013464949 0.0005891516 0.0036050186 0.000682162 -0.0014167887 -0.0040095756 -0.0013001411 0.0025032756 0.0017669616 0.0015532629 0.0022801016 0.00014038557 -0.00019461666 0.0024613566 0.0017786699 0.0014056293 -0.0015334114 -0.0027859735 -0.00052758143 0.00045950265 -0.004719639 0.0046379445 -0.0027497164 -0.0041194023 0.0037447095 -0.000114327544 0.00040948982 0.004926288 -0.0007250867 -0.0045892037 0.003243857 -6.8065456e-05 -0.004856584 -8.897981e-05 -0.00029994015 0.0024561463 -0.0039726733 -0.0020075818 0.0010774495 0.002571318 -4.7028225e-05 0.003567498 -0.0035367508 -0.001952109 -0.0012331418 -0.0027741243 0.0019494832 -0.0020131983 -0.0017873516 -0.0029514078 0.004850038 -0.0040121754 -0.00093547726 -0.0032561792 0.00067177485 0.0012031797 -0.0030231539 0.0022758038 -0.0032625827 -0.0010564266
的 -0.0018474619 -0.0026241245 0.0029541918 0.00041495217 -0.00040695324 0.0027050667 -0.0029548274 -0.004227606 0.0018328443 -0.0015189737 -0.0023857902 -0.00278157 0.00023839553 -0.0028327615 0.0017060185 0.0040751616 -0.003302557 0.0011058705 -0.0017123607 -0.0042801844 -0.003861733 0.0021276544 0.00048470596 0.0036684324 -0.0015752603 -0.0007094362 -0.0037670587 -0.0023200784 0.0034442828 0.0027892643 0.0033368217 0.0031505756 -0.0010629932 0.004509556 -0.004470721 0.0005342434 -0.002086509 0.002966815 0.0015442222 0.002781915 0.0033652612 -0.0027774859 -0.002514312 -0.0013667722 -0.003305766 0.0035768345 -0.0028051042 0.0045443974 -0.0006238999 0.0048218668 0.0026578347 -0.0017219416 -0.002542538 -0.004855555 0.004380821 0.0008248483 0.0035877326 0.004953092 -4.3609925e-05 0.0018623433 0.00041001145 0.0036682363 0.00024067663 -0.000864905 0.0025797272 0.0048411526 -0.0025771651 0.0035237197 -0.002754957 -0.0017885667 -0.004828287 -0.0021158308 -0.00048585198 0.00015701404 -0.00016062662 -0.0010671265 -0.0025505456 -0.0020323906 -0.00011705958 -0.00186715 -0.0027864315 -0.0011287269 0.004241585 0.0046136663 0.0046390127 -0.004054022 0.0024910397 0.0036570875 -0.004361873 0.0036937436 0.0023126975 -0.0013243945 0.0024233656 0.004952539 -0.0019307651 -0.0041880384 -0.0032528762 0.0035412365 -0.0013687452 0.0012001138
去 -0.00031444145 0.0010359456 -0.0017764155 -0.00041092644 0.0024584401 0.0034411189 0.0033605956 -0.00388064 0.0018379157 0.0029060799 0.0003572609 -0.004248445 0.0013745605 -0.0014841006 0.0029391684 -0.0018148328 -0.0021551047 -0.0023827867 -0.0007021306 0.0045531346 -0.00090373657 0.0022181433 -0.0015223626 -0.0025709944 -0.00089743134 -0.0014429745 0.004131315 0.0020044812 -0.0022906046 0.0010289017 0.00041461387 0.0042625456 -0.0007966933 0.0039580707 -0.003081533 0.0016894409 -0.00027574613 -0.0049189855 0.004792722 0.002742992 -0.0016165252 -0.0044414196 0.0005328514 -0.0010450104 0.0011871733 0.0048091863 -0.0014314146 -0.0008218897 0.0016954025 0.0018331371 0.0020256648 -0.0048810225 -0.004683249 -0.0013113962 0.0011319228 -0.0032476664 -0.0016649006 0.0022238733 -0.0023932308 -0.0014429601 -0.00398152 0.0028684903 0.0015199436 -0.0046504573 0.003214987 0.004134003 0.0021172587 0.0039531374 0.0011027533 0.00091205555 0.002162989 -0.00090463896 0.0039407727 0.0005861887 -0.0040351367 -0.0030234028 -0.0012696828 0.0018361076 0.0029900263 0.0010119772 -0.0040371255 0.003497342 -0.0023773622 -0.0025263054 0.0039381706 0.0010162743 0.0023808202 -0.004416133 0.002403211 0.0016160419 0.0034410818 -0.00044640526 -0.002460736 -0.00027984625 -0.0040289275 -0.004199379 -0.0019755175 0.000500716 0.004614043 0.002020707
号 0.0019796873 -0.0022799855 -0.0024008523 0.0034807445 0.0038762945 0.00083648955 -0.0048496216 0.005013687 0.0048560714 0.0024149206 -0.0030576305 -0.0029300628 0.0019863998 0.0034601663 0.00066470925 0.0016697247 -0.00055964995 0.0019085127 0.004603085 -0.0023198505 0.0022822549 -0.0042066006 0.0042327303 -0.0040390417 -0.0046657575 -0.0022088578 -0.00019944512 -0.00039013525 0.0018278456 0.0010784371 0.0010448592 -0.0046158107 0.0036118128 0.0016903329 0.004398144 -0.0027188805 -0.00017992144 -0.004455096 0.0007282274 -0.0039167693 -0.0032801048 -0.003175609 0.0004113886 -0.0002346158 -0.001677562 0.004124725 -0.0018599648 -0.004683784 -0.0025700433 -0.004320807 0.0011242592 -0.0011175639 0.002624833 0.003179717 0.00504375 0.001987493 -0.0013123535 -0.004323372 0.0004334027 -0.0049206517 0.00020897367 -0.0036173179 0.0006883753 0.0036732312 0.004629981 -0.0014876679 0.0027159296 -0.0002588263 0.0041304748 -0.0034259702 -0.0011832629 0.0015051328 -0.0031044255 -0.00495824 -0.0041017453 0.0027494582 0.003826599 -0.0011942305 0.00383868 0.0009931474 0.002291927 0.0019447095 -0.0048556915 0.002145345 4.510628e-05 0.003976279 -0.004083479 -0.0036572015 -0.003933012 0.0015403893 -0.0024561428 0.004361118 0.0011025876 0.0022519436 0.0005301409 0.0006617415 -0.0018754089 0.00491825 0.0013386256 -0.0042635486
挂 -0.0014001235 -0.0028990416 -0.004059899 -0.001373718 7.006069e-05 0.0027390325 0.002404948 0.0018285273 0.0008243942 0.004769963 -0.0009907578 -0.0024837859 -0.0010976099 0.00050778716 -0.0010937876 -0.0020461443 -0.0022713398 -0.0002706295 0.0040605064 0.004891446 0.00016993374 -0.0016923143 0.0028863165 0.002473124 -0.0047663334 -0.00470615 -0.004308671 -0.00026003813 -0.0011902093 0.0041374196 0.0015593931 0.0024079196 -0.0005765487 0.002901543 -0.004182271 0.0016819015 0.0012094756 0.0022421854 0.0045598634 0.0021232772 0.0016237408 -0.0025479982 0.0029727702 0.0044834074 -0.0038671582 -0.00031655835 -0.0047481037 0.0014035817 0.00031111186 -0.00095975 -0.00065520016 -0.0011594257 0.0033208125 0.0016463863 0.0031405156 -0.0019981626 -0.0023751503 -0.0040400852 0.0027071503 0.003166207 0.00035615856 0.0014889416 0.00079241494 -0.0036644589 -0.0023465676 0.00010949658 -0.0026877716 0.0038004625 -0.0038973049 -0.00039359034 0.003956165 -0.0019787422 0.004873832 -0.00045995868 0.0004401724 0.0008868727 -0.00036357268 0.00452912 0.0025040158 -0.002423081 -0.0025268015 0.0021011825 -0.0048546293 -0.0048062317 0.0015900905 0.00013471034 0.002535145 -0.0016984515 0.0027544089 -0.0034331547 0.0013450168 -0.0035876522 -0.0036767097 -0.0035968905 0.0027350248 -0.00085706124 0.00029295185 0.0018024297 0.002684314 0.0049208594
是 0.00092216744 -0.0010481748 -0.0039059508 0.0044132425 0.0024224487 -0.0037340277 0.0005536216 -0.0031560655 0.0013279758 0.001316216 0.001145797 -0.00464055 -0.004017107 -0.0041320096 0.0023436286 -0.0033649998 0.003600638 0.001325784 0.0010683268 -0.0011114179 -0.004589015 -0.0017242632 0.0032043578 -0.00481635 -0.004207097 -0.0011584209 -0.004076413 -0.0046361443 -0.00063023786 -0.0033061288 -0.0045274943 0.0015873003 -0.002852027 -0.0033009131 0.0025615068 -0.0040142094 -3.7733153e-05 0.0011103081 0.0047598635 -0.0020957075 -0.0029203186 -0.004983289 -0.00030264197 -0.0011957892 -0.00024939503 0.0028163234 -0.0035717005 -0.0016738769 -0.0027645277 -0.0031803437 -0.00042616684 -0.004646364 -0.0048119957 -0.0047774143 0.0004269259 -0.002776655 -0.0019176276 -0.0049388553 -0.0040078163 -0.00079150824 -7.689589e-05 -0.0030112383 -0.0010948043 -0.003868755 0.002094999 -0.0003196589 -0.0045839655 -0.003034645 -0.0041859294 -0.0025330766 -0.00055298134 0.003479247 -0.0026260298 0.0018311231 -0.0036079835 0.00087731815 -0.0008807966 -0.0025260556 -0.003181035 -0.0030974636 -0.0020276 -0.0024373191 -0.0048297467 -0.0030565585 -0.0011416079 0.00043006134 0.0039130477 -0.004406585 -0.0037287024 -0.0017157954 -0.002937176 -0.0020357138 0.0027682628 -0.00434074 0.0025944002 -0.00095864537 0.004644597 -0.004402268 -0.0016554581 -0.0028701874
有 0.0021657513 0.0010136323 -0.0026667782 -0.0034346937 -0.0041095703 0.0031734633 -0.00362081 0.0026090562 0.004192077 -0.0034477047 0.002229971 0.0010335639 -0.00473347 0.005086979 -0.0017026989 -0.0037471608 0.0033937243 -0.0014531146 0.00040655865 -0.0026263355 -0.0022598086 -0.0040565906 0.004744896 0.0006539407 -0.00095900684 0.0024899496 9.5208205e-05 -0.004713484 -0.0039148037 -0.0044100136 -6.666185e-05 0.0038617298 0.0011965473 -0.0024410363 0.0038482498 0.00071667536 0.0015604302 -0.00200259 0.004741069 0.001909948 -0.0032018642 0.003147194 -0.0025321217 0.0041021756 0.0027627244 -0.0006914852 0.0029240171 -0.0026982534 0.0040908614 0.0005899562 -0.0018624404 0.0015485097 -0.0032678023 0.0018067932 -0.0032078638 0.0022957933 0.003818557 0.0025455111 -0.0005593211 0.00072850287 0.004962869 -0.0023738286 0.0039226618 -0.0013569394 0.0045249416 -0.0033134634 -0.0034111158 -0.0044421786 0.004301038 -0.0019297799 -0.0029994077 -0.00017014134 -0.003268638 0.0035417923 -0.00045680854 -0.00032357808 -0.0022947674 0.0037127908 -0.002490935 -0.0023879786 -0.0028624004 0.0008082592 -0.0045062997 -0.004002749 0.004577509 0.0008489886 0.001864584 0.0027876126 -0.004003778 0.0048690285 0.0018997121 0.002862319 -0.0003871955 0.0028103273 0.0018794552 0.0032948342 -0.0045045996 -0.00017454296 0.0044372585 0.0026928124
水 0.0021076673 0.004905293 -0.0027756647 -0.00048580187 0.003319429 0.0043135025 0.004471548 0.0014511719 0.0028720214 0.0036883552 -0.0011083913 0.00053688674 -0.0034624462 0.0023681845 -0.0011578526 0.0047535417 -0.0046160826 0.0033270104 -0.0029574684 -0.002298021 0.004639209 -2.3931185e-05 -0.0028477951 -0.0049385265 -0.0049630767 0.0019644077 0.0037464933 -0.004147555 -0.00089566514 -0.0036301727 0.00321471 0.0030846489 -0.0043760883 -0.0017370804 -0.00033984458 -0.0005299426 0.0023344217 0.0032099532 0.0022347828 0.0037863555 0.0017967228 0.002373242 -0.0049778745 0.0030218747 -0.004904973 -0.0049824794 -0.004204933 -0.0040313364 -0.0005638965 0.004555086 -0.002085298 0.0025557075 0.0032259608 -0.0019058115 0.0042575407 0.0027316783 -0.0015211315 -0.0018411997 -4.995849e-05 0.003641015 -0.0036736992 0.0016849 -0.001709897 0.0014056297 0.0050448733 0.0046327896 -0.004979915 -0.00017636637 0.0023738109 -0.0015222863 -0.0021380794 -0.0016016732 -0.003937818 -0.0010593607 -0.0003807655 -8.142561e-05 0.0047415635 -0.00010841091 0.00075605675 0.0039305957 -0.0015646234 0.0039115828 -0.0032943713 0.002453998 -0.00469683 0.0030366385 -0.0007785478 -1.3442012e-05 -0.0041336054 0.0029796974 -0.0043828622 0.0022685789 0.0011557756 -0.0022234798 0.0031446868 0.0021733462 -0.0036775786 -0.004683327 -0.004303386 -0.0041462635
不 0.00208211 -0.0029993213 0.004064413 -0.00022892427 0.0035244944 0.0026255273 0.004322339 0.000521574 0.0017577597 -0.003046188 0.0010429799 -0.0031268927 0.0021883529 0.00465212 -0.0015075254 -0.00016816599 0.0030983044 0.0028565377 -0.0020064728 0.0035779136 0.0040532104 0.0030715123 -0.0048320717 -0.00096983585 0.0038219425 0.0027004662 0.0037157708 -0.00020138765 -0.0042825798 -0.00066875364 -0.00043956976 0.004157288 -0.002347287 -0.0037394087 -0.0021880467 0.0031386707 -0.0033992166 -0.0034108916 0.004881464 -0.0029214153 -0.004381793 -0.0029823752 0.0016791574 -0.0046659773 -0.0033730108 -0.003345001 0.0015846391 0.0044513107 0.0027906687 0.004560225 0.0011369782 -0.0033982273 -0.0017960193 0.004760854 2.2060485e-05 0.003334991 -0.0046994104 -0.003136455 -0.0017071652 -2.7522124e-06 -0.00029852448 0.0015833704 -0.0040129106 0.0013130783 -0.000102240214 -0.0010581167 0.0030671924 0.0035630236 0.0017801864 -0.0005977672 -0.004165969 -0.0046750135 -0.0025688272 -0.0007904541 0.0014177853 -0.0012410742 -0.0011212523 -0.0013515871 -0.0031540596 -0.0019046068 -0.003962899 0.0045585046 -0.004622517 0.0012803302 -0.0011020548 -0.0011625224 -0.0038720227 -0.0047179414 0.0019377749 -0.004354259 -0.003682397 -0.0011753906 -0.0007143959 -0.004763209 0.0047529717 -0.003137383 0.002584517 0.0046846145 -0.0049105408 -0.0030406783
我 0.002799078 0.0014320341 0.0046869875 -0.0024180743 -0.0039092833 -0.0034818815 -0.0019710255 -0.0038026306 -0.004234669 0.0011337365 0.0020660053 0.003897341 -0.00365704 -0.00095350936 0.003075728 0.004363656 -0.0033014605 0.00063146226 -0.0045739613 0.0011413223 -0.001335853 -0.003587158 -0.0034316857 -0.0041632326 -0.0040107495 0.0031811697 0.0043132976 -0.00070848665 0.0031439885 0.0018961647 0.0007863305 0.0044724513 0.00043135858 -0.0031169748 0.0010930576 0.0013150106 -0.00029859573 -0.00083894015 -0.0008145862 -0.001118171 0.0010509209 0.004486394 0.002739827 0.0028530208 -0.0017658 -0.0022556668 -0.0014391963 -0.003527647 -0.0025824115 0.001215003 -0.0014804081 -0.0020816717 -0.0030931325 0.00062010577 0.0049540075 -0.003694553 -0.00482925 -0.0011174376 -0.0011764703 0.0041074366 -0.000980762 0.0014304274 0.003536464 -0.002642748 -0.0011253641 -0.004728987 -0.0030403058 -0.0026456492 -0.0022184534 -0.004926475 0.0041848016 -4.7337144e-05 -0.000590901 -0.004170632 0.004461979 0.0015970062 0.004777178 0.0047649597 -3.5089673e-05 0.0023532251 0.0040074913 -0.0035750542 -0.0031668937 0.0041995416 -0.0047931666 -0.0033441377 -0.0006673277 -0.0041563986 -0.0046882634 -0.0038615395 -0.0038493245 -0.004135456 0.0048003984 0.0032448145 -0.0029436916 -0.002755429 -0.0015809425 -0.0011125191 0.0021479207 -0.0018942697
月 0.0014873816 0.0036196047 -0.0013907093 -0.000980107 -0.005098955 -0.0031069713 -0.0006680015 -0.004936999 0.0029963723 -0.00056194706 -4.7503312e-05 0.00031440935 -0.001684033 -0.0027610846 0.0021464934 -0.0046019387 0.001008875 -0.00338215 -0.003838517 0.0032068219 0.0033188292 -0.003308414 -0.0019003705 0.002352631 -0.0040564016 0.004797641 -0.0047320197 -0.0021629296 0.0010152096 0.0039306656 -0.00048122005 0.0034105736 -0.0006215865 -0.0045740777 0.004242553 -0.001295772 0.0019962948 -0.0045614913 -0.0010254952 0.0038753585 0.002191165 -0.0030742364 -0.0048973495 0.003232093 0.0038788535 0.0009662023 -0.0032743688 -0.003966321 -0.002393739 0.0019301893 0.0036866467 0.0046604956 0.004091894 0.0005828327 0.0043802084 -0.0026187797 0.00017150847 -0.0027928376 -0.005030035 0.003898407 -0.0031039687 -0.0028410754 -0.0044110734 -0.0026301187 -0.0031806862 0.0012265212 -0.0017048763 0.0048190337 0.0012017947 -0.0022529338 0.0027196284 -0.0025275387 0.003111622 0.0049143233 -0.0010635074 0.0036558646 0.00448492 -0.002248291 0.00012768108 -8.435561e-05 -0.0034047451 -0.0042987177 -0.004752865 0.00429793 0.0041654515 0.0004966835 0.0028574993 -0.0020220524 0.002781078 -0.0011425804 -0.0025597247 -0.0015274222 -0.0030738977 2.7352973e-05 0.0024445131 0.003116658 -0.0009558157 -0.0002608316 0.0029356347 0.0049379077
又 0.0010432549 0.002351088 -6.821681e-05 -0.0011237786 0.00040964785 0.0042752186 0.0045216917 0.0023304548 -0.004133128 0.00046069283 -0.0002452906 0.003097572 0.0007429589 -0.00023643288 0.0033814646 -0.0017492172 -0.0031051366 0.0016265805 0.0014862935 -0.0015920394 0.0017947744 -0.0017585525 -0.0029816073 0.004873257 0.0025913767 0.003374735 0.0015964168 0.004857769 -0.002189065 0.0032232937 -0.0023815145 0.003816203 -0.004299342 0.0019202377 0.0018208179 -0.0023579998 0.00019266378 0.0009134636 -0.00023650912 0.0010971787 -0.0040829987 -0.00093929836 0.0031176596 0.002660326 0.0038863926 -0.0011625151 -0.004208194 0.0027752253 0.0011924325 -0.0022802574 -0.0035778934 0.003041342 -0.00074705825 0.0014023592 0.0035810298 -0.0043902774 0.004194997 -0.0008008832 0.00059813267 0.004583369 0.0014318797 0.000818802 -0.003731061 -0.0044566444 0.0025557722 -0.002523021 0.002227107 0.0041260123 -0.003629914 0.0013737301 -0.004569678 -0.0047892146 -0.0043400293 -0.0022715477 0.00372601 -0.00230756 0.003561418 -0.0011254727 -0.0012356803 0.00017661347 -0.0017247645 0.004069947 -0.002179981 5.0871804e-05 -0.0022729435 -0.0015523565 0.00043158012 -0.00377176 -0.0024127325 0.0008763011 -0.0024328758 0.0023066236 0.0012946267 0.0037447452 -0.0040493007 0.0023156742 -0.002594031 0.0005917341 -0.0016608431 0.001983894
医院 0.002703343 -0.0046544354 0.0022330415 -0.0005895716 -0.0017477365 -0.004908081 0.0013725159 0.000601299 -0.0026191794 0.0020677175 0.0030345838 0.0015754455 -0.0016702863 0.0018639064 -0.0040977607 -0.0040949318 -0.0033037737 0.002537999 0.00025730924 -0.0024275295 0.00072678213 -0.004788349 -0.003099244 -0.003997581 0.0036393278 -0.0026347174 -0.0017508181 0.0003301528 0.00014056827 -0.0037846284 -0.0019747564 -0.004101471 0.0035009705 0.0027192633 -0.00025716194 0.0013181288 0.0036539373 0.0012511221 0.0020175625 0.0026576235 0.003638051 0.00043188638 0.0037354145 0.0037957265 0.0012651989 0.0033136737 0.00031799142 0.0015667658 -0.0048362743 0.0042790934 0.0018167415 -0.0038688083 0.001112985 -0.003784777 0.0003733619 -0.00067683327 0.004623968 -0.003617553 -0.0029884058 0.0023838351 -0.0019172521 -0.0010303009 -0.0014621295 -0.0049200086 -0.0036250846 -0.0011761164 -0.0004733041 -0.001062222 0.0004596878 -0.0046365564 -0.001690171 9.568921e-05 0.0015234 -0.004081101 -0.0047439355 0.004379206 0.0047865417 -0.0008721201 -0.0016147291 -0.0022255876 -0.0024609056 0.0007162016 -0.00056449306 0.0018418455 -0.002529595 0.0019416106 -0.0013675223 -0.0047375574 -0.00022004957 -0.0008607342 -0.0036321874 -2.4371004e-05 0.0007937158 0.00023461656 0.0047054924 -0.0009422173 0.0012297047 0.0010585925 0.003988606 -0.0047954177
也 0.00062537775 -0.0028905764 -0.0004115381 0.00012850673 -0.0032445986 0.0028519412 -0.003484303 -0.0019321672 -0.0035027955 0.0027711794 0.004323857 -0.00015941444 -0.0023558 0.0021534616 -0.004686073 0.0029859794 -0.0039336374 0.0044499314 0.0027434553 -0.0017346271 -0.004866611 0.004626978 -0.0044675577 -0.0028185875 -0.001145059 0.0008461105 0.004378437 -0.00238284 0.0030841222 -0.0022042033 -0.0010380762 0.0037335027 0.0014192082 -0.0048670894 -0.0010586448 0.00063578493 0.00014868878 0.0034156314 0.0038492682 0.0014946662 -0.0026628296 0.0048323646 0.00022291257 -0.0019468253 -0.0009167146 -0.0017121483 0.00049607136 0.0027336988 -0.0029421921 -0.0021129316 0.004183734 0.0017749041 0.0007124506 -0.00243555 -0.0002525479 0.0020494887 0.0006313733 0.0032298535 0.00014091903 -0.003197087 -0.0020768284 -0.0017891569 0.00069771515 -0.004589754 0.0019317145 -0.0009615088 -0.0003690723 0.0031840869 -0.002514618 -0.00090950605 0.00010500809 0.0007830683 -0.0027630075 0.0028898672 -0.002403004 0.004434246 -0.004683598 0.0041317916 -0.00042995965 -0.0039527765 -0.0018593692 -0.0029651267 -0.0021383634 -0.0020723671 0.001222696 -0.0028470207 -0.0014992551 -0.0011176057 0.00094366074 -0.0024615298 0.0018567478 -0.0040200623 0.003011806 -0.002060463 0.0019077036 0.0011246877 0.0032315168 -0.0026886442 -0.0035286203 -0.004738819
什么 -0.0036613366 -0.00054049934 -0.004347219 0.0012969841 -0.0025215708 -0.00063571916 -8.592401e-05 0.0005013193 -0.002404112 -0.0045200703 0.0015319065 0.003682146 0.0023869504 -0.00084975123 0.0048744376 0.0015957722 -0.0005423599 -0.0008517159 -0.00014766627 -0.0043121483 -0.00028368246 0.0013950743 0.0016838416 0.0027809634 0.004479041 -0.0031977447 -0.0036627122 -0.003759567 0.0020041442 0.0024917352 0.004668255 -0.00016307796 0.004849991 0.00036032381 0.0039442014 0.00046071596 -0.0046359366 0.0031236468 0.0037571634 0.0036686014 0.0028798236 0.0012604091 -0.001852614 0.00086095586 -0.0045091417 -0.002000422 -0.001439809 -0.0024254636 -0.0034554831 0.004352665 -0.0023761264 -0.002303296 0.0012111111 0.004968233 0.0036595226 -0.004664435 -0.002825848 -0.00062539446 0.0037538325 0.0021405402 0.0044170236 -0.0019414317 0.00084603287 0.0025065723 -0.004404565 0.0038993817 0.0015689271 -0.0011745635 -0.0020498568 0.0030853665 0.00025930975 0.0018184889 0.001854705 0.0030634848 -0.0024872278 0.003790927 0.0031194133 -0.004341553 -0.0015853399 -0.0032602046 0.00028118212 -0.0010959518 -0.0021885317 0.003666415 -0.0027344518 -0.0013398094 -0.00403109 0.0032277075 -0.0001304877 0.004676676 0.0035691604 0.0031308846 0.0026001544 0.0011064042 -0.004356351 0.0006845628 0.0025448634 0.0028810292 1.5079282e-05 -0.0031577442
10 0.0047837133 -0.0016181291 -0.00082178577 0.0038017144 -0.00065350335 0.0029339602 -0.0049470924 -0.0044316184 -0.0013457692 0.0018751936 0.00033303734 0.0047163577 0.003467062 -0.0033015462 0.003487727 0.003911429 0.003771726 -0.0036437747 0.004105085 0.00351255 0.004199343 -0.0017206209 -0.0028953094 0.0014726896 0.004514506 -0.00023800372 -0.0042579398 -0.0005150494 -0.0034453047 -0.002849546 -0.0037691188 0.0005706834 -0.0017674251 0.0030399251 -0.0026697593 0.0008753559 -0.004941505 -0.0014369603 -0.0012440378 -0.0010997833 -0.0024978688 -0.00076115615 0.004286301 -0.004455928 -0.0019074451 -0.0008578966 0.0020058933 -0.0023797613 -0.0038105478 0.0014838615 -0.00087285764 -0.0024564255 -0.002092013 0.002273565 0.0047755064 -0.00055963674 -0.00063073996 0.0011454002 -0.0011338219 0.0017479875 0.00091986445 0.0012118524 0.0040995986 -0.0019192069 0.0050330767 0.0025486245 -0.00029761973 0.005014325 -0.0008152307 -0.0004040593 -0.0030556987 -0.0008423121 -0.0034449773 -0.0015424282 -0.004659249 0.0022320051 -0.00055268337 0.0021992035 0.0019262693 0.0020750477 0.0005885624 -0.00133724 0.003611584 0.00017428983 -0.0045265434 -0.0038308343 -0.0016930235 -0.0039093564 -0.0037373516 -0.0028660442 -0.0024954213 0.0036113216 0.00089640485 0.0047984133 0.00028275876 0.0015980566 -0.004724685 0.0011578313 0.002528656 -0.0047108023
咳嗽 0.00082665024 0.0042038835 -0.0002551051 0.0011591018 -0.0043581156 -0.0018573032 -0.0043713218 -0.0038444193 -0.0037917567 0.004950943 -0.0027398316 0.002715666 -0.004645409 0.002730968 0.0039960896 -0.0046862857 0.00015562546 -0.0032100512 -0.0008487341 -0.0027139022 0.0037374843 0.0018335549 0.0011399294 -0.0012218086 -0.00064339547 0.0011854313 -0.004934203 0.00056565745 0.0025200478 -0.0040849326 0.0019003007 -0.004082873 0.00012277332 -0.0008815898 0.0038036527 -0.0026490504 -0.0043618237 0.0029702703 -0.00083075924 -0.0045434036 -0.0049772365 0.0034446183 -0.0021220238 0.0047820196 -0.0020448787 -0.0022583941 -0.0017540738 0.0020544883 0.0015941219 -0.0038498165 0.0016424729 0.00017226324 -0.0037294424 -0.0035192482 -0.0040081944 -0.003160113 -0.0001615117 0.0007636016 -0.0042717755 0.0035768384 -0.0048448653 -0.0038082316 0.0021212413 0.0035780596 0.001944557 0.0031421103 0.00037027724 0.0013868214 0.0017182025 0.0020768954 0.0042815707 0.0032543077 -0.00244857 -0.0029218954 0.00020385206 -0.0043375413 -0.003259617 2.343149e-05 -0.0043561333 0.0041085375 -0.0040339823 -0.0030505846 0.0006464991 0.00039378717 -0.0030850926 0.0049294983 -0.0022099568 -0.0011601496 -0.0034566955 -0.0032425013 0.0028455683 0.0048623383 -0.0011041526 -0.0011822225 0.003560872 -0.0013111917 -0.0031388013 -0.0016398501 0.0005662895 -0.0041496786
就 -0.0021607147 0.0013686062 -0.004744936 -0.0025398997 0.0002948124 -9.558068e-05 0.00061788614 0.0048675225 0.0021204187 0.0025222097 -0.0014728408 -0.0031734176 -0.0016252529 -0.0029005297 -0.003265431 -0.0040746927 -0.0038821292 0.0014523144 0.0042035766 -0.0004787615 9.383369e-05 -0.0046286574 0.0034097761 -0.0019940152 0.0033566589 -0.004666752 -0.0043734787 0.0020377883 -0.004481845 -0.00012694647 -0.0041033337 0.0023223823 -0.0047012363 -0.0021371448 0.003994436 0.0029187202 -0.003808898 0.0047808243 0.0033591965 -0.0022870896 0.0012287814 -0.004675877 -0.0040199547 0.0026936855 0.0022838209 0.0035085997 -0.002871519 -0.0007180328 -0.0025828844 0.0037959185 0.0042382726 0.00013313435 0.0035619913 0.0018574458 -0.00022879739 0.00067431957 -0.00048501632 0.0016312371 0.0047470666 -0.00056801963 0.004234189 -0.0042471746 0.00061221403 -0.004215806 0.0039213537 -0.0038411748 -0.0032914453 -0.0032797963 -7.378857e-05 0.0033867005 0.0018313071 0.0029255457 -0.0036211011 0.00042601014 -0.0020697012 0.0038829255 -3.1673215e-05 0.003398977 0.00085157366 -0.0024371305 -0.0048687533 -0.0042139753 0.0001524781 -0.003950817 -0.004329927 0.0006035284 0.0031750924 0.0001804025 0.0016413151 -0.0034275162 -0.0011278001 0.0009181046 0.0031148305 0.0048261913 -0.0037756122 0.0025468862 0.0050420226 -0.004442737 0.0016247268 -0.0035238946
发炎 -0.002245462 0.0024150987 0.0046375645 -0.0043928577 -0.0036871543 -0.004862633 -0.00014586753 -0.0017598043 -0.0015961272 0.0016643583 0.0011752344 -0.0004339382 -0.0038903782 -0.00059396384 0.0039380565 0.00030899773 0.0019996283 -0.0037115419 -0.004888896 0.0021023848 0.0037663002 0.0016957375 -0.0021323068 0.0039184066 0.0031914248 -0.00080438773 -0.00020891972 -0.0008043003 -0.0030748607 0.0035410156 0.0048269904 -0.000495981 0.0017896388 -0.0029153218 -0.004142283 0.0023839204 0.0010790218 -0.0030622582 -0.002072487 -0.0029873035 -0.0009946998 -0.0040757456 -0.00087124127 0.00039659365 0.0009958248 0.002637069 -0.0017769701 0.0022349067 -0.0007839905 -0.0002718787 -0.002829534 -0.0043720696 -0.00056609337 0.004048682 -0.0016834255 -0.0049111145 -0.0017931951 0.0010687863 0.00033196626 -0.0037798835 -0.0022752797 -0.0030388618 -0.0020119648 -0.0020333396 -0.0020120332 -0.0015256944 0.0023395123 -0.0014520189 -0.0015038894 -0.0016211942 0.0005729796 0.0035771437 0.0014078374 0.004648364 0.004072315 -0.004128101 0.0006930239 -0.0044653625 0.0049896953 -0.0011568383 -0.0009822368 -0.0022721195 -0.0046925438 -0.0011508245 0.0012320298 0.0028434983 -0.00024826478 -0.0011166872 0.0031452875 0.004812179 -0.0038112525 -0.0046792314 -0.0029813529 -0.0019893616 0.002145032 -0.00042228305 0.0049196538 0.00047460833 -0.0007832131 0.0048242398
要 -0.0013706409 -0.0033761656 -0.0025183235 -0.0014043822 -0.0001623085 -0.0026731992 0.003960848 0.00421691 -0.0028637915 -0.0023405794 -0.00445002 0.0039288877 0.003950871 -0.0013945553 -0.0012369925 0.003634951 0.00020895888 0.0015374157 -5.9176382e-05 0.0022376422 0.004776198 6.2007193e-06 -0.0047703423 -0.0032173528 0.0040829456 0.00050727295 -0.00451581 -0.0035135539 0.0022203287 0.0022707903 -0.002034142 -0.0034958706 0.0025258944 -0.0013429187 -0.00055772084 0.0011851976 -0.0022479936 0.0021401925 0.003414827 0.002812961 0.0041999063 -0.0006867482 0.0047141886 -0.0001687034 -0.004360473 0.004731474 -0.004242285 0.0048983665 0.0031834138 -0.0021658938 -0.0021869962 0.0018264255 0.0035780282 0.0017542673 0.004130198 0.0034878512 0.00031647788 -0.004750391 0.004318476 -0.00012162245 0.0030541178 0.0012764297 0.0034075358 -0.0023875786 0.0041270135 -0.0022648477 0.0015498884 0.0047411714 -7.010042e-05 0.001275082 0.0046070637 0.0013091672 0.0015105939 -0.003791097 -0.004373287 -0.0046879835 0.0027416926 -0.0028359997 0.002715441 0.0013416293 0.0033234898 5.7269284e-05 -0.00283697 0.0010625476 0.0030849786 -0.0008553567 0.0010048411 -0.0050211255 -0.000889621 -0.0023577225 0.0028530261 0.00044334723 0.0037880775 -0.004429856 -0.0036111295 0.0036824604 -0.004956434 0.0039538867 -0.0048116436 -4.6929057e-05
儿科 -0.00077083247 0.0034847974 0.0030958515 0.0048944172 0.0007708316 -0.0009311538 0.0020254827 0.0046831714 0.004435796 0.0015290774 -0.001275616 -0.003979937 -0.0040851147 -0.002498726 0.00063168106 0.0012887726 0.0035703084 0.0034353249 0.004852618 0.004724705 -0.002872446 0.0040658675 0.0008798551 -0.0006835117 -0.0036752173 -0.0033342051 0.00032563257 -0.0037259657 -0.00014517795 0.0024083878 -0.004024341 0.0021960828 -0.0021760243 0.0015113023 0.0036793665 -0.004474714 0.0036138382 0.002902412 -0.0041511725 -0.0027406395 -0.0017551305 -0.0031676686 -0.0017206622 -0.0026759598 -0.0035008276 0.0012894843 -0.0027328276 0.0002503658 -0.00106668 -0.0017082309 -0.0045432528 0.0014515219 -0.0023235097 -0.00066296256 0.0024245593 0.0027775716 0.004408618 0.0047995835 -0.0013209159 0.0025619804 0.00035314035 -0.0035820983 -0.0034059698 0.003457966 -0.0031816736 0.0005020811 -0.0028073736 0.00013128806 -0.001152091 -0.0030207764 -0.0010390884 0.00332271 -0.004280466 -0.0028297987 -0.0025514031 0.0049865115 0.0036167095 0.0008049339 -1.8358518e-05 -0.0017672224 0.0019846987 0.00022714089 -0.0036183128 0.0042158435 0.0047195726 0.0024281826 0.004897062 -0.001682858 0.0019266868 0.0011011888 0.0023722164 0.00030347332 0.0023294105 0.0040990477 0.00024404787 -0.003900161 0.0022859708 0.0021796331 0.0011367864 -0.0016241645
看 0.0006085015 0.00044717593 -0.003604875 -0.0016424528 -0.0004398272 -0.004289979 0.0022379945 0.0015826207 -0.0043339035 -0.0021916158 0.0037935947 -0.0050157653 0.0008678793 0.00014394247 -0.00096583524 0.0012404876 0.0041411 -0.0041123554 0.0028794827 -0.0040716333 -0.0047259424 -0.00021906757 0.002096053 0.0034372343 0.00063575926 -0.0043451176 -0.0026248274 -0.0012687959 -0.0025158857 0.0048547885 0.00031371 0.004278864 -0.000119901655 0.0010350986 -0.0003537832 0.0038914706 0.0005424089 -0.0018215714 -0.0010468351 -0.0013086409 -0.0047884984 -0.0047204006 -0.00017748507 0.0047038607 0.0035848073 -0.004676975 0.0002837541 5.7292957e-05 0.0033856328 0.0016096021 -0.0019144758 -0.0049052984 -0.0039597354 -0.0010379859 0.0022162462 -9.897562e-05 0.0049344352 -0.0047359024 -0.00029216352 0.0042969533 -0.0025574458 0.00010337592 -0.0025478073 0.00044066668 0.0036365837 -0.0036883566 -0.0037806465 0.0050137797 -0.0011172544 -0.004640423 -0.0019456279 -0.0031334108 0.003552037 0.0044035106 -0.0010078449 -0.00019269921 0.0019173371 0.0018272235 -0.0029834372 -0.0034364655 -0.0040118005 0.002291712 -0.003734245 -0.0039631017 -0.0036061597 0.0030195727 -0.003605659 0.0033807321 0.004639263 0.00078501995 -0.004006417 -0.0018191772 0.0024889756 0.0016505745 0.0015327956 0.0026615262 -0.0042729587 -0.004970411 0.001688712 0.00014372183
需要 -0.00083512225 -0.0026637653 0.0030388588 0.002857708 0.0011205284 -0.002625029 -0.0015575977 -0.0038295654 -0.003742662 -0.00046490986 -0.0023024506 -0.0016903311 0.0017133484 -6.782824e-05 0.0028206287 0.0026835476 -0.0038442109 0.004393007 0.0009117554 -0.0001397322 0.0010685858 0.0031818594 -0.0037805114 0.0020490875 -0.00065970805 -0.0040430008 0.004363591 -0.0024113427 0.004046756 0.0019469474 0.0029487885 -0.001780415 -0.0026488965 -0.00488011 0.00070392794 0.0039099837 -0.0012155912 -0.0011543229 0.004959366 0.0035335547 0.0013225726 0.0014492384 -0.0027900557 0.0031599887 -0.0047315327 -0.0048903846 -0.0022734494 0.0018368395 -0.0011077732 -0.00046182922 -0.0039971457 0.002313447 0.0006808205 0.003362138 -0.0039351503 -0.0026097689 0.0042232284 -0.0003787502 -0.0020456868 -0.0029773167 -0.0031125352 -0.0015229678 0.004694984 0.0021655536 -0.0028356903 -0.0035914332 -0.0031672986 -0.0003256826 -0.0033731787 0.0023304578 -0.0018227291 0.0041296757 -0.000113576636 0.0020332574 -0.0022833804 0.0027509853 0.0009941541 -0.0030625903 0.0006851175 -0.0014211363 -0.0042344267 0.0029477288 0.0036016155 0.0037147256 -0.004448551 0.0017131639 -0.0034290005 0.0012951447 0.0038076662 -0.0016020241 -0.001380939 -0.002446532 0.002197437 -0.0013349047 -0.0024585675 -0.0024872983 0.001211501 -0.0047035613 0.0048158 -0.0041738087
吃 -0.002158183 -0.004781283 -0.0031987962 -0.0001100114 0.0017805165 -0.0019833285 -0.0034838386 0.0029673292 0.0015658231 -0.0029936137 0.0028184329 -0.0043850415 -0.004753284 -0.0021035168 -0.0018387598 -0.003483357 0.0029897292 0.0006277051 0.0016375448 -0.004752698 0.0020925116 0.0021911964 0.003418186 -4.7567257e-05 0.0029419255 0.0046734554 0.0022681998 -0.0043997047 0.0019598105 0.0038450165 -0.0036642367 -0.0007828927 0.0049874573 0.0042561404 0.004355752 0.0005598145 -0.0014907747 -0.0044444585 -0.00016033972 -0.002048884 -0.0008627238 0.0034040848 0.001066615 0.0034412644 0.0024079115 -0.00474261 0.0018882735 -0.0005813228 -0.0009530967 -0.0013077128 -0.004587277 0.00036247371 0.0015399228 0.004986177 0.004142919 0.0020691298 -0.0005525325 -0.0024548352 0.0010981631 -0.0044561317 -0.001532398 0.0021839608 -0.0033160124 0.0006150726 0.00049876934 0.0025010305 0.0023146793 0.001155702 0.002029623 -0.0032645352 0.0034526102 -0.00029572926 0.0045433682 0.0010047721 0.0018767413 -0.004087424 -0.0015260841 0.001244331 0.0042707287 0.004641585 -0.004779008 -0.0024349513 -0.0021299617 -0.00014672721 0.002223835 0.003463691 0.00045952215 0.0046857744 0.0034469175 0.002713144 0.00011650268 -0.004868596 -0.0027791087 0.00054933404 0.002896394 0.0046317247 -0.0015973188 -0.002373523 0.0007554601 0.0034357044
药 -0.0035150652 -0.0010154792 0.00071933406 0.0038570187 -0.0039639035 -0.0016478082 0.00031780757 0.0028106493 0.0005717957 0.004969985 -0.0025577126 0.0015576908 0.0015201658 -0.0027054232 -0.0020085226 -0.0025381227 -0.0041472944 -0.00011798702 0.003515192 -0.0046870247 -0.0025567429 -0.0016628976 0.003751978 -0.0002894059 -0.004379589 0.00036988835 -0.001759225 -0.00082140905 -0.0019484228 -0.00010399716 0.004144753 -0.004893965 0.0047469717 -0.001272223 0.0035594064 0.0012380504 0.0005621007 -0.0021121309 0.0040125623 -0.0025096973 0.003559288 0.0016893575 0.004159094 0.0045232335 0.003111422 -0.0039446587 -0.004834108 -0.00025479443 0.0039665317 0.0034095466 -0.0031148663 0.001844311 0.0033320615 0.0005155675 0.0025752608 0.0016193441 0.0026632692 0.002562493 -0.0014175486 -0.0036093274 0.0046590995 -0.00079254253 0.0027797613 0.0015451733 0.0040197233 0.0014231172 -0.0043809935 0.0035241374 -0.0006113878 -0.0033716802 -0.0013345247 0.0004290953 -0.004769104 0.0026749165 0.0046454896 0.0025994936 -0.0041007926 -0.001141504 0.0038755522 -0.0005547369 -0.0018653909 0.004301021 -0.0018863621 0.0017757567 -0.0048573026 -0.003876971 0.00063079555 -0.0038612336 -0.0013842445 0.0027538545 -0.00038461547 -0.0035996125 0.0010798217 -0.00073262973 0.0016680309 -0.0046184044 -0.0017814138 -0.00018516608 0.0041632988 -0.004979468
孩子 -0.0038105287 -0.0010112872 0.0008725641 0.0046211714 -0.0043004877 0.0043914425 0.004688101 0.0016383441 0.0036723868 0.003987672 0.0009270721 -0.00070494955 -0.0014277004 0.0005562 0.0010865678 -0.004715356 -0.0030559716 -0.0039396337 -0.000831582 0.00075432984 -0.003232435 -0.00044496864 0.00042894148 0.0038201 0.0020129536 -0.0031320157 0.0023882694 0.0012703341 -0.00029626457 0.002578219 -0.00251842 0.002344495 0.0048345923 0.0022855361 0.0017091117 -0.0017825963 0.004959856 9.5469506e-05 -0.0047581196 0.0026067325 0.0006142655 0.003909547 -0.0035016611 0.00065437285 0.0017173056 0.004129534 0.00282721 0.0026425328 -0.0014905134 -0.0014185575 -0.00031333303 -0.004314745 0.002351846 0.0024789332 -0.002799332 0.0023670672 0.0012910698 0.003911432 0.004065572 0.0033059139 0.0025313897 -0.004139624 0.0034401629 -0.0019158303 -0.0042318194 -0.0019028338 0.0012780776 -0.0043436578 0.0032731802 -0.0036926882 -0.00077758176 0.0007486835 -0.000851873 -0.004135616 0.0012182054 -0.004297953 0.0041077803 0.0015013851 -0.0022057765 0.0026073428 0.0027207406 0.0034354113 0.002536386 -0.00010606478 -0.0044163764 0.00054002914 -0.0025916372 -0.0017742289 -0.0040836222 -0.00065216847 -0.0025240388 0.0008188664 -0.004368072 0.0034142518 -0.0034048974 0.0034204777 -0.0023524615 -0.004579758 -0.0028806976 0.000523407
在 0.0015544016 0.004043258 0.0010677174 -0.0040089157 -0.004355641 0.003071913 -0.0019239275 0.0037254216 -0.0018448269 -0.0006106232 0.000406723 -0.00450995 -0.0015321014 0.00056952727 -0.0006765516 0.00023419877 -0.0024174838 -0.0015212407 0.0025333308 -0.0026538465 -0.0015410008 0.000779927 -0.0039749607 -0.0020348658 -0.00086004945 -0.0036041182 -0.002922645 0.001448413 0.0045221723 -0.002224806 0.004855399 0.003557008 0.0012101341 -0.004919861 0.004551352 -0.00023832989 -0.0029679222 -0.0016180922 -0.004873488 -0.001005326 0.0016929685 -0.0026814702 -0.00080816844 0.00066525943 0.00070738845 0.00093070325 0.0037641244 -0.0013770073 -0.004358982 0.002376267 -0.0010180662 0.0033666382 0.00068579585 0.0044806283 0.0027707347 -0.0029055502 -0.0024423692 0.003701833 0.0022787664 -0.0048600263 -0.0023926415 0.0007859445 0.00226547 0.0044562123 0.0024839304 0.0017383663 -0.0027887733 -0.0018126895 -0.0030778118 -0.0019342576 0.0040593063 0.004524057 0.0014313351 0.0038698972 0.0041554985 -0.0016719882 0.0023873874 0.0014284439 0.004684635 -0.002790753 0.003892562 0.0048662554 0.0006193945 0.0022009455 -0.003919149 0.0009569562 0.004293303 -0.0027095347 -0.0013786787 -0.0030234475 -0.0027313065 -0.0011976802 -0.0013289567 0.0042171855 -0.00085298443 -0.0012666865 -0.0016463634 0.004591558 -0.0022453414 0.001692355
检查 0.0006145703 0.003698779 -0.003561077 -0.0009643703 -0.0040893788 0.0022371558 0.004251085 -0.004851388 0.0017419276 -0.0037771037 -0.0005494583 0.0017930536 -0.0042518056 0.0029087744 -0.004847764 -0.001359604 -4.6310157e-05 8.923406e-06 0.0002885494 0.0014418123 0.0010900849 -3.9468476e-05 -0.0022823235 0.0040597077 -0.000990384 0.0003220818 0.0034176977 0.0032373173 -9.6776945e-05 0.000949246 -0.002290341 -0.0039596506 -0.0023318883 0.0011283879 0.0039160987 -0.0034127736 0.0023830372 0.00018582304 -0.00037032118 0.0028257116 0.0011472177 -0.0012888003 0.00448353 -0.0029992603 -0.0039725266 0.0017888886 -7.226934e-05 0.00415814 0.0030631816 -0.0011840117 0.0034396856 0.0033507824 -0.0010283756 0.0008811309 0.0028317068 0.0040762555 -0.0021670398 0.00016067487 0.0017985982 0.0032816126 0.0009466237 -0.0045620864 0.0039788443 -0.0034935193 -0.004916566 5.663596e-05 0.0027770363 0.0018773552 0.00032953973 0.0016740151 0.0017493244 -0.0034526181 -0.004639045 -0.0034476332 0.004296806 0.0016059765 -0.00384012 -0.0021196208 -0.000909681 0.0009921275 0.0032422505 -0.0041613183 -0.0011629091 -0.0034659484 0.0038902492 -0.0012414954 0.0046544634 0.003326702 0.001642381 -0.00039632834 -0.0027050893 0.0042610024 0.0036310318 -0.0019970837 -0.002975249 0.000685294 -0.0032615776 -0.00419327 -0.003931359 0.0039364756
现在 0.0015457282 0.002907701 -0.0030605078 -0.0047196564 -0.0030486442 0.0025567166 0.0015974839 -0.003885411 0.00074701 -7.578114e-05 0.0046369676 -0.0026135035 0.0042443452 -0.0019271766 -0.0038050564 0.0017307827 0.0040422254 0.0046673384 -0.0040354286 -0.0026944717 -0.0007369014 0.003180295 0.0025873473 0.002690852 -0.0021497891 -0.004566357 -0.0031420912 0.0027095447 0.00020735124 -0.0018075993 -0.0020184591 -0.003005527 -0.001716513 -0.0016482975 -0.00028519693 -0.0016352403 -0.0022289415 -0.0036999236 -0.0011035721 -0.0006957727 0.0031037703 0.0009684177 0.0015438546 -0.0022667584 -0.0019185868 0.003928285 0.004073746 -0.0010722507 -0.0012598629 -0.0045316247 0.0029171524 -0.00082698575 0.0021459886 0.000985481 -0.0037441559 0.0009135461 0.0008508244 -0.002961508 -0.0020095108 0.004987752 -0.0045196656 -0.00401695 -0.003220389 -0.0003676682 0.0044215247 0.0025738357 0.0010898189 0.0025845629 -0.001117341 -0.0049243434 -0.0048270184 0.00010531622 0.0009271799 0.0020358132 0.0001588852 0.001065766 -0.0037896119 0.0041763117 -0.0038324455 0.002907176 -1.2967003e-05 -0.0046027773 -0.0008778514 0.0025168178 0.0005174237 -0.0017594254 0.000646643 0.0016547671 -0.002197732 0.0030816104 -0.00075480173 0.0018484682 -0.0038231572 0.00030823538 0.004579341 0.003628161 0.0030301893 -0.0016957053 0.0038272159 0.0041755806
问题 -0.0012481175 0.0037302824 0.002134649 -0.0020721979 0.0036294947 -0.0023957395 -0.0011531394 0.0031535674 1.7570352e-05 -0.004481909 0.0039960137 -0.0019396539 0.00032387592 0.0033915208 0.00180823 0.004894071 0.0023931873 -0.0006417954 -0.0014696349 -6.9022506e-05 0.0028207283 -0.003204086 0.00025732658 0.0031810002 0.004151101 -0.0043337317 0.00034033414 0.00064942584 -0.00091869594 -3.4603368e-06 -0.0030127035 0.004441698 0.0032495847 0.0021934665 0.003485323 0.0033509263 -0.0042013708 0.0014298037 -0.004758327 0.0018010018 -0.0046408838 -0.0001987433 0.002194443 -0.004900069 0.00056601124 -0.0032710081 -0.0036277587 -0.00035834356 -0.0009827296 0.0028761437 0.0039031666 0.0046218443 0.0044877785 0.0032756235 0.0013677931 -0.0005102586 -0.004782014 0.0014511102 -0.0035400367 0.0022473428 0.0028772738 -0.004312914 0.0038720348 -0.0047015105 7.902859e-05 0.0020599954 -0.0015549759 0.00095677073 0.00037709382 -0.0017442054 0.0017266095 -0.0027793902 0.0025504685 0.0005277944 0.0020283014 -0.00041538963 -0.00079614477 -0.0037368443 0.0016484597 0.0022562894 -0.0039844997 0.00095958635 0.00208794 0.0020503683 -0.0020219279 -0.0007531982 -0.0043083695 0.0024021366 0.0035898727 -0.0012693944 0.004886935 4.0474908e-05 -0.0002954594 -0.004839365 -0.00029150353 0.00492625 0.0010018413 -0.00042651227 -0.0013400916 0.004176383
严重 -0.000877744 0.0023950862 -0.004303359 -0.0012847353 -0.0008888564 0.0040135486 -0.0046069007 -0.0013074981 0.0026018394 0.0014806708 -0.0016235613 -0.0026289679 -0.0038582236 0.0012109902 -0.004916946 0.004504329 0.0038676774 0.0008966528 0.0049734022 0.0012124425 -0.00014714334 0.0021382584 -0.0008290096 0.0010151613 0.0025357816 0.0016824327 -0.0014101068 -0.004769478 -0.0028599438 -4.7900444e-06 -0.0038118341 -0.00022019347 -0.0038343847 -0.00015254757 0.0001932968 0.0012476223 0.0012890169 -0.0041604824 -0.0047630453 0.0031713885 0.0013575207 -0.0039739558 -0.00034758815 0.0030640718 -0.0017084535 -0.0021415912 -0.0001800167 -0.004189575 -0.0014598412 0.0025469025 0.0044358987 -0.0027686288 0.0030843043 0.0014982272 -0.0049618054 -0.0035920267 0.0016821487 0.0021308013 -0.0033160069 0.0036993288 0.0025236858 -0.00058212277 -0.0009392155 -0.00060143374 0.0034043202 0.003500066 -0.0012181686 0.0025765854 0.000730619 -0.0026411528 -0.002816814 -0.0011273847 0.0044542784 0.0037502737 0.004946829 -0.0024457446 -0.004358952 -0.0039204094 0.0046126447 -0.0036291552 -0.00019503763 0.00089819334 -0.0013961967 0.0038428104 -0.0016624862 -0.001515857 0.0024335454 -0.0018935193 0.0030237164 0.0012478306 0.0008237305 -0.004207731 0.004003366 -0.0024991545 -0.0006016767 -0.0013066969 0.0044713635 0.00050046504 0.004138477 -0.0037940391
科 -0.000801963 0.0018092354 9.818287e-05 -0.0013738136 0.0035554913 -0.0008457403 -0.0032910293 0.0038671168 -0.0018403918 0.0016590799 0.0028577286 0.00052663265 -0.0026707775 -0.0025749884 -0.0011933225 -0.00025879047 -0.0044911965 -0.0008475094 -0.004650038 -0.0016034199 0.0032077618 -0.002043265 -0.0019445872 -0.0017214785 0.0029005553 -0.0010412334 0.004148634 -0.0031363145 0.003440359 0.0034516566 -0.0047758925 0.002561903 0.0041826908 0.0044472446 0.0001840954 -0.0009156781 -0.00025260108 0.0013952155 -0.0025947625 -0.002269432 0.0009802843 -0.00092218077 -0.003758907 -0.0021680775 -0.005036705 -0.0040213466 -0.004088887 0.0017307916 0.0012985339 -0.0036224367 5.5168475e-05 -0.0023646026 -0.0025722082 0.0016642789 -0.0037961877 0.0027367647 -0.002071566 0.0011761639 -0.002389031 0.0043440154 0.0016068056 0.0011702602 0.0016771037 -0.0049399566 -0.0008255569 0.0031003833 0.0014204752 0.00011492596 -0.0047880416 -0.0014955364 0.0009763447 -0.0037849275 -0.0035639682 0.00412297 -0.00038900552 -0.0027685575 0.0020472428 0.000424312 0.0033105842 -0.000683911 -0.00044082338 0.0012739738 0.0045433524 0.0047974256 0.0006849644 0.004470971 0.004395994 -0.0029694098 0.0014594361 -0.0019118927 0.0038033011 0.00070363283 -0.0032686845 0.003586932 -0.0017799817 0.0026905579 -0.0012914499 0.00027215196 -0.0047127088 0.00061052764
开始 0.0013551237 -0.001453065 0.0026098427 -0.0009781356 0.00059961685 -0.0016523442 -0.001292415 0.0044245874 -0.0024882513 0.004787958 0.0031227942 0.0012508541 0.0033931006 0.0032590867 -0.0009833067 0.0035547481 -0.00019049356 -0.0020316422 0.004055728 -0.001249682 -0.001446367 0.0014726027 -0.000583262 -0.0004785418 -0.00057945884 -0.0043741507 0.0005496666 -0.00042876418 0.004844538 0.0016366253 0.0021571673 -0.0018786677 -0.0022931828 0.0040543317 -0.003240067 0.004509222 0.0042982837 -0.004762825 0.0039070663 -0.0034722763 -0.0017739664 0.0011086941 -0.0016681696 0.0047401325 0.00410095 0.0007389622 -0.004254151 0.0041877483 0.002396867 -0.0023612033 -0.0017967416 0.0040961406 0.0028748293 -0.00035694748 -0.0030413154 0.004073509 0.0019745862 -0.0009553635 -0.0013073779 -0.0026431726 -0.0030921414 -0.00024692886 -0.0039950483 0.0037285888 -0.0004744626 -0.0012090075 0.004940373 0.0038265001 -0.0028805193 0.0024582762 0.004861291 -0.0004930999 -0.0007232416 -0.0032224448 0.00036776328 0.003557605 0.0014845777 -0.0025811477 -0.0030832223 -0.0014385588 0.0017692881 -0.0010014129 -0.0044375085 0.002577772 0.0016157145 -0.0023339752 0.003597562 -0.0008729084 -0.0042702723 -0.0003776088 0.0041779904 0.0029053718 -0.004239753 -0.0043683937 -0.0003089415 0.004565459 0.0047086785 -0.0020942343 -0.0031334432 -0.0011406827
吐 0.0042940136 0.0035747217 0.002012167 0.00467802 0.0039595095 0.0036470317 -0.0037599853 -0.0032247163 -0.0022536046 -0.0011255468 -0.0034298724 0.00068157644 0.0011336997 -0.0046117133 -0.0029534705 -0.0044746185 -0.0026849953 0.0049487026 -0.00074286567 0.003152734 0.0027201676 0.0008524925 -0.0017664182 0.0016327357 -0.0001987679 -0.0021543056 -0.004855129 -0.0009935264 0.0037216477 -0.0028242923 0.0010229328 -0.0024235588 -0.001849573 -0.004492229 0.0015487325 0.003065768 0.0028854427 0.0037666261 0.0011262671 -0.003807949 -0.004168436 0.0038346609 -0.0026997165 0.004871126 -0.0015687301 -0.004141791 -0.003012726 0.00449628 0.0023434134 -0.0040225037 5.096905e-05 0.0047635273 0.0038443196 -0.0007324039 -0.00074093137 -0.0020507753 0.0032355282 0.0023089517 0.0012108122 -0.0024506256 -0.002406353 0.00203195 0.0021543328 -0.0013659518 0.004861355 0.0008353294 -0.0042183846 0.0049775494 -0.0013284393 0.0015079055 -0.003461209 0.0012529388 -0.0010211787 -0.0030773794 0.0005632112 -0.0018422626 0.002194063 0.0043982156 0.002127433 -0.004664765 -0.003037005 -0.003685363 -0.0026496006 0.0028195763 0.0018228092 -0.0008052742 0.002593907 -0.0033539783 -0.0043552653 0.0013869492 0.0025921704 -0.0019326974 -0.00022244485 0.0015306257 0.0040511237 0.004786826 0.0024519772 -0.003108953 0.0018374226 0.0016653232
验血 0.0036490974 0.0045763254 0.003612357 0.0017266414 -0.0041021495 -0.0037479983 0.0037987405 0.0012141755 -0.0031140537 0.0019952916 0.0032290572 -0.0022092024 -0.002904375 -0.0022827634 -0.003407473 0.0029242667 0.0015443882 0.0040968633 -0.0033127228 -0.0024396405 -0.0025725106 -0.004493619 -0.0024168633 0.00020461841 -0.004038164 -0.0018300588 0.00049181236 -0.00050241913 -0.0009666954 0.00019095598 -0.004324882 -0.0014135191 0.0017607656 0.0040944996 -5.7292003e-05 -0.000537013 -0.0014325336 0.00047152402 0.0025026945 -0.0049163545 0.0003666702 -0.00036182732 -0.0036857561 -0.003721095 0.0030805366 -0.0014840532 0.0004704809 0.0018718678 0.0038263246 0.0043505663 0.0048220605 -0.002257872 -0.0029559801 0.0036498136 -0.0032903044 0.0048078797 0.0045686364 0.0005431655 -0.002278289 -0.0016652894 -0.0034136262 -0.00030575195 -0.0033038463 0.00027314128 -0.00069561694 -0.00041762477 -0.0043600714 -0.0040184334 -0.0017475747 -0.00224862 -0.0035410244 0.004857546 -0.0024194212 -0.0030682369 -0.0011233189 -0.0030163059 0.0007678605 0.004242013 0.0047286893 -0.001865254 0.0030693226 0.0016222713 -0.0016579203 -0.0016793341 -0.0044652196 -0.0023813078 -0.0023345079 0.0022544595 -0.0038964578 -0.0031429713 0.00050907285 0.00364775 -0.0040165903 0.0031504952 0.001088007 0.0004963521 0.0012413289 -2.4537307e-05 0.0012148257 -0.0040427726
后 -0.003859496 0.00235942 -0.0047757737 0.0016568479 -0.003693952 -0.0048316536 0.00061647437 0.002678153 0.0032404347 -0.002702477 -0.0025752229 0.004718457 -0.003282897 0.0046263607 -0.0021894027 -0.004436561 0.0010474187 -0.0014221147 -0.00088390516 -0.0038627337 0.0023342464 -0.00039121014 -0.0020813576 -0.00041955314 -0.001630779 0.004180227 -0.0019574075 -0.0021637233 0.0011377633 -0.0006183898 -0.0032615736 0.004256455 -0.003485894 -0.004251373 0.003737072 0.00088108605 0.0015837502 -0.0016224799 0.00062974886 -0.0034831802 -0.0033465938 0.002551246 0.0013711499 0.0049048504 -0.00047687965 -0.0039968537 -0.0018581846 0.0032716447 0.00017265005 0.0003217384 -0.0016570529 0.003490934 0.0025576104 -0.0017322236 0.004058261 0.0025694817 -0.0049679843 0.003685348 -0.0013142547 0.0020319545 -0.0010028805 0.0020924273 0.0048521073 -0.0046601067 0.0044340277 0.0041859327 0.0020725818 0.0010246972 -0.002305422 0.0007668517 -0.002597667 0.0036976188 0.0007583094 0.00039798324 0.002844511 -0.001290681 -0.00461755 0.0034778207 -0.0021967287 -0.0012725937 -0.0021371075 -0.004115471 0.0037386823 -0.0044370377 0.0014360319 -0.0032461635 -0.002656742 0.00307874 -0.00056713633 -0.0011313164 -0.00091920426 -0.0029794136 -0.0028241228 0.004255862 -0.0035535702 -0.0033581688 0.0029207151 0.0010687362 -0.0011408392 0.004924318
都 0.0018608106 -0.0013860434 0.002600882 0.0009831288 -0.004059584 6.243431e-05 0.002582858 -0.003699417 -0.0041900044 0.0043432736 -0.0008049047 -0.0027052586 -0.004147293 0.002866611 0.002187799 -0.00274169 -0.002164419 -0.003517787 -0.00422415 0.0035139467 -0.00151257 0.0030439526 -0.0018347919 0.004397738 -0.000989794 0.0036649345 -0.002434662 -0.00384437 0.0030580724 0.0034623747 0.004301924 -0.0019351359 0.004641249 0.0007264698 0.0008206295 0.004522202 -0.0010327966 -0.0006610637 0.003205576 0.0033254575 7.121559e-05 -0.0014406575 -0.004399484 -0.0013483643 0.0021034186 0.0014142571 0.004152038 -0.0036913396 0.004249174 -0.0006005117 -0.003196845 0.00015115725 -0.0010491511 0.002818315 -0.00447354 0.0003525953 0.003739168 -0.0008702045 0.0005512193 0.004304058 0.0037465903 -0.0027362937 -0.003031017 0.0049844817 0.0014814357 -0.0025939182 -0.0025708156 -0.004838189 0.003878699 -0.0010487376 -0.000715746 0.005004754 0.0039026157 -0.0022429386 -6.096637e-05 -0.000366049 0.0037362142 0.0023710884 -0.0032564003 -0.0025315888 0.0015032316 -0.0024984076 0.00014107926 -0.0022671248 -0.0023416604 0.004345994 0.0034104816 0.003121826 -0.00022598957 0.0046508363 0.003416839 -0.0039072405 -0.0034297414 -0.0024974595 0.0016834574 -0.002936448 0.0001633569 -0.0011010651 -0.0026875653 0.002564691
吗 -0.0019744916 0.0007859442 -0.0050019515 -0.0046953694 -0.0016370936 0.0007979421 0.0042287167 -0.0012212885 0.0022679036 0.0023886997 -0.00086872495 -0.004759946 -0.0034049011 -0.00024865937 -0.0012529586 0.0043275827 0.0040220763 -0.0031155972 -0.004213508 0.004913152 0.0006312674 0.0013345939 0.0032151595 -0.0034167378 0.002797752 -0.004117203 -0.002122989 -0.0038241774 0.004648049 0.0021172264 -0.00038453017 0.0033061367 -0.003332125 0.0013556939 -0.0015069775 0.0031673966 -0.0031151364 0.0025157842 0.004875657 0.0031284462 0.0034268948 -0.003998394 0.0040016924 -0.0005760932 -0.0039784843 -0.0020677883 0.004811793 0.004540903 -0.0040811207 -0.00393979 -0.00146844 0.0013898641 0.0018215869 -0.0029657248 0.0029745738 0.0026226202 0.0046423585 0.0008214313 -0.001105788 -0.00059654575 -0.0016035322 0.0004469942 -0.0036504583 0.0008813539 -0.0044135056 -0.0031982902 0.00010340975 0.003973192 -0.0037308685 0.002693389 0.0046036337 -0.0011909632 0.0048323735 0.0020281763 0.003143012 -0.0014971179 -0.0034209082 -0.004861834 -0.0025338815 -0.0046375976 -0.00452594 0.004029952 0.00040376637 -0.0038117722 -0.002419852 -0.0022370848 0.0041790446 0.0006663062 -0.001273419 0.0036699665 -0.004625178 0.004483177 0.0024506028 0.0023450907 0.003380069 0.0046854233 0.0025293601 -0.00028726223 -0.0002485559 0.0008122516
说 -0.0022114436 -0.002454731 -0.0040734382 0.004327065 -0.00041719107 -0.002112869 0.0016905753 0.0013347861 -0.0035935915 0.0044326615 0.0029229375 0.0018124053 -0.0015656722 -0.0040768893 -0.0042805104 -0.0021564863 0.0035962244 -0.0020360835 -0.0028695744 -0.0015408585 -0.0004143391 -0.00070797454 -0.0015230577 0.0044899327 -0.0023161136 -0.004262124 -0.00034520222 0.0008197042 0.0019302284 0.0012966084 0.0037549173 -0.004203784 -2.6954702e-05 -0.0037600896 0.002990139 0.003384134 0.0044402443 0.00495184 0.0032627173 -0.003839766 0.00027524368 0.0020530242 0.0018260794 -0.001815729 0.0027876212 0.0030986634 -0.0019495083 0.0012826633 -0.0033154357 0.0031856718 -0.00064247963 -0.0042676707 0.001568979 0.0013434778 -0.00083725044 -0.0027512722 -0.004877997 -0.0017782073 -0.004519715 -0.0026633556 -0.0019882172 0.0041336836 -0.00024977708 0.0030472386 -0.00048529438 -0.00052996457 0.0049269595 0.0002623412 0.0034875758 -0.002280218 0.0029521543 -0.0004661197 0.002443356 -0.0006350542 -0.0027778042 0.0007707046 0.0017446215 0.002051586 0.00074433454 0.0016971471 -0.0045117177 0.0026785452 3.6162528e-05 -0.000593405 0.0045541273 -0.0042089415 0.0025357136 0.0025449225 -0.0029403467 0.0047945185 0.0036455183 -0.0036390263 -0.00076345424 0.0049026385 -0.00043570803 0.0014173329 0.002670522 0.0028914972 0.0039493553 0.0017330812
出来 -0.0011136942 -0.0018015084 -0.0041624033 0.0041704476 -0.0016854104 -0.0037133694 -0.0027030592 -0.0021442696 0.00045081225 0.004757189 0.004442868 -0.0015634618 0.0047726016 -0.0049169655 0.00032327304 0.0016192666 0.0017479119 -0.0037925143 -0.0014433238 -0.004334131 0.003918218 -0.0034196184 0.0034202172 0.0014035783 -0.0043359664 -0.0036669413 0.0029696221 -0.003815528 0.0035687904 0.0042343927 -0.0031966525 -0.0041960077 -0.0007025805 0.0037092143 -0.0018907551 -0.0029174364 0.0025658004 -0.001713545 0.0002035137 -0.0012456379 0.004264434 0.001569771 0.0020569996 0.0007056441 0.00051408785 5.405907e-05 0.00019321196 0.0031161816 0.004966357 0.0018223657 0.0016668162 0.0031965112 0.004798059 -0.0015590019 0.00275168 -0.0019718695 0.0013678095 0.0025458045 -0.004111611 -0.004343769 -0.0048535517 -0.0007942776 0.0030073754 0.0036041958 -0.0017682931 0.0009028227 -0.004800529 0.0030996562 -0.0043521374 -0.0024456347 0.0036250334 -0.002131998 0.0046329456 -0.003322496 -0.0027935293 0.0037994734 0.0008670006 -0.0042023864 -0.0026928317 0.0049960604 0.001964809 -0.00023906752 0.0015510104 -0.0046626325 -0.002860782 -0.0018955535 0.00014698129 -0.0023333374 0.00021754045 -0.0031263304 -0.003989662 -0.0028468869 -0.0004191703 -0.0008527509 -0.004149021 -0.0002462411 0.0042074625 -0.0013222422 -0.0013859894 -0.00018027223
因为 0.004785721 0.0008484386 0.002976519 -0.003452186 -0.004090343 0.002725513 -0.0036901 0.0012284773 0.0025712482 0.003794082 -0.0049558072 0.00046540145 0.002899524 -0.0029881964 -0.004523575 -0.0032201621 -0.0049372683 0.0029710897 0.0022446706 -0.003330823 0.0015459534 -0.0031469495 -0.0041093803 -0.0017356286 0.00090143783 0.00096170575 -0.0026089519 -0.00041796936 -0.0032057678 0.0031661869 0.0030365684 -0.0018032693 0.0041251993 -0.0016361824 0.0042144563 0.0010718687 0.0008379048 -0.0042004706 -0.0017453383 2.7999466e-05 -0.00069747114 -0.003542606 -0.0028819055 0.003498611 0.0007233587 0.0008857114 -0.0002850102 0.0014549978 0.0016260119 -0.0026921057 0.0007514179 0.001708493 0.0031511702 0.0016344351 -0.003945108 0.0034469108 0.00054354826 0.00085007964 0.000925858 0.0008128719 0.0021559019 -0.00453134 0.0018532033 0.0023522233 0.0007615061 -0.0046075503 -0.0015666963 -0.0032329378 -0.00501063 -0.0033376596 -0.0049826424 0.001139726 -0.004202578 0.0013341127 -0.002703501 0.0014276211 -0.00050042226 0.0013638752 -0.0034010734 -0.0037446308 0.0014448316 -0.002391781 0.00370104 0.004015172 -0.000822199 -0.0020382775 0.00095721666 -0.0037794572 -0.0031187593 0.0038308222 -0.004068818 0.0008349449 0.00479545 0.0025099702 4.0228548e-05 0.0003456042 9.244607e-06 0.0041673295 0.00019212424 0.0034925381
请问 -0.0042085727 0.0011346571 -0.0018473103 0.0021718421 -0.00029230182 0.0023502205 -0.0021386691 -0.004139629 -0.0035166587 -0.002695876 0.003344569 -0.0006620596 -0.004315703 -0.0002056528 0.0032594681 0.00078036124 -0.003133804 -0.0042996146 -0.00334135 0.0013521478 -0.0012568807 -0.004793792 -0.0022655535 -0.0028916616 0.00064328435 -0.0019102712 0.0034298105 0.0047458373 -0.00038680932 0.001834984 -0.0011668082 0.002654235 0.0014489946 -0.00029350436 0.0031743806 -0.0045507685 0.00075833406 -0.0031025587 -0.002963064 -0.0006700297 0.003974688 -0.0028934516 -0.0034319302 -0.0047951075 0.004396698 0.00033317256 -0.0038728542 -0.0035675424 -0.0019729177 -0.004844548 -0.0016371061 0.00040272664 0.0017789034 0.00017858401 0.0029149097 -0.002239465 0.00400904 -0.004753007 0.0048426786 0.0006206903 -0.004376133 0.0049182693 0.0028316947 0.0035327899 0.00095738115 -0.004707311 0.0007552507 -0.0015917105 0.0025388044 -0.00406111 -0.003389703 -0.0005861472 0.00055798976 -0.0013625582 -0.0015467101 0.004382972 0.004156761 0.004837695 -0.0015505422 -0.0017777714 0.0026803291 0.004623573 0.004220258 0.0016063538 -0.003409579 -0.00046407155 0.0033289215 -0.0045367624 0.002345174 -0.0040445733 0.003278084 0.00053042517 -0.0013219626 -0.00079344946 -0.004886091 -2.799395e-05 0.0023166218 0.0044973493 -0.00042217417 -0.0034866165
这种 0.001820816 -0.0002454122 -0.0037774106 -0.004791812 0.002537305 0.0031561193 -0.0016763447 -0.00437052 -0.0020057252 -0.0027316231 -0.0047814744 -0.004884118 -0.0012557833 -0.0029618375 -0.0012036136 -0.003233245 0.001304409 -0.0012425927 -0.00019348807 0.0007015341 -0.00083071546 0.00090586813 -0.0038202917 0.0006621454 0.0020022343 2.8323606e-05 0.0025619636 -0.003119963 0.0020759513 -0.0035890404 0.00012244568 -0.0046104603 -0.0023571255 -0.0017181431 0.00358869 0.0046916814 -0.0038220224 0.0022108105 -0.0022103542 0.00076902733 0.0016952573 0.0019589972 0.00040833178 -0.0022527273 -0.003777209 0.0042166817 0.00018489832 -0.0037589963 0.004811751 -0.00022207557 0.0040864204 -0.0040658354 -0.0019988427 0.0005113825 -0.00014103616 -0.0018824897 0.0044850353 -0.0030477387 -0.0018505799 -0.0032371632 0.00091869774 0.0048213517 0.002944082 -0.0024570848 0.0018597206 -0.0031333426 -0.004937781 -0.00014479243 -7.0842616e-05 0.0020467725 -0.00081598473 -8.764911e-06 -0.0035013123 0.00083358225 -0.0030329986 -0.0049908655 -0.004238253 0.0028185255 0.0027651188 0.0016334974 0.0049053007 -0.003684212 0.0032975178 0.0031694928 -0.00050437707 -0.0044502956 -0.0048717754 0.0004444962 0.0032296455 0.004162394 -0.004253129 -0.0038671268 0.004528742 -0.00052073237 0.0023994728 -0.004484668 0.0010328732 -0.0019992327 -0.0030588976 0.0010048806
情况 0.004066244 -0.004904822 -0.004974355 0.0016052802 -0.0022121286 0.00021489889 0.0035171616 0.003464489 0.003508841 -0.0040919096 -0.0048902193 -0.002928043 0.002264441 0.0040574255 -0.0027635472 0.0015670808 0.0033065625 0.0027472123 -0.0018479185 -0.0036962896 0.0020430814 0.0029466657 -0.00017696261 0.0033744636 0.00070272334 0.00022647287 -0.0027201732 -9.910265e-05 9.432286e-05 -0.00043807115 0.0030486616 0.0049670218 0.0019634576 0.0005837548 -0.0022320433 0.0011405267 0.003895607 -0.003021179 0.0007174009 -0.00088655844 0.0008536235 0.0022006822 0.0044615553 0.0017274987 -0.0040355786 -0.0010221212 -0.0046153516 0.00011705201 -0.0011191296 -0.004528261 -0.0038132055 -0.002115545 -0.0013135866 0.0029273597 -0.0025277014 0.00477335 -0.0030541103 0.0028781206 -0.0014215715 0.00090742623 -0.0012188894 -0.0041501517 -0.00081820425 -0.002584766 -0.0014711648 0.00083988457 -0.0005226033 0.0040162695 -0.00026839637 -0.0026613115 0.0026408213 -0.00048277283 0.0010800863 0.0047540534 0.0015905045 0.003296624 0.0016603165 -0.0011293301 0.004714812 -0.0037532733 -0.002502276 0.0030550244 0.0030993454 -0.004137316 -0.005009156 0.00490975 0.0043222248 -0.002889877 -0.0009572122 0.0018944071 0.0048665074 0.003346379 -0.00023073038 0.004012035 -0.0027073259 -0.0019660117 0.0037319527 0.0026155596 0.00092618616 0.0020498047
感冒 0.0033239138 -0.00377693 -0.004749441 -0.0045998055 -0.0019886806 0.004479733 0.0022037998 -0.0010449016 0.004001049 0.0011910021 0.0031327957 -0.0023735268 -0.0012671094 0.0033876658 -0.0009387348 -0.00050171005 -0.00056644966 -0.0013464128 0.00437363 0.0034139925 -0.0008424485 5.4540687e-05 0.0018917012 -0.0044827056 0.003370356 0.0030849937 0.004097415 0.0019524615 -0.002680306 0.0019732143 -0.00095073454 0.0027640683 -0.004426185 0.0011856209 0.0044492474 0.0003695941 -0.0015915269 0.0014578059 -0.004645705 -0.0036310863 -0.003907561 -0.0039634393 0.001900186 -0.0015642139 0.0039998177 0.0007955186 -7.981797e-05 -0.003051808 0.0037028708 -4.582614e-05 -0.0017272728 0.0027722586 -0.001087082 -0.0020557295 -0.0047043944 0.0009182599 -0.0043125805 0.0022435826 -0.0030201352 0.00076522405 0.001782705 -0.0014695257 -0.00034271713 -0.0032450547 -0.0017254425 0.0018627777 -0.0015653493 0.0031374942 -0.0024844727 -0.0037838449 0.0013902796 0.0027538512 -0.0018215649 0.003173751 0.0020754405 -0.003327014 -0.0038378634 -4.6996454e-05 -0.004122137 -0.00076102494 0.004899755 0.0014999305 0.0023636278 0.0036362733 -0.0024455828 -0.0042003733 -0.0047367797 0.0032606765 0.004085192 0.0005480153 0.0044815494 -0.0042261267 0.00081834226 -0.0028288334 0.0015457395 -0.0009443344 0.0015236856 -0.0012816377 0.00010038074 0.0030558675
流鼻涕 -0.0017147961 0.0012839163 -0.00062631257 -0.003962036 -0.0048047216 -0.003055844 -0.0047274386 0.0025292123 0.0010289694 -0.0021280304 0.0012145599 0.00419026 0.0043203654 0.0031434465 -0.0029868775 -0.0025448757 0.0041806474 -0.0033069162 0.0020634967 0.002108559 0.0040400424 -0.0010635786 0.0028771525 -0.0012302377 0.0023050185 0.00052230625 -0.0025807028 0.003747166 0.0043757134 -0.0025762587 -0.003715141 0.0026205757 -0.0007511097 0.0048603825 -0.00478196 -0.0015425449 -0.0022034217 0.0039203656 -0.001014077 3.2832366e-05 -0.0047727637 -0.0021097823 -0.0031068523 4.190893e-05 0.0012462044 -0.00012919848 3.7928112e-05 -0.0044304784 -0.0011997846 0.00088608736 -0.0027085142 -0.0020054756 -4.3723707e-05 -0.004244652 -0.0040742094 -0.0027512999 -0.0024339762 -0.0048034755 0.0043700826 0.0049011963 0.0034731217 -0.0021858483 -0.004564747 0.0006704723 0.0027576257 -0.00043003898 -9.023935e-05 0.0041413824 -0.001832001 -0.004410879 0.002168575 -0.0038150589 0.0038011584 0.0007850136 -0.00046897228 -0.0027833816 -0.0043573556 0.0036458585 -0.0048049176 0.003275304 -0.002994224 -0.003059681 -0.004120501 0.0031663151 0.0022860502 0.00032679722 0.0017503559 0.0041432595 -0.004469234 -0.0038284727 -7.348288e-05 -0.0028499167 0.0049209693 -0.0038732449 2.7248123e-05 -0.0009736396 -0.0009395003 -0.000107314365 0.0038200982 0.000625015
咨询 -0.003099348 -0.003169616 -0.0032158997 0.0030745906 0.0017801671 0.004719091 0.001587759 0.004481938 0.00069562753 -0.0019136016 -0.0011766426 0.0019306788 0.0030834333 -0.0019236088 -0.0041439636 -0.0026929171 0.0018330617 0.003942814 -0.0021126587 0.003788821 -0.0034374339 -0.0011137689 -0.0006412967 0.0038098507 -0.000116081006 0.0033201461 -0.0030119435 0.0013891421 0.0032401965 0.002576583 -0.0023673659 -0.0034841525 -0.00043794815 0.0044391104 -0.00042227152 -0.0010864419 0.00014577816 -4.7464673e-05 -0.0031365452 0.004652348 -0.0012611819 -0.0035445401 -0.0046106707 -0.00046606344 -0.0028818508 -0.0042878203 0.0020489076 0.00065013417 -0.0028107774 -0.00093391567 -0.0020567363 -0.0019138182 0.0034291702 0.0005877685 -0.0017645236 0.0036134468 0.004721403 0.0039603356 -0.0012997846 0.0040471754 -0.0013845344 0.0029177004 0.0019882738 -0.0013340171 0.0031646665 0.0029949006 0.0023081554 0.003065603 -0.0023090814 0.0025533773 -0.003024068 0.004927139 0.000226606 0.0016522548 -0.0042773536 0.0035465832 -0.0037059234 0.0035332832 -0.0010914193 0.0016482 -0.0021870118 0.00066931173 0.0027170836 0.0048848437 2.5721758e-06 0.0037511282 0.0046747373 0.002914776 0.0003584715 -0.0025872844 -0.004772963 -0.0022001131 0.0033480104 0.004172281 0.00078735955 -0.0039267736 0.004128898 0.0021325415 -0.0027000138 -0.00477973
尤其 0.0029413812 0.0012457959 -0.0008136664 0.003000185 -0.0036878046 -0.0014829264 -0.0028659462 -0.0022758155 -0.002304689 0.004256212 0.003599897 -0.00015483034 0.0020248247 0.002670926 0.0014357023 3.0407698e-05 0.0008155373 0.0016259572 -0.0047939187 0.0022723167 0.0039536743 -0.0019089918 -0.0017560713 -0.004136984 0.002331564 -0.0001925712 0.0046737976 0.0011852426 -0.0005026639 0.00087277463 -0.0026977905 -0.0038551206 -0.0015261897 0.0027246382 0.0010742836 0.0012511412 0.00059965 0.0030615577 -0.0036819617 0.004642596 0.004693131 0.0005307738 0.00049721386 0.00011072009 -0.004294696 -0.0004664903 0.0011209296 -0.0009489344 0.0024013068 0.002974327 0.0013392717 0.0019951784 0.0002473192 -0.0045188116 -0.0047081243 -0.0028024507 0.002454099 0.003574995 0.0027777771 0.0041139172 0.00012460143 -0.004968934 0.002857662 0.0020543518 -0.0037137894 0.0029130587 0.004177393 -0.000702527 -0.0023235206 0.0030653046 -0.0014085827 -0.0037610312 0.0028828871 0.003493211 -0.0033458015 0.0005935467 0.00087065494 -0.004660156 0.0023501473 0.0036690633 0.0024099965 -0.0025980321 0.0012668185 -0.0006289562 -0.0036827347 -0.0043568625 0.001190853 0.004419132 -0.0038422386 0.0011246862 0.0018554775 0.002735735 0.00068434834 -0.00032516202 0.0035944944 -0.0012925897 0.0041112057 -0.0032323226 -0.003121301 -0.00057649944
有时候 0.0019713917 -0.002057902 -0.00070818356 -0.003103597 0.004764581 2.1139047e-05 -0.0017564737 0.0019888745 4.5955665e-05 0.004950501 -0.0024379098 -0.0025744922 -0.001854323 -0.0015833011 -0.00290201 -0.0018907725 -0.0027677487 0.003050804 -0.003462342 -0.00096139853 -0.0035178766 -0.0027447373 -0.0019304067 0.0043115523 -0.00032945987 0.0019295684 0.0020998355 -0.0037306766 -0.0026662291 0.00086516415 0.0014784356 -0.0013667964 0.0013000454 -0.0013576209 0.004474865 0.002371296 -0.002637514 -0.002687945 0.0002149462 0.00405183 -0.004091177 0.003997936 -0.00172527 -0.0043509076 -0.0016382949 0.00087755104 0.0044569597 0.0019340192 -0.0016881549 -0.0026584892 -0.0005082347 -0.00015941702 -0.0010959132 -0.0030173566 0.0037190407 -0.004004688 -0.0020527896 -0.0042234496 -0.0029749197 -0.0012378471 0.0042033736 -0.0018324603 -2.34075e-05 -0.003503696 -3.6517617e-06 -0.0012364468 -0.0034208326 -0.00030849414 0.0026489145 0.0003705515 0.0028283605 0.0027097936 -8.966069e-06 -0.0006500016 -0.0035952423 -0.004639576 0.00035594258 0.0019674278 -0.00070307794 -0.0005594105 0.0021954314 -0.004932074 0.0050069047 0.00023409621 0.0046440396 -0.0022858207 0.0018645413 -0.0019736642 -0.0017377592 0.00033769064 0.00040864156 -0.001870781 -0.0031143918 0.0013451686 -0.002096655 0.0013637793 -0.0045819227 -0.0033889383 0.0017230464 -0.0020047666
儿童医院 -0.00357854 0.0044370075 0.0043711234 -0.004474094 0.00045301422 0.003490338 0.0020342877 -0.0019521164 -0.00019750185 -0.0011586739 0.004334987 -0.0020125913 0.00012636158 0.0031411562 -0.0016029957 0.0036608158 0.0042171567 -0.0041197543 -0.0024052917 0.0036825303 -0.0014507191 -0.0034198398 0.00042574215 0.0013358201 0.0016617527 -0.0019537774 0.0033463072 0.004221062 0.0041804025 -0.004800836 0.0010896663 -0.00021066164 0.0038766165 0.0030710122 0.0041270168 0.0032382158 0.0014185404 -0.0021462329 0.0029840402 0.0029589802 0.0014538941 0.0038648471 -0.0029937848 0.0020060057 -0.0037608575 0.003039182 0.004275815 0.0022734131 0.00016142346 0.0025018847 0.0034946648 -0.00057074305 -0.0048829867 -0.0019213886 -0.0031732316 -0.0038275057 0.00089616555 -0.00029222603 -0.0013113776 0.0021739968 -0.003066219 -0.0008541417 -0.0049708285 -0.0016728928 -0.0026610873 -0.001146865 0.0044812285 -0.0030728255 -0.0027104462 0.0021703534 4.816257e-05 -0.00338483 -0.0044985996 -0.004075781 -0.0027383605 -0.00024802153 0.004519566 -0.002574723 -0.0002582058 0.0037026936 0.0006958486 -0.0019180268 -0.00044173418 -0.0009251871 -0.0022597497 -0.004578522 -0.00023396409 0.0011000586 0.0003122558 0.0006161478 0.0022996464 -0.0029760534 0.0012209439 0.0023636688 -0.0013746736 -0.0010196867 -0.0036408238 0.0044155703 0.003028151 0.0043269624
CT -0.0013008936 0.002333532 0.0020719816 8.89189e-05 0.0020388155 -0.001431247 0.0048387516 -8.909385e-05 -0.00047742305 0.002769185 0.001254629 6.8852874e-05 0.0030026808 0.004937744 0.0014474143 -0.003602413 -0.0020986164 -0.003762328 0.0031447243 0.00057139684 -0.004716461 -0.003053533 0.004781965 -0.0035745506 0.0022766322 0.0033039378 0.0013274146 0.0030803261 -0.0034354776 -0.0034096066 0.0033600244 -0.0015644694 0.0024863586 -0.0018281948 4.7413116e-05 0.00327046 -0.0022322738 -0.0012462778 -0.002903396 -2.2601504e-05 -0.0021387988 0.0010378346 0.0007037802 -0.0002868171 0.00057599205 -0.0029146802 -0.003697579 -0.0014232938 -0.00044288582 0.000945269 -0.0019466588 0.0021812774 -0.0028552497 0.0032311506 -0.004316146 -0.0018877259 -0.0013265515 -0.004578685 -0.0010532646 -0.0014355987 0.0017133921 0.004225174 -0.002814646 0.0040179566 -5.2436344e-06 -0.0048284135 0.0034835984 -0.004103227 0.0043475376 -0.0041733044 0.002004724 0.0023986353 0.0049621947 0.000114164264 -0.00028251557 0.0034861413 0.0027459231 -0.002193111 0.0014985855 0.0038657433 0.0017556384 0.0010549477 -0.003978965 0.0012511121 0.004543869 -0.0023337852 0.0038638236 -0.00048436015 -0.0018479578 0.0029373064 0.0029563638 0.002120712 -0.004823255 -2.8868748e-05 0.0044795186 0.0029960223 0.0019476308 0.0041330354 -0.00025902328 0.0016940273
腺样体 0.001212535 -0.004470392 0.0032303785 -0.004337705 -0.0026812872 -0.0001040482 0.003639115 0.0040159533 -0.0024518208 -0.0023643477 -0.002967499 -0.0019171211 0.0016791677 -0.0017623177 -0.0013656929 -0.0042566773 0.0038184132 -0.0023814784 0.00082408125 -0.0012612076 0.004548659 -0.004636597 5.5375047e-05 0.0032503533 0.0018167171 -0.0018910556 -0.0013760063 0.004820804 0.002926742 -0.0021189023 -0.00028731432 0.0005212288 0.004419436 -3.732725e-06 0.001090626 0.0009929964 0.0050014383 7.942262e-06 0.0038926387 0.0036222232 0.0005291997 -0.003096685 0.0022525063 0.0039912844 -0.001845677 -0.0048600757 0.004103743 -0.0023235267 0.00393032 -0.0035970805 -0.002493456 -0.0019614676 -0.0011442513 -0.00024857838 0.0022383053 0.0030932059 0.0036240027 -0.00081883965 0.0035085266 0.0005391925 0.00044424075 0.0019207835 4.2398668e-05 -0.0017912423 0.001307941 -0.0025034095 0.000440521 -0.004064732 0.004849523 -0.0011697317 0.00408009 9.108046e-05 0.0027075903 -0.0029387698 0.0035093871 -0.0045133675 0.0037804353 0.0047566905 0.0011184177 0.002494403 0.0044144792 -0.0006351582 0.0029127346 -0.0002838557 -0.0036806243 -0.0024754957 -0.0017299125 -0.0011849778 0.001992143 -0.002527879 -0.0045602056 0.0015505542 -0.004011157 -0.0012987885 0.0019438379 0.0029956014 -0.0036920274 0.0027219397 -0.0010659306 0.003958691
和 -0.0014670672 -0.0035290476 0.0049643707 0.000863156 -0.0023675368 0.0044111805 -0.0017031075 0.0024903414 0.0025539899 -0.0019847462 0.0012248951 0.0038472037 0.0035100663 0.0012033756 0.00016417887 -0.0049266587 0.0021588039 0.0016697486 0.0013855725 0.0026538793 -0.00034084544 -0.00072304724 -0.002959347 -0.00045666506 -0.0021781733 -0.0002564922 -0.00027408093 0.00039798304 -0.0020910338 -0.000652213 -0.0027946818 -0.002936413 -0.0013711763 -0.0011180625 -0.0034892748 0.0022431077 0.0023307756 0.0026851667 0.004390191 -0.0007968968 0.0041546193 -0.002319706 -0.0013576642 0.001270682 0.004875108 0.00016633415 0.0030363873 0.0038680376 0.0013786416 0.0008901734 -0.00486991 -0.004383346 0.0033920603 -0.004214662 -0.0013281981 -0.0023351198 -0.0023543318 0.0003925088 0.0025178469 0.0016039769 -0.0036211936 -0.0031864678 -0.0043556313 -0.00075647683 -0.0006510983 -0.0047799433 -0.0007495507 0.0024162396 -0.00019854328 0.00011356958 -0.0020978125 -0.0010103667 0.0019517413 -0.0018913494 0.00034554166 -0.0023410572 -0.00066891796 -0.0049478803 0.0024100493 0.0028182918 -0.00018723783 0.0034041565 0.0011819853 0.003976913 0.0031223171 -0.00016168425 0.004701791 0.0022201692 -0.0048634186 -0.0005805437 0.0019477345 0.004791695 0.0015983037 0.003955254 -0.00085129705 0.002877842 0.0014658525 0.0011669209 -0.0029050345 -0.0004862961
肺炎 0.0010267716 -0.0032655485 -0.0020015654 0.0031033645 -0.0020201583 -0.0014570943 0.001500665 0.0002454967 -0.00022887056 0.004731313 0.004051207 -0.001959689 0.00039097684 6.1744366e-05 -0.0028495574 0.004201254 0.00012958815 -0.0028533014 0.00079891336 0.004955201 -0.0026833934 -0.0049389764 0.0029817468 0.0038326206 0.001246883 -0.0012619211 -0.0035850066 -0.0031543192 0.00025567017 -0.000683947 9.587762e-05 -0.0037969456 -0.004304318 0.0046620397 -0.004365125 0.00065939524 -0.0018089303 0.0023586347 -0.0012299499 -0.0012303122 -0.000104327446 -0.001132173 0.002357714 -0.0027467671 0.0037563213 -0.005011155 -0.0034720981 -0.0012638442 -0.004386121 -0.0022173715 -0.0026954678 0.0029679062 -0.004225309 -0.0049383882 0.004534122 -0.0036039352 0.0036274916 0.0005371732 0.0030528859 -0.0048722634 -0.00331335 -0.003122648 0.00088629127 0.00012610007 -0.0017979068 -0.00070867117 -0.0037210241 -0.0024343047 0.0040977793 0.002163322 0.0040417262 0.00024367611 0.0034674692 -0.002738143 0.0026426658 0.00072211155 -0.003945803 0.0040421155 -0.0033167829 0.0015419212 -0.0029795587 0.00031205936 -0.000185348 0.0011601192 0.004773666 0.003945922 -0.00081556774 0.0040582456 -0.0028354882 0.0030774313 -0.004483964 -0.004363649 -0.0045404113 -0.0034025898 -0.0041966494 0.004156451 -0.0023413897 0.004253964 -0.0045098597 0.0002132621
感觉 -0.0022898936 9.021125e-05 -3.024047e-05 -0.0009588022 -0.00063388684 0.0032024456 -0.004672955 -0.0048419153 0.0034955835 0.002057794 -0.0034683945 -0.001972657 0.0013501013 -0.004857783 -0.0039542597 0.0028033766 0.0008249482 -0.004946616 -0.0019938399 -7.706941e-05 -0.00024385261 -0.0020770077 -0.0022872789 0.00069860264 0.00015725753 -0.0042406395 -0.0023786214 -0.0041725156 -0.0018640871 0.0024550192 0.0036922111 -0.0047715283 0.0025059646 0.005027702 -0.0043341187 0.005039914 0.0019097343 -0.00013584939 0.0030056841 0.0010695161 -0.0033705584 0.0017626489 -0.0021804038 -0.0023355035 -0.001927159 0.0031737299 -0.0042338134 0.0016919005 -0.0020892955 0.0041607847 0.002483461 -0.001185074 -0.0048659146 -0.00020626921 -0.0030021053 -0.00046443383 -0.0024258387 0.0026793445 0.0046138237 0.0007598422 -0.0023516982 -0.0024103806 -0.00063351396 -0.0024364414 0.0045939134 -0.004282597 0.0014586671 -0.0028376605 0.0028328383 0.0021909138 0.0046313596 0.004697106 -0.0043908623 0.004989254 -0.003803526 0.0012107657 0.002457297 0.0037199724 0.0024950514 -0.0022748087 -0.004388197 -0.001847955 -0.0015907818 0.0003114703 0.002111644 0.00031869672 -0.00073241565 -0.0013997507 0.0031497374 -0.0027971806 -0.0011202728 -0.0044735745 -0.0038057656 -0.004872832 -0.0021172052 -0.0038737752 -0.0020864021 0.0022677444 -0.00084046775 0.0018380949
但是 0.0030590629 -0.003943286 -0.0029404936 0.001006839 -0.00026882745 0.0049544573 -0.0006345195 0.0012133494 -0.0005498803 -0.0020402528 -0.0016230455 0.0030073966 0.00036506413 0.0011932723 -0.0033533035 -0.0047199624 -0.0024356716 0.0017924205 9.016113e-05 0.0033425668 -0.0012461068 -0.0013902169 -0.0043564253 0.004813691 0.0036427972 -0.0025979981 -0.00039092716 -0.0017838035 0.0017646736 -0.0025989518 -0.0022059274 0.00046153777 0.0045312033 -0.004734312 -0.0043203626 -0.00014630577 0.0034782328 -0.004740371 -0.0008249897 -0.0039698128 0.00089533895 0.0009413449 0.0034007365 -0.0011690058 -0.0036233999 -0.0002590282 0.0024109848 0.00057033147 -0.0031423352 -0.00032809644 -0.0021015666 0.0020271018 0.002150939 0.0043899273 0.00058662053 0.0028889088 0.0021713183 0.0024987333 0.0011930431 0.0019929153 -0.004075084 -0.00017266473 0.0046193893 0.0014638202 0.004241196 0.0038066108 0.003001529 0.00094117003 0.0037941602 0.00041230646 -0.004071401 0.003502447 0.0032604262 0.003393535 -0.003459984 -0.0015740534 0.00062825566 -0.00470156 -0.0005608688 0.0035106726 0.0008357939 0.0002886188 -0.00020797674 -0.0027629419 0.0021313932 0.00018484691 0.0026631127 -0.0034920091 -9.095183e-05 -0.00021260593 -0.00047042506 -0.0021435977 0.0031424663 0.003257078 -0.0046659666 -0.002751936 0.003558475 0.003895116 0.0031959426 -0.00030953286
让 0.0013474938 9.475986e-05 0.0009895805 0.0019416721 0.0048359656 0.0026704257 -0.0016383143 0.00046716045 0.0014486711 0.002704738 0.003177306 -0.0042373966 0.0014261968 0.0041180933 -0.0037634484 -0.0011114503 -0.0035013321 -0.004074676 -0.0013898957 -0.0006880692 -0.0036032547 -0.0015505407 -0.0043257093 -0.0008952852 -0.0027893574 0.0023864254 -0.0034762707 -0.0027155573 0.0016290719 0.004551489 0.0021865398 -0.0013615651 0.00057930837 0.0013444398 -0.0002773792 -0.0037310014 0.0046914425 -0.0018119863 0.0013172982 -0.003908518 -0.0044806823 -0.0015280667 0.0038888166 0.0033091526 -0.003855039 -0.004125623 0.0021127278 0.0029759137 -0.0023588645 -0.002506376 -3.003187e-05 0.002296929 0.00092065317 0.0001583275 0.0020475993 9.8034085e-05 -0.0009354175 0.003582427 0.0034701393 -0.0007448807 -0.0016224835 -0.0013663028 0.0032824795 -0.0009206243 0.0044372836 0.0031843956 -0.002662506 0.0039842823 -0.0036055837 -0.0041387505 -0.000678514 0.0041143047 -0.0007288963 -0.004008157 -0.0032619722 0.0016602157 0.0044166506 -0.0022399984 0.0041689766 0.0049834633 0.0036191118 0.0011612448 0.0013387223 0.0014712006 -0.004196573 -0.00071369944 0.00033501344 -0.0044709165 0.0038933463 0.0004534168 -0.001634567 -0.0037764614 0.00018930464 -0.0027842906 0.002168921 0.0048357775 0.004871848 0.00397935 0.0009711432 0.00440988
其他 -0.0027118772 0.00065344485 -0.0030766758 0.004548693 -0.00096902397 -0.0014489725 0.0048129736 -0.0007452523 -0.0014405613 -0.00304586 0.0022927253 -0.0049812524 -0.0021504033 -0.00024920926 -0.0030222507 -0.0003433234 -0.0017365149 0.001791676 -0.0040267343 -0.002642211 -0.00046703377 -0.0039647412 0.0014272151 -0.0042320034 -0.0048172125 0.0011730056 0.003739382 -0.0037026592 -0.0003087805 0.00066054944 0.00091062003 0.00021852447 -0.004920286 -0.002779801 0.0040159523 -0.0014327517 -0.0013340851 0.004107322 -0.0019313208 -0.0043827016 -0.0036738818 0.00036078875 -0.002294978 0.0033205256 0.003934394 0.0018237398 -0.0011252473 0.00017817513 -0.0027680614 0.00025392562 -0.004752225 0.00024180285 -0.0048997044 0.0024507067 0.0023671642 0.0024196522 -0.0033176085 0.0033137316 0.0012642809 0.002170187 0.0031253856 -0.0018063785 0.0010940491 -0.002779629 -3.6275927e-05 -0.0030380725 0.00051238784 0.0021433975 -0.0019526923 0.004564618 -0.0016503911 -0.0015508542 0.0028627964 0.0034547788 0.0035415718 0.0016730145 -0.0014251313 0.0039786235 -0.004842173 0.0032087045 -0.0025365062 -0.0016558445 0.0044722687 -0.001335776 -0.00036387876 -0.001155642 -0.0034588524 0.00037434784 0.0032591845 -0.0040426436 0.0005495382 0.00036896643 0.0044842632 0.00324428 0.0017204287 0.0019144029 0.004516299 0.0038644357 -0.0031987266 0.0032401711
2 -0.00065493817 0.0038388032 0.0020242613 0.0036606167 0.0034442248 0.004483739 -0.0008941684 -0.004781945 -0.00081734464 -0.0049486835 -0.002696665 0.001972059 0.0038269134 0.00367375 0.0022130243 0.0046627936 0.0027122784 -0.0035892138 -0.00036032556 0.0013907368 -0.003618118 0.0022743803 -0.0014774634 -0.0030844128 0.0016092865 -0.0016218239 0.0036933424 0.0017420818 0.002784729 -0.004825616 -0.0034825737 0.0043314435 0.0038397897 0.0007005725 -0.004033905 -0.0022800493 -0.00085044606 0.001522085 -0.0037713454 8.977292e-05 0.0032325631 0.0007749431 0.0018522469 0.0042661135 0.004616387 -0.001720092 -0.0023586792 0.0037799082 -0.0033488714 -0.004214307 0.0025712848 0.0020672474 -0.0029295636 -0.004269243 -0.000576705 0.0047567715 0.0008554899 -0.0008072206 -0.0021065935 0.0018454626 -0.0036926263 -0.002943661 -0.0049251355 0.0016759583 0.004429532 -0.0005408364 -0.004995133 -0.0045078527 -0.0023440518 0.001345041 0.0037433845 -0.0032726144 -0.0019732714 0.0016756769 -0.004689219 -0.002412014 -0.004752777 0.0044926074 0.0031678455 -0.00039025256 -0.0045020967 -0.0044733337 0.0041605397 -0.0024123734 -0.003010266 0.0019218061 0.000834692 0.0004167905 -2.738314e-05 0.00010425791 0.0049881605 0.0016239588 1.6486914e-05 9.5520496e-05 -0.0007889394 0.0028337438 0.0036049087 -0.0019090421 -0.00030363517 -0.00013002274
没 -0.0003262195 0.0028433339 -0.0011564711 -0.0042629004 -0.003342978 -0.0018076265 -0.001795381 0.003635379 -0.0040523135 -0.0041682543 0.004025459 -0.00354783 -0.0016447871 0.00089638424 -0.00022038603 -0.0029578211 0.004667924 0.0012884871 0.0028389504 0.0019512041 0.004543195 0.0011080304 -0.0036278437 0.0025527764 -0.0023710846 0.0012583173 -0.0023740071 -0.0006386137 -0.0023087629 -0.00045414543 -0.0035949512 -0.0046684886 0.0022125558 0.00050039415 0.0049033407 -0.0014606769 0.0019816721 0.0044797193 0.0044044014 0.0013447815 0.0020402446 -0.0030940636 0.0028747136 0.000520741 0.00015746795 -0.0037058522 5.3824074e-06 -0.0013752462 0.0006003389 -0.0008281214 -0.0019260239 -0.0034274154 0.0001694638 -0.0030930212 -0.0017811481 -0.0045485534 -0.0021211908 -0.0017446888 -0.00451997 0.00034719598 -0.0016564819 -0.003149897 -0.0016083994 0.0048908265 -0.0008030295 0.00055812724 -0.0037607464 0.0030384474 0.0016398325 -0.0037227827 0.0025184436 0.0006636256 0.00037772124 0.00021424201 -0.0019521498 0.0035428961 -0.0009895348 -0.00031694942 0.0005749262 0.003587519 -0.0033753733 -0.003081318 -0.00015553545 -0.0021505605 -0.0028386917 -0.0016548721 0.0016001794 -0.0030706085 -0.0026087442 -0.0023066355 0.003791627 -0.0025016698 0.0034648203 -0.0037095135 0.004819303 -0.002770739 0.004581288 -0.0021259394 -0.0009887783 -0.0014937744
幼儿园 0.004437868 -0.004677731 -0.0021602132 0.004230212 -0.00026687764 0.00251852 -0.0020751671 0.00039550956 -0.0021319306 -0.003879157 -0.004157429 0.0012528463 0.0045955973 -0.00014700407 0.0041485294 -0.00333851 -0.0043357387 0.00090689276 0.0017851827 0.00015463638 0.0019448422 -0.0027274655 0.0005666654 0.0027989957 -0.004237668 0.0044406466 -0.0010507224 -0.0021986007 0.0043773768 -0.0044916873 -0.003446082 0.0024987722 0.0023036685 -0.003938389 0.00020708944 -0.0017512 0.003851767 -0.004569399 -0.00013953973 -0.003588241 -0.002711881 0.0040078475 -0.0024692717 -0.0025441446 -0.0048227417 -0.004899725 -0.0005231447 0.00070496555 -0.0032743113 0.00062739436 -0.0024205686 0.0023860952 0.0022094168 0.00423888 0.003577129 -0.003681381 0.0030460593 -0.0020070963 0.0045352005 0.00014242473 -0.0023786242 0.003950619 -0.00264856 -0.00044328484 -0.004915256 0.0021017087 -0.000588087 0.003572849 -0.002728908 0.00499868 -0.0048666173 -0.0020476282 0.004699787 0.0043434403 0.0015480799 0.004333379 0.0036446915 -0.0010197163 -0.00093055 -0.0041998224 -0.0034819124 -0.004666142 0.0027780964 0.004273176 0.0049147247 -0.0019611611 -3.0795087e-05 0.0023915053 -0.0023342967 -0.0031825867 -0.00062146905 0.0005611054 -0.0017305507 0.0015342333 0.003670068 -0.0023260636 0.004233294 -0.0021265962 -0.0013511333 -0.0006114732
24 -0.0028901459 -0.0018931807 0.0008252235 0.0017588859 -0.0025016547 0.001925165 0.0005870367 0.0021040572 -0.002382728 0.0031292734 0.0009772325 0.0031472808 -0.0020721012 -0.0042026276 0.0037067726 -0.0015151708 0.003533763 -0.0035768494 -0.002859637 -0.00079035514 -0.004367036 -0.00036596812 0.0017727547 -0.0027426851 -0.004411042 0.0031695492 -0.004672072 0.0021950093 0.0026006543 -0.00119342 0.004439851 -0.0010529635 -0.0008963792 0.0019608513 -0.004331885 0.0010276992 0.0048591904 0.0046013594 -0.0020042998 7.698962e-05 0.004174864 0.0045422604 -0.0027769995 -0.0010936358 -0.0021616176 0.0029375744 2.3347071e-05 0.0022635872 0.004033207 -0.003959629 0.0028261258 0.0035860243 -0.004063872 0.002544897 -0.004000147 0.0039813565 -0.004757255 0.0013629495 0.00040463486 0.00332113 -0.00045111775 0.0048064925 -0.0041422737 0.0045433 -0.0031923752 0.0034893348 0.0010531279 0.0033218388 -0.00032061586 0.0035405746 -0.004189649 -0.004222086 0.004717804 0.0025206455 -0.0037899325 0.0002604221 0.0018617328 -0.0015723779 0.00059396727 0.00084934087 0.00064554735 -0.0011227678 0.004493179 -0.0040863496 -0.0029067306 -0.00025135314 0.0044068145 0.0031293754 9.920191e-05 -0.0018344362 0.0011759631 0.000911903 0.0015244681 0.00042431123 -0.0027954911 0.0019528043 -0.0015769028 0.0009839128 -0.0045693074 0.0017167955
晚上 -0.0024828122 0.00416185 -0.004068921 0.002197962 0.0032094584 0.004836642 -0.0009789327 -0.0026351162 0.0036813398 0.0048449864 -0.0044534705 0.001342466 -0.0033766525 -0.004363839 -0.0009326959 0.0012088425 -0.004858191 -0.0032344933 0.00030099505 -0.0016953021 0.00020368691 -0.0007694333 -0.0003391105 -0.0027063724 -0.0026925171 -0.0028171164 0.0025611622 0.0034180686 -0.0049474062 -0.0008913184 0.004170738 0.004208361 -5.6269117e-05 -0.0016528416 -0.0034147282 -0.0021786045 0.004083775 -0.0008267507 0.0048578475 0.0048151007 -0.0040764026 -0.0003526468 -0.0023661475 0.0017857297 -0.0011692444 -0.0016958728 0.0029926156 -0.0018548893 0.00131291 0.0026084953 0.0038175036 0.0012596806 0.0027226408 0.0038810826 -0.003126466 -0.004053438 0.0044579227 0.0048135705 -0.003293086 -0.0037712026 -0.00049787393 0.0039815856 0.004435117 -0.0042106644 -0.0013244462 0.0029529266 0.0009341386 -0.000970247 0.0012342788 0.0019864286 -0.0019577118 0.0044669877 0.0002916401 0.0046920343 -0.0012536208 -0.0045640087 0.003309101 -0.004801967 0.0019016473 0.003824491 -0.003569754 -0.0006260509 -0.004372597 0.0015376514 0.0003753424 -0.0045806924 -0.0035039606 -0.0002152233 0.00046671656 0.0038597141 -0.0044254544 0.0014056226 -0.0006309667 0.004721396 -0.004835602 -0.0015057765 -0.0029370415 -0.0041769687 -0.0020213365 0.0039716465
当天 0.0027139813 -0.001216272 -0.00339457 -0.0030469801 -0.0033473428 0.0018376774 -0.0006608686 0.0025138077 -0.0041948394 0.0049368385 0.0011931336 -0.0018575307 -0.0028826827 0.0023463748 -0.0021951452 -0.0027247076 0.001870598 0.0018590036 -0.001554998 -0.004263753 -0.003537033 0.0026886947 0.002498092 -0.00058072095 -0.0047308137 -0.0035929906 -0.0006084033 -0.0033306936 -0.004400076 0.0010046801 0.0015484691 -0.0019388432 0.00085240504 0.002885297 -0.0039969133 -0.0040949616 -0.0020838226 -0.0036258749 0.0039041324 0.0021420014 0.0029043148 -0.0007524283 0.002126712 -0.0049122805 -0.0011344844 -0.0029866651 -0.0033935723 -0.0019640692 0.002901591 -0.0016333405 -0.000104597406 0.0042077415 -0.00023422853 -0.0018295245 -0.004807978 -0.002309827 0.0006610244 0.0035360896 -0.0022637872 -0.0012559845 -0.00010161618 0.0018897625 -0.0015424633 0.0028902425 0.00087872596 9.72241e-05 -0.0021718782 -0.0034412541 -0.0013158418 -0.003068788 -0.00070205727 0.0004766361 0.0042637135 0.003987443 -0.003386914 0.0046029524 -0.0049150097 -0.0009457777 -0.0035971238 0.0025747966 -0.0038100977 0.0029645746 -0.0004653709 0.002642806 0.002000911 -0.0042012027 -0.0029589715 0.0019041185 0.004522551 0.0036616998 -0.0015800219 -0.004631112 -0.0021966414 0.0039806566 7.183433e-05 -0.0036690433 0.0023832086 0.003675318 -0.0019745857 1.1023572e-05
是不是 -0.0003251195 0.0041742316 -0.004842539 -0.0048350664 0.0036518937 -0.00022803216 0.004007585 0.0040101376 -0.0005700628 -0.0021414447 -0.0035805532 -0.002858245 -0.0017493822 0.00069632404 0.00032161264 -0.0017647847 -0.0023458754 0.0038002045 -0.0010189757 -0.004516349 0.0022275643 -0.00090316095 -0.00019625861 -0.004014072 0.0007612065 0.0025450136 -0.0034813187 0.004255021 0.0010158486 0.0039704605 -0.0022367586 -0.0025632358 0.0015830684 -0.0021218786 0.0006277243 0.004381983 0.0002221994 0.00290485 0.0041934988 0.002204264 0.0018090066 0.0025560975 -0.0040466427 -0.00020305348 -0.0050417655 -0.0028813959 0.0042810496 -0.0027562717 -0.0013634732 -6.38242e-05 0.002285971 0.004907011 0.0031121154 0.0008622495 -0.0036250574 0.0013979793 0.00050990767 -0.00027499974 -0.0038744225 -0.0013494998 -0.0018567318 0.003601323 -0.0036994938 -0.002805123 0.0028818953 0.0011774205 0.0014474072 -0.0028683967 -0.00026302921 0.0018108261 -0.004288701 0.0040024873 -0.0049928306 0.0044511924 -0.0024879985 0.002690516 0.0047471435 0.0007371656 -0.0042059533 0.00032143062 -0.0025238863 0.00028544338 0.001205621 -0.00207508 0.0006398706 0.00094160985 -0.0008735711 -0.00021277477 0.0006993787 0.004957529 0.0025802578 0.0018315524 -0.0041876533 -0.002524707 0.0038883109 0.0031907465 0.0048760553 -0.0019827515 -0.0035706111 -0.0048799873
25 -0.0014863315 -0.0003273201 0.0003537427 -0.0015113702 0.0019959223 0.0031896306 0.0049434635 -0.0032254157 0.004289942 0.0019106559 0.0041568317 0.0014206693 0.0042336117 -0.0048835515 -0.0026967744 -0.00063827494 0.0011048457 -0.0048240414 0.001323313 0.00086454663 0.003885483 -0.0015922119 -0.004590784 0.004620677 -0.0024658632 -0.004866828 -0.0007697653 0.0012398278 0.0026106655 -0.0043864287 0.0039697597 -0.0030588065 -0.0026822872 0.00035978117 -0.0011408075 -0.00085280713 -0.00392404 -0.00462668 -0.0007798074 0.00045021652 -0.0032796161 0.0001270719 0.0008402217 0.0044461326 0.0015409047 0.00268294 0.0008847986 0.0047025853 0.000900499 0.00063977984 0.0032469397 -0.0021144627 0.0038091156 -0.003556739 0.00039536948 -0.0033096815 -0.0019693254 0.002364109 -0.0034085189 -0.00041911204 -0.004610302 0.0013560362 0.0037449084 -0.004199018 -0.004124092 0.0023382842 -0.0036980694 -0.003577656 0.0018344581 0.0002532072 0.00063424616 -0.0020431827 0.00077466946 -0.0050005494 0.0015062125 0.002024022 -0.003830281 0.0013220973 -0.002668273 -0.00497327 -0.00500827 -0.0038857737 -0.0044684936 0.0034207546 -0.0017827235 0.0045882645 -0.004448288 0.003068284 0.0031364895 -0.0036097362 0.002365038 -0.0020348742 0.0010235843 -0.0028821153 0.0026782358 -0.00022942966 -0.0025020186 -0.004844166 0.0033074622 -0.0010225473
早上 0.002911351 -0.0030875048 0.0012742515 0.0009943102 -0.001678624 0.0014404372 0.0029722606 -0.0006489946 -0.001484706 0.0023600266 -0.0018059016 -0.0038482016 0.0034826822 0.0010072857 0.0020476822 0.0045033246 -0.004760368 -0.003958287 0.0047033885 0.0035573563 0.0022974832 0.0026402269 -0.003872919 -0.0020777462 -0.001922181 0.00046168987 0.003990581 -0.0031899284 0.0010397981 -0.0019267106 -0.00011894251 0.00011966383 0.0035305382 -0.00085519126 -0.0026007919 0.0042265616 6.5287866e-05 0.0020777087 0.0040171836 -0.00020852302 0.004439271 -0.004541994 -0.0047708387 0.0040625464 -0.0036615368 -0.0027072341 -0.004642469 0.002876897 0.0035915326 -0.003524844 0.00030655597 -0.0015979026 0.00035106536 -0.003868024 0.0045438097 -0.0041013774 0.00029356207 0.0036244784 0.00088694 0.0018049267 -0.000985953 0.0029670286 0.0008014356 -0.0012670496 0.0019607998 0.00010933558 0.0030547134 -0.0016094121 0.0009940065 -0.0030295877 -0.00029926613 0.0019057505 0.0017712166 -0.0027881113 0.0008324158 0.0019063599 0.004748054 -0.004190147 0.0017793645 -0.0021440254 -0.0017347372 0.000979899 -0.0009013096 -0.0010422689 -0.001474176 -0.0015698387 -0.0049860533 -0.0046535754 0.0043854327 -0.002808069 0.0040745675 -0.0038942378 -0.0018770577 -0.004809768 -0.0017761844 0.0007671558 -0.001717657 -0.0014225632 -0.004499427 0.0034072108
一直 0.0033031686 0.0026990075 0.001817121 -0.004235581 -0.0025019476 -0.003063336 0.0014843985 -0.00035337402 0.0029239166 -0.0040908284 0.0035226198 0.0046865297 0.0005723254 -0.0026743517 -0.0026413088 0.00089765934 0.0023812868 0.0016583863 -0.0049799653 0.003211875 0.0009305417 0.00086412847 -0.002252928 0.0007655068 -0.0009752344 -0.0033492392 -0.0037557057 -0.0027751212 -0.0044141 -0.0030233152 0.0039172177 0.0038271917 0.002275924 0.002241644 -0.0029863224 -0.0023234284 -0.003945293 0.00089252094 0.0027507565 -0.0014391296 -0.0003035054 0.0021642079 -0.0044093854 -0.0035003794 -0.003635891 2.1843465e-05 -0.0019258035 0.0038659738 0.0029563883 0.004947382 0.0018568222 -0.000671517 -0.004032077 0.0034093617 0.003477159 0.0018338503 -0.00020920373 0.0047336486 0.0003002905 -0.0010878841 -0.0007254413 0.0010975562 0.0023197834 0.0048497776 0.003908417 0.0014690014 0.0001233469 6.465127e-05 -0.0032079706 -0.0019671596 -0.0046406346 -0.004791748 -0.0020138065 0.0020361512 -0.003527174 0.0029104734 0.0010128975 0.003817636 0.00043762004 0.004442372 0.001741779 6.2606065e-05 -0.0026004612 0.0047690137 0.001399399 0.0013169246 0.0010292643 -0.0010499802 0.004553796 0.0023383785 0.0012199136 0.00048766978 0.00055156014 -0.0020371245 -0.002967876 0.00044784645 0.0007817619 -0.001829754 0.0043420247 -0.0024536157
就是 0.00073075754 0.0030588578 0.0005017738 -0.0016042113 0.00024508478 -0.00022316056 -0.0016079437 0.0046374877 -0.0022854058 0.00053059636 0.002240113 -0.0046224906 -0.0016907714 -0.0011234866 -0.004291389 0.0012316173 0.0042685126 -0.0016200377 0.0036332551 -0.0041452837 0.0031905624 0.0042521227 0.0015658304 -0.0018958194 -0.004591979 0.0015554212 0.0040423144 -0.0013465441 0.0031784845 -0.0015195556 -0.003765194 -0.0025623231 -0.0012870701 -0.0016910789 -0.002197297 0.0005102889 0.0036128839 -0.0007579132 -0.0033980557 0.0009609863 -0.003471123 -0.0047653955 1.5359214e-05 -9.8741955e-05 -0.0014041287 2.300432e-05 0.0033151757 -0.002413097 -0.0020781094 -0.0039593624 -0.0019960827 -0.003538745 0.0002530588 -0.003523251 -0.0007959118 -0.0045825746 0.0011653095 -0.0028968775 0.0024479977 0.0014158535 -0.0025725556 0.00027469007 0.0049363016 -0.0032413723 -0.0015891864 -0.004738254 0.0006756871 0.000968854 -0.0012187748 0.0029688207 -0.0021510858 -0.0017356125 0.0049316827 0.0002565754 -0.0036658137 -0.00047242345 0.0010787344 -0.0046640662 0.0048347698 -0.0006508869 -0.00075586315 -0.0014588052 0.002051651 0.0025455207 -0.00030759873 0.0016763739 0.0015531506 -0.004543173 0.003153947 -0.0015872411 -0.002593429 0.0014791264 -0.000444765 -0.0013109234 0.0024709555 -0.0048457948 -0.0004192156 -0.00086962583 0.004156535 0.004198213
全吐 -0.004290907 -0.0014481962 -0.0016542544 -0.0023997608 -0.003671811 0.0015965577 -0.0039268136 -0.001092453 0.0022213163 0.00038764984 0.0041106422 -0.0032095718 0.0016147536 -0.0015868222 0.0041861897 -0.0035639163 0.0040591476 -0.0049686255 -0.0018447117 -0.0016325887 0.0032026302 -0.0018920874 0.0043301485 0.0034209725 0.002822382 -0.0044060783 -0.0015914997 0.0021460843 0.0028296378 -0.003493776 -0.000822047 -0.003319822 0.004134946 0.0030511718 -0.00056393177 0.00010481055 0.00078032096 -0.0046941303 -0.0012110132 0.00070458336 0.0046881004 0.0027717785 0.00067653164 -0.0007435365 0.0011132862 0.0014881974 -0.0015283362 0.0007973125 0.0026734963 -0.004074002 0.0025944288 -0.00084169063 0.0022337774 0.004346802 0.00012926929 -0.0012386829 0.0016396942 0.0007069111 0.002666606 0.0033574558 0.0039304653 -0.00467344 -0.0020810436 -0.0019193664 0.001140637 0.0036519526 -0.004589567 -0.00269827 -0.0018477816 0.00064220413 -7.5987714e-06 -0.0017296983 2.6970334e-05 -0.0039202487 0.0047743027 0.0032534937 -0.0018513217 0.0037933667 -0.0021409495 -0.0031215933 -0.004170465 -0.0010551885 0.0033736753 0.0040894444 -0.0008333175 -0.001427257 0.0033538889 0.00058013626 -0.0047463714 -0.0021402123 -0.0044035115 0.0027411585 0.002668375 -0.0013895801 -0.0029545268 -0.0025038605 -0.0006304515 -0.001584885 -0.0036274223 -0.0014177435
下午 0.0019068778 -0.004880535 -0.0018917252 0.00037429025 0.0009970934 -0.0009901235 0.0021388829 0.0026282882 -0.004288347 0.0049751564 -0.00013718115 -0.0013464947 0.0016366838 -0.003507413 0.0023771217 -0.0025315976 0.0032382114 -0.00093303993 -0.003003257 0.003590336 0.0012537249 -0.0015405564 0.0007337137 -0.004965105 -0.00029806377 -0.003251399 -0.0034101743 0.0043826858 0.0039352374 -0.0035562606 -0.0008731484 -0.0012569715 0.0030334343 0.0017507855 0.0031556117 0.0035566492 0.00023263428 0.00013879956 -0.00418401 0.0016507746 -0.00057614554 0.0011397657 -0.0047883876 -0.001396296 -0.001116972 -0.0017331743 -0.000392684 0.002787167 8.79698e-05 0.001572816 -0.0025114673 0.004460307 0.002916613 -0.0020776899 -0.0019536375 0.002916694 -0.000770376 -0.0019440629 0.0019311657 -0.0020099839 0.0048867413 0.0042323526 7.0428854e-05 -0.0027914846 -0.0026145354 0.00015192627 -0.0039306306 0.0038413068 0.0032556541 0.0017280366 -0.0035210769 -0.00040039333 -0.0045949374 -0.00325171 0.0004960395 9.255013e-05 0.003073088 -0.0004349251 0.0016182634 0.00075591635 0.0044427877 0.00054049806 0.0031130672 0.002667795 -0.0036164576 0.0038991617 0.0033121111 0.003961906 -0.0038444523 -0.0041013085 -0.0026001947 -0.0014941382 -0.0018579978 0.004254493 0.0020478764 -0.00035914767 -0.0048872083 0.003256676 -0.0033897294 0.0028246902
然后 -0.00029133278 -0.00285226 0.001986786 -0.0037836158 0.002127355 0.0011435613 0.003010869 0.0006369577 0.0039147665 -0.0023695286 0.0030117338 -0.0026444998 0.0031778736 0.003930109 -0.00078566326 -0.0010596534 -0.0036093595 -0.0040903925 0.0011855704 -0.003326059 0.004971891 -0.0048224065 0.004954095 -0.0046277856 -0.0031186535 0.00043601228 -0.003978864 -0.0034913253 -0.00019644518 0.0025812734 -0.0018385904 -0.0033686138 0.0002007308 -0.0003869172 -0.004890272 0.004307524 0.0024916423 -0.0048297755 -0.00083789404 0.002152415 -0.0032248183 -0.004372979 -6.0083294e-05 -0.0016207921 0.0017915181 -0.003610392 -0.0023396926 -6.988813e-05 0.0005816938 -0.00017056934 0.002941985 -0.003238862 0.004739491 0.0014542809 0.00093637215 -0.0041277315 -0.00042170554 0.004318934 -0.00028605224 -0.0023478363 0.0034963775 -0.0013534304 -0.003968318 -1.8030072e-05 -0.0011121769 0.0031392993 0.00393161 -0.0025828925 -0.0036113295 -0.0035485635 -0.003950885 -0.0027760277 0.0034169368 0.0014502389 0.004584636 0.0017137241 -0.0042484323 -0.00019805731 -0.0029772935 0.0010182722 -0.0029486767 0.0005088216 0.0039094193 0.0047389828 0.00023495127 -0.0032045206 0.00090670155 0.0039292146 0.0012580074 -0.00054267264 0.0022314636 -0.0049359063 -0.002789789 -0.0041647204 -0.002053278 0.0008693462 0.0022897322 0.0036030987 0.0025792995 -0.0031342544
她 -0.0014136212 0.0021183377 0.0005147992 -0.00076123356 -0.00495514 0.00030890945 -0.0025814415 -0.0027571167 -0.0049483036 1.4817115e-05 -8.74585e-06 -0.00067815377 -0.0036789074 0.00060054637 -0.00451645 -0.0018893149 -0.0038593675 -0.00030060622 0.003757895 0.0036467088 -0.002055732 0.00071263494 0.0028363913 -0.0024789358 0.0023300652 0.002444333 -0.0027853968 -0.0037130031 -0.0049705673 0.002598364 -0.003205047 -0.0010158268 -0.003475554 -0.003920545 -0.0032827742 -0.0022968773 -0.0030558323 0.0041894065 -0.0018930017 -0.0017281314 -0.00019984877 0.004843767 0.0007611845 0.0024578343 0.0035044968 -0.003898436 0.00156106 -0.0045049377 0.0005235072 0.0023853588 -0.0017829401 -0.0012542007 0.00042554317 -0.001299184 -0.0042168186 -0.0049269507 0.0017714654 0.0014719062 0.003309852 0.0047809985 -0.0015546777 -0.0024809435 -0.0020652276 -0.0027690593 -0.0015662629 0.002740614 -0.0029248055 0.003122047 0.00056248 0.0037523124 0.0009764292 -0.0011996374 -0.0017643953 0.00030069484 -0.00072511315 -0.0039320444 0.0044110636 0.0033832279 0.002155314 -0.002037193 0.00026070813 0.0037415752 0.0029119 -0.0035390751 0.0007306083 0.0019212918 0.00090166036 -0.0010233707 -0.0026896002 0.0034905684 0.0041178023 0.0030207885 -0.002435432 -0.0011055968 -0.0012224647 0.002663619 -0.0010316237 0.0020421783 -0.0018255601 -0.0029437558
发现 -0.000644694 -0.0020956427 0.0021372056 0.0047408612 0.0032933694 -0.0042236117 -0.0007187076 -0.0006017858 -0.0019978231 -0.0049671214 0.0024043603 0.0037759377 -0.0016250154 0.0033808295 -0.004096834 -0.0043789046 0.001135451 -0.0028694507 0.0042603575 -0.0028121497 -0.0013658613 -0.0035263118 0.0009842523 -0.003055761 0.0007387913 0.0037831187 -0.0015173556 -0.0010567197 6.120765e-05 0.0041999654 0.004508043 -0.0032221137 0.003694168 0.004277794 -0.004445266 -0.0046670074 0.001256871 -0.00085077545 -0.004574181 -0.0012546016 0.0045917616 -0.0043429947 -0.004380835 -0.0049683633 -0.004362921 -0.00051168184 0.0035669657 -0.0021222099 -0.0020593437 -0.0015553313 -0.0045506484 -0.0024029769 0.002637714 0.0029448313 -0.0043262863 0.0017298961 -0.0018470181 0.00044750024 0.0023114143 0.0035498017 0.0022714138 0.0011736444 -0.0043424456 -0.0024626646 0.0047834916 -0.004395388 -0.001367829 -0.00032614332 0.00027103347 -0.0030269085 -0.0034525108 -0.0002891635 0.0046729627 -0.00017914367 -0.004941887 -0.002616706 -0.002712803 0.0005090044 -0.001415161 0.003803383 -0.003950328 0.0008105349 -0.0038247304 -0.005021138 0.0028376528 0.0031779816 0.0047651744 0.0048083435 -0.0031229763 -0.0039548604 -0.001983772 -0.0034032247 -0.00015911066 0.0024201586 0.001681952 -0.0027524545 -0.0018548216 0.0032509428 -0.004456541 -0.004577989
