301 100
了 0.0012584346 -0.0029685565 -0.004620033 -0.0015012977 0.00067875633 -0.0043610586 -0.004635888 0.0006839875 -0.002144774 -0.0032196203 0.00039208774 -0.001522213 -0.0021934542 -0.004246415 0.0005275747 0.0037646617 -0.0017216657 -0.0014710079 -0.0047345525 0.0033668454 -0.003054539 0.0007468582 -0.003617682 0.0037758683 -0.00054709165 0.0017743076 -0.004908854 0.0022266642 -0.00035300964 -0.00064013037 0.0049392274 -0.0006349181 0.00030837057 0.00088579726 -0.0014321842 -0.0018937346 0.0021156194 -0.0005220545 0.0041132797 -0.0005407186 -0.0049426896 -0.0018880626 -0.0017540336 0.00027853728 0.004029162 -0.0021807128 0.002712012 -0.0048416294 -0.0044461233 -0.0018754763 -0.0034694262 0.0038918578 0.0028502834 -0.003326333 0.0024359918 0.00097153534 8.372816e-05 0.0025552767 0.0043999483 -0.00046748153 0.00041678504 0.0045185434 -0.0020499458 -0.0016001001 0.0044647097 -0.0012699129 -0.0025732757 0.0049315984 -0.00056680467 -0.00092187896 0.0027564005 0.0015721159 0.00067684567 0.0036453558 -0.0013251054 0.0008697298 -0.0034634017 0.0029762874 -0.0012708084 -0.0013520363 -0.001559427 0.003358747 0.0026522586 -0.0028251868 0.0032281175 -0.0028808594 -0.00096418225 -0.0010442333 0.0024742354 0.0038389168 -0.0032084289 0.0023860002 0.00433776 -0.0013847821 -7.2952884e-05 -0.00035254678 -0.0025078184 0.00038789836 0.0037254111 -0.0021125907
的 0.0023203082 -0.003914401 -0.0038174023 -0.0034935817 -0.0011769558 0.00093651586 0.0048646857 -0.00317704 -0.0032815756 -0.0017814892 -0.0027433373 6.767783e-05 0.0037220987 0.002710586 0.004882926 -0.002732451 0.0033713027 -0.0030402737 0.0008685768 0.0038186854 -0.004289349 -4.6716683e-05 0.0032055653 0.00214961 -0.0018841102 -0.0035117022 0.001516494 -0.0013134555 0.0030748486 -0.0023638562 -0.004932203 -0.00059466955 0.0014431821 5.7370213e-05 -0.0033711046 0.00045942643 0.0007918802 0.0036686466 0.00439289 -0.0021523233 0.0046668905 0.0010383843 0.0016902566 0.0028786906 0.0042920387 -0.003819905 0.004549251 0.003262696 0.002812937 0.0030443505 0.0021097115 -0.0018347641 -0.00036948352 0.0040875585 -0.0047813077 0.0021353883 0.0032952481 -0.0009594737 -0.0026356797 0.004386852 -0.0005067338 -0.0029293627 0.0011581636 -0.0013470927 0.004290284 -0.0025783635 -0.00079728634 -0.0016270675 -0.0035432682 -0.0017815585 0.0025747027 -0.0014950514 0.0028810683 -0.002769182 0.0020745287 -0.004527166 0.0020667552 -0.0005748665 0.0027031617 0.0010647859 0.0029451156 -0.0026004668 -0.0025286358 -0.0016299679 -0.0042365408 0.0016505822 0.003049989 0.0036173956 -0.003213309 -4.3885353e-05 -0.002634726 -0.0012408077 0.0034498589 -0.0008919387 -0.0033347846 -0.0034417617 0.0022001688 -0.0040237587 -0.00090438564 -0.0015189957
去 -0.0016535115 0.0008760702 0.0004166982 -0.0028430673 -0.004951974 0.0033089165 -0.005011752 0.00069624366 -0.0031034134 -0.0033084792 0.004491753 0.0013828974 -0.0018596739 0.0011403505 -0.004034977 0.00093717786 -0.0038067745 -0.0035320336 -0.0004887966 0.0048826286 -0.002076756 -0.0033001513 0.0010921216 0.0014909157 -0.0046878625 0.0024539703 0.0016097376 0.0038616941 -0.00052447536 0.002028984 0.0008147292 0.0015766188 -0.000596329 -0.0015022915 -0.0017058064 -0.00096834725 0.0009584954 0.004746619 0.0011240933 0.0024162738 0.003572131 -0.0034327249 0.0041428152 0.001163203 0.00026937507 0.0008129332 -0.00051359204 -0.00497247 -0.002230623 -0.0011441336 -0.004473473 -0.00045173985 -0.0041445517 -0.00025616479 0.00090815383 -1.937683e-05 0.0047569433 -0.0040754704 0.0025590113 -0.004191881 0.0022797505 -0.0043268763 0.0007074419 -0.0010766675 -0.0028964079 0.00040905218 0.0012896889 -0.0012607103 -0.00484554 -8.280675e-05 0.0005450847 0.0034587625 0.00234443 -0.0016606373 0.0010464708 -0.0025996156 0.0021028963 -0.0008654276 -0.00010486846 -0.0028570734 0.004830382 0.0010718904 0.0027767115 -0.00020183022 -0.0036985665 -0.002906814 -0.0035517954 0.0010476556 -0.0020815271 0.0018399922 -0.001723041 -0.0017756675 0.00029120495 0.0011678382 0.0012954179 -0.0040398324 0.0036928856 -0.003594655 -0.0019845949 -0.000965795
号 0.00075072754 -0.0026198258 -0.0039975964 0.00051188393 0.0029664321 -0.0038777634 -0.0032749034 0.003087345 -1.8399045e-05 -0.0026234111 0.0044475817 -0.0030066897 0.0047456943 -0.0008434841 -0.003457889 0.0048742434 -0.0039477963 -2.3203427e-05 0.00022032073 0.0049428963 0.0048334226 -0.0002457573 0.004767208 0.0016082254 0.0034102874 0.0032659445 -0.0038709084 -0.0030981943 -0.004252733 -0.0034887393 -0.0030985083 0.0047983993 0.0009657293 0.0019760148 -0.00029902783 0.0045171785 -0.00020787922 0.0008518913 0.0035281333 -0.0040050726 -0.0044822576 -0.0017668899 -0.0019188793 -0.0025780173 -0.00184242 0.0031813288 -0.0015862039 -0.00080312183 -0.004720953 -0.002207799 -0.00178336 0.0020235213 -0.0033846127 -0.0020519882 0.000696799 -0.0034404027 0.0030527345 0.0016411819 0.0009716094 0.0033249266 -0.0021403257 -0.0009683501 0.003429911 -0.0029301767 0.00071524974 0.0012399785 0.0036130794 0.0046924376 0.0019423116 -0.002976806 0.0034778041 -0.00044638268 0.00191035 0.0011385875 -0.0033509356 0.0037260242 -0.0028252846 0.0048240656 0.004928288 -0.0050530303 0.003984613 -0.0021688268 -0.000478912 -0.0008013096 0.003610933 -0.0047382545 -0.0019610224 -0.0016038952 -3.674624e-06 -0.0018168264 0.002340662 0.0046377685 -0.0021868073 0.0011370688 0.0011871572 -0.0024006497 -0.0042431685 -0.0012633367 0.0011132561 0.00020330997
挂 -0.0028450997 0.0021354186 -0.0029929418 5.5826644e-05 0.0019363624 -0.0031198545 -0.0030939884 0.003254815 0.0041226815 -0.00051103556 -0.0028203935 -0.0047263326 0.0029064098 0.0035367054 0.0002712034 -0.0011311767 0.0038596466 0.001638613 0.0045159673 0.003806691 0.000961143 0.00450936 0.0041452376 -0.0011262788 -0.0005668454 -0.0043854946 -0.0008271619 -0.0040141162 -0.002213555 -0.0033224472 0.0029149507 -0.0023092504 -0.0031389152 0.0007133496 -0.0037713982 -0.0024802953 -0.0020757243 -0.0015343692 -5.9664442e-05 0.0029275925 -0.00061278377 0.0041987607 0.0025984235 -0.002116177 -0.00025533448 -0.0045611025 0.00017526842 -0.0014370225 -0.0012163022 0.0028156375 -0.0047570267 0.0011962106 0.0022085805 0.00048667548 -0.0028915037 -0.003426918 -0.0021648798 4.2973224e-05 -0.0036571135 -0.0040091295 0.001147683 -0.0041674045 -0.0019385582 -0.0047101458 -7.603465e-06 6.605941e-05 -0.004168266 -0.003930742 -0.0014038719 0.0010832296 -0.0026305122 -0.00072373427 -0.0041204807 -0.0045512794 0.0017658822 -0.0023173385 -0.002462852 0.00030519284 0.0027616029 0.00032618298 0.0049752756 0.0016049697 -0.0004033427 0.0005873104 0.0022341828 0.0024244173 -0.0049331663 -0.003619578 0.0009572224 0.0038872221 0.0037363123 -0.0039637806 0.0010663212 0.0017191356 0.0046461252 0.0008661317 0.0027216019 -3.8728827e-05 0.0030055132 -0.0039250297
是 -0.0026500144 -0.0031258292 -0.0029569336 -0.00014812507 -0.0041138185 0.0007225198 0.001094525 -0.0020764126 -0.004472726 -0.0025009527 0.0049611493 -0.0046586473 0.004802493 -0.0026503147 0.00028112295 0.0031371508 -0.0017482267 0.0037866193 0.0010376701 -0.0039270534 0.0027972448 3.6312118e-05 0.0047651585 -0.0029536132 -7.166492e-05 -0.004143172 0.0044569448 0.004113883 0.003099167 -0.0034107072 -0.0007969377 -0.0034140467 -0.0014762924 -0.0004347562 -0.0012028661 0.0011823984 0.0018470581 -0.0013790921 -0.002658185 0.0022399754 -0.0003645573 0.0011746085 0.0024857968 -0.00033253554 0.004306764 -0.0031181893 -0.0031118384 0.0029191752 0.0035505956 0.0049381214 0.0036355439 -0.004698176 -0.0031691114 0.004405438 0.0027965577 -0.0022122234 -0.0016195239 -0.0029061916 -0.0012287635 -0.002945266 0.0022726988 0.00091237255 -0.0009818014 0.0046618553 0.0047233026 0.0026966606 -0.0033019884 -0.00046211647 0.0021239691 0.0031190156 -0.0017028182 -0.00460263 0.00241936 -0.00019200706 -0.0039428724 -0.00067847804 -0.0049287905 0.0033674291 0.00032118554 -0.0032279864 -0.0009415093 -0.0015585456 0.0011021534 0.004408628 -0.0021021683 -0.003810775 -0.004567694 -0.0035463874 0.0014417116 0.0031170708 -0.0043200296 -0.0012390454 -0.0034827034 0.0014948626 0.0029741002 -0.0013067828 -0.00025867866 -0.0042617675 0.004043445 0.0019547842
有 -0.0038220934 -0.004493631 -0.0031369159 -0.0024042868 -0.0034925914 -0.0036900153 -0.004030188 0.0014572858 -4.8446956e-05 0.0011020544 -0.0016564947 0.0018948416 0.003119435 -0.0010685286 0.003117259 0.00046841102 0.0011261164 -0.0034054543 0.00030005677 -0.0036772403 0.002413463 0.0017166846 -0.003056655 -0.0024902262 0.0036942235 -0.004325422 0.00074489845 0.0030613882 -0.004714756 -0.0047154576 -0.0014773036 -0.002172469 -0.002440936 0.002009723 -0.004732295 -0.0016461241 0.0041728467 0.00016008373 0.001199061 -0.0015884064 0.0019903628 0.00083542673 0.0020282352 0.0031330672 0.0012091782 -0.0014259449 -0.0033961004 -0.0008055443 -0.003502985 -0.0021782892 4.5748347e-05 0.002436756 0.0043519563 -0.003455625 -0.0039586877 0.003609874 -0.0018026512 0.0028786273 -0.0016509875 -0.002149949 -0.0018312021 0.0004800627 -0.0038115655 -0.00012832542 -0.002728354 0.0035191637 0.0028783148 0.0019593555 -0.0044288496 0.0038880087 -0.0022564651 -0.002696171 -0.0025259282 -0.00013820735 -0.0044820397 -0.003775295 -5.6199544e-05 -0.0037338391 -0.0013244485 0.0004779912 -0.004067833 -0.000108685745 0.0048406455 -0.00041415996 -0.0036318966 0.0025171496 0.0037929115 -0.0013266125 -0.0016310423 0.00047035408 0.0042607733 -0.00036012984 0.004583063 -0.003029244 -0.0014346236 -0.002260727 0.004438422 -0.00037275098 0.0046243328 0.001236193
水 0.0011394019 0.0023788658 0.0019791457 -0.0026414471 0.00070605683 -0.004200328 -0.0030255807 0.0013347112 -0.0028611117 0.0010117134 -5.173718e-05 0.0026871313 0.003501274 0.0031763965 -0.002894727 0.0017677918 0.0030602072 -0.0034229287 0.0013910622 0.0011843544 0.0041833776 0.002508536 0.003585846 -0.0040349085 0.00073196116 -0.00013870047 0.0005304586 0.0045015123 0.002636776 -0.0010881294 0.00018232384 0.0025739311 0.001616566 0.001277532 -1.3519614e-05 -0.0020873318 -0.0012816042 -0.0016058729 0.0034622913 -0.0037529927 -0.0045421002 -0.00066470366 0.0022916237 -0.0033335546 0.0041094525 -0.0030661116 -0.0026346187 -0.002341733 0.004542193 0.00035133274 -0.0023437883 -0.0030865003 -0.004792785 0.0037593832 -0.0015634244 0.0047847554 -0.0046041305 -0.0025180536 0.0047496213 0.004334202 -0.0011675014 -0.0032565868 3.418443e-05 -0.00094656233 0.0034317153 -0.0042972714 -0.0032763046 0.0020928127 -0.0023809331 -0.0032369972 0.003278873 -0.0023408337 -0.0010204432 -0.0005756775 0.0034289213 -0.0034995377 0.0045510093 0.00037270822 0.0033624184 -0.0026374282 0.0013521133 0.0022619965 0.0018561068 0.0043518017 0.0044822083 0.0030234442 -0.0004093803 0.000112099995 -0.0019712788 -0.00048143574 0.0017952543 0.0014257419 -0.0018057588 0.0043733763 0.003044407 0.0010959547 0.0021722275 -0.0015067671 2.6200312e-05 -0.0033803491
不 0.0016719495 0.0003207078 0.00040957346 0.0027534447 -0.00025179327 0.0015505938 -0.0017769055 0.0021740464 -0.003135627 0.0045268275 0.0043582926 0.0019325644 0.0018369451 0.00263533 -0.0017144771 0.000933281 -0.0048408173 0.00031887903 0.0031063075 -3.78192e-06 0.0007198572 0.003234089 -0.0045941807 -0.004709679 -0.00043622236 0.004843834 0.0023160737 -0.004191768 -0.001698307 0.004693124 -0.0028820548 0.0038848922 0.0032477651 0.003433097 0.000821602 0.001371183 -0.0012018014 0.003572261 -0.004246337 0.0018079749 0.0016191032 -0.0027264738 -0.0026640375 0.003383343 -0.0044463105 0.0009016963 0.004562154 7.923348e-05 -0.0028382558 0.004289984 0.0014952793 -0.002062017 0.0046051475 0.003007482 -0.0020895943 -0.003670199 0.0027730225 -0.00030919656 0.0030437058 -0.0015559742 -0.0014061694 -0.00039937577 0.0035994651 -0.004874901 -0.0039251284 0.0044491016 0.0022629113 0.0005431561 -0.00045987638 -0.0030677102 -0.0013036259 0.0047667935 0.0044980883 -0.00085567473 -0.004331582 0.0020953743 -0.002485447 -0.0036442569 0.0024889533 -0.002229465 0.0038264077 0.004459345 -0.0029505806 0.0012336979 0.0044124783 -0.0026235858 -0.0032653504 0.0012384211 -0.004615568 0.0042649363 0.0025857717 0.00015917714 -0.0007132601 0.000997012 0.0029480478 -0.0046335566 0.0044638785 0.0036863259 -6.698676e-05 -0.00044060202
我 -0.0028291936 0.004606398 0.0018993156 -0.004000929 0.001888546 -0.0009489891 -0.0017543432 -0.0043664374 0.0011957105 0.00053348404 0.00022226437 -0.0049127066 0.0004641041 -2.0292346e-05 0.0046502263 0.0040664445 0.0043319785 -0.0045001884 -0.0023726232 1.5137685e-05 0.00043260967 -0.0047084554 -0.00092013396 0.0021253664 0.0041926657 0.0046560196 0.0039552813 -0.00038268452 -0.0042559374 -0.0031515243 0.0044453787 0.003701513 -0.0005534929 -0.003344188 -0.00432269 0.001754107 0.0042369873 -0.00493161 -0.0007520337 0.0041466025 0.0033410129 -0.0018851353 0.0036067038 0.0040212707 0.0018261309 -0.0012134758 0.0022729472 0.002040839 -0.0010929299 -0.0010220162 0.0043558693 -0.0003440603 -0.00068770576 0.0043288656 -0.0014495852 0.0026106196 0.001790119 0.0019702166 -0.0017568169 -0.0027639172 -0.0025523903 -0.0007981762 -0.0035415166 -0.00023974784 0.00073230156 -0.0014999491 0.00033417324 -0.0042662555 -0.0035429685 0.00015620403 0.0041034794 0.0019153107 -7.111225e-05 -0.001637409 -0.0021714517 0.0038163026 -0.004894528 -0.0014045761 0.0037662534 -0.002347686 0.003027343 0.0044359453 -0.00059464516 -0.0011407387 -0.0036450543 0.0012352007 -0.0016137813 0.0043785796 0.0026657227 0.0021833358 -0.0036034083 0.0020076307 0.0025175437 0.0031128814 0.0041318014 -0.00066615525 -0.0005066123 -0.00055154937 -0.00025218024 0.0046177013
月 0.00026903735 -0.0025925809 0.004398624 -0.004812821 -0.0032103593 -0.003740414 0.004153478 0.003798233 -0.0045301686 -0.001472634 -0.004025551 0.0025404328 8.512363e-05 -0.0043659136 -0.0015064657 0.0026462758 -0.0032720396 0.001368628 -0.0022717624 -0.002356492 0.0047677155 0.0029682238 -0.0020226801 0.0040278323 -0.003059738 0.0024357091 8.923792e-05 -0.0011846652 0.000901062 0.004559376 -0.0029150208 0.0040265555 -0.0042137215 -0.00067738275 0.0025494199 -0.0018988765 0.0011920603 0.0018285635 -0.0018043563 0.0010706679 0.0006308461 0.001772186 0.0005301352 0.0031769702 -0.0008753206 -0.003486157 -0.003197348 0.0046067876 -0.0012332622 -0.0033691092 -0.004775065 -0.0030369607 0.0007803818 0.0048359195 -0.001994229 0.0037956657 0.003127241 -0.004284621 0.0010132944 0.0015315027 0.0013596147 -0.0007232205 0.001462355 0.0023967577 -0.0039117797 -0.0034996471 -0.0026032527 0.002885201 0.002082053 0.0023871656 -0.0036433246 -0.0041399994 0.0040566665 -0.0006392789 0.00043439644 -0.0016610221 0.0018413793 -0.0012939599 0.004852764 -0.0029498434 0.0039062626 0.0035718265 -0.00093430316 0.003810054 -0.0005281377 0.0010518918 -0.0029529948 -0.0029085628 -0.004942838 -0.0023549509 0.0008089007 -0.0015552248 0.00024375952 0.0016640885 0.0031857863 0.0045134877 0.0035410083 -0.0026702993 0.004113672 0.00033180782
又 -0.0020685592 -3.9771086e-05 0.0049356637 0.0039854497 -0.002516953 0.0039377604 -0.0012266211 -0.00088071363 -0.0047592185 0.004013915 -0.0013555167 -0.0017200795 0.0014655642 0.0001329057 -0.0018575585 -0.0043179393 0.004814305 0.004221057 0.0014985345 -0.0032696768 0.0016322528 -0.004410642 0.0032947648 -0.0049071973 0.0045699407 0.003201725 -0.0030235273 0.0019684725 -0.004873901 0.0006055782 0.0024902485 -0.0013837466 0.0010553534 -0.004255907 -0.0015594636 -0.0031595165 -0.0028545966 0.003840071 -0.0012767183 0.002571379 0.00015541814 0.0021320519 0.0045884885 -0.0014399203 -0.0027218482 -0.004566527 -0.0038478351 1.2834049e-05 -0.0042929174 -0.0031227332 0.0022822928 -0.004494874 -0.002074656 0.0019959759 0.0049833264 -0.0023128507 -0.002730226 -0.0011239629 0.0015220362 -0.00070251944 -0.0018636662 -0.0037701095 -0.0012049576 -0.00369978 0.0025385465 -0.0022062014 -0.0025598095 -0.003967777 0.0021226737 0.0037117717 0.00020126687 0.0027627903 -0.0011593136 -0.0039226343 0.0045735305 -0.004565269 0.0032545463 0.0019589572 0.002163483 0.0010890894 0.00043426408 0.0034164928 0.0018627603 -0.0011628115 0.004382107 -0.000365586 0.003129091 -0.00011753389 0.0017340882 0.00082315557 -0.00040658607 -0.00031814942 -0.004916772 -0.00046797591 0.0008628081 -0.00016484364 0.0001658132 0.0035601421 0.004360566 -0.0032308202
医院 0.004511949 0.0041408846 -0.0042727278 -0.003547563 0.004766819 -0.0011819311 -0.0035529092 -0.00043027336 -0.0034058029 -0.0019655419 0.004163926 -0.0010386247 -0.000899927 0.002838265 0.00035641718 0.003450651 0.0026964035 -0.004557582 -0.0016895237 0.001264673 -0.0008914482 0.003000079 0.002644059 0.0042740656 -0.0017293607 0.0030284217 0.00055837154 -0.0009679476 -0.0017372979 0.0032905012 0.0015336856 -0.004821424 0.0034935253 -0.00042266847 0.00012890996 -0.004015884 0.0041101133 -0.0021901154 -0.004779739 -0.0028955175 -3.2564483e-05 0.0020284513 0.004408567 0.00070897717 0.0036629753 -0.0008154948 0.00079211517 -0.0031856135 0.001496874 -0.0032808266 -0.0045388807 -0.0036384147 -0.00067444745 -0.0001894814 0.000645003 0.0027194475 0.0011815485 -0.0032335154 0.0016201427 -0.003995293 -0.001990252 -0.00033059862 0.004616696 0.0034223527 -0.0011222537 -0.0028889668 -0.004667561 0.0033535722 -0.0030335642 -0.0036881792 -0.00026788365 0.0048694643 -0.001903842 -0.0010634545 0.00092450966 0.0016075793 -0.0038160682 0.0011769107 -0.0028278262 -0.00074587524 0.00072016433 -0.0018934279 0.0047037606 0.0041432497 0.004777813 -0.004706698 -0.002024874 0.0034773115 -0.003850323 0.002852821 -0.0033830747 0.004902273 0.004353307 0.002061792 -3.172418e-05 0.003476357 -0.004113185 -0.00044536174 0.0023701608 0.0035881163
也 0.004098108 0.0013175906 -0.00071864296 -0.0049266475 -0.001531702 -0.0033224558 -0.0032168177 -0.003061548 0.0021332377 0.0046876385 -0.0005268284 0.0014015137 0.004209396 -0.001729922 0.0013251113 -0.004370671 -0.00011463246 -0.0034679475 0.0012294523 0.004910028 0.001138957 0.00093130063 -0.0023958941 -0.003977014 0.0021109688 0.004226997 -0.0045556687 0.0011471846 0.003935191 -0.0033862735 0.0032971918 -0.0012106833 -0.0018511517 0.0036932142 0.0025569706 0.0025084384 -0.0021859135 -0.0041339123 0.0022811887 -0.0045652655 0.0031570569 -0.004899662 0.0021109018 -0.0017664222 0.0013516869 0.004037579 0.0034839856 -0.0023991961 -0.0007682598 0.0028122237 -0.0019226845 0.002572153 -0.004206095 0.004124735 0.0017144334 -0.00218988 -0.0025283368 -0.0009585572 -0.0017982911 -0.0027516747 0.004981004 0.0033731062 0.004579966 -0.0022743037 -0.0030967288 0.0046639834 -0.0013466716 0.0016099045 0.003858034 -0.0041320473 -0.0016394771 -0.0027708015 -0.0015043014 0.0025546642 -0.0049456665 -0.0045729843 0.0037802702 0.0012644586 0.0035292392 -0.00043398657 -0.0022869234 0.0021574888 -0.0016785407 0.0006304165 8.838547e-05 -0.0018094621 0.00016715484 0.0021009664 -0.000111901754 -0.0004025156 0.0045466563 0.0030475452 -0.0035306837 0.0031825057 0.0010595811 -0.0020818897 -0.0018751869 0.000789822 -0.0013018568 0.0038559067
什么 -0.0027785648 -0.0017688719 0.004524949 -0.004623702 0.00067669293 -0.0018946045 -0.0011122542 -0.0019659298 -6.7699504e-05 -0.002709478 0.0033307618 0.0039048498 -0.004765957 0.0032037213 -0.0029933813 -0.004306586 0.004275191 0.0008493176 1.3098065e-05 -0.0014916867 -0.0028022842 -0.0010417466 -0.002202046 0.003468889 -0.00049809716 -0.00055655366 0.0027825404 -0.00061048096 -0.0043332623 0.0028413897 0.0022851047 -0.00054104335 -0.0015705475 -0.0045640804 0.0019391332 -0.000137867 0.0039498582 -0.0046218284 0.0042599253 0.004021208 -0.0015590063 0.002392247 0.0027976192 0.0047826828 0.0035698998 -0.0046480405 0.0035546387 -0.0046934965 0.0038829066 5.8887845e-06 -0.00046430342 -0.00087944645 0.0003447298 -0.0020817944 -0.0022026466 -0.003105514 -0.001539192 0.0036511794 -0.002571817 0.0029957902 0.0021963613 -0.0028397539 0.0035591614 -0.0022463296 -0.0025471991 -0.004968634 -0.004254154 0.002321974 0.00090093823 -0.0043256236 0.004487087 -0.0030276312 -0.0014471401 0.004736523 -0.0012757926 -0.0001769249 0.0015927325 0.0015849632 0.0017776391 -0.00033022073 -0.00443421 0.001043866 0.0028379268 0.0018113826 0.0031284322 0.0015540278 -0.0035856194 -0.004131379 -0.0005943409 -0.0038194503 0.002444756 -0.004014292 -0.0018279433 -0.00046535506 0.0036027713 -0.0027191204 -0.0043151937 0.00361792 0.0032894183 -0.0034793995
咳嗽 -0.0005053708 0.0044633257 0.0046624527 0.004078 0.0040275166 0.0016113389 -0.0021019627 -0.0035379254 0.002164933 0.0002543774 0.0015841441 -0.0044263317 -0.003411604 -0.0020085752 0.0039893202 0.0033691654 -0.002581714 -0.0014341967 0.0007825572 -0.0046387548 0.0028635296 0.0023324736 0.00011380409 -0.0015511038 0.0028388933 0.0007735423 -0.001498141 -1.2990536e-05 -0.004238598 -0.00071454275 0.002051213 0.0024888075 -0.0024185383 -0.0047323178 0.003623439 -0.0011816552 0.00014307025 0.0044414205 -0.004680117 -0.0038494123 -0.0013023156 -0.0012718409 -0.002069892 0.0016798064 0.00087945635 -0.00018777276 -0.0035184212 -0.0043571554 -0.00066319975 -0.00062558014 0.0009942575 0.0020252257 -0.003991839 0.0006399631 -0.004120291 0.00039782064 -0.004671819 -0.0008038199 0.0006039748 -0.004615248 0.0024928537 0.004263102 -0.001755995 -0.0035129492 -0.0021310258 0.0030102483 -0.0017539515 0.0027488107 -0.0049954345 0.000754129 0.0023406278 -0.0042225844 0.00042361612 -0.0029206744 0.0015649882 -0.00048253447 0.0018270963 0.0028999778 0.00044140941 -0.0015149786 -0.0018252102 -0.001799658 -0.0039038048 0.0010556903 -0.004676479 0.0023958504 -0.0028554434 -0.0015405561 -0.004531598 0.0011533414 -1.5775491e-05 -0.0032948623 0.0021054354 -0.0018189579 0.0044677528 -0.0041920263 -0.0038588024 -0.0040681185 0.0008572593 -0.0027337805
就 -0.00088868587 -0.0037289464 0.0003721424 0.004712205 -0.0011131831 -0.004096851 -0.0012201013 0.0012059199 -0.002013528 0.0031322935 -0.0037109295 -0.00020530759 0.0033380357 0.0035227977 0.0020263935 -0.002860012 0.003985522 -0.0016209912 -0.0030827709 0.0032229612 0.0030095803 0.00478493 -0.0004967095 -0.00112387 0.0015971212 0.001381144 -0.001999035 -0.0011630773 0.002524963 -0.00035397525 0.00063443027 -0.0014493385 0.0039427266 -0.00073813065 -0.0022838088 -0.0032290486 0.0040869582 0.00022192342 0.0018569591 0.0029029353 -0.0011150202 0.0018083415 0.0013269592 -0.0028298842 -0.0026049216 0.004059166 0.0033831422 0.003609397 -0.0003921619 -0.002465059 -0.0031174517 7.726255e-05 -0.0036253228 0.00071767886 -0.002746782 -0.0026686694 -0.0019641037 -4.1467807e-05 -0.004160824 -0.0028690628 0.0022533264 0.003773416 -0.0032344717 0.0019586417 -0.0029293057 -0.0034907232 0.0037886864 -0.0016157614 -0.0023605886 0.0037177142 0.0006172687 -0.0016863943 -0.0027263495 5.4168e-05 0.001262597 -0.0045143706 -0.002434599 0.0015495804 -0.0022584235 0.000105249084 -0.0030331807 0.000511754 -0.0020777287 -0.00038447758 0.0014062249 0.0030705726 -0.0035673396 -0.0030920536 0.0004971546 0.0010406248 -0.001823875 -0.004787497 -0.0006737806 0.0035907698 0.0013354401 0.0036401374 -0.0031557921 0.0034647782 0.0016986422 0.0036609408
发炎 -0.004795042 -0.002528253 -0.001564437 -0.0010056695 -0.003506478 -0.0008682918 -0.0038092136 -0.0040708925 -0.0016325747 -0.0024940171 -0.0015746185 -0.001122215 -0.002615789 -0.0038452195 0.0045724623 0.0014461732 0.00040055672 -0.004861401 -0.002596 -0.0030154686 -0.0008185399 0.0049662907 -0.00055062486 0.0038320308 0.004723866 0.0049371747 0.0048688888 0.0035699045 0.0023378506 -0.0018931347 -0.003915862 -0.0014537383 0.0016050324 -0.00059288566 -0.00036223404 -0.0035879673 0.00050243316 -0.0018201823 0.0017306814 0.0011896156 0.001965217 0.004257454 -0.0020026746 -0.002756099 0.0015399235 0.0038098171 0.0007187207 0.0033910966 -0.0020450584 0.0024533765 -0.00046943832 -0.003587226 -0.0028342865 0.004149861 -0.0017200164 -0.00450686 -0.0021266749 0.004659815 -0.003340148 0.00089323544 0.0049934806 -0.0007355654 -0.004849934 0.00025738298 0.0018870289 0.0004042283 -0.0036619862 0.0010057298 0.00011616954 -0.0006089632 -0.004788645 -0.0035209 0.0030194325 0.0019135306 -0.00082431594 -0.00305079 0.00045011655 -0.00094094896 -0.0004652297 0.0043927003 -0.00063268415 0.002301135 -0.003516718 0.0022625593 0.0018902033 0.0015988176 0.0031748929 0.0046872622 -0.0035772424 -0.0028010188 -0.0046415185 0.0041084373 0.0027919821 0.0020330066 0.00048065907 -0.00485398 0.0010428367 0.00096786226 0.0031884077 0.0015084385
要 0.00083832146 0.0018953596 0.00023238939 0.0009644674 -0.0045749317 0.0015298313 -0.004449625 0.0018097573 0.004050839 -0.0020735806 -0.0011844888 0.0010170693 -0.0045476896 -0.0025545154 0.0043274737 -0.002023363 0.0034881548 0.002910513 -0.0025835799 -9.952429e-05 0.0025602703 -0.004274384 0.0046182224 0.0048457184 -0.0021960249 -0.0041110246 -0.0013631795 0.0045566577 -0.0006872399 -0.0034335412 0.0010081509 -0.0014552228 0.0031601924 0.0007522655 -0.0019253418 -0.0010461281 -0.0028191537 -0.0017140347 0.0018962653 -0.004394728 -0.0048302887 -0.0016576606 -0.0020111569 0.0045317695 0.00053381093 -0.0011053772 0.0042611384 0.0036181821 -0.0046679145 0.0011871945 0.0009345541 0.00091555057 0.0021344465 -0.0032397942 -0.004884387 -0.0047632125 0.0024797234 0.003133454 0.004236629 0.0015275399 0.002996867 0.0024373415 0.002483474 -0.0011697194 0.0012906373 -0.004131601 0.001928863 -0.0029297215 0.002737772 -0.003059252 0.0025056272 -0.0044176807 0.004020929 -0.0008551664 0.004353711 -0.00045605845 0.0012666389 -0.001523646 0.0019717645 -0.0034040657 -0.0025711188 -0.0045660497 -0.0049353787 0.0017782927 0.0032215884 -0.0048343292 -0.004303825 -0.003285453 -0.0048857103 0.004137899 -0.003423628 -0.0041046157 0.0048493706 0.00054471695 0.0037934938 -0.004911945 -0.00091664656 -0.00073774165 -0.0036430634 -0.00023359706
儿科 -0.0031464216 -0.0038819707 0.0023111606 -0.000666079 0.0018710631 -0.0038126968 0.0012702837 0.0011488074 0.0032952079 0.004635255 0.0020345936 -0.0050125793 -0.0028420207 0.0012950858 0.0029705334 0.004574641 0.00077445485 0.00071707804 -0.0029392513 0.0006659853 -0.0006289412 -0.002915657 0.0031394039 0.0035743427 -0.00463195 0.0027405722 -0.0034610596 -0.004234467 0.0012345288 -0.0046579344 -0.0013991302 0.004368918 0.0041780137 0.003451762 -0.0010524815 0.003986958 0.002927049 0.0027258527 0.0048595825 -0.0047330074 -0.0017372576 0.001756341 0.0010820638 -0.0020096125 -0.001939328 0.0016856322 0.0049894573 -0.0016505588 0.0048466194 -0.0036905347 -0.0031009438 0.0021987827 -0.002262797 -0.0016895457 0.0031574667 -0.0021337164 -0.0019516812 0.002346848 0.0049463613 0.000660403 0.00020001389 0.0022574863 -0.0024567603 0.0043452806 0.0021660053 0.0011543453 -0.0018336215 -0.003857744 -0.0015088572 0.0031886112 0.0002499078 0.003834366 0.0040896866 0.0016527637 -0.002958082 -0.0025238171 -0.0047457195 0.0030554687 -0.0034827744 0.0013983527 -0.0036491381 -0.0021605038 0.0020187174 0.0019175368 -9.730351e-05 0.004671693 0.003194324 0.0037300645 0.003692804 -0.004849469 0.0046918583 0.0019457835 -0.0042920574 0.0030333076 -0.0040647225 -0.0011578045 -0.0027197078 -0.00298349 0.001520293 -0.0021992791
看 -0.0022582924 -0.0030335733 0.0007973543 0.0009787248 -0.0031103152 0.00230296 0.004163016 0.0049947365 -2.735365e-05 -0.0008842894 0.004251756 0.0005639799 0.001794567 0.0027227856 0.0034072644 0.0025551475 0.004145837 0.0012272611 -0.004938652 -0.0012633804 0.00046241636 -0.0031217665 0.0023242559 -0.00018736042 -0.0025744806 0.00206644 0.002490102 -0.0042794594 0.00087422447 -0.004067065 1.7982002e-05 -0.00082634913 -0.0009142886 -0.004050991 -0.003296406 0.0012557765 0.003216277 -0.0001386721 -6.368175e-05 0.003669188 0.0044734683 -0.0033337635 0.00078646635 0.0041484907 0.0019979177 -0.0021997471 0.004232572 -0.004978527 -0.0047362125 0.0034099538 -0.0025697676 -0.0002528172 -0.0021451178 0.0034404944 0.0030661044 -0.0030476523 0.0029038878 -0.0043175863 0.003681452 -0.0047203884 0.0016293171 0.00134646 -0.0016203988 -0.0043951655 -0.0010179026 -0.00023764615 -0.0012720551 -0.0044040265 -0.0014714471 0.00063848856 -0.00030875238 -0.003618809 -0.0018605866 -0.0034397033 0.001877191 0.004564685 0.0012267982 0.0046761693 0.0023807946 -0.002103498 -3.8132457e-05 -0.0016396904 -0.0009692253 0.002437837 -0.0020221279 -4.9473147e-05 0.0026986555 -0.0007633726 0.0019305926 0.000523858 0.004074692 -0.0031368579 -0.002159818 -0.00046907895 0.0020903046 0.0018082238 0.0034174258 0.0010940445 -0.0019887893 0.002255195
需要 0.0032797006 -0.002912109 -0.00090540055 -0.0026677109 0.0035920118 -0.0027946576 -0.0041751117 0.00068412226 -0.0025643066 0.004084828 0.00010828806 -0.004518349 -0.0020374279 0.0030758753 0.0026932028 0.0030252268 0.00018394744 -0.0034617782 0.0026900875 -0.003712346 -0.0027914771 -0.0019662175 0.003471067 -0.0010466445 0.0039698556 -0.0008376961 0.0032022542 -0.0030010752 0.004347412 0.004580451 -0.0008794213 -0.00011395804 -0.0050216205 0.0021037986 0.0023144067 0.0006711361 0.0030156188 0.00070598826 0.0034439075 -0.0006042406 0.0017445668 -0.004047625 -0.0032492431 -0.003970802 -0.0017695558 9.253255e-05 -0.0039174967 0.0025710694 -0.0010060277 -0.0047711832 -0.0020986332 0.0026356177 -0.0046979436 0.0011883054 0.0037725403 0.0036589745 -0.00046766244 -0.004831792 -0.0024065438 -0.0038307006 -0.0034209122 -0.001639812 -0.0008602497 0.0035520755 -0.003411047 0.00037897204 0.0027217965 -0.0013529672 0.00174274 -0.0026925635 -0.0016616901 -0.0025358333 -0.0037882165 -0.0028012113 0.0043460634 0.00011303659 -0.0014936767 0.00057277206 -0.0029177081 -0.0013042269 0.004046112 -0.003915959 -0.0010571132 0.0031824901 -0.00088027056 0.003614857 -0.001026693 -0.001124958 0.00046662678 0.0037594852 -0.0027135324 0.0031556825 -0.0025641273 -0.0037039586 0.0017081716 0.0035367506 -0.0027796242 -0.0019262023 0.0040742415 0.00012114612
吃 -0.002748394 0.003004977 0.0025835312 0.0029247936 0.0038579863 -0.0045743817 -0.0041066166 -0.0044983015 -0.002619782 0.00017049251 0.0022091449 0.0024885642 0.0045678 0.0006345773 -0.004363528 0.0009227482 -0.0043928903 0.0014638619 0.0011084994 0.002821699 0.0015305834 -0.0033477212 0.0002501632 -0.0046839886 0.0029259983 0.001396211 0.0009032655 0.0041990653 -0.0036631094 0.0012789685 0.004291743 0.002178686 -0.0014626114 -0.003850373 -0.0031781772 0.0032359692 0.0043962463 -0.00043521894 0.0031235807 -0.0023099307 -0.0025852113 -0.00026554667 -0.0005751659 -0.002652241 0.0039988197 -0.0012194498 -0.002721676 0.002575101 -0.0021963224 -0.0010320363 0.0043072854 0.0047288234 0.0042416025 -0.004534471 -0.0015729683 0.004219547 -0.0043271948 -0.002868654 -0.0024572795 0.0022120185 0.002220368 0.0038096155 -0.001656346 -0.0028826147 -0.0023862545 -0.0001039993 -0.0007745457 0.002386887 0.0005794289 0.00015625393 -0.004930598 3.561552e-05 0.0042974665 -0.00042784165 -0.003134824 0.003441418 -0.003727617 0.0032990123 0.00041808534 0.0041479496 0.00033075508 -0.0027534913 0.004583489 -0.0026076306 -0.0032639003 0.0009975772 0.0044613876 0.0003610459 -0.00067172607 -0.0011295064 0.004975342 -9.484162e-05 0.0012931981 8.48987e-05 0.0023083184 0.00094206067 -0.004475656 -0.0047059758 -0.0028040092 -0.0037730548
药 -0.003971546 -0.0046363706 -0.004121714 0.0022433684 0.0028209044 0.0020171148 0.0020057678 0.00031424608 0.0030474167 -0.0016896235 -0.0032086265 0.0009388435 -0.0050086533 0.0014755039 0.00036344645 0.0047882544 -0.0014707091 -0.0040169023 3.825678e-06 -0.00096058095 -0.0040101446 0.003626886 -5.2456682e-05 -0.002855736 0.00075337116 -0.004310738 0.001193602 0.0035941093 0.003871918 0.002582152 -0.0024111145 -0.0044532972 -0.0009939666 0.0018094023 0.004359103 0.0043193437 0.0017696703 -0.002772045 -0.0038148735 0.0043245503 0.00079874025 -0.0025484802 0.0011464207 -0.0008151209 -0.00240249 -0.00033940756 0.003402446 0.0047902046 0.003952047 0.0031116134 0.0040639685 0.0008412066 -0.0006795097 -0.0021153078 0.0033168576 0.004501328 0.001789207 -0.00066363945 -0.0021382042 0.0030294382 -0.00090382923 -0.004850137 0.002656716 0.00493155 -0.0027402996 0.003917731 -0.00058361125 -0.0035862392 0.00039132868 0.0003391728 -0.001683101 -0.004665292 0.0039069145 0.0006208047 0.0011446185 0.001252675 -0.0044162497 -0.0005536448 0.0026691079 0.0012440477 -0.0028668842 0.001014427 0.0048106564 0.0037625579 -0.004381612 0.0004586959 0.0043725935 0.004654863 -0.0015247714 -0.0016411953 -0.0011027117 -0.0018540377 0.0005534825 0.00037482596 -0.000838923 0.0021114335 0.00172897 0.0019531033 0.0017030012 0.00038718173
孩子 0.0030008024 4.3131015e-05 0.0023237965 0.00032941188 -0.0025459635 -0.0018755207 -0.0041626124 0.003179182 -0.0034088243 0.002155897 0.0010857127 -0.0047594714 -0.0036752273 -0.0013618127 -0.0018051226 -0.004184557 0.004274534 0.0005306118 -0.0011635736 -0.0009776837 -0.001766419 0.0028578779 0.00339284 -0.0013043507 -0.0017084549 0.00234656 0.003476234 -0.0044519305 0.0009074279 0.0018645881 -0.0011917644 0.00033976123 0.0005279973 0.0012696793 -0.00333445 -8.94908e-05 0.0017435196 0.0026580226 -0.0049192607 0.0027092174 -0.004947767 -0.00132856 -0.002669103 6.2727406e-05 -0.0015377774 -0.004944323 -0.0009430388 0.00026307223 -0.0037252472 -0.00041897956 0.00085093355 0.0010792596 0.00065744267 0.0006519042 0.0004743715 -0.0035627033 -0.0032978666 -0.00092021446 9.876773e-05 -0.004523304 0.002343934 -0.00076846615 -0.00038724235 -0.0015617029 -0.0028581538 0.0012604207 0.00023732272 -0.0027041808 0.0042910418 -0.0040848465 -0.0033429032 0.0009698083 0.0008098386 0.0046125287 0.0030635244 0.0013794414 -0.00069050235 0.0035553928 0.0029903646 -0.0025130643 -0.004090542 0.0024126547 0.0030084024 -0.0035122018 -0.00085384364 -0.0017941281 0.004698938 -0.004256967 -0.0039280904 0.0012980403 -0.0031953156 0.00070966885 -0.0042774603 -0.004737898 -0.0011534007 0.0006999323 -0.004079539 0.0038695356 0.0012153861 0.0014307715
在 0.0013567811 -0.0012425139 0.0023046779 -0.0029375635 -0.0022341495 0.0021961892 -0.0016275082 0.0016021825 0.0036050377 -0.003707173 0.004295308 -0.004408625 -0.0017507658 0.004277325 0.0010238799 0.001759253 0.0024398898 -0.0029543997 -0.0043377443 0.0019489696 0.0003012487 0.0043183346 0.0018217135 7.9577905e-05 0.0014965094 -0.0017412379 -0.0023375864 -0.0010145195 0.0032031178 0.0015848449 0.0031727739 0.0005710352 -0.0010346835 0.0015881587 -0.0005646925 0.00026931782 -0.0030945914 -0.0019857069 0.00403009 0.0037057784 -0.00025529458 0.0042011444 -0.0005904774 -0.0011340425 -0.0005796689 -0.0017965719 0.0003808861 -0.0008814604 -0.00037786068 -0.0032274628 -0.0027674977 4.9230162e-05 -0.0012236261 0.0042463755 0.0042348537 -0.0029851228 0.00248716 -0.0021796012 0.002028553 -0.0026986557 -0.0036249666 -0.00040533725 0.004320946 -0.0040093637 -0.0037806157 -0.0038991973 -0.0039010893 0.002335513 0.0008095188 0.00039467833 0.0013955897 -0.00035149322 0.0033387584 0.0043065995 -0.004475888 -0.0044613746 0.0028425206 -9.828217e-05 -0.003964798 0.0040519023 0.0013222296 0.00037869165 -0.0009962418 -0.0003546468 -0.0039208056 -0.0021707227 -0.0010647058 -0.0024546578 -0.004788879 0.003055427 -0.0019193442 0.0013693636 -0.001989618 -0.0021041224 -0.0014362598 0.0012014193 -0.004390756 -0.0006344496 0.0037821478 -0.0045508877
检查 0.0014526526 -0.004735767 -0.00050723035 -0.002161823 0.002170141 -0.0011856499 -0.00398983 0.0029272535 -0.0021998635 -0.00012746177 -0.0045215813 -0.002357822 0.0047863564 0.0010319876 0.004449537 -0.0010101694 -0.0012940429 -0.0046251225 -0.0024237407 0.0015643492 0.0015950768 -0.0026582456 -0.0020368265 0.00465597 0.0038851777 0.0033693034 0.0044599003 -0.0026103174 0.0036001727 -0.0002029761 0.0040951003 0.0027417894 -0.0032226036 -0.0019306461 0.00090157375 0.0021654374 0.00044033045 -0.0010982399 -0.0026315718 -0.0037305504 -0.0035712088 -0.00069379347 -0.0049349726 0.0012746248 -0.0026536891 0.0023830824 0.00490295 0.0039844876 0.004681579 0.0007318705 -0.0040195487 0.0033383453 -0.0015049396 -0.004577469 0.0026239818 0.0002531195 -0.0019301218 0.0045490083 -0.0021055401 -0.000541032 0.004851227 -0.0032932383 -1.822661e-06 -0.00094740104 0.0028033506 0.0010858623 -0.0019173261 -0.002805962 -0.0048928056 0.00010068539 0.0002462805 -0.002508135 0.0036282013 -0.004887419 0.0038224948 0.0042392192 8.7965156e-05 0.0039539146 0.002972293 0.0014111722 0.0019317733 -6.975878e-05 0.0018789888 0.00082552066 -0.0023969053 -0.0037495918 -0.001856265 0.0035517756 0.0016752632 0.002911831 -0.003670981 -0.00082394935 -0.004241355 0.0026369959 -0.0024311072 -0.0031843358 0.0026946235 -0.00022325039 -0.0033230067 0.0018915466
现在 0.0009558506 0.0032946432 0.0012683362 0.0022487512 -0.0022508919 0.0023489692 -0.00090334064 -0.0035395774 0.00321263 0.00467578 -0.004926243 -0.0010628782 0.0010125039 0.0044311234 0.0009328154 -0.0047992305 -0.0020512738 0.0030462816 0.0036172008 -0.0012480336 -0.0033111253 -0.005030137 0.0029249345 -0.0029111234 0.0029528567 -0.0021073478 -0.0005069384 0.0019315619 0.0035074162 0.0040313713 -0.0011436901 -0.0021566285 -0.0030635719 0.001148448 -0.0039383783 -0.0043730205 0.004203637 -0.0025659082 -0.003212407 0.002033847 0.0028128088 0.0026690874 0.0038844564 -0.0023676273 0.00052063185 0.0040151416 -0.0014799892 -0.0008488096 -0.0028322882 -0.004481991 -0.0044765626 -0.0029620712 0.00029583345 0.00057114306 0.0033324608 -0.0014892431 0.0043132566 -0.00032155053 0.0033730478 9.9993515e-05 0.0014451495 0.0019953374 0.0024286434 -0.004314401 0.0043596663 0.00416314 -0.00424985 -0.0042374074 0.001856143 0.003241854 0.003607068 0.003623423 -0.0009930434 -0.0050313124 -0.0019052137 0.002930367 0.0022670615 -0.0029637166 0.0012532762 -0.0005786804 -0.0006039844 0.0020108009 -0.0016294051 0.000667899 -0.0018676708 -0.0029462925 0.0019912203 -0.0036041702 0.0022132066 0.00015702672 -0.0024028204 0.00031965307 -0.0024051368 0.00088278647 -0.0018392135 -0.0024573158 0.004748049 -0.0014163574 0.0021358882 -0.004440702
问题 0.0050354186 0.0002520154 -0.0020553155 -0.003986539 0.0048213117 0.0028406405 0.0020318364 0.004290678 -0.00017726589 -0.0006951802 -0.0017115201 0.0030853623 0.0020613363 -0.0046061776 -0.00082173105 0.0014946884 0.0026399472 0.0006302268 -0.004633159 -0.0029618633 0.00034568863 -0.0039487253 0.004301712 0.00016562724 -0.0042137885 -0.0009794108 -0.0026984802 0.00016822747 0.0017116268 -0.0029499268 -0.003163149 0.0042230017 -0.0037341337 -0.00089836813 0.003427236 -0.00029683055 -0.0038280508 0.00297258 0.0036983555 6.961698e-05 -0.0024386877 0.0011394921 -0.002580548 -0.001590129 -0.0003670234 -0.003991818 0.0046793334 0.0009436176 0.004756493 -0.003117548 0.003862413 -0.0022857874 -0.0032615517 0.0017501088 0.00031208948 0.0037662361 0.0032454152 0.0036656593 0.0024592523 0.0034411533 0.0022420292 0.0016886678 0.0025647145 -0.0016350576 0.004436037 0.0041929213 -0.0028766042 0.0041632345 0.0032521747 0.0044862777 -0.0029289955 -0.0028029294 0.002116711 0.0018880481 -0.00449478 -0.0045606373 0.003948616 0.003798509 0.00038533355 -0.0031540596 -0.0034317432 0.0037941164 0.0030246435 0.004890071 -0.0018791925 0.003202142 0.002365802 0.0044646966 -0.0040920055 0.0046324693 0.0034806987 -0.0042925584 0.0028359252 -0.0018962458 0.0045579425 -0.003543919 0.0030529015 -0.0015600815 0.0029303515 1.8979592e-05
严重 0.0040734923 -0.003901817 0.0012443978 -0.0037845823 -0.002722915 -0.0027267819 -0.00183195 0.0045567206 -0.00083635974 -0.004398303 -0.0048561078 0.0010341462 0.0023727908 0.0010187732 -0.0048752995 -0.0021760922 -0.0023652578 -0.0026358948 0.0023798496 -0.004524296 0.0025355264 0.00065136637 0.0020504557 0.0003210404 -0.0026736942 -0.004632887 -0.0027887202 -0.0042618075 -0.0024310288 0.0004340859 -0.00047130566 0.004842577 -0.0024380407 0.00304583 0.00017488231 -0.0039406735 -0.002705774 0.002445062 -0.0048428797 0.0036427162 -0.0019824635 -0.0013673162 0.0032250257 -0.0025121584 0.0016944915 0.0021928425 -0.0005711682 -0.004476212 0.0030663458 -0.0042232582 -0.0013981423 0.0012670239 -0.0016425479 -0.0038336639 -0.004273065 0.0010304895 0.0017260414 0.00087120326 1.2322019e-05 0.003555957 0.0021378524 0.0035281042 0.002144313 0.0047659976 0.0009989023 -0.0010817535 -0.00022266328 -0.0033853513 -0.0030916848 0.0002488194 0.0023237204 -0.0049259267 0.00027476632 0.0025936665 0.00045966226 -0.0049573523 0.0003433028 -0.001601667 -0.0038847688 -0.0034616177 0.0013822959 0.0013335868 -0.004347703 0.0011812177 -0.0036789912 -0.002336464 0.0021796876 0.0017689433 -0.00458118 0.003974594 0.00067884946 -0.0013561061 0.0042460947 0.0033542847 0.0013580796 0.0017454637 -0.0041835248 -0.00015707557 0.0037884517 -0.00039741513
科 0.0024183318 0.004859183 0.002719579 0.0020772016 -0.004132611 0.004112191 -0.0012808548 0.0029781174 -0.0030955602 0.004513246 -0.00042524145 -0.00234753 -0.0009648842 -0.0017724226 0.003071437 0.0015264219 0.004964084 0.0033331777 0.004368965 0.0027001402 -0.004060869 -0.001272763 -0.004140985 -0.0041514756 0.0015156823 -0.003679387 -0.003925631 -0.004394671 -0.004388083 0.0026640221 -0.0007101217 -0.00024082095 0.0037652028 -0.003691357 -0.0024808892 0.003618798 0.0041970555 -0.0019435484 0.001408847 0.0018170893 0.0015977806 -0.0016307704 0.000831031 0.0020977203 0.002064975 -0.0018144269 0.002663838 -0.0019437529 0.0046704765 -0.0010999469 0.0014228636 0.004118515 0.00061587 -0.0013937759 0.0032135935 -0.002178833 0.0038955857 0.003570894 -9.268379e-05 -0.0038722532 -0.003485063 4.8918955e-05 2.8889724e-05 0.0023867663 -0.0020467413 -0.0049053687 -0.0013873106 0.0004614842 -0.003307069 0.0013448498 0.0008689569 0.0032342216 0.0046318397 0.00475872 -0.0021401083 0.0022091013 0.0036166643 0.0037216374 -0.0020032448 -0.004270329 -0.0024283903 0.0013802185 0.002042294 0.0025596737 -0.0044694925 0.00071220275 0.0031993487 0.0034186675 0.00494985 0.00022122152 0.0029342573 0.0038275858 0.004088461 -0.00422073 -0.0012227171 -0.00059228175 -0.0006728806 -0.0011007029 -0.0016900547 -0.0018733182
开始 -0.003280374 0.0045220405 -0.0021507824 0.003874113 -0.0043880753 -0.0033582665 0.002233428 -0.00047053097 -0.0003923734 0.002746006 0.00027118454 -0.0022760879 0.0033003404 0.0009841513 0.00039454713 0.004423401 0.0022139833 0.0039216965 -0.0014596687 -0.0041525587 0.0032793258 0.0028538317 -0.0029749887 0.00015524439 0.0029249769 -0.0012772123 0.00019831695 0.0018766959 -0.004512473 0.0022123351 -0.0019660138 -0.001966061 0.00315538 -0.003921559 0.0022896153 0.0011729862 -0.0022246537 0.0005241009 0.0036227433 0.0036211095 -0.0024410656 -0.0033548141 -0.004192291 0.0033632377 0.0036146392 -0.0006973153 0.0023619186 -0.0033918796 -0.003565964 0.0013216771 0.0027375792 -0.0028990186 -0.004220761 0.0033823478 0.0011253925 -0.00096616405 0.0018056815 0.0014311214 -0.0019062732 0.00248274 0.004972578 -0.002419719 0.0032991183 -0.0032926507 0.0047679883 0.0028519079 9.9355515e-05 -0.004518328 0.0006146508 0.0013091278 -0.0005344927 -0.0031412714 -0.0019967952 -0.0013833717 0.0042796335 -0.00040598956 0.0021558034 0.00040560807 0.0027778093 0.000955451 0.0033281408 -0.0026441454 -0.002096475 -0.0015413082 0.00021871843 -0.0008198094 0.0038170042 -0.0040809973 -0.0040594395 0.0022662468 -0.0013751193 0.0026587043 -0.0048056245 0.0011089881 -0.00031667823 0.0034835464 0.0040788013 0.0013448187 -0.004607273 0.0010563409
吐 -0.0024806408 -0.0024380682 -0.0022870074 0.0045253173 0.0021362999 -0.0034322515 -0.0006694228 0.0021563156 -0.0019971132 0.0012470561 -0.004265711 0.002833035 -0.0015646179 -0.0023876128 0.00011778571 -0.004900532 -0.0049940394 0.00041958585 -0.0032968365 -0.0005242146 -0.004068007 -0.00058023824 -0.0003304392 0.0042612334 -0.0035739753 -0.0023396506 -0.0007816803 -0.0038276238 -0.004764431 -8.485645e-05 0.00027373942 0.0042261407 -0.0004730784 0.0008160097 0.0034306713 0.0033571578 -8.969859e-05 -5.0613162e-05 0.0033669986 0.0045426125 0.0015917835 0.00020756396 0.0016924954 0.0039593903 -0.00034429607 -0.0042314827 0.004271429 0.003900558 -0.00218242 -0.0004892744 -0.0008475906 0.0032300353 -0.0032427378 -0.0045346413 0.004411018 -0.0027222943 -0.0031422635 -0.0032350682 0.0022330612 0.0028038365 0.00014337394 0.0048013953 0.0026738567 0.0018734931 0.0018167509 -0.0005069896 0.0040505594 0.003526771 -0.0015582088 -0.0023593376 -0.0016083504 0.0010046237 -0.004531276 -0.0035904483 -0.0015019289 -0.002712189 0.003304762 -0.0013345196 -0.0023712865 -0.002759139 -0.00036703472 -0.0011858394 -0.0036648596 0.0017198925 -0.00013842742 -0.0014701765 -0.0022540665 0.0029793212 -0.002256266 -0.0023134535 -0.004874597 -0.0009832522 -0.0021915773 -0.0016541532 0.0019621865 0.004416494 -0.0008308046 0.0028391199 -0.0040724375 -0.0023874731
验血 0.0003996697 0.0023070653 0.00011236992 -0.003917669 0.0014419116 -0.0024090398 0.004746025 -0.0010729352 0.0029898172 -0.0035264797 0.0033698655 -0.004233035 -0.0021546732 -0.0015826264 0.0040586814 -0.0011254435 -0.0034510167 0.0026726827 -0.0020039326 0.003227951 0.004600421 0.0010822001 -0.000915615 -0.0017688497 -0.0034019179 0.000911422 0.0015365403 0.0002031645 0.002977495 0.0030137734 0.0025955192 0.00087619066 0.0032411118 -0.004223314 0.0016114307 0.0010722214 -0.0007648566 0.0049299616 -0.0033677355 -0.0010042744 0.002950038 0.002858436 0.003739258 0.00031545787 -0.002264207 -0.0041433233 0.00029112684 -0.0021219102 0.003334727 0.0013434835 0.0023005574 0.0013743677 0.0042434125 0.0016781092 -0.0005389721 0.00046807196 0.0007110995 0.003777898 0.001462615 -0.00036467315 0.0026369484 -0.00350216 0.0013970165 3.840827e-05 -0.0025613909 0.002014667 0.003210559 -0.003397155 0.0015497395 0.002142002 -0.003648504 -0.0043928716 -0.0044426033 -0.0028113765 0.0034116346 0.004449912 -0.0008046064 -0.004298033 0.00036109381 -0.0019441696 0.0027138074 -0.00044274368 0.0014132361 -0.004085559 -0.0017527249 0.004205759 -0.004595393 0.0002214139 0.0046090097 -0.0048287176 -0.00061802636 -0.004061593 0.00049983436 0.0033695402 -0.0047320533 0.0022393707 0.002587903 0.003252379 0.0034135096 0.0032452622
后 0.0042296275 0.0026482143 0.0012852201 -0.003790261 0.003751128 0.0026140676 0.0047603296 0.003608059 0.0026187806 -0.004272776 0.0040073968 -0.003874566 -0.0039458065 -0.0016481954 0.0021967108 0.00076706946 0.0017879709 0.0048954813 -0.001072741 -0.003464311 -0.003364032 0.0002390967 -0.003417579 -0.0037710909 -0.0033379414 0.00151089 -0.00011530078 0.0040933033 0.004292564 0.0040320046 0.0011631376 0.0024655603 0.0032348002 -0.0013915 -0.0035465192 0.0036500895 -0.0038348394 8.895389e-05 -0.0022523908 0.0021497083 -0.0014049506 0.0006204474 -0.00012808376 0.0048097996 -0.0025517326 0.0019001001 0.0031532075 -0.0016705447 0.0029710962 -0.0025030568 0.0031447222 0.0042905794 0.0010095183 -0.0033164404 0.0014078136 0.002219771 -0.0026718003 -0.0038990402 -0.001639339 -0.0020393492 -0.0009950674 0.0021620423 -0.003226558 0.0036398978 0.0005162186 -0.0035313577 0.0010093313 0.0040726587 -0.004710962 0.0024265128 0.00057310786 0.0005615354 0.0037692618 -0.0026573436 0.0024836834 0.0013716865 -0.0044882423 -0.0014778634 -0.00046337396 0.0040749204 0.0022724809 -0.0005921294 -0.004914654 -0.00023144895 -0.002099433 0.004516515 -0.003390489 -2.7989483e-05 0.0039607165 0.004124431 0.0038125468 -0.002425259 0.00072865654 -0.0045311237 -0.0022401256 -0.0022439 -0.004944881 -0.0032018141 -0.0034499515 0.00052203203
都 -0.0022894677 -0.00037931697 0.00063863164 0.0030417435 0.0019906983 0.0008255349 0.0036329501 0.004721725 -0.00027075573 0.0047395886 0.0033089253 -0.004789839 -1.7952769e-05 0.0011061754 0.002649175 0.0023827993 -0.001583556 -0.00041278458 -0.0031360427 -0.0014048027 0.0012342724 0.0018718614 -0.004671664 0.0001393273 0.00056930305 -0.00022267859 -0.0013378253 0.0007685077 -0.004052942 0.0042366213 -0.0019600724 0.0036501053 0.0030943314 -0.0015368754 0.0009697771 -0.0025187219 2.988775e-05 -0.0037295506 0.003512656 0.004877984 -0.0035095396 0.0046093296 -0.0023757864 -0.001669504 -0.0011773164 -0.0028352435 -0.0047852243 0.003252697 0.004996558 -0.00441015 0.00022529451 0.00015469361 -0.0033376606 -0.0047317133 -0.004932672 -0.0047932393 -0.004922843 0.004418971 -0.004218667 0.004201884 -0.0016903514 0.0035334877 -0.0014415669 0.0031461257 -0.0008586472 0.0049463524 -0.00047447617 -0.00354198 0.00017767752 -0.00015126112 0.0032219775 0.00481592 -0.003852956 0.0022367854 -0.0036859487 0.00069978414 0.0014618265 -0.0016513058 0.004305139 -0.0020455078 0.0024874432 0.0010528498 -4.1903648e-05 0.0049792975 -1.9407711e-05 0.0005241953 -0.0037628138 0.004784262 -0.0040522236 0.0032900395 -0.0027853271 -0.00035023456 0.00021163293 0.0021884018 0.00502564 0.0013125401 0.00057571166 0.003702487 0.00038759864 -0.00046485147
吗 -0.0004777318 -0.0037330422 0.0019614028 0.004123792 -0.00030100948 -0.0032907515 0.0031648008 -0.0032834513 -0.0015465022 -0.0030847257 0.0006943135 0.00021450335 0.0018277331 -0.0009639193 -0.0044948338 0.003299779 0.0008730354 -0.00030876984 -0.0010285664 -6.781167e-05 0.0027266766 -0.0036020004 -0.004218554 -0.00373376 -0.0031625829 -0.004896256 0.0033644785 -0.0021005997 -0.0034902291 -0.0005752829 0.003969669 0.0043148613 -0.0010643457 0.0035912294 -0.00051941385 0.002023557 0.0031316744 0.004247514 -0.0013223756 -0.0031857912 -0.0014966859 0.0015840749 -0.0011439064 -0.0045160186 -0.0018241011 -0.0023608431 0.0014071055 0.0010399151 -0.0006668725 0.002114202 -0.0032445835 0.0019099733 0.0008987486 -0.0046458887 -0.0010414022 -0.002617595 -0.000583985 -0.004294217 0.0047997693 0.0018200681 0.0040605515 0.00025336657 0.0043838574 -0.000816189 -0.003627433 -0.0013264727 0.0028574564 0.0031398318 0.00022282581 -0.003910694 -0.0042107953 0.0005584921 0.0013428978 -0.0037943465 0.0010520905 0.00353785 -0.0018641338 -0.000938647 0.0023068658 -0.0027405752 -0.0013214416 0.003938147 0.00042271754 -0.00011969763 -0.0033610766 -0.0014581474 -0.00035618906 0.0023957836 0.0009607326 -0.0042917933 0.004046613 -0.002724132 0.0023100812 -0.0035239272 0.0018239337 0.0020015063 -0.0022183477 0.0027027267 -0.0047945543 -0.0012211663
说 -4.1967287e-05 0.003154522 0.0015825642 0.0038438956 0.0025464662 -6.624006e-05 0.0014666234 0.0012654975 0.0016074361 -0.00037768352 -0.0026954703 -0.0020237393 0.0022343467 -0.0043238266 0.0044008545 0.0043157125 -0.004375181 -0.0015449362 0.0016235792 -0.00051614066 0.004481402 -0.0006940652 -0.0048103887 -0.003398027 0.00091185275 0.00047683212 -0.004460966 0.0013974024 -0.0010238343 0.0027399217 0.004561811 0.004911846 0.004538438 0.002199911 -0.0031888098 -0.0010838046 -0.0025559112 0.0039544506 0.0049274676 -0.0026670324 -0.002960759 0.0029125325 0.0031483853 0.0023697421 0.00075279205 0.002394994 0.00448707 -0.004310361 0.0026840689 0.0026277336 0.0006679377 -0.0015540037 0.00433716 0.0043072994 -0.0039517134 -0.001547112 -0.0007780841 -0.0014482564 0.0034880075 -0.00014092433 -0.00175893 0.0025491493 -0.0026796754 -0.0027968893 -0.0020925403 0.0003946439 -0.002153413 -6.636615e-05 0.002431734 0.004753864 0.0032764191 0.001287169 -0.004360892 -0.0026054722 -0.0021229673 0.0038311766 0.0037779137 0.0031598867 -0.004184286 0.0009178259 0.0017922787 0.0030401908 -0.0036235629 0.003581246 0.0030868857 -0.002208034 0.004051075 0.0016203434 -0.001867114 -0.0019498251 -0.00090428645 -0.0029241717 0.0019535993 -0.004504094 0.0041108243 -0.003017087 -0.003696409 -0.003873129 -0.0024899605 0.0020323924
出来 0.003593594 0.0032315557 0.0019587402 0.0020358295 -0.0006214261 0.0035633342 -0.0018214977 0.00481024 0.004052429 0.0046821386 -0.0016958535 -0.004918357 -0.0049761115 -0.0025791412 -0.0043768063 0.0045550265 0.002024193 -0.0042644623 -0.0034736563 -0.0034825401 -0.00045753559 -0.0029083726 -0.002497904 -0.0027315763 -0.002118602 -0.0012915853 -0.000664333 -0.0050480897 -0.0020676584 -0.0040401584 0.0027898813 -0.00014480476 -0.0034548424 -0.004907319 -0.00500469 -0.0023600108 -0.0005981434 0.001385097 -0.003017744 -0.0022266263 -0.0013726873 0.00024186769 -0.0006223009 0.0024879018 -0.00047101273 -0.0044796723 0.004534052 -0.000563372 -0.0021751442 0.0025660375 -0.0010346511 0.00381529 -0.002055099 0.0039977073 -0.0037032657 0.0021376829 -0.0032575862 -0.0010326834 -0.0016885578 -0.0032935452 -0.0027870135 0.0020677592 -0.0047901887 0.0026710553 -0.002127121 -0.0015044587 0.0011461403 -0.0008351928 0.00034341906 -0.0038867202 -0.0019933863 0.0029689332 -0.0012113921 -0.0048741 0.0028490392 -0.0048212903 -0.002742961 0.0026079484 0.003400166 -0.0040353322 -0.0025529093 -0.0005376455 0.0019673898 0.0026446786 0.0014469741 0.0011506428 -0.0020405506 0.0036084224 0.0015170875 0.0034752574 -0.0008862707 -0.0044489787 0.003957961 0.00036277482 -0.0045671468 -0.002994544 0.0048498735 -0.005050911 -0.0013093692 0.0048050075
因为 0.0031315405 -0.0042410376 0.0044009145 0.0021482473 0.0044401493 -0.001956825 0.0013752991 0.0015818196 0.0018707379 -0.0011226627 -0.004019486 0.0037823662 -0.0044631367 -0.004278803 0.002863127 0.0024111532 -0.0035346225 -0.0018665026 -0.0023359025 0.001141893 0.0044158758 -0.0044721016 0.00042098833 -0.0044418736 -0.0046535567 -0.000535772 0.0040893126 0.002508391 0.002078737 0.0007313279 0.00073635054 -0.00013038707 -0.004868032 -0.0047338414 0.00408978 -0.004408134 -0.0044632326 0.0041114627 0.0019881635 0.0033996191 0.0017653281 -0.0025106934 -0.0038779264 -0.0041282494 0.003493853 -0.0010025039 -0.0028232448 -0.00041188748 -0.0038405645 -0.0001354921 -0.0014944803 0.0048471442 -0.004072049 -0.0007885099 0.0018627259 0.003152937 0.0038934138 0.0044162013 0.0014620944 -0.0016037067 0.0005810639 0.0013462305 0.0014701185 0.0015286685 -0.0015331123 0.00034497044 -0.00047180345 0.0022835548 -0.0025884607 -0.0048169936 0.001458678 -0.0042796414 -0.0016782692 0.0048506763 -0.00013027703 0.0028308956 0.0017646113 -0.0040702447 0.0015507666 -0.0035102007 -0.0020975068 0.0031281225 -0.004634487 -0.002763226 0.0025028752 0.0027514438 0.004455869 0.00036774031 -0.002194533 0.00074102165 -0.0012645744 -0.001886628 0.0015351989 -0.0031854943 -0.0016626663 -0.002581517 -0.0004449179 -0.0010306725 -0.0019516725 -0.0033729044
请问 -0.0006310022 0.0026888857 -0.0039348807 0.0016927909 -0.0007826432 -0.00042743783 -0.0028866206 -0.0006823194 0.0029563564 0.004593039 0.0032697627 -0.0011501779 -0.004799184 -0.00018274186 -0.001184863 0.00045948845 0.0031129797 -0.0042545465 0.0017417268 0.0034151527 0.0004867018 0.0035862818 0.00055826386 -0.0029574907 -0.004283006 0.0009875585 0.0047767055 0.0008765053 -0.0014878057 -0.00032439936 0.0050357864 -0.000615836 0.0022613215 0.001288954 0.0016814013 -0.0039394405 0.002679048 -0.0035717422 2.8735922e-05 0.0045868466 0.001192068 0.0024919487 0.0049034557 0.00117542 -0.0009798583 0.0032377653 0.0036195659 -0.0010834819 -0.001828258 0.004042318 -0.003373058 -1.039191e-05 0.004967606 -0.0035344083 0.0042891274 -0.00047369624 -0.0002970159 -0.0045872172 0.00094347534 0.0026094764 -0.00096943625 0.0036077406 0.0034452279 0.0012403004 -0.0028351566 0.00307397 -0.004816757 -0.003008917 -0.0045498568 0.0046973303 0.00043316255 -0.0021963501 0.0031206354 -0.0020060353 0.001421804 -0.0006719654 -0.0011729952 0.0009452086 -0.0032731427 -0.0040586866 0.0030967123 -0.001315704 0.0037242703 -0.003935848 0.0011822964 -0.0013756414 -0.002525719 0.004505307 -0.0026453305 0.0021217018 0.0022220053 -0.0043960866 -0.0007473378 -0.0028098165 -0.0029301364 -0.0003489658 0.0010459346 0.0019081024 -2.0237772e-05 0.004409764
这种 -0.004884998 0.0014474962 -0.0002925953 -0.0042978963 0.0017559865 0.0014531248 -0.0015962542 -0.0049125017 6.521588e-05 0.0010749212 -0.0035791523 -0.0031181301 -0.00241349 -0.0011657374 -0.0044827233 -0.0037558824 0.0029295706 -0.0011714787 0.0032140582 0.0048999675 -0.002808964 0.0027845546 -0.004323083 -0.00014372477 -0.0026013916 9.478684e-05 -0.00037210475 -0.0019356516 -0.00176803 0.0016765741 0.004076636 4.592112e-05 0.0023077254 -0.0017030805 -0.0020234874 0.001139814 -0.0025531678 0.0008154215 -3.6587608e-06 -0.002988611 0.0024112822 -0.004775879 -0.0026439647 -0.003607433 -0.0015963746 -0.0003196104 -0.0023369305 0.004381517 0.0049484377 0.0013559397 -2.4783716e-05 0.0024612932 0.0011038324 0.004841419 0.0033609308 -0.0008254457 -0.0008572771 0.00093682273 3.070404e-05 0.004026342 0.0049126996 0.0015519097 0.0009772469 -0.003536769 0.003392244 -0.0015637621 0.0029064582 -0.0030255497 -0.00090291817 -0.0046827327 -0.00022793349 0.0048650336 0.004632016 0.0018631 0.002707743 -0.002728908 0.00031815792 0.0034379964 0.0013291744 -0.0019037919 -0.0018246945 0.00019121164 -0.00087239075 0.0019692136 -0.0036678447 -0.0032890376 -0.003152077 0.0041295504 -0.0031437674 0.0033865236 -0.0025208304 -0.0023608045 0.0012265942 -0.0049084136 -0.0013483143 -0.0023194756 0.003321972 -0.0022763195 -0.0025889631 -0.004193364
情况 -0.0028702284 0.0032585612 0.00024634012 0.004561482 -0.0019515754 0.0038609141 -0.0026457733 -0.0039069117 -0.0025041085 -0.0010762357 0.003564398 0.0009278746 0.0044439086 0.0010059775 -0.0036414631 0.0026432667 0.00084816193 -0.00464935 -0.00088976143 -0.0029754338 0.00038349075 -0.0048285024 0.002845549 -0.004712476 0.0040528616 0.0044129267 -0.00093203556 0.0015701856 0.003318548 -0.0006124446 0.00080136216 0.002037368 0.003632703 0.0011082751 -0.0008524749 0.004994462 -0.0018114579 0.003913826 -0.0011951405 0.0028542497 0.00299254 -0.0024388304 0.004420447 0.0027532391 0.0044598477 0.0046646222 0.00054708886 0.0037040317 0.0008924252 0.0006708356 -0.0037442676 -0.004035413 -0.0044181924 0.0033329246 0.003855686 -0.0016064452 -0.001650528 -0.003592554 -0.0042716307 -0.00065743946 -0.003948821 -0.0019484865 -0.004981591 -0.002876188 -0.0049532373 -0.0047283606 0.00077635894 -0.002148407 0.0008395589 -0.00161219 0.0037065658 0.0040820986 -0.0021081269 0.0042288816 -0.0009950686 -0.00438237 0.003565814 0.0011109104 -0.004337775 -0.0029509952 -0.0013281526 0.0035190266 0.003170057 0.00016012767 0.0036219447 0.0033007911 0.0020124195 -0.0013204911 -0.00078933017 0.002701851 -0.0014980171 0.0007136696 -0.0035540836 -0.0021738124 -0.0033160918 -0.00064279954 -0.001261965 0.0021510357 7.4817086e-05 -0.00018211394
感冒 -0.0023744397 0.00035113303 -0.001265851 0.0042509674 -0.004536179 0.0041955514 0.00024057923 0.003473586 -0.0039751967 0.0008865325 0.0014509112 -0.0031809849 -0.0036032123 -0.0020504352 -0.0042225476 0.0029765056 0.0036477915 0.0039544506 0.0048298896 0.004193789 0.0008943884 -0.0031710933 -0.0006577294 -0.0011312445 0.004941892 0.0007165689 -0.0047571915 -0.0030892412 -0.004931309 5.1287465e-05 -0.0012104665 -0.0012875068 0.00045435387 0.0018704311 0.0041016303 -0.0037950075 0.0049130414 -0.002173902 -0.0020939717 0.0011081268 -0.0036461144 -0.0014887496 -0.0036282134 -0.004183592 -0.00085903856 0.0045286715 -0.00022845861 -0.001448192 -0.004153152 0.004800161 -0.000871055 0.0022979588 0.004389169 -0.0032355841 -0.0004741325 0.0032090025 -0.003802597 0.0011569039 0.003358605 0.002668988 -0.004869019 0.0029321988 0.0038800456 0.0009766092 0.0017092301 0.003011527 -0.00013214 -0.0019991465 -0.0014617165 0.004791863 -0.0008625288 -0.0007356303 0.0034779587 0.0015460296 -0.0025180671 -0.0027964576 -0.0020723024 -0.0002063086 0.0034028064 0.0029465845 0.0037878721 0.0031425043 -0.0019806998 -0.0035099576 -0.0048800297 0.004416457 -0.0010580529 0.0008223868 0.0032887687 -0.0012075672 -0.0012117003 0.0049151178 -0.0029803417 -0.0006299251 -0.0034706078 0.001600025 -0.00044475266 0.00076430035 0.0030523527 0.0009267845
流鼻涕 0.00036296988 0.0034798759 -0.0015195388 0.0022835047 -0.0040192697 0.0009842955 -0.0023178628 0.00086287514 -0.00464049 0.0039063976 -0.004729276 -0.0005171008 -0.003635594 -0.003021478 -0.0009380398 -0.003421324 -0.0010708132 -0.0016574214 0.0006789345 0.0032199034 -0.0038972662 -0.0030286612 -0.0004294153 -0.00091592356 0.0047916197 -0.0019376499 -0.0046161283 -0.002897532 0.0018789993 0.0037296459 -0.0014069609 -0.0019570556 -0.0035496063 -0.0042067026 -0.00406311 0.0008297507 0.002242238 -0.0048747873 -0.0027762894 0.0036963723 -0.00035490468 -0.0015533601 0.0033953558 0.003411688 -0.0011794477 -0.004550534 -0.00029285 -0.0011700211 0.004736566 0.0027495278 0.003270669 -0.00014665464 -0.0017329532 0.00027004426 0.0032897328 0.0007285786 -0.0023588233 0.0021041373 0.0020041382 -0.0038156866 -0.0047027674 -0.0022058568 0.00058928144 -0.00085779396 -0.00066811766 0.002180511 0.0046967035 0.0011502065 -0.0049662553 0.0025327175 0.004170613 0.003697866 0.0013316356 0.0038844056 -0.00034571398 -4.6118716e-05 0.000490605 0.004355445 -0.0017554737 0.0006393301 -0.00027880326 -0.004839003 -0.0031729653 -0.00089970377 0.0016338107 5.9658392e-05 0.001462692 0.0027960737 -0.00033140506 0.0029371344 0.0019515541 0.004499417 0.00012662764 -0.0017674395 0.0021633806 -0.0028171367 -0.0032298367 0.0005172423 -0.0036103122 0.004899808
咨询 0.0046391413 -0.0047040884 -0.0022158518 -0.0035352525 0.0009430323 0.0032065746 0.00087093335 -0.0010102979 -0.0037478968 0.0011427988 0.0020982856 0.0035232706 -0.00205175 -0.002569479 -0.0012285482 -0.0041591562 -0.003840123 0.0021310102 0.0038045712 -0.0004136208 -0.00024672117 0.00021908343 0.0008496398 -0.00083024794 -0.00032722746 -0.0015782254 0.004032185 -0.0019997032 -0.0043523577 -0.00042437395 -0.0032712624 -0.001271441 0.0049395706 -0.004755051 0.00082596845 0.0045306436 0.0034281116 -0.003535803 -0.0010213325 0.0030414693 -0.00014564475 0.0009732975 0.0028524515 0.004834978 0.00413596 0.0031583144 0.003423565 -0.00085231394 0.0006537764 -0.00227846 0.004688369 -0.0002100926 0.0046239696 0.000769351 -0.00097078143 -0.000606942 -0.0026336473 0.0031889626 0.0025039758 0.0018883367 0.002612708 -0.0045630764 0.0028275165 -0.0011998484 0.00024535568 -0.0046946863 -0.00074898853 0.002215783 0.004795645 0.0037106955 0.004756947 0.004259935 -0.001124119 -0.001318528 6.284765e-05 -0.00071183726 -0.0029867017 -0.0033190676 0.0026716578 0.0045188796 -0.0006808767 0.00054314954 -0.0011075798 0.0003073653 -0.0041073584 0.0022602244 0.00029257062 -0.0033943858 -0.001439074 0.0029342293 0.00010104819 0.0010606634 0.0026339034 -0.0006937288 0.0042685405 -0.0036396105 0.00072565157 -0.0017180579 0.0014699834 0.001408528
尤其 0.00023362985 -0.0033212693 0.0018366238 -0.0015313722 0.002417964 -0.0011059385 -0.0031914026 0.0032652633 -0.0038605323 0.0029281634 -0.0036082028 -0.002064734 0.00022127268 -0.0030201185 9.813465e-05 -0.0019805012 -0.001068734 -0.00114262 -0.0045849015 0.0045675808 0.0013390359 0.0016276015 -0.0032832 0.0031686127 -0.00046773397 -0.0017343058 0.0035536247 -0.0016980495 -0.003127261 0.0005100618 0.0022201508 0.003463914 -0.0021884511 -0.004661906 0.0027059112 -0.0037279448 0.0010927026 -0.0005508501 0.0038798696 -0.00010919712 -0.0007031273 0.0014007292 -0.004276974 -0.000745592 -0.0036556248 -0.0028753697 0.0031875898 -0.00066358736 0.001902238 0.00044006252 0.0006478724 -0.0040847478 0.003494994 -0.0038238484 0.0027229355 0.0018139586 0.0038032706 -0.0034052313 -0.0034324364 0.0047587627 -0.003443761 0.0014715138 0.004579589 -0.0039945175 0.0015834749 0.0022112357 -0.0018292501 -0.0043013566 0.0014551113 -0.004705287 0.0027155825 -0.0008862537 -9.724542e-05 0.003760498 0.003272802 0.0025246225 -0.00466988 -0.0036170748 -0.0031097594 -0.0039322167 -0.0025977946 -0.0046486077 -8.3185645e-05 -0.0022893946 0.0017750303 -0.00057686586 0.0030920908 -0.0014524317 0.00063108467 -0.00034888694 -0.0012248072 0.0027260522 -0.0010250794 -0.0027504282 -0.004437964 0.0012257424 0.0007783601 0.004033383 -0.0002987558 0.0021339327
有时候 -0.0036881715 0.0022357202 0.0047858823 0.0016297257 0.0015538308 -0.0033947965 -0.003028666 -0.0015407496 -0.003008028 0.0014695084 -0.0025682715 0.0048989286 0.0016047321 -0.002601585 -0.0035280045 0.0048169284 0.0022496632 0.00043205623 0.0032451604 -0.0033049136 -0.0015703718 -0.0039791693 0.004473925 -0.00326196 0.0025794301 -0.0034983053 -0.0031388216 0.000104952385 -0.0049055074 0.00072602363 2.9049339e-05 0.0006822675 -0.0007992949 0.00055992487 0.00045124098 -0.0034646043 -0.004361132 -0.0030930191 -0.0023731613 -0.0042746444 -0.0020160503 -0.0021872208 0.0020588543 -0.00034437884 -0.0032626812 0.0046757725 0.00013638932 -0.0013259032 0.0038932718 0.0021517926 -0.0010085755 0.0011572413 0.0008191161 0.004680742 -0.0026615341 -0.0022103768 0.0029052903 0.00014907788 0.0028209558 -0.0044038496 0.004599035 0.0049324636 -0.00022003344 0.0026236554 0.004230613 -0.0013827656 0.001786715 -0.0036432876 -0.0030882917 0.0006981572 -0.0013009168 0.0019432823 -0.0015481147 -0.002634444 -0.000751109 0.0027140495 0.0016635503 0.0022295765 -0.0042037666 0.004911991 0.0028588972 0.0028998745 -0.0018853879 -0.0033570859 -0.0037961686 -0.0049815564 0.0037488572 -0.0017231475 -9.238157e-05 0.0020150791 0.0016083886 -0.0022761943 0.0009140149 -0.0031038933 -0.0044530225 0.0049161636 -0.0022485831 -0.0002545954 -0.001558441 0.004741964
儿童医院 0.0040165503 -0.0010104016 0.0032511896 0.0014558095 -0.00062189635 0.0036916472 -0.002947765 0.0006170899 -0.0048053525 0.0031883663 0.0008303187 0.0028517726 0.0041285255 0.00012988446 0.0013772999 -0.0042345845 0.002575175 0.0022396508 -0.003034623 -0.0008576544 0.001876067 -0.0026369304 0.004555736 0.0007945079 0.0027489613 -0.0017403878 -0.0027272117 0.0028404556 -0.0032364158 0.0044682403 0.003062173 -0.003922268 0.0020018783 0.00051622157 0.0049653947 0.004508262 0.0024107287 0.0031888383 -0.0006034772 -0.0008932888 -0.001366444 -0.004702783 0.0032372444 -0.0039769276 2.9542352e-05 0.0018189005 0.0012162258 0.0038307486 -0.003229615 -0.0016225067 -0.004738075 0.003540334 3.4867713e-05 0.003354461 -0.0019136193 -0.0028725108 -0.0009941285 -0.0033162402 -0.0034214852 0.00041622008 -0.0041037863 0.0015429682 0.0022069754 -0.0009262561 0.0028101138 0.0020552517 0.0027935 0.0025694857 0.0025052796 -0.00027293531 -0.003219237 -0.0030613376 0.0021118135 0.0038357954 0.0048413076 0.00034708536 -0.004816291 -0.00069007045 -0.0045021526 -0.0048561003 0.0037441703 0.000931899 0.002111668 0.0027297742 -0.0017756249 0.0018691674 0.0023658474 0.0006170066 6.8142974e-05 -0.0049029267 0.0011081997 -0.0027073992 -0.00050597894 0.00068130315 -0.0007883184 -0.004613293 3.4254346e-05 0.0009410048 0.0023403836 0.00019319585
CT 0.002992985 0.0020035747 0.004882793 -0.0044571795 -0.003245498 0.0045845127 -0.0018450578 0.0025281212 -0.003043632 0.004219698 0.0023357726 -0.00409763 -0.0040235603 -0.0034769168 -0.00013716015 0.0034025458 -0.00017956081 0.0038668446 -0.0005768662 0.0017600723 0.0046222485 -0.0025661946 -0.0023995934 0.004181743 -0.0031531753 0.0028929638 -0.002135541 0.0012078884 -0.0022565273 0.0009513875 -0.0025126585 -0.001593911 -0.0028724722 -0.004089329 0.004972779 -0.0010655882 -0.004829278 -3.6102952e-05 0.00089340174 0.0033112331 -0.0015819903 9.39287e-05 0.004035272 -0.0041366057 -0.00053639757 -0.004934033 -0.00051620265 -1.0276101e-05 -0.00059795385 -0.004003049 0.0018730212 -0.0010275954 -0.00049952866 0.0009014431 -2.874075e-05 0.002360424 -0.00022785601 -0.0034079212 0.0035878916 -0.00056103116 -0.0026163915 -0.00017778549 0.00045967492 0.0021032635 -0.000110455716 0.0019058102 0.00172924 0.00029046636 0.0026635453 -0.001417299 0.00032364807 -0.0031347198 0.0032362135 -0.0032149423 0.002998283 -2.0132029e-05 -0.0036231284 -0.0022683633 -0.00053121604 -0.0017234379 -0.004012001 0.0015240198 0.0030402038 0.0041379686 -0.0017869081 0.002506276 -0.0049957098 -0.00088610034 0.0007209568 0.002808734 -0.0009681084 -0.0016826739 0.0029775554 0.0042553945 -0.000139895 0.0047444026 0.0016229375 -0.0016349447 -0.0033176367 0.0003877018
腺样体 -0.0009972395 -0.0009228275 -0.0006985768 -0.0018166984 -1.4937088e-05 -0.0037284931 -0.0022350072 0.0032516415 0.0020990684 0.00060901 0.0031129706 -0.0025134485 -0.00439053 -0.0023520484 0.0045493837 0.0014100312 0.0035794934 0.0016682858 0.0047336738 0.00056149915 0.0024406782 0.003509702 -0.001494642 -0.0010075121 0.0018634677 -0.0011598321 0.002983132 0.0041227406 -0.0023724942 -0.0048068855 0.004794281 -0.0034761257 0.0016997551 -0.0050133467 0.000105098225 0.0018149905 0.0037229715 0.004540889 -0.0023414064 -0.0037861054 0.0008373251 0.0031390216 0.004945088 -0.0043422077 -0.0033137184 -0.0023983186 0.0010310715 0.002848686 -0.0025076047 0.0040637543 0.004264636 -0.0008557228 -0.0034085189 0.0026708455 0.003869729 0.0041179326 -0.001169837 -0.0039975005 -0.00058152026 -0.0021400843 0.00096478016 -0.0033207668 -0.003168602 -0.0024228222 -0.0048341774 -0.00197329 0.0031881512 -0.0013850672 -0.0005315594 -3.0581457e-05 0.0027172125 -0.0014573758 0.0022938608 0.0038594208 -0.001376931 0.004947486 0.0026754553 0.0016885825 -0.0021514362 -0.0018598118 0.0019228248 -0.00024691754 -0.0019781084 0.004606181 0.0044641146 -0.0031917 -0.00348392 0.0023515571 0.0020555928 -0.002808367 0.002642948 -0.0048420657 -0.0037581348 -0.0039135804 0.004001661 0.0036929063 0.0011392365 -0.001507336 -0.0022799072 0.00021488502
和 0.0014087603 -0.0031604238 0.00070091896 -0.002880653 -0.001701177 -0.0040688473 -0.00082288164 -0.0031720225 0.00245249 0.00050689303 0.0041453755 0.001435791 0.0012970469 -0.0020093403 -0.0011591014 -0.003915375 0.00095089845 -0.0017681284 0.0033714245 -0.00218713 0.0013280672 0.0026196814 -0.0049368693 0.0010839892 0.004025717 0.0039165006 -0.0011506123 -0.004545223 0.0015776422 -0.0015380973 0.004365269 0.003499042 -0.0038102616 -0.0015247833 -0.0015272626 0.001020512 0.0031198224 8.257017e-05 -0.0049398155 0.003807924 0.0022020135 -0.0035318753 -0.004457874 0.0031127003 0.0012081673 0.0022853138 0.0049909935 0.0045362585 -0.00074858073 0.003613217 0.0032080556 0.0028398426 -0.001149827 0.0018500395 -0.00026074387 0.001185573 0.0012895636 0.0044319923 0.0018582832 -0.0040577142 0.002477317 -0.0008357792 -0.0038076455 0.0034292706 1.8803657e-05 -5.215392e-05 0.0032715288 -0.003314332 -0.0008285476 -6.0145626e-06 0.0043999525 0.0026091118 0.0010722241 0.0016402567 -0.0023709552 -0.0025282132 -0.0019776342 0.0038945226 -0.0024383005 0.0041373824 -0.0007953984 0.00084025675 0.0010689959 -0.0041610636 -0.00012389847 0.004713763 0.00015217565 0.0026549208 0.00093108026 -0.003019333 -0.0047025937 -0.00055234804 -0.001224415 0.0031256997 -0.00041458287 0.0042859553 0.0002594544 0.00021359106 -0.0033598572 -0.00017215135
肺炎 -0.0012918409 -0.0016407891 -0.0019731664 -0.0045539653 -0.0023957433 -0.0027151208 -0.0004454225 -0.0028100922 -0.0038473872 0.0031440735 -0.0049013537 -0.0040321457 -0.003321546 0.0024520168 0.0036336503 -0.0042424584 0.004758325 0.0048091942 -0.0045645824 0.002846153 0.0046225246 0.00019882801 -0.0048833084 -0.00032022045 -0.0028125516 0.001060582 -0.00476637 0.004112192 0.0007517751 0.000704013 0.0048885955 -0.0030868286 -0.0021264344 -0.00290217 0.0035200443 0.0009538016 -0.0027266985 -0.002981888 -0.0014576287 -0.00016337601 -0.004889587 -0.0045690914 0.000997353 -0.00060080184 0.0044244425 0.003738972 0.0010751011 0.0013656808 0.002428272 9.619839e-05 0.004022946 0.0029961301 -0.0049892305 -0.0022438653 -0.003620723 0.004303163 -0.001699905 0.0014716372 0.00343055 0.0013092124 -0.002720271 -0.0045367186 -0.0032374114 0.0024184668 0.0036063837 0.0033261005 -0.0015685643 0.00321341 -0.0007700902 0.0015340486 0.0028472957 -0.0018869791 -0.0017270176 0.0009715475 -0.004690166 0.0024263063 0.00052158104 0.0004894079 0.0040737176 -0.0019342598 -0.0038832412 -0.0024655946 0.0039000171 0.0005906674 -0.0025305508 0.00022800604 -0.00018524691 0.0013377535 0.00071292877 0.0017503779 0.0018669156 -0.004082726 -0.0030602247 -0.0020012455 3.496562e-05 0.0007135495 -0.0017272681 0.0044942154 -0.002366435 -8.273416e-05
感觉 -0.0012183283 -0.0018379155 -0.004794285 0.0014222998 0.00021631588 0.0014933951 -0.0044327695 -0.002692739 0.00095797534 0.0021281543 0.0007908261 -0.0026371672 0.00090964104 0.00040562067 -0.0017481876 0.0010748663 -0.0016402815 -0.00016749211 0.002935603 0.001485966 0.004303548 0.00087580405 0.0033184388 0.0009697145 -0.004748773 -0.002456241 0.0022206947 -0.0026599895 0.003078146 -0.0033254002 -0.0023048825 0.004120253 -0.002705743 -0.0013311171 -0.0021741346 0.002189777 0.001406217 -0.0029263198 0.0018359345 0.004068946 -0.003224666 -0.00034980598 0.004859849 -0.0011171023 -0.00500675 -0.002371829 -0.0023088593 -0.0029989472 -0.0018727748 0.0024680991 -0.0025739355 0.0036342512 0.0011305128 -0.0028863028 -0.0016475833 -0.0044883364 -0.0042969463 -0.0014821707 -0.0043001086 -0.0021160415 0.000650137 0.0015744192 -0.0028843842 0.0014645774 -0.00079079816 -0.0036185796 0.0013819527 -0.0017599341 -0.0005878369 0.004978859 -0.004608932 0.0011536166 -0.0010354418 0.00073822535 0.0035397073 -4.1329953e-05 -0.0031218699 -0.001429157 -0.0027023475 0.003041288 0.0008028509 0.00028672308 -0.0037393568 -0.0027676322 -0.0014244316 -0.00237226 -0.0042792913 -0.0020438798 0.0007781542 0.001702478 0.0032053639 -0.0021144315 0.002529964 0.0041516935 0.002308759 -0.0036273778 0.0020704542 -0.004226123 -0.002741404 0.0003530241
但是 0.0032429271 -0.0023452363 -0.0026698145 0.001312722 0.0045615123 -0.0023475161 -0.001424802 0.0011641448 -0.0037193592 -0.0049175085 -0.0006054358 -0.0014101639 0.002185776 -0.0045603947 0.004628357 0.0030914268 0.0010745296 0.0014907297 0.0035255991 -0.002801718 0.0022234183 -0.001194005 -0.00020873478 -0.004331914 -0.001422012 0.0012564743 -0.001497623 -0.0018602146 -0.0046451027 -0.0023851015 -0.0014489867 0.003882002 -0.003716423 -0.00030668746 0.0025065881 0.0014360606 0.001520745 -0.0016372928 0.0030245793 0.0043012905 -0.0006180449 -0.0012685846 0.0020020895 -0.0034569146 0.00084276975 0.0035348027 0.0018919924 0.0023670848 0.002108951 -6.3455765e-05 -0.0011157029 -0.0027711794 -0.00025680164 -0.0005616286 -0.0022259052 0.004708017 0.0003030275 -0.0017538846 0.0025487677 0.00462959 0.004668539 0.0023102553 0.0028611156 0.00044772952 -0.0008987966 0.0016862713 0.0013579486 -0.001310191 -0.0044009862 0.002578666 -0.00086117326 0.0014015208 -0.002899877 0.002427966 0.0014986349 -0.0015981374 0.0038515925 0.00093944883 0.0013545238 -0.0037772746 0.0009911688 0.0040917844 -0.0018489606 0.003174702 -0.004007786 0.0021337299 0.0024929943 0.0022941506 0.002848928 -0.0022659146 -0.0031570059 -0.0029691542 -0.004005849 -0.0024285852 0.002176649 0.003708821 -0.00300375 -0.004893639 -0.0040159076 0.0033663234
让 0.0042156414 -0.002742814 -0.0038145145 0.004496681 -0.0011184784 -0.0047329785 0.0022328284 -0.003148344 0.0021905347 -0.0036619673 0.004445866 0.00018462606 0.0012664611 -0.0027786524 0.0042044027 -0.004729632 2.811984e-06 0.004163028 0.00016986627 -0.0001837944 -0.0031262669 -0.0035188233 -0.001988038 0.003617776 -0.003755243 -0.0031412956 0.0015385901 -0.00071823376 0.00049727346 0.0046137 0.0018222955 -0.0014211228 -0.0044266456 0.0011768448 -0.0021019722 0.0023944872 -0.0006751658 0.0038622457 -0.004429997 0.0023064746 0.00068264856 -0.00025897528 -0.0030766255 -0.0016424143 -0.0010072077 -0.0037524425 -0.0006155403 -0.0046154098 -0.0042448477 0.0014995784 -0.003327806 0.0010772179 0.003470532 0.0043244674 0.0043931752 -0.0022716331 -0.0039653056 0.0042807944 -0.001391913 -0.0027444342 -0.0023074464 -0.00052032823 0.00032107963 0.0018510646 0.0011730065 0.0027540412 -0.0012606311 -0.004453155 -0.0004982926 0.0020436153 -0.0020956993 -0.0004827133 0.0005592241 -0.00050616317 0.0035284276 -0.00040093614 -0.0031027456 0.003559433 -0.0047213593 -0.0017310104 3.8534276e-05 -0.0040873466 -0.002131465 -0.004807058 0.004230148 -0.0022458916 -0.0017060046 -0.004945812 -0.00047015544 0.0009954422 -0.0011349424 -0.004524293 -0.0041815047 -0.003003655 0.002543192 -0.0024650395 0.0037885285 0.00055026356 -0.000465962 -0.0034402215
其他 0.0012541382 0.0016522486 0.00038378965 -0.0030884594 0.0026646133 -0.00085642474 -0.0022210195 0.00048388567 -0.0015884859 -0.0016668338 -0.0020245446 -2.4609873e-05 -0.0005080759 -0.0037202896 -0.0013781 0.0027473776 -0.004709694 -0.00090469414 0.0039756973 0.0024828792 -0.0016532545 0.0007212268 -0.002268296 0.0020775239 0.004666245 -0.001401689 -0.0030355297 -0.003946227 -0.004054052 0.0030702848 0.0045017684 -0.0035294914 -0.004685546 -0.0016848698 -0.00048746628 0.0019707184 0.004967242 -0.000681921 -0.00406205 0.002374672 0.0040945304 -0.0018185936 -0.0005260416 -0.004448951 0.0006311961 0.0035595917 0.0020221497 0.0020901738 0.0046388204 -5.1293784e-05 -0.0025958584 0.0020234769 -0.0045963656 0.004827655 0.0010573425 -0.003028256 0.004480271 0.004761621 -0.0027632024 -0.004044246 0.004465133 -0.004732874 -0.0009718729 0.00074520655 -0.0015687555 0.00010833245 -0.0004659881 0.0049162977 -0.0037595443 0.0040673697 0.003456742 0.0021743737 0.003064755 0.0010180788 0.0048937947 -0.003989367 -0.0010242404 0.00014766975 0.00078166573 0.002334872 0.001358103 -0.0030717212 0.001440455 -0.003929491 0.0006684131 -0.0025840027 -0.0011614976 -0.0049022785 -0.0013857962 -0.004797323 0.0012773457 -0.0019044849 -0.0031797818 0.0034094774 -0.0036618202 -0.0038610513 -0.0025659415 0.0029348042 -0.0033212109 0.00031020967
没 0.004811953 0.0045219637 -0.0024222548 0.0017556457 -0.0014993096 0.0027200433 0.0020759962 0.002747475 -0.0050579603 0.00020931292 0.00096266135 -0.0033457594 0.0040452145 -0.0033764492 -0.003996502 -0.0049783722 0.0035466265 0.0045723557 -0.00076858065 0.0017486771 0.0030042108 0.002402411 0.0030409754 -0.0004566669 0.0030476307 0.003026847 -0.0042698616 0.0027545223 0.0020668204 0.0025816613 -0.004240857 0.004236964 -0.0032483907 0.0018135292 -0.0013427051 -0.00449156 0.0049927416 -0.0046658963 0.0007670178 -0.0026169503 0.0016271177 0.0022872395 0.003650833 -0.00085671426 -0.0013927637 0.003999764 -0.0012785827 0.004743362 0.004152047 0.00031950005 0.0049212263 -0.003760794 0.0030712741 -0.0017624042 0.0035006779 -0.004141229 -0.0048526744 -0.0024646982 -0.004143843 0.002494093 0.0027513837 -0.0038957507 0.0026216756 -0.0005819901 0.002232364 0.00020193835 0.0035714016 0.0012509411 0.0039951145 0.0015693204 -0.0014923586 -0.002983666 0.0028443846 0.004352651 0.00093269494 0.00031396802 -0.0009485378 -0.0036848774 0.002578516 0.0040790574 -0.001363155 0.0029894717 0.0030196342 -0.0013231329 -0.0037359186 -0.0018907264 0.002008985 0.0008747684 -0.0042037484 -0.0005330068 -0.0035439734 0.0047414294 0.0035623184 -0.002012615 -0.0024441916 -0.00020552495 -0.0021824655 -0.00042676335 0.004863186 -0.0007619768
幼儿园 -0.004403638 0.002660355 -0.0043097576 0.0029546884 0.004667667 0.0025438757 -0.003984898 -0.00041781014 0.00062766456 -0.0006654456 0.00089139515 -0.0032034633 -0.0011262385 -0.0012796337 -0.0003066555 0.0033082499 -0.0041155163 0.0025049997 -0.0002752553 0.00022968386 0.0034275204 -0.003030332 0.0028382475 0.004099544 0.004481338 0.003256429 -0.0039740317 -0.00322224 -0.004533699 -0.0020295733 -0.004469075 0.0029769163 0.0004885248 0.0015975632 -0.004216663 -0.0010331626 -0.0019819015 0.00063887716 0.0003929607 0.0006790151 -0.0016542567 0.004626497 -0.0003688355 0.004884926 -0.0046326057 0.0033739451 -0.0011415997 0.003396898 -0.0012143932 0.0025712461 0.0005173005 -0.002142002 -0.004819459 0.0013281489 -0.00031631495 -0.0013016531 0.0021265387 -0.0021832795 0.00074031285 -0.0026537322 -0.0029669332 -0.0027763895 0.0019136558 -0.0031240766 0.0014239909 -0.003955545 -0.0032043187 0.004649656 -0.0030108397 -0.0047494355 0.0010853665 3.967783e-05 -0.0024267754 0.0022832188 -0.004433171 -0.0044913865 0.0019212625 0.004338646 -0.00038120733 -0.0012977452 0.0045105256 0.0018684864 0.0029013895 0.0036602395 0.0046366304 -0.0017520475 0.0014509495 -0.002640237 0.00368008 -5.389023e-05 0.0020032448 -0.002961818 -0.0014755615 0.0040221736 -0.0047223195 0.0018660503 0.002102659 -0.00045308858 0.004427932 -0.004753953
晚上 0.0007449974 0.004773615 0.0040188166 0.0005683467 -0.003260562 0.004414312 -0.0028667985 -0.0037956296 0.0017578119 0.0024835549 -0.00040593927 0.0007249048 -0.0010869886 0.00060932076 0.0033217536 -0.00496743 0.004929431 -0.0042312583 0.0033923555 0.00256019 -0.00046929796 -0.003717724 -0.004345971 -0.0019297169 -0.0014531459 -0.004172259 -0.0034358667 0.0015560217 0.00044439352 -0.00014778423 -0.0036091413 0.0014178152 -0.0017099037 0.0036201735 -5.456875e-05 0.0019594054 0.004157921 -0.0019494491 0.0020796715 0.0041398504 5.1084724e-05 0.003051896 0.0048337965 -0.0013936562 0.0031940783 -0.0041374015 0.0001534754 -0.004341969 0.004111146 -0.0011990622 -0.0048315595 0.004834375 0.004626597 -0.0037241997 -0.002338781 0.0034767052 0.004074518 -0.0011848637 0.0038748202 0.00063730153 -0.0019527562 -0.0029090957 0.0013393762 -0.0018921646 0.0010209783 0.003800171 -0.002507737 0.0036176331 0.0027971405 -0.0018712304 -0.00070927886 0.0027625414 0.0008709653 -0.003529796 -0.0036919904 -0.0016703397 -0.00053447497 0.00058428553 -0.0033944878 -0.003878828 -0.0014931293 -0.0032725262 -2.9069719e-05 -0.0038597276 -0.0008940831 0.0029939893 0.0025205004 0.0044211787 0.00020892502 0.0021773318 -0.001355093 0.00080442685 0.0012256526 0.0035941165 -0.0027564988 -0.0039636833 0.0006298663 -0.0015426801 0.0032456133 -0.0013882744
当天 -0.0047453046 0.0022851792 -0.0040036864 -0.00015703215 -0.004629022 -0.00034465428 0.00374339 4.26081e-05 -0.0030754039 0.0015421503 -0.003282576 0.00018477459 0.0006077995 -0.0013389691 0.0025004263 0.0044767405 -0.0010986296 0.0004866815 -0.002344012 -0.002252879 -0.004018793 -0.0049346676 -0.0024153604 0.0028901626 -0.0013663837 -0.001255084 0.0010367968 -0.000105488216 -0.003628105 -0.0049034175 -0.0012920398 -0.0008256756 0.00080901396 -5.1777413e-05 -0.0040231203 0.0042168074 -0.0014990055 0.0030267397 -0.004805282 0.0050123543 0.0019663777 -0.0026165196 0.0022344284 0.0014154568 -0.0022022184 0.00353213 -0.0025805058 -0.0041919593 0.0039019315 -0.0014295103 0.004234908 -0.0016559033 -0.0009961528 0.00498576 0.0025522683 -0.003771593 -0.0015390541 0.0018498461 0.0022683595 -0.0011464489 0.004633425 -0.004818529 -0.0017541252 -0.0023937651 -0.00089955307 0.0042541004 -0.0017767313 0.0036114417 -4.195269e-05 0.0029833948 -0.00216072 -0.00029870676 0.003330974 -0.0026146697 0.004811383 0.0041254577 0.0010004119 0.0043237447 -0.0027226247 -0.0036438263 0.00073276914 0.00078373734 -0.0023163175 0.0010393729 0.004818331 0.0021746801 -0.0037814414 -0.0014755204 -0.0009859859 0.0025788276 -0.0021717655 -4.8867014e-06 -0.0031566883 0.0016356249 0.000955754 -0.0024472533 0.0021488506 -0.005011577 -0.0034273618 0.0038671019
是不是 -0.0016628118 0.0011200812 0.0014408843 -0.002967214 -0.001292326 -0.002402729 -0.00096342614 9.338354e-05 -0.004156358 0.002892346 -0.002633906 0.0016503163 -0.002537276 0.0020011265 -0.0038069747 0.0036437516 1.9840085e-05 0.0007460691 -0.0010856115 0.0030174353 0.0018748116 0.003170204 0.001289498 -0.00014961699 0.0047813267 0.0026135123 0.00040497468 -0.0036843512 -0.0028076002 0.0010906648 -0.0016130424 0.00071861595 0.0034603183 -0.0044819466 0.0030445093 0.0045055975 -0.001501123 -0.002817067 -0.00024727968 -0.0039498587 -0.0009297555 6.384103e-05 -0.004728426 0.0035102617 -0.0049255 -0.001471563 0.000105005005 0.004732742 9.011614e-05 0.0021285813 0.0029003888 0.0006571938 -8.46502e-05 0.0036166362 0.003805741 -0.0016382682 -0.0007712652 -0.003114928 0.000410857 0.0030042843 -0.0042380663 0.0035715485 0.0042177765 -0.0046964404 0.0024167586 0.0006002866 0.0032376784 0.0008574738 -0.004438235 -0.0006287545 -0.0005496396 0.0032495777 -0.0005020467 0.00023114956 0.0025550453 -0.0009396021 0.0005056548 0.00029120265 0.00028338353 0.0005796377 -0.0021428533 0.0014082254 0.0035444458 -0.0007366592 0.0017251904 0.0010016819 -0.0019116969 0.001061754 0.0021148578 -0.0036766934 -0.0025567354 -0.003953813 0.0046426835 0.0046324735 0.0025566418 -0.0021515538 -0.0017182588 0.000216449 0.0038252813 -0.0018285651
早上 0.002109135 0.0022661728 0.0033288267 -0.004355556 -0.0035013217 -0.0038984704 -0.0042730332 0.0030329016 0.0028740792 -0.0015917214 0.0016254248 0.0021836376 0.0021274416 -0.0035707396 0.004971878 0.004464048 -0.0006627064 -0.0027290694 -0.0033957942 -0.0032181197 0.00075319206 0.0037377528 -0.0048174504 0.0007063297 0.00020677061 -0.0019070536 0.0018093584 0.0023549884 -0.0015807984 0.0029822483 -0.002723776 -0.002670489 -0.0028187498 0.0020496775 0.0020125369 0.0006191878 -0.0033391777 0.0032325636 2.4002386e-05 0.0006831668 0.0013230566 -0.0035527027 -0.0029412608 0.0019692718 -0.0021427132 0.0035757318 0.0048198686 0.0026201303 0.0042883414 0.0041287183 -0.0049607446 0.0011860479 0.0019013847 0.0017142044 0.0030470076 0.0017334273 0.00031363746 -0.0018504731 0.00419656 -0.0033467056 0.0018512321 0.003006855 -0.0039535486 -0.0007273712 0.004777854 0.0030532936 -0.0029757388 -0.0047617895 0.0023499427 -0.004691689 0.0032829028 -0.0027210405 0.0021567855 -0.0046404344 -0.0006080636 0.0047745495 -0.0010545361 -0.0037350014 0.0006248648 0.0016956565 0.00058420765 -0.004491339 -0.0043848194 -0.001887887 0.0006903544 -0.0014359505 0.0018603852 -0.0010906252 0.00082345045 -0.0006620236 0.004814426 0.0017044229 -0.00054248184 -0.0028655475 0.0020254182 0.003757348 0.0039779153 0.0029268842 0.0038285966 -0.004856229
一直 -0.004885829 0.002519983 -0.0007882669 0.00045040456 0.0008230706 0.0020173087 0.0030820984 -0.0025920216 -0.0043531545 0.0014985625 -0.0019420288 -0.0032510986 0.0004858379 0.0014115403 -0.004824377 -0.0047961734 -0.001837138 -0.0018597583 0.004940887 0.0015425275 -0.000905834 0.0038996034 -0.0005875735 -0.0013312359 0.0034201182 -0.0036834008 -0.0007636039 -0.0042121573 0.0031764165 -0.0042910604 -0.003511633 0.0039050097 0.0011333716 -0.0023922033 0.0039052283 0.0031096872 -0.0029176292 -0.002378823 0.0010212801 -0.001772103 0.000582969 -0.0042128908 0.0022418872 -0.0015503006 0.0048021963 -0.0046352884 -0.00024080768 -0.00029482652 -0.00045332685 0.002099437 0.0038497192 0.0012291482 -0.0026599844 0.0005584707 0.002913868 -0.0026150586 0.0020385236 0.000733593 -0.003470523 -0.004593889 -0.0011548252 -0.0006369834 0.0012524135 -0.0006956886 -0.0041832565 -0.0044139856 -0.0006680201 0.0026334815 -0.0022830772 0.0031337787 -0.0035332816 0.0029117032 0.0031506652 0.0012436217 -0.0007437316 0.004038194 2.2271055e-05 0.0041886633 -0.0011665927 0.0012845935 -0.0020733569 -0.0023191199 0.00052526046 -0.0009046002 -0.0027778607 -0.0026786763 0.0045724143 0.0034569642 0.0033262419 0.0047053196 0.002480596 -0.00015483378 0.0033055702 0.0048832027 -0.0035793167 0.0040058107 -0.002735883 -0.0015051191 -0.0028813262 -0.0028680316
就是 -0.00071878196 0.0037668506 0.003291616 0.0044485587 -0.00021608306 -0.00012148421 -0.0047354256 0.003427641 0.0042207986 -0.003185701 -0.004930696 0.0041186293 0.0031799574 0.0004074783 -0.0031563968 -0.0014841444 -0.0011436066 0.003768861 -0.0019875644 -6.208155e-05 -0.002774861 0.0013394821 -0.0029248984 0.0022216416 0.001549467 0.0033798595 -0.00025184907 0.0019974657 0.0039318325 -0.0048209685 0.0016281159 -0.004658659 -0.003830019 -0.0010898759 -0.0044930703 0.0010645706 -0.001970977 0.00039893313 0.0041767517 0.0034809513 -0.001959149 0.0038959878 -0.00047303684 0.0042026476 0.0022743996 -0.004964519 0.0015399538 0.000111700356 0.000388151 -0.0018914781 -0.0033438343 0.0029774169 -0.0003139091 9.076701e-05 0.0018519238 -0.0026602962 -0.00036481905 0.0035839432 -0.0035654411 0.0026869534 -0.0022937881 -0.0031225223 -0.0008083816 -0.00057044177 0.00044434666 0.0042606066 -0.00056668377 0.0021065993 -0.0038053293 -0.00079498393 0.00012721335 -0.0038564121 -7.190086e-05 0.00043516996 0.0016825955 0.0006284011 -0.004219402 -0.00023330469 0.0010560155 0.0001101453 -0.0032127416 0.0020899253 0.0045866803 -0.0031100956 0.0045939614 -0.0006973103 0.0027464193 -0.0038302941 0.0023344764 0.003181926 -0.0045536673 0.0016606888 0.0049413666 -0.0035627796 0.0037332245 0.0019793035 0.0016107415 0.0019315712 -0.0037837513 -0.0026231345
全吐 -0.003840846 0.0042847726 -0.0030252654 -0.0021803866 0.0007892124 0.0036831975 -0.0028274755 -0.0043856404 -0.001986173 0.0028512168 0.0046930383 0.00048383293 0.00015332086 0.0045894496 -0.0017513618 -0.00044118238 0.004525219 0.004621306 -0.003960867 -0.0008251891 -0.0010836346 -0.004777199 0.0033003616 0.004284109 0.0012999424 0.00415527 0.0005980497 -0.0013553903 -0.002691081 -0.0029257245 -0.0033767729 -0.003944487 0.00022913024 0.002471804 9.361559e-05 -0.004531076 0.00066258205 -0.0031090868 -0.0017761245 -0.0036643818 0.0016389699 -0.0045422926 -0.0002591164 -0.0028823002 0.0015890219 0.00019266667 0.0048930915 0.001692838 0.0048673316 -0.00017166056 -0.0044080834 0.0045202663 0.0020032714 0.0021363972 0.0032631634 -0.004433236 -0.0038260047 0.0035699366 0.0025337131 0.0024306166 -0.0010898092 -0.003902162 0.0038341412 -0.0045961747 -0.0044070818 0.0024162114 -0.003941059 -0.00018543602 -0.0023859313 0.004056695 -0.0018227375 0.0038338182 0.0048811664 0.0012304413 -0.0034236878 0.0026967959 -0.0008141597 0.00040883094 0.0039872285 -0.0038830633 -0.0030936608 -0.0003785782 -0.002699531 -0.0014342873 -0.0040322347 -0.003143339 0.0029930968 -8.062768e-06 -0.0039031818 -0.004453956 0.0010158332 -0.000878092 -0.0041430374 -0.0016274095 0.0040567857 -0.0010719574 -0.0044258637 -0.004375487 -0.0022791217 0.0011348234
下午 0.0047554974 0.0031306276 0.0005091259 -0.00039254807 -0.004380377 0.0029154576 0.0034767524 -0.0049711308 0.0014163636 -0.0023568026 0.0012376624 0.0008707718 0.0021405397 -0.0024409404 0.0011416851 -0.0006295845 -0.0016780244 0.0025161202 0.0008674938 0.0030392357 -0.0027227064 -0.00029852174 -0.0028775032 0.0003642691 -0.0020498107 -0.00069222285 0.0017807427 -0.0030876298 0.0027988502 0.0003734792 0.000999422 -0.0021237035 -0.0026941628 -0.00030405677 -0.00104195 -0.003700511 0.0001740206 -0.0011389856 0.0039442186 -0.0016688412 0.0010891884 -0.0022131277 0.00069535576 -0.004346555 -0.004727452 0.0030329586 -0.0014170457 -0.003080201 -0.0031627875 -0.0018779201 -0.0049393396 -0.004557193 0.00029895912 0.0016592095 0.004575971 0.0035179232 0.0048604673 0.0019974192 -0.0023960588 0.0025336754 -0.0022335267 0.0023735175 -0.001426892 0.0017908821 -0.0030883255 -5.826367e-05 -0.0031686665 -0.0044348375 -0.0018075475 0.0015382549 0.002812275 -0.001752052 -0.00025326392 0.00096427486 0.004152069 -0.003941696 0.0031455564 -0.0033702338 0.0033624263 0.0034139438 -0.0014094992 -0.0035652067 -0.0024471325 -0.0025058351 0.0015156738 0.004430329 -0.004614386 -0.00461001 -0.004569259 0.0024838496 0.0014859792 -0.003801569 -0.0010168361 -0.0014054297 -0.0037360035 0.004957798 0.0007413852 0.003273685 -0.00019252919 -0.0033064357
然后 0.0031613482 -0.005009786 -0.0005374677 0.003234781 0.0040253834 -0.000124157 0.00015850768 0.00049332273 -0.0021815812 -0.0031141248 -0.0011647943 0.002915507 0.0014737992 0.00048541516 -0.003959051 0.0028972279 0.0020047007 0.0023588587 0.00053771667 -0.0012514399 -0.0031440104 -0.004873871 0.0023290087 -0.0015049207 0.003844979 0.00017269995 -0.00010350208 -0.0043144585 -0.0006128169 -0.0027374728 -0.004295873 -0.0032267699 -0.0034407715 -0.0008015478 -0.0036192182 0.00039794316 -0.0012746332 -0.0017096016 0.0021370375 0.0049317977 0.0008725294 -0.00149277 0.0030750495 0.0017359913 -0.00087681354 -0.0027015759 -0.0024493511 0.001671472 -0.00427495 -0.003147516 -0.0032866036 -0.0031657326 0.0021795859 -0.001101377 0.002776132 -0.00029268165 0.00012397718 0.0038456465 -0.0024545966 -0.0035090782 0.0034455108 9.4238836e-05 0.0031844182 0.0025094615 -0.0013504935 0.00032532628 0.0025495375 -0.0031356483 -0.0021454503 -0.0020999264 0.0011441419 -0.0038581318 -0.00085132173 -0.003929473 -0.00083987863 -0.0047768895 -0.0017193276 -0.003468713 0.00058640103 -0.0029347523 0.0009077455 0.004969801 -0.00096567994 0.0008691292 -0.0022213997 0.004293918 -0.002064423 1.0529048e-05 -0.0046980856 0.0012700991 -0.004744369 0.0019991808 0.0036667218 0.0036234546 0.004508558 0.0009936631 0.0018342184 0.00023254698 0.0004515326 0.0032026696
她 -0.004196756 -0.00016644846 0.004290667 -0.0041515348 -0.00041218457 -0.0043462403 0.0019876903 -0.00034852978 0.0010922806 -0.0018808258 0.0020287468 -0.001593876 -0.00091001723 -0.0045366213 0.0047150776 0.0005605461 -0.0043766424 0.0041146707 0.0006743333 0.0034744255 -0.0035186384 2.9452014e-05 -0.0022207592 0.0026837748 0.0010184014 0.0018601343 0.0017918259 0.0010748956 0.004310814 0.004946265 0.0022635732 -0.0008544469 -0.004792592 -0.003971721 -0.00021729428 0.0037203133 0.00025252916 -5.9503956e-05 -0.0013513876 -0.0025763921 0.0024218424 0.003472998 -0.002230439 0.00074708747 0.0024343005 0.0042853425 -0.0020970614 0.00037656206 0.004036022 -0.0024781711 -0.0034784498 -0.0011217287 -0.003868301 -0.0030555287 -0.0012511655 0.00174032 0.0026947116 -0.0023302718 -0.0011460959 0.00135253 -0.0048750085 0.0037640622 -0.0023788805 -0.0026448106 -0.0012202212 0.003231772 -0.0005398771 0.0020628802 0.0023488353 0.003132406 0.0049034813 -0.0030403903 0.0024150456 0.00091993116 -0.0019675945 -0.00031389022 -0.0003534392 0.00309686 -0.003782625 -0.00028411308 -0.0044164862 -0.004385407 0.0049404968 -0.0016097174 -7.041911e-05 -0.0049036234 0.004861274 0.0022100753 0.0020108055 -0.002784077 -0.0021521128 -0.0030258188 0.0038344765 0.003473304 0.002122243 -0.0015449536 0.00031210727 -0.0017265131 -0.0002447326 0.0008573816
发现 -0.0045172847 0.00039770137 -0.003392582 -0.0012768677 -0.0007000504 -0.0006150668 -0.0036992233 0.002079428 -0.0037562263 0.00029106697 0.004164343 -0.0029681816 -0.00050063484 0.0018110862 -0.0029803405 0.002124863 -0.0016587843 0.0008414806 0.0043315124 -0.004465404 0.00433252 -0.0042267344 0.0040962943 0.0012823371 -0.0005552773 -0.0017165478 0.0042443974 -0.001730806 -0.004223355 -0.0038213723 0.0014617314 -0.004789706 -0.0009226503 0.0006404925 -0.002767603 -0.0012615857 0.0019929882 -0.004309593 -0.00043671305 -0.004738715 0.00412521 -0.004075958 0.0023089992 -0.0036426291 0.0027552228 0.004111664 -0.00083296216 0.0006492224 0.00033885072 -8.094517e-06 -0.0027070183 -0.0013631252 -0.0033080066 -0.0028176457 0.00019545046 0.0041740574 0.0006714355 0.0032878148 0.000279983 -0.002124147 6.833404e-05 0.003227292 0.0029514714 -0.0024396412 0.004472898 0.0035282872 0.0038527665 0.0049083414 -0.004686441 0.003061891 -0.0019383337 -0.003974617 0.0019393874 0.0034197085 0.0025027043 -0.004148954 -0.0031686048 0.0042556934 0.0001863173 -0.0040366766 -0.0043790396 -0.0027320161 0.00063069916 0.004701042 -0.00036857417 0.0047097094 -0.0047432384 -0.0003706777 0.004073813 0.00196221 -0.0004812673 -0.0008485893 -0.00038500153 -0.0025012677 -0.0016234748 -0.0016538944 0.0039261114 -0.0042528366 0.0046356535 0.0049304757
白细胞 -0.00019442882 0.0042086868 -0.0027303428 0.004202819 -5.1310803e-05 -0.0028460398 -0.0014914735 0.003466353 0.004351061 -0.002472954 0.00024089337 -0.0009989025 -0.0016369988 0.003038313 -0.0012859141 -0.0046573645 2.2827828e-05 -0.0020225786 -0.0019308166 0.00073796953 -0.0031735478 -0.0007428607 -0.001977125 0.0045174053 0.0009111066 -0.004426243 0.0045292955 -0.0013510503 -0.0011778096 -0.0047507216 0.00033147534 0.004305512 -0.0043752464 -0.0012267185 -0.004032609 0.0034208605 0.0040900833 -0.0027433394 9.5173666e-05 -0.003423196 -0.00026782718 -0.001805685 -0.0031545174 0.0012468202 -0.0025735039 0.00051652925 -5.3577493e-05 -0.004982457 -0.001322214 7.471888e-05 0.0039540674 -0.0045668683 -0.00015587435 0.0029488427 0.0048277057 -0.0022956582 0.0035278858 0.0029639476 -0.00038566557 -0.0045121405 0.0031520128 -0.0025193375 0.0008478407 -0.00053557847 -0.0031604804 0.003479741 -0.0018992288 0.0012426826 0.0023893977 -0.002809548 -0.0005718268 0.0015461073 -0.0031195187 -0.001033199 0.0046245046 0.003908553 -0.0007450666 0.0035825293 0.002036397 -0.00062400056 -0.003738352 0.003552598 -0.0014340179 0.004258616 -0.0029720461 -0.0010270665 -0.002414269 0.0040801056 -0.0024833046 -0.0024214394 0.0010867052 -0.0013139965 0.002085082 -0.0048350585 -0.0030964655 0.004441498 0.00035356675 -0.0023452397 0.0035483774 -0.0028965631
感染 -0.0034664914 -0.00093173445 -0.001944732 -0.004883609 0.0022656345 0.0026509764 -0.0033603674 0.0007333143 -0.0045332164 -0.00054101297 0.0019946182 0.0033254195 0.0028272343 0.0033304463 0.0043085776 1.5695068e-05 -0.0008170576 0.0026373428 0.003002092 0.0040933397 -0.0014209166 0.0029342987 -0.0014307762 -0.0013562259 0.00081142434 -0.0003923069 -0.002006674 -0.000787178 -0.0028637855 -0.0039772596 0.004385287 0.0034951281 -0.0049526077 -0.0032721679 -2.484331e-05 0.0014614261 0.0028680016 0.0016422714 -0.00025693202 0.0048759654 0.0030100166 0.0017031139 -0.0041329376 0.001581287 -0.002408516 0.003136422 -0.00454766 -0.0014001599 0.0011185064 0.0012779474 0.0048568677 0.00044482326 0.0044907546 -0.0034324976 -0.00371489 -0.0020858108 -0.0012681542 -0.0027302294 0.00423187 -0.0015255808 -0.0015334922 -0.0014091246 0.00035415502 -0.0037033665 0.00018448781 -0.0010718605 -8.1968225e-05 -0.0032593198 -0.004912122 0.0026134283 0.0034104655 0.0017714192 0.0023941137 -0.004851974 0.0020634623 0.0027570068 -0.0032022516 0.004001217 0.003121406 0.0006357531 -0.002116648 -0.0014385129 0.00020047117 0.0021302882 -0.003342453 -0.0025253042 -0.0010134712 0.0041416744 0.0011882468 0.00037023713 -0.004264082 0.0015028502 0.002591733 0.00029052392 -0.001664449 -5.0594095e-05 0.0046495497 0.0008452821 0.0047144694 -0.0017772401
咽炎 0.004885941 0.00022553523 0.0025879596 -0.0046801385 -0.004879933 0.0041319686 -0.003080873 0.0046369373 0.002238665 0.0047361865 -0.0034939353 0.0011361459 -0.004809872 -0.00401787 0.0029083774 -0.003940955 0.0047778087 0.0040239096 0.0036886467 -0.0018393595 -0.0005157764 -0.004071591 -0.000629935 0.0032350342 -0.0037374222 -0.003469768 0.0041004894 0.0043020328 0.003161977 0.0016917663 0.0038762386 0.0037366687 0.0010322368 -0.002907955 -0.0027615486 -0.0021539638 0.0021206315 0.000104400584 -0.004301416 0.0010624822 -0.003489163 -0.0024113283 -0.0035572273 -0.0030352757 0.0020677259 -0.0019235082 0.0005079599 -0.0018328574 0.00040694073 -0.003517888 -0.002321784 0.0011471433 0.0014639276 -0.003896265 0.004931916 0.0017138027 -0.0028867223 -0.0019515009 -5.1173618e-05 -0.0048090927 -0.0008255778 -0.0019673996 0.004574882 0.004829654 -0.0008223009 -0.0016503852 -0.0029103793 0.0038947004 0.0014748987 -0.0012325469 0.0016485442 0.0023571958 0.0018176937 0.0006332468 -0.0027029917 0.0034429643 -0.0023988343 -0.0013604482 0.00038357923 -0.0037138911 0.0016135981 -0.0015201449 -0.0023350134 -0.0020305954 -3.0799423e-05 -0.0035546485 0.0033725484 -0.0012336097 -0.00498981 -0.0026744218 -0.0024406642 0.0024240736 -0.002042192 0.002907997 -0.00022312975 -0.0038683957 0.0035685897 -0.0026170723 0.0010971765 -0.0020721676
杨 0.0016591508 -0.0002849654 -0.00017426789 -0.004525579 -0.0007784322 0.0013912655 0.0032428242 0.0041828877 -0.0008212524 0.003358965 0.003017636 0.0005282309 0.0013447814 -0.003928963 0.0025335469 0.0010123246 0.0016222504 -0.0003553043 -0.0011593334 -0.00038747056 0.00056269683 -0.0029144436 0.0036398692 -0.00061096455 0.0048125023 -0.0018026526 0.0027208868 0.00038103384 0.0020633896 -0.001052112 0.003970205 -0.0014716149 0.0025364403 0.0036012784 0.0031440654 0.0005306339 0.0020477166 0.0029878442 0.00260035 0.0040661604 0.00277221 0.00030361087 0.003965282 0.0034849208 0.0014204646 0.0011053816 -0.0032483358 0.0043354505 -0.00020102317 -0.0021380465 0.0039463183 0.004969145 -0.0029198716 -0.0031775895 -0.0003331326 -0.0030065414 0.0033092003 -0.0011655254 -0.0036924724 -0.0038513774 -0.0003693183 0.0011973208 0.0020683773 -1.2212126e-05 0.0009917053 -0.0036418953 0.003161957 -0.004179016 0.0029325143 0.0049958164 -0.0010579508 -0.0037937388 -0.0011435559 0.002169468 0.0033871685 0.0027280864 -0.0014466277 0.004538604 0.004301791 0.0012653503 0.002104133 0.0007811445 -0.0041367104 0.0037730373 -0.0014147682 0.0044258595 -0.0021283024 -0.0018557857 0.0019371099 0.0014210984 -0.0013409778 0.0026342333 0.0034344592 -0.003267403 0.003514642 0.0016007809 0.002271464 0.0006699193 -0.004534515 0.0011219895
