301 100
了 0.0029047518 -0.0025402098 0.003162373 0.0042003766 -0.00315057 -0.004964634 -0.0030549774 -0.0003260406 -0.0012805192 0.002991618 -0.00038553393 -0.0020651766 -0.002500375 -0.0007685501 -0.0040102936 0.0025244174 -0.0043049753 -0.003727353 -0.0022469524 -0.00074630557 -0.0017018233 -0.003646022 -0.002921422 -0.0003638718 0.002465338 0.0031362849 0.0003836582 -0.0016208808 -0.0037266917 0.0024222648 -0.0009599713 -0.0013658173 0.0042441357 0.004901393 0.0027524205 0.0022349944 -0.0041462784 0.004754338 -0.0029661753 -7.205381e-05 -5.6790454e-06 -0.001307718 0.004868751 -0.001214787 0.0033036298 -0.001982177 -0.0031941475 0.0027835455 0.0037356934 0.0048885634 -0.00083751004 0.00443971 -0.00057149195 -0.003948527 -0.0025020095 0.0022063302 -0.0019401371 0.00087882625 -0.0047785216 0.0016150802 0.0029468248 0.002972259 0.00084935705 0.002590542 -0.00067531853 0.0022798977 0.0003601494 -0.0031909284 -0.0046626977 -0.0045234784 0.0026906629 0.0046183774 0.0049303267 -0.0022621783 0.0020504126 -0.0018499037 -0.0028953897 0.0034934657 0.004111871 0.0043291855 -0.0047839736 -0.0016173744 0.0029315336 -0.0031910962 0.0012391608 -0.0034163152 -0.003951284 -0.003046941 -0.0034177504 0.0030295686 -0.0049065677 0.0018139792 -0.000881906 -0.00399064 0.0029785712 0.0032763074 0.0020273356 0.0040600407 0.004918312 -0.0024516282
的 0.0037595318 -0.00023076688 0.0038217045 -0.0037677898 -0.0028588104 -0.0016328061 -0.00011201209 0.004316714 0.0029483957 -0.0007303369 0.004116832 -0.00083463243 0.003378416 -0.0020985676 0.0005555809 -0.0045754365 0.0012905154 0.0049552973 0.0026607467 -0.0038937903 -0.0016689878 0.002316705 -0.00024496598 0.002523471 -0.0021807577 0.00018487143 -0.004062274 0.0030846011 0.0034883693 0.0043297866 -0.00023950048 -0.0013918856 0.0016087536 -0.00046436873 0.0032467344 0.002209944 -0.0024546038 -0.0012114217 0.0035068423 0.0011193723 0.0033717493 0.0007970549 -0.003482592 -0.0040018978 0.0029299057 0.00027715493 0.001369322 -0.00097638107 -0.0011304147 -0.0026337216 -0.0034320385 -0.0012959725 -0.0014700501 -0.0015803283 0.0036378691 0.0031153862 -0.0012888154 -0.003886557 0.0032928048 -0.0026406199 0.003784664 -0.002985046 0.0020394379 0.0042425795 -0.004308116 0.001700308 0.00067292445 0.0014681139 0.004103126 -0.00053016306 0.0034283267 -0.0033626533 0.00054514495 0.00015466979 -0.0026322287 0.0027422728 0.00051685766 0.00035297472 0.0003963408 -0.003109255 0.0042000683 -0.0012044715 0.0033815887 0.0003994915 0.0020057813 -0.00097344845 0.0048436886 -0.0015988172 0.00493923 -0.0016403006 -0.0033626205 -0.0010558161 -0.00064512785 0.00036309074 -0.00017533974 -0.0025025979 -0.0020157786 -0.0007422665 0.004210745 0.0043082023
去 0.0049387943 -0.0021751688 0.0036704496 0.0024186773 -0.0035017629 -0.004446124 -0.004948826 -0.0028527798 0.002410567 -0.00010592703 -0.0028463332 -0.0046349494 0.003380531 5.5049124e-05 0.004442895 0.00011937475 -0.00067038246 -0.00051969616 -0.0019773338 0.0045616794 -0.0033506984 0.0020259237 0.0013477386 -0.0035830457 0.004512867 0.00023028246 0.0002389188 0.0021099793 0.001532169 -0.0038206165 -0.0013781807 0.0016243526 0.0045720395 -0.00028303848 0.0033653316 0.00196175 0.00030004777 -0.000576357 -0.0041085663 -0.00080331764 -0.004471807 0.00031452443 -0.003805362 0.0018749264 0.0036092654 -0.004133802 -0.0016443825 0.004937172 0.0037130886 -0.0036336354 -0.0028221407 -9.64841e-05 -0.003989697 0.00052211893 0.0027258191 -0.0023413077 0.001193039 -0.0015333039 -0.004219806 -0.0046940795 -0.0037625206 0.0028982086 0.0025698328 0.0047291443 -0.0032587294 -0.0048694015 0.0015310486 0.0040266924 0.00076944404 0.0005378436 0.003404838 0.0014460582 0.0023685885 0.0006845791 -0.0024174333 0.003887359 0.0013630587 -0.0041634366 -0.0022158332 -0.0034924687 0.0026888936 -0.001156751 0.0035992246 0.0009154286 -0.0038967712 -0.0040353145 0.0032556113 0.003737733 -0.0021867766 -0.0009436328 -0.002861843 0.0016581727 0.0046307663 0.0004168261 -0.0013866754 0.0030683582 -0.00084326754 -2.3676961e-05 -0.0023118854 -0.0005142922
号 -0.0004452706 -0.002916232 -0.0037029742 0.00045924255 -0.0046095112 0.0027367251 -0.004203492 -0.0005240009 0.0028351888 -0.002214878 -0.0011626541 -0.000378565 -0.0027906199 -0.0020527667 -0.004539498 0.0047990093 -0.00062324014 0.0034158519 -0.003448966 0.0006606559 0.0007515635 0.0017087427 0.0008294288 0.0048175165 -0.0034314354 0.004756845 -0.001215736 -0.0039013564 -0.0047706603 0.0008969513 -0.0022364121 0.0045073233 -0.0039743255 0.0021777474 -0.002414981 0.0041200956 0.00035564683 -0.0005688328 0.004762253 -0.000454783 -0.004426546 0.0024909084 0.0005857504 -0.00428529 -0.0037375356 -0.0023426935 0.00044860886 0.0004640259 -7.624277e-05 0.0010761565 0.002111992 -0.0035622087 -0.0043675215 -0.00093494816 -0.0010810057 0.0022411058 -0.0014485806 0.005050123 -0.001300193 0.00066381646 -0.00013760406 -0.0022338263 -0.0026199473 0.0022475547 -0.0030456968 0.0028677187 0.0007118938 -0.004339562 0.004648759 -0.0048447037 0.0036188306 0.0012259022 0.0014506839 -0.004173083 0.0018244174 -0.004827566 -0.0041873963 -0.0042202678 -0.0047441763 0.0014635733 0.0005620366 -0.0018033867 0.003872714 0.0026533522 -0.004159755 -0.00066932885 0.0045464537 0.002724946 0.00094251195 -0.00446184 0.004362343 -8.359743e-05 -0.0045414777 0.004564001 0.004647838 0.0046874355 0.0025079148 -0.0017353705 -0.0037953816 -0.00042065524
挂 0.0045310487 -0.0023765913 0.0011266829 -0.002446299 0.0045069545 -0.0018264072 -0.003686771 0.0002378185 -0.0029866644 -0.003915963 -0.002309754 0.0042140586 0.003330878 -0.0005561744 -0.0023682257 0.0020667901 -0.0034654208 0.0018624102 -0.00043120718 -0.0004604861 0.0039889556 0.0028767195 0.004321994 0.0031011766 -0.0014135059 0.0013618477 0.000905 0.00021787234 0.0039519263 0.00030239916 0.0040598987 0.0027410223 -0.00412417 0.0008649803 -0.0031709739 0.0020689173 0.0005119967 -0.00045495958 -0.004235866 -8.179125e-05 -0.004748959 -0.0034144588 0.0024946192 0.0023012655 0.0024290686 0.0022149372 0.0014275925 9.2836475e-05 -0.0046591223 0.0031818992 -0.0031019077 0.0050326376 -0.0033831897 -0.0046540997 -0.0043587047 -0.003750135 -0.0014970682 -0.0046340968 -0.00053682446 2.7621127e-05 -0.001326968 0.0023595917 -0.0042573125 0.00093877275 0.0017962878 -0.002990777 -0.0036855517 0.0044603874 0.0009713115 0.0028612278 0.00037389557 -0.003685129 0.0006264085 -0.003931987 -0.0033905494 -0.0017137 -0.00014649714 0.00015621139 0.0013357693 -0.0010661806 -0.0016946687 -0.0039936774 0.0033442557 -0.0043289866 0.0038405077 -0.0035633293 0.0035198568 -0.0036544495 -0.00352032 -0.004155333 0.001361784 0.00012434371 -0.0026048233 -0.00024066064 0.0021161337 -0.00352395 0.0009232682 -0.0024924371 0.0041916603 0.0037222414
是 0.00014912993 0.00140153 -0.0027235276 -0.0012216979 0.0040990845 -0.0046266937 -0.004601752 0.004440464 -0.0026035828 -0.0047289305 0.0044617616 -0.0021883333 0.0029651637 0.0028726873 0.0015624377 -0.0035269612 0.0028525717 6.3516916e-07 0.0011569746 -0.0027888212 0.0027951347 0.0006780245 -0.0018773533 -0.0024047443 0.00070963165 0.0033871625 0.00038041454 0.00077735283 -0.00085344986 0.0031010425 -0.0026410685 0.00051220215 -0.0020952849 0.0025350747 -0.003111419 0.0049645114 0.0011368701 0.000981415 -0.004794749 -0.0038538512 -0.0040356736 -0.0024368844 0.0050427956 -0.0021318581 0.0017693944 0.0010270223 0.0027018904 0.00439257 0.0029953828 0.003327737 0.0045254035 0.0042767576 -0.0038422742 0.0034893563 0.0044756117 -0.0041981633 -0.0012156371 0.004506673 0.0012622352 0.0009852274 -0.00084708 -0.0039051552 0.001769965 0.0022847995 -0.0024552154 -0.000867026 -0.0033391067 0.0044124024 0.0019653365 0.0050265207 0.00037587457 -0.00060429214 -0.0030988762 -0.0024569812 -0.0043078507 -0.002659117 0.0028066544 -0.00050294626 0.004566702 0.0039818906 0.0018983048 0.0024487448 -0.0020901659 -0.00432885 -0.0010941012 -0.001344318 -0.00080848456 -0.0045953193 0.0020013656 0.0017860141 -0.0030281448 0.0040047388 -0.0047892914 -0.00049017416 0.001428867 -0.0030539334 -0.0026628727 -0.0033007446 0.0011166866 0.004773532
有 -0.00026840178 -0.0020766726 -0.0041118716 0.00016584777 0.0021108803 0.00068924204 -0.0026456283 0.0011711359 -0.0017877623 0.0046135546 0.004385876 0.0025180033 0.0025057956 0.0011245012 0.0028034854 -0.00015282974 -0.0030442816 0.0042737033 0.0037703987 0.0044235177 0.0019225994 0.0024868976 -0.0013277644 -0.00037408667 0.00017061611 -0.00075127813 0.0006570934 -0.0014591151 0.0019576752 0.0024263703 -0.0034795592 0.0044573736 0.0023511674 -0.0027276636 -0.001604269 0.001229847 -0.0022257387 -0.0036824283 -0.0010116589 0.0012439414 -0.0031094116 -0.0029210672 0.00017006847 0.004784724 0.00015811523 -0.0026906573 -0.0046036383 -0.0022160346 0.0031302273 0.0023337821 -0.003672047 -0.004714609 -0.0024701012 -0.000287978 -0.0038992348 0.0015850561 -0.0007746737 -0.0019930147 0.0030279346 0.0027357042 -0.0044059474 0.0013184146 0.0048700003 0.0017482995 -0.003765593 -0.003124967 -0.0006550506 -0.0021862427 -0.003199003 -0.00086667377 -0.0049046655 -0.0018307315 -0.0014835264 0.0022993833 -0.00157374 0.0014980136 -0.0008258605 -0.0036157907 0.0036810895 -0.00461006 0.003644588 -0.004826058 -0.003469677 0.001778834 -0.0032752438 -0.0011610399 0.001586391 -0.0042798608 -0.0018458661 0.0027535406 0.0022739633 0.003114381 0.0042860233 -0.004153023 -0.0047010523 -0.0023490605 0.0005159119 0.00032206642 -0.00027312658 0.0042981543
水 0.0015800908 0.0048494125 0.004172885 0.0024575708 -0.0038664558 0.004210171 0.0016564694 0.0037540589 0.00061353936 -0.0022156604 0.0006782971 -0.0015804244 -0.004914516 0.0037282011 0.0036498213 0.004614687 -0.0034836337 0.0038057782 -0.004984691 -0.004399965 -0.00026476654 -0.003466069 0.0021754298 0.004891229 0.0015235989 -0.0030416376 0.001028271 -0.004661147 0.0033199023 -0.0022698855 -0.0026231944 0.0034229413 0.0024905798 -0.00435412 -0.0012321128 -0.0044349935 -0.0045711193 -0.0035888911 -0.003322546 -0.0031986914 0.004884575 -0.002582398 0.0036100221 -0.0027046555 -0.003775088 0.003212301 0.0015959131 -0.0019353612 0.0023150018 0.0014769044 -0.002529793 0.0038416819 0.0032842988 0.001111624 -0.0011340845 0.0030750127 0.0026349146 0.0002483883 -0.004735677 -0.0032177358 0.0030119608 0.0027957116 -0.004535943 0.000959973 -0.0024067254 -0.002336133 -0.0049082725 -0.0013640182 0.00179862 0.0031404477 0.0020632998 -0.0014452275 0.00044536617 -0.00025226042 0.0031986265 0.002368815 -0.0010036278 -0.0012385427 0.0002671177 0.0029337425 -0.0043579815 -0.0026167776 0.0037796642 0.0046512675 -0.0030348864 -0.0017953243 0.00044515784 -0.0041497103 0.003847897 -0.0012947817 0.0037920217 0.0028472494 -0.00084286253 -0.0020391496 0.0029500616 0.00051092624 1.9018426e-05 0.0024015438 0.0013730119 -0.00452764
不 -0.0031962993 0.0027198691 -0.0034626555 -0.0016060857 -0.0020138924 0.00445146 -0.004731073 -0.0024954604 -0.0039435346 0.0025396524 0.00017111961 0.00019224922 0.0021853896 -0.0020111664 0.0026435638 0.0005790221 0.0012842034 0.0013638199 -0.00073679344 -0.0025495824 -0.003447383 -0.0018234071 -0.0011061539 -0.0044185347 0.0010254175 -0.0002825873 -0.001720172 -0.0003110409 0.00071751187 -0.0016006764 -0.0020335137 0.004658668 0.0017922388 -0.0016283832 -0.0035856226 0.003049319 -0.0037006396 -0.004068659 0.004633436 -0.0026696587 0.0021093462 0.0006881401 -0.002016036 -0.0014767731 -0.0041160816 0.0015151389 -0.0021716647 -0.0002111573 -0.00055001304 -0.00043606956 -0.00058776344 0.0033472902 -0.001157144 -0.0023715592 0.0017851525 -0.0048420383 0.0049831304 -0.0005761045 0.001631257 0.00044771913 0.00029829284 -0.0030098818 0.004998966 -0.004526264 0.0036622114 -0.0021840902 0.0029752753 0.0025802862 -0.0047750613 0.000103963066 0.0020843295 -0.004505939 -0.0010768329 0.0042422283 0.00046279884 0.0013769197 0.00216719 -0.0018739529 -0.0029905846 -0.0033135745 0.0036832727 -0.0035746126 -0.0026327232 0.002418297 -0.004000917 -0.004728862 -0.0038976376 0.0018518313 -0.0036205961 0.0010236836 0.0007799525 -0.004200116 -0.00020392267 0.003544605 -0.0010617634 -0.0027494393 0.0021994144 0.0004601349 4.6811743e-05 -0.00014412154
我 -0.0026316517 0.00066923077 0.004553617 -0.0037979619 0.00048908667 0.0008872182 0.0037184826 0.0049209227 -0.0019411009 -0.0012846988 0.0036023974 -0.0044357576 -0.0014237788 0.0029854642 -0.0030087281 0.0004825471 0.0005543149 0.00093172386 -0.0045568687 -0.002385071 0.0035513395 -0.0013768452 -0.0032262313 0.0023014336 0.0015610246 0.002991296 0.003374405 0.0021917464 -0.00014291664 -0.003954481 -0.00024159087 0.0031228352 0.0028928837 -0.0012407308 0.0032429667 0.0023598957 0.0036522772 -0.00087470375 0.0007849203 0.0009549229 0.0031838003 -0.004923799 0.0009682484 -0.00026831313 -0.0047744825 0.00041028077 -0.0023734998 -0.004385379 -0.0040528434 0.0043058856 0.00027549785 0.0007377705 -0.0045550484 0.0027863968 -0.0011295167 -0.003492351 0.002584062 0.0036847177 0.0005019932 -0.0042308774 -0.003909377 0.0042515784 -0.0049398565 -1.1187086e-05 0.0009795601 -0.0044463067 0.0023779143 -0.0024422235 -0.0031230163 -0.0035761208 0.004002602 0.00016247606 -0.0035317393 0.0010464555 -0.0010188767 6.180692e-05 -0.0017819125 -0.0030448637 -0.0028130102 0.0014161302 0.0003289386 0.0045154295 0.00019170195 -0.0019417275 0.0025467356 0.004916268 -0.0033683323 -0.0036323832 -0.0005953477 -0.00070206943 0.00129227 -0.0021746436 -0.0045908913 -0.0026556433 -0.0029057302 -0.004659559 0.0018071458 -0.0007605474 -0.00081762247 -0.0047162874
月 -0.0011654667 0.002119766 0.0013579583 0.005090306 -0.0038338026 0.0005453461 -0.0010955434 -0.0011924193 -0.004460289 -0.0026497075 -0.004820706 -0.003993013 -0.001696507 0.0044116294 -0.00093799556 0.0021598868 -0.003358152 -0.0018570569 0.0004600042 -0.0011950384 -0.0047518336 0.0016693168 0.00021853193 0.00073887996 -0.00085866306 0.0005528239 0.0036936295 0.0035040146 -0.0021680943 -0.0014342384 -0.0028501044 -0.00075134437 0.002946952 0.0036278723 0.0033853538 -0.0011470035 -0.003698212 0.0032195328 -0.00036410018 -0.0019476389 -0.0043074246 6.207706e-05 0.00093805743 -0.0015506628 0.003088883 0.0034615824 -0.0035367988 -0.0022641185 -0.0031555637 -0.0042497786 0.0031473946 -0.0013798176 0.004347576 -0.0032878574 -0.0049710865 0.0023795743 -0.001963217 0.0031969484 -0.0040315636 -0.0019956552 0.0016987611 0.0012474125 0.002804083 -6.0411854e-05 -0.0043388973 -0.0004506158 0.00060013024 -0.0026944974 0.0018627415 0.002040581 0.0029745519 0.0042859265 0.0029520625 -0.0025165612 0.0037868002 -0.0046807495 0.0045653917 0.00369438 -0.004532034 0.0010795561 0.0011953278 0.0046003163 0.0021908314 -0.004702074 -0.0003555859 -3.831812e-05 0.0007875357 -0.00011360814 -0.004331413 0.0046395864 0.004283913 0.0042546797 -0.001465333 0.002496288 -0.004847098 -0.003954341 -0.004068757 -0.003742843 -0.00305256 0.00074099243
又 -0.004408989 -0.001245898 0.0008367703 -0.002753079 0.00071181956 -0.0031937526 -0.0012488186 -0.0010255546 -0.00039674432 0.0031899347 -0.0009299921 0.0028552758 -0.00021555598 -0.00039357968 -0.0033768662 0.0010564106 0.004125776 0.0044724466 0.0034470034 0.0020393815 0.0043823156 0.0019153137 -0.00045004467 -0.0030882703 0.0038030108 0.0020090172 0.0005696158 -0.0028922043 -0.0015581484 0.0014346011 0.0039688856 0.0026013232 0.0013478922 0.003261449 0.004293683 0.00050152844 0.0024827977 0.0013325369 0.0010445056 -0.00021068154 -0.0018111579 -0.0047198585 0.0005702288 -0.00012894723 0.0043182992 0.0013919114 0.004078819 -0.0044030477 -0.0024468985 0.004785318 0.00060312083 -0.0040626535 -0.0016591157 -0.0032627166 0.0013355782 -0.0027648131 -0.0025365092 0.003431544 -0.004585381 -0.0018685799 -0.0010281147 0.0013144998 0.0028451586 -0.0014469787 -0.0009991765 0.00083453284 -0.0009566453 -0.00097091135 -0.0005281148 -0.0011535019 -0.00030521967 -0.0024878005 -0.0044160094 -0.0049290396 -0.0007300532 0.003001838 -0.003140584 -0.003596953 -0.0017148972 0.0023646965 0.00053558283 0.00058449764 0.0012499056 -0.0035582134 0.003961949 -0.00014802831 -0.0012191201 0.0010642342 0.0030637262 -0.004756976 0.0021362735 0.0045872713 0.004535874 -0.00082571706 0.0036052458 0.0016958945 0.0012511476 -0.004676522 -0.001973713 -0.0041250815
医院 -0.001524705 0.0037528125 -0.00018999529 -0.00064476713 0.0041981395 0.004334845 0.0011726199 0.0026108737 0.0028590749 -0.0013273376 -0.0003857823 0.0026312107 -0.0024280879 -0.0003371901 0.003658169 0.00072582596 -0.00403644 0.0025534146 -0.004789586 -0.0023103838 -0.0026545844 -0.003978095 0.0033000733 0.0014755897 -0.002734408 -9.923249e-05 -0.0028569577 0.00158274 0.0007064575 0.0026470593 0.0026202588 4.7690544e-05 0.004304319 0.0033162076 0.00057360856 -0.0042133485 -0.0033251771 0.0023649381 -0.0033425346 0.0023120628 0.0035335487 0.0013055335 0.00013235347 -0.00040811207 -0.0013804517 -0.0040173274 0.0020393466 -0.004684471 0.002204607 0.0014755887 -0.0012854985 -0.0008451953 0.0036530017 -0.004743093 -0.002938601 -0.004296074 0.0021327306 0.004515681 -0.0018853294 0.00041231012 -0.004668627 -0.00226826 0.00041690728 0.0016996142 -0.0041036513 -0.0050008697 0.0034165774 0.002535638 -0.0037283471 0.00019927147 -0.0046141357 -0.0005165406 0.003743795 -0.0028912597 -0.0039074915 -0.00020403444 0.0043590073 -0.0018180554 -0.004500725 -0.0049249358 0.0049689896 0.0018414876 0.004393674 0.0018861236 -0.00023161162 0.0021789726 0.0009785369 0.003084597 -0.0018735854 0.0041595646 0.0010845343 0.0010550274 -0.0020506324 -0.00045967218 -0.0034579043 0.0043915184 0.0022018577 -0.0016604868 0.0026654461 -0.0014794233
也 0.0035275032 0.0046375995 -0.0037784025 0.0034472342 0.00076080393 0.00017935582 0.0018039887 -0.0001424945 0.004149958 -0.0007097797 -0.0021766392 -0.0020080514 0.00081613945 0.00015582392 0.0026614866 0.0004994968 -0.0025297406 -0.00065623736 0.0017896178 0.0035997597 -0.002675061 0.002963948 0.0036286507 -0.0044126357 -0.002136918 0.0018087145 -0.004851925 0.0007906462 -0.0016393487 0.00052106596 0.004406408 -4.9100996e-05 -0.0013153793 0.00036778854 -0.0049446723 0.0003663188 0.0027765508 -0.0046317205 -0.00488141 -0.0021722883 0.004449916 0.0007737914 0.0007901963 0.0046794997 0.0011040523 -0.0045201047 0.0049107634 -0.0011105912 0.0044332505 0.0048041567 0.004599898 -0.004727407 0.00025745935 0.0020817383 0.0016392947 -0.004086568 0.0019440842 -0.0031016802 0.0017584367 -0.0027395021 0.0018271059 0.00072345725 0.001843312 0.0019220653 0.004221823 -0.004369619 -0.004019903 0.0049320892 0.0014545767 0.0012684955 -2.9898497e-06 0.0048618456 0.0010159566 0.0036645676 -0.00029375168 -0.0003315114 0.0026645882 -0.0034784062 0.0034147045 -0.0030641307 -0.002535158 -0.0027015165 -0.00037947093 0.0005834085 0.0007801903 -0.001764519 0.004342945 0.002921606 -0.0019517919 -0.0024549642 0.0036199032 -0.0040701525 -0.0010326128 0.003267779 -0.00052341615 -0.0005440832 -0.0030176817 -0.00023800724 -0.0019976466 0.00066188525
什么 -0.002885621 0.003408424 0.0016300272 0.0016035126 -0.0031473294 -0.0005536246 -0.0012295755 -0.0045252116 0.00015289486 0.0024656847 -0.0013346538 -0.0020278909 -0.0027467022 -0.0034144165 -0.0036119437 0.0037845108 0.0017342034 -0.00062317227 0.0047864183 0.004208046 -0.0030322026 -0.0036378934 -9.089946e-05 -0.0048981956 0.0032157523 0.0031787634 0.0020529577 0.0026488549 0.0038367752 -0.0030015064 0.001120753 -0.0012888579 0.0018532169 -0.00322679 0.0017915594 0.0040903892 0.0013115937 0.00022559207 -0.0036537116 0.0013977175 -0.0020085748 0.00399249 0.004072854 -0.0019612336 0.003039719 0.0021992682 0.0037857015 -0.0011105665 0.004666429 0.0014265301 0.0028914507 0.0034292135 0.001853336 -0.0008167323 0.00063969253 0.0043460536 -0.0036967297 0.0016850139 -0.0021957594 -0.005000903 -0.0049306294 -0.0020729147 0.00076461217 0.00044912743 -0.0007774304 -2.0675874e-05 -0.0038013929 0.004341984 -0.0030811375 -0.0033163049 0.004202528 -0.00017553661 0.003099043 0.0038392663 0.0013816424 -0.0017473142 -0.0024855696 -0.0031871349 0.0016449462 -0.003722328 -0.0034754907 -0.00036500898 0.0038729 -0.004096857 -0.003937091 -0.00052361743 -0.00416825 -0.0021667287 -0.0004809783 -0.00045923775 -0.0041107996 0.0005191333 -0.0009491693 -0.0027045414 -0.0018456079 -0.0019936548 0.0013192686 0.0031783776 -0.004175824 -0.004559281
咳嗽 -0.004842916 0.0039374027 0.0035638893 0.003074947 0.0018366381 -0.0007831682 -0.0023161292 0.004197096 -0.004247497 0.004278072 0.0018184857 0.0029187773 -0.004065778 0.00012594664 -8.684852e-05 -0.00031648876 -0.0024565444 0.0011969951 0.00086792925 0.0026569578 -0.0037209552 0.00020004739 -0.003939127 0.0025067443 -0.00071467797 -0.0007078812 0.004494181 0.0031676397 -0.0047350028 -0.0043812506 -0.004573664 -0.0036220467 0.00020459639 0.004301559 0.0003889875 0.002582967 -0.001618831 0.00101696 -0.004455437 0.0025536292 -0.0022714545 -0.0032159865 0.0030588666 -0.00018050229 0.0038928892 -0.0017230882 0.004896109 -0.003456724 0.003067602 -0.00017839613 -0.0017320291 0.0018626406 0.0041213743 0.0007219777 0.00397752 -0.0006450887 -7.889809e-05 0.002802668 -0.0022579837 -0.0010077342 0.0027667372 0.0035051706 -0.00036175855 -0.0035775711 -0.0001163327 0.0030491634 0.0041866046 -0.0045107664 0.0006004943 0.0012312606 0.002172635 -0.004322915 -0.0015317696 0.0034908683 -0.00010621025 -0.004715356 -0.002422735 -0.00028086687 -0.0031896755 0.0036208143 -0.0021264087 0.004204561 -0.0017927439 0.0023619856 -0.0015115013 -0.0020403722 -0.0034318815 -0.0019381881 0.00046651482 -0.001979542 -0.0028756738 -0.0036871885 -0.001352893 -0.0032327352 0.002049487 -0.0037370871 -0.004553395 0.0045871995 0.002393372 -0.0010830166
就 0.0030498507 -0.0043772664 -0.0027766756 0.0008058467 0.0003595351 -0.0046856925 -0.00028123095 0.0009900365 0.0018965795 0.004565098 0.0012187419 0.003410566 -0.0021135935 0.003066633 0.0023057624 0.0011882981 -0.0039476342 -0.0011269972 -0.0011822183 -0.0014388764 -0.00433916 0.0034083799 0.0020378341 0.0045754206 -0.0028399911 0.0007570759 -0.00047949672 -0.0024972195 0.0022327746 0.0048216945 0.0014233057 0.0015382167 -0.004853733 0.0039500105 -0.001950159 0.002029034 -0.0034971791 0.0030570857 -0.0036709611 0.004329731 0.0009510919 0.0030683968 -0.0023408523 -0.0014474299 -0.00078947685 -0.00046396343 -0.0012468332 -0.0034891074 0.002833869 -0.00010384406 -0.0035944264 0.0046938476 -0.0015425853 0.0036449772 0.00268709 0.0004059861 0.004066838 0.0031585502 0.0017227572 -0.004766941 0.0047931164 0.002753711 -0.0031377457 -0.0035598103 0.0025041788 -0.0008944625 -0.0024070134 0.0050540054 0.0036047772 -6.3385654e-05 0.0039629084 0.0009657493 0.0027526151 0.004503724 0.0031878124 -0.0050451155 0.0020385655 -0.003661626 0.002227575 -0.0021221915 -0.0036422294 0.004420117 0.0021982621 0.0015736108 0.004654764 0.0003405357 0.0024657722 -0.004443525 -0.0017290195 -0.0011830516 0.0028836557 0.0020814766 -0.0022529522 0.0005885693 -0.0025297843 0.00071399094 -0.0020285265 -0.00457285 0.0032723956 0.00025880465
发炎 0.0018994933 -0.0012591828 0.0027730823 -0.0032579787 0.0011341947 0.0017418712 -0.003640707 -0.002962579 -0.0045671845 0.0019858025 0.0015727232 0.0025678363 -0.0029471435 0.0031362916 -0.0030764695 -0.0025585447 0.00048054132 0.0011661398 0.0033705789 -0.0001406535 4.7492555e-05 -0.0017611494 -0.0047027017 -0.0021641979 -0.003461025 -0.0044030263 0.00016321226 0.0021311427 -0.0045290054 0.0025957637 -0.004678436 -0.0010132369 -0.0011155196 0.0020764924 1.0265696e-05 0.0006350723 0.0034500351 -0.0029539892 -0.004115499 0.004042822 0.002225737 -0.0023367014 -0.0015710611 0.00021142846 0.00475688 -0.0032505507 -0.0031046437 -0.0048445123 -0.0033513287 -0.001983795 -0.004838062 -0.0031652746 -0.0015087351 0.00059265207 -0.0013605253 -0.0037238433 -0.0002812135 -0.0039598155 -0.0014096173 -0.0014737824 0.0015082806 0.0013612891 -0.0033901276 -0.004248252 -0.0045572077 0.0028647997 -0.00019822162 0.0019206313 -0.0012264622 0.0040115346 0.004395015 -0.001653587 0.0005770595 -0.0021187398 -0.0039718766 -0.0036056708 -0.0032113302 0.0015877817 0.0043277782 0.0029154636 -0.004372621 -0.0017973321 0.0020783257 0.0009995089 -0.0045276266 -0.0011078959 0.0027659542 -0.002680838 0.0031823546 -0.0009708684 0.0022070128 -2.7530114e-05 -3.3621083e-05 0.0018873666 0.002314552 -0.0017493151 -0.0038547982 0.004566367 -0.0023745599 0.0020424996
要 -0.0048911422 0.0016136927 -0.0041954056 0.00031404968 0.0004661371 0.000294198 0.004462666 -0.0023444674 0.001576104 -0.002924313 0.0036694263 0.0025941685 0.0014781697 -0.0009421393 0.00035544508 -0.00209672 -0.004684876 0.00054282293 0.004669882 -0.0036899801 -0.0007260029 0.0048061656 0.0033930058 0.0029269923 0.0013064783 0.00081102835 0.0027419147 0.0014996758 -0.0041659498 0.0047516325 0.000490345 -0.0022152648 -0.0034282075 0.0035005976 -0.004093276 0.0038148125 -0.0038077359 -0.0003578904 -0.0038239846 0.0013496155 -0.0049163015 0.0031761078 0.0032759474 -0.004053766 -0.0017521658 0.004020726 -0.0024657156 -0.00028043924 -0.0034497397 0.0047386205 -0.0009454616 -0.0025823659 -0.00402026 0.0019044568 0.0042250156 -0.004969161 -0.0038202875 -0.0013842782 0.0006529071 0.0046276543 0.0044320463 -0.0038615128 0.0024853891 -0.0030210165 0.001911383 -0.0027189497 0.00045146703 0.0046270364 5.991507e-05 0.0009859189 0.0048248093 -0.0032661976 0.0026298794 0.00065524026 -0.0024669627 0.00093852385 0.0005924472 0.0033000303 -0.00012613578 -0.0015832585 0.00038845275 0.0037896922 0.0022070305 -0.0011421986 -0.0011725302 -0.0016219576 0.001470162 0.0016714871 0.003160014 -0.0048636296 0.0040706783 0.0050172783 -0.0018545514 0.0013353338 -0.001443216 -1.3341828e-05 -0.0021224152 -0.00067045965 -0.0029046026 0.0013366862
儿科 0.0027540817 -0.0022174227 -0.0037673658 0.003086403 0.0030788132 0.004566803 -0.0040087085 -0.0015353599 -0.0012799148 -0.002223202 0.0027294233 0.004469853 0.0007363467 0.0039548683 0.0014927837 -0.0025335448 0.0005752433 -0.0030426204 -0.00053477474 -0.0028559247 0.003417521 0.00066352164 -0.0034054713 -0.0009250001 -0.004459302 -0.0041931365 -0.00060194614 0.0015109536 -0.000580067 0.0024223195 -0.002984514 -0.0027130486 -0.0027745317 0.00049894466 0.0042860676 -0.0043820315 -0.0046214615 -0.0018876775 -0.0028222569 0.004774418 -0.0009835287 0.0006337909 0.0042681294 0.0006249284 0.004224672 -0.0007824698 -0.0033626119 -0.0030016883 -0.0011499415 0.0014452832 -0.002516042 -0.004351092 0.0016383439 0.0041956482 -0.00043674238 -0.004844277 -0.0024324127 0.0016633222 -0.0018650745 0.0034017994 0.0037098725 0.0037728655 -0.004206584 0.00073869084 0.0016827157 0.000145762 -0.004126604 -0.0042030658 -0.0016177025 0.002913822 -0.0006988433 0.0014754438 0.001536945 -0.003443374 -0.004510925 0.001981839 0.002615074 0.0043103746 0.0019521498 -0.00049985753 -0.0037104897 -0.0012234194 -0.00039967766 0.0035286432 0.003751249 -0.002010324 0.0019307745 0.0031322623 0.003266842 0.0043490035 0.0033864896 -0.00078252243 -0.00029750602 -0.003935894 -0.002017617 -0.0050148265 0.0038814251 0.00020322257 -0.0005937109 -0.0031436358
看 -0.00096140115 0.000542204 -0.0009598707 0.0039442857 0.0032805884 0.0033040699 0.00045015645 0.0016968683 0.0039783283 -0.0030028832 -0.0043238723 -0.0013198333 -0.004636172 0.0045039896 -0.001953661 0.0029531089 0.0019143809 0.0021529351 0.0007785463 -0.0005357811 0.0035207265 -0.004799853 -0.0038688218 -0.00015387702 0.0042625484 0.0026863392 -0.0035811744 -0.0046734754 0.0037738034 0.0006311701 -0.001003394 0.0026333856 -0.0017186973 0.0028130442 0.003658139 -0.0037285453 0.0025514252 -0.0039834348 0.0027044113 0.0006223917 0.0019543178 -0.0050019356 -0.0043950574 0.00015113168 -0.004237407 0.004456024 0.00046596734 0.001088339 -0.00076802465 -0.004269522 -0.0013546861 -0.00089046545 0.00052153744 0.0006850982 -0.00025767265 -0.001068147 0.0037210425 -0.0004292797 0.0039379806 0.0044849236 0.0014744226 0.0009297843 0.00030284183 0.001217368 0.0020808072 -0.0038222452 0.0022196395 0.0043623922 0.0017457973 0.0038746106 -0.00023037003 -0.0031070542 0.002567835 -0.00402429 -0.0010482814 -0.00198481 -0.0047617634 -0.0010221901 0.0009295223 0.0010997235 0.0022123202 0.0016632212 -7.4200354e-05 -0.0013132343 -0.0040661357 0.003968161 0.0023926296 -0.0031588122 -0.005006984 -0.003493588 0.0046109967 -0.0024750025 -0.00382065 -0.0038372125 -0.0037133042 -0.0043118065 -0.0036744198 0.0020218105 0.0024480228 0.004625215
需要 -0.0033885285 0.0013896133 -0.0012536871 -0.0013081871 0.0017151114 0.0026932324 0.003790978 0.0013908568 7.043293e-05 0.0041998457 -0.0011190008 -0.0008559447 0.002305923 -0.0024456407 -0.0018239198 -0.0018378464 0.0049399105 -0.002085475 -9.178505e-05 -0.0023429291 -0.0043139574 0.0037179952 0.0021405523 0.0036421022 0.004995242 0.0010475693 -0.002233893 -0.0031199506 -0.00081241777 -0.0045064557 -0.00016449425 -0.003074202 0.00027267658 0.0012292624 0.0015287239 0.002439649 -0.0013023086 0.0026685253 -0.003174365 0.0022279986 -0.0049548177 0.0010836767 -0.0031501905 -0.0045013702 -4.2846284e-05 -0.002830243 -0.004115795 -0.00050789723 -0.0037471477 -0.0030642007 -0.002822315 0.0009017654 -0.00022511547 0.004442241 0.000679713 0.00059335394 -0.0018583297 -3.7411573e-05 0.004511547 0.0021886358 0.0036760988 0.0034135766 0.002536048 -8.101459e-05 -0.0041706148 0.0040043993 0.0026079302 0.0043593105 0.0016322546 0.0026074888 -0.001207978 -0.0043336903 -0.0045987596 0.0010325606 0.0045927367 -0.0033641467 0.0029098021 -0.00088506046 -0.003102242 -0.003524624 0.004169645 -0.0025761616 -0.004736077 0.0011972559 0.0028944563 -0.0004601229 0.0039891973 0.00013468812 0.0030569024 0.004341003 0.0021548895 -0.0018156605 0.0035494776 0.0047704442 -0.0022590933 -0.00335332 0.0031139078 0.0035566937 -0.001323719 -0.0016320909
吃 -0.0019506622 0.0003680732 0.001670177 -0.00038260338 0.0011224252 0.003850717 -5.5892513e-05 0.0045157946 0.0029819484 -0.0047513726 -0.003972734 0.00031157804 -0.002688865 0.003527123 -0.00083594205 -0.001792122 -0.0020679599 0.0021663965 -0.0034835723 0.0031919936 -0.003549301 0.0034350774 0.001215395 0.00033850403 0.002023505 -0.003514988 -0.0013857374 -0.0039962223 0.0045414455 0.0037122194 0.0010392192 0.0015341679 -0.0012246886 0.0011773894 0.0029725141 0.0021748429 0.003804624 -0.004735643 -0.0024107334 5.5575376e-05 -0.0041854056 0.0031466703 0.0038894531 0.0023355314 -8.767048e-05 0.0023169133 -0.00112051 0.0046168566 0.0020335838 0.0007735456 0.0027632744 0.0034446565 0.0015843494 -0.003444758 -0.0016354092 0.004048836 -0.00073920575 -0.00060654926 0.0035998928 0.0020886182 0.0028187737 -0.00076037034 -0.002502469 0.00049093453 -0.004840776 0.0047740587 0.0019190547 0.00015918944 0.0014624699 -0.0013338313 -0.0017777503 -0.0016796018 -0.0006808244 0.00040250266 0.0043306802 0.0039294553 -0.0023489885 0.004642206 -0.0025285603 0.0026935556 0.0038515194 0.0013366928 0.0026689589 -0.0030591711 -0.002573063 0.003978871 -0.0044318615 0.00481532 -0.00051536906 -0.0027721447 -0.0038433357 0.001962512 0.0036908006 0.003323361 0.001391524 -0.0035951273 0.00075803633 0.0047592334 0.0007132 -0.0032172885
药 0.0023833993 -0.0014663097 0.0015562312 0.00072776416 0.0026129992 0.003195887 0.00079654594 0.004849291 -0.0013726304 -0.0011740143 0.000993233 0.0042880685 0.0010003726 -0.0031388572 -0.0012145026 0.0007543387 0.0004972388 0.004737401 0.004000891 -0.0024646088 -0.0028108463 0.0018981439 0.0020477334 -0.00250144 0.0013960993 -0.0005764438 -0.0031663347 -0.004826738 -0.00097397243 0.002780553 -0.0003127809 -0.0013356486 -0.0013080272 -0.0031263556 0.0040914305 -0.0005632325 -0.0014678072 -0.0020377273 -0.004497246 0.0028404642 -0.0032429383 0.0028777076 0.0030846563 0.00050455844 -0.0028263526 0.0032142713 0.00023984842 0.0016870735 -0.003222964 -0.0033156225 0.0044994242 -0.00045729708 0.0028829298 0.0036190553 -0.0033315553 0.000738733 0.00069639925 0.0006297997 0.0048004403 0.00043673094 -0.0004441889 0.0016857698 -0.0031199977 0.0031956155 0.0023139855 0.004522313 0.002246019 -0.0011647298 0.0045595514 0.003199169 0.003610462 0.004101016 -0.0028000579 -0.0017192787 -0.003135945 0.0001896011 -0.00073482975 0.0013055672 -0.0029731481 -5.1342864e-05 0.0011839852 0.0022258903 -0.002086422 0.0039745835 -0.00097120303 -0.0032288237 -0.00026480533 -0.0036092747 0.0037223021 -0.0008540254 0.0014309088 -0.0035360453 0.0025195726 0.0028786913 0.0028613447 -0.0030107514 0.0019564652 -0.00070544693 0.0047225393 0.0035370567
孩子 -0.00020324036 -0.004011567 0.004233314 0.0035815677 -0.00088882726 0.002128815 0.00059047004 0.0042647775 -0.002674323 -0.00038979223 -0.0016547821 -0.00048137936 0.002298002 0.0001390979 0.0001813477 -0.0030348077 0.003980411 0.003483398 -0.0039594728 0.0042321547 -0.0048551345 0.0039463756 -0.0020499164 -0.0014327721 0.0008974573 -0.0024825346 0.0040736357 -0.0026700546 -0.00076211465 0.0032484874 0.0023539753 0.0012707296 -0.00019050937 -0.0005914958 -0.0015914991 0.00067543087 0.004260767 0.002168906 -0.00068034173 0.0032363017 0.0015924674 -0.0018587831 0.0018813323 -0.0031106384 0.0049778824 0.003626615 -0.00470709 -0.0015809084 0.0015846468 0.0011880914 0.0030433335 0.00095707044 -0.0035069084 0.0047029746 -0.0044754846 -0.0040838355 0.002373682 0.0028956886 0.0041052783 0.0016607585 -0.0030228633 0.0045441575 -0.0021423588 0.0038753229 0.0038834051 0.0019409547 0.0025453174 -0.00045369807 -0.0047000805 0.004280987 0.0019866514 -0.0025452694 -0.0021337143 -0.0033097984 0.0032570101 -0.0011881886 -0.0035407036 0.003826233 0.0032049404 0.0039397697 0.002618535 0.0009454489 0.00058655994 -0.0025289897 -0.00075109466 -0.0045504454 -0.0045599076 -0.0020452675 -0.00041968893 0.004401042 -0.0031073012 -0.0007370764 0.0017172445 0.0010656195 0.0017117586 0.0004025384 0.0033452765 5.2203955e-05 0.0041672126 0.00248809
在 0.004159148 -0.0013957641 -0.004343587 -0.0037415298 -0.0018033802 -0.0045272177 -0.0028052754 0.0016766449 -0.003627642 -0.0038402218 -0.0017957584 -0.0047598938 0.0018208595 -0.0022102483 -0.0015847146 -0.0028331412 -0.0047999863 -0.0018442777 -0.0044721877 0.0021170299 0.004335091 0.0043317648 0.0036933194 0.004634014 0.0035594685 0.0017106537 0.0041173706 -0.0038527492 -0.0007933035 -0.004714622 0.0018395872 -0.0016127311 0.0029640584 0.0028556644 0.004774145 0.0020557926 -0.0037507485 0.0047461255 0.0038549933 0.0035048637 -0.0017992987 -0.0019623016 0.0010807486 -0.003808074 0.0042750905 -0.0046283323 -0.0045004184 -0.0020580115 0.00064389984 0.004221316 -0.0024176254 0.0010355698 0.00032016938 0.0033952137 0.0038745622 -0.0047844024 0.0018720148 -0.00087998685 -0.0035831088 0.0039324365 0.0029819347 0.0030945742 0.0027577293 0.002432877 0.00029027718 0.004495064 -0.0013145069 0.0024578674 0.0002616728 0.001525999 0.0036401467 0.0007215471 -0.00454269 0.000514994 0.0045331055 -0.004983096 -0.002776089 0.004194733 -0.0026388464 -0.0018217284 0.0032274409 0.0035653834 -0.0015397341 -0.001130425 -0.0029647409 -0.0018312482 0.0050042644 -0.0010619153 0.0005283771 0.003737769 -0.0040912633 0.0038734884 0.0032011 0.0006368523 -8.548243e-05 -0.001280046 0.002594865 0.0010099453 0.0025733006 -0.0026938226
检查 0.0023729126 -0.0011208632 0.0009390675 0.0011932083 -0.004254272 0.0004719311 0.0005218343 0.0040089865 0.0025807698 0.0026430578 -0.0028810431 0.003738691 -0.0043765614 0.0049261316 -0.0025084398 -0.0034271951 -0.002923493 -0.0028628204 -0.0034664357 0.0028977091 0.0033235108 0.0024901328 -0.0023403198 -0.003234049 0.0018589649 0.0047080377 0.00066584855 -0.0007169144 0.0022877916 -0.0015144617 0.0010262552 -0.0004641152 0.0040020877 -0.0030870468 -0.0028644332 0.00014884889 -0.00043202224 -0.00419045 0.0019140288 -0.0027859444 -0.0046116686 0.0036389409 -0.004406485 0.0025860195 -0.00051149697 0.00458742 -0.0021125437 0.0039158612 0.0038569511 -0.0045744115 -0.0042490005 -0.0043154834 -0.0034226004 -9.92021e-05 -0.0004933534 -0.0028259694 0.0033835436 0.0011295273 4.34513e-05 -0.0007219494 0.0016217353 0.0003230488 -0.0016187592 0.002804328 -0.0026163976 -0.002479154 0.002661586 -0.002681953 0.0025161938 -0.0016359211 0.0018204809 0.0028685587 -0.0045897597 -0.003772188 0.0015684864 0.00058922503 -0.004692757 0.000400918 -0.0048635174 0.0013746117 -0.004981169 -0.0031889116 0.003476951 -0.0014663114 0.0009923367 0.0041917264 -0.00463517 -0.002660415 -0.0028754163 -0.0004237943 -0.003793661 0.0006742948 0.0043034907 0.0020860564 -0.0015357436 -0.00194841 -0.0044786907 0.0033270307 -0.0033575087 -0.00034183305
现在 -0.0018545853 0.0029545445 -0.000845698 0.0016373949 -0.0028761516 0.0034212125 -0.0018297917 -0.003466447 -0.004649332 0.0032143088 -0.00095475616 0.0047043185 -0.002324013 -0.0011505022 0.0014626017 -0.00397336 -0.0019072109 -0.00044280678 -0.0030596254 -0.0045954683 -0.00018712656 -0.004429538 -0.003433378 0.0035979568 0.0036591943 0.0012905966 0.00043953923 0.00061328016 0.0025058794 -0.00040303564 0.00069852837 -0.00027354067 0.00055063906 0.0019453036 -0.0006793161 0.004939728 -0.003574236 0.0005456 0.0023950662 -0.0024162522 -0.0019081562 0.0041300836 -0.0038508864 -0.00027582858 0.003375419 -0.002487492 0.0013381414 -0.0049785627 -0.003679595 0.0021308027 -0.004937481 0.004859908 0.0038728605 0.0033992187 0.0041529876 -0.0002415011 -0.0018670363 0.002019611 -0.001911408 -0.0010093787 -0.0018684748 0.00033818078 -0.0021711893 0.0019324985 -0.0022190374 3.1424293e-05 -0.003997635 -0.002601071 0.0028648456 0.003754108 0.004640606 -0.0028194848 0.0017972604 0.00084622233 0.001840804 -0.0038799685 0.0015866087 0.00044557653 -0.004755212 0.0024786128 -0.00032646977 -0.002448838 -0.000493941 0.0007041022 -0.0045583746 -0.0038070937 0.0014960585 0.0005564378 0.0038992672 0.0037857355 0.003193731 0.002230658 0.0009207076 -0.0014164381 -0.0032867147 -0.00072378817 0.00071091653 -0.002592822 0.0017361903 0.0010794859
问题 0.0034783692 -0.00031801927 0.0021274127 -0.0037672606 0.0027508233 0.0018105435 0.0010167912 0.0027013824 0.0008256389 -0.0013253947 -0.0007413047 0.0013051535 -0.0021841363 -0.0007167063 -0.0010369215 -0.0016044558 0.0012396273 0.0013352039 0.0019052519 0.00037495542 -0.0036696475 -0.0031728668 0.004317705 0.0030429438 -0.0006844016 0.004709496 0.0042306534 -0.0033565012 0.004018389 0.0032712016 0.0013525031 -0.00031324517 5.986069e-06 0.000939896 0.00411375 0.0026912412 -0.0049820105 -0.0006749459 -0.00011711395 0.0032378181 0.0013584356 0.0019033543 -0.004790088 0.0012487579 0.0010776488 0.0011641402 -0.0027771168 0.0008389204 -0.0040684873 0.0015037719 -0.0023598364 0.0037030368 -0.0046383217 0.0017195961 -0.0023159175 0.0024071017 0.0008628255 0.0015238725 0.0014908592 -0.0008472341 0.00088153355 -0.0008364481 -0.0025465318 -0.0034500763 -0.0030071419 0.00065168657 -0.002726933 0.0041417107 -0.0024062044 -0.0029043083 -0.0010898568 -0.0025318451 0.001186115 -0.00074010313 -0.0008866851 -0.0027700635 0.004434604 0.0007335125 0.00013205255 -0.004957657 -0.0033866703 0.0015546997 0.0021393225 0.0044516656 0.0035205053 0.00036941576 0.0031783506 -0.0027476246 -0.0011398937 0.0026743468 -0.0016712446 -0.0037170085 0.0010704033 0.0036422918 0.0005902337 -0.005025166 0.0042983387 0.0004869683 0.0003661611 0.0024878625
严重 0.00027380008 -0.0019735014 -3.6692778e-05 0.004614513 0.0010499537 -0.0041400734 -0.0050509195 -0.001453897 0.001558962 0.0036373942 -0.0030407 -0.004918289 0.00376927 -0.0042486056 0.0047208187 -0.0015288455 0.0016801842 0.00030081687 -0.0010477218 -0.0026480383 -0.0013174781 0.0016104167 -0.0019126973 -0.004108521 -0.0041034203 -0.001175277 0.0043932963 -0.002710152 -0.0016806074 0.002259451 0.0038568648 0.0005491369 -0.0049369857 -0.0017172272 0.0006602965 0.002483311 -5.2412764e-05 0.0042962423 0.0019322884 0.001967677 -0.0039470233 0.0030034555 0.0038117156 -0.00020313975 0.0013022829 -0.0010928974 -0.001631678 -0.0017202385 -0.0045700283 0.0042114635 0.004860404 -0.0017325552 0.0039787972 0.0036971471 -0.0021583207 0.003659941 0.0046869777 0.0023458453 -0.00135356 -0.0022588375 0.0026937772 -0.001523155 -0.0016794188 0.0031838305 -0.0018002496 0.0013895886 0.0047838357 -0.0015711566 -0.0025710233 0.0017594629 -0.0010648635 0.0024630236 0.0038924897 0.0037455044 0.0018750507 -0.004915465 -0.0002859638 0.0011614994 0.002865557 0.0043666973 -0.0018944492 0.00011882285 0.0038744065 -0.003746418 -0.0007887753 0.0045912215 0.0048044184 -0.004483183 0.0028336626 0.003958041 -0.0048626806 0.0018217027 0.00441448 -0.003488944 -0.0026070974 0.0009401991 -0.0033752136 -0.0031193427 0.00040442112 0.00060159713
科 0.0022010459 -0.0044237375 -0.0011106597 0.0038900473 -0.001660393 0.0014323276 0.0037271685 -0.003295578 0.004523283 0.003525388 -0.00079412723 0.0016368413 0.002924241 -0.0021311417 0.0030268598 0.0034993798 -0.0029057756 -0.0011272521 0.0009313915 0.004307181 -0.0015286063 -0.0044257687 0.004059206 -0.00069388404 0.0006005243 -0.001821472 -0.0020116176 -0.00080635794 0.0028341967 0.004940651 0.0021010072 0.0008559862 -0.0040759416 0.003011978 -0.0033099735 -0.004511617 0.0015802658 -0.0008884988 0.0018194901 0.002598334 0.0043260613 0.003204907 -0.0017692932 0.0005231473 -0.0046709366 -0.00288309 -0.0028919026 -0.0023244945 0.004446203 -0.0018815277 0.002438221 0.0040145996 0.003476942 0.0006885812 0.0018077911 -0.0014109571 0.0014953291 -0.0006225627 -0.003457976 0.0004293213 -7.730138e-06 -0.0019955228 0.004719938 0.0036866397 -0.0047351723 -0.003497494 0.004398031 0.003900654 0.00075550505 -0.0028226867 0.00028569144 0.00090325664 0.0035299312 1.519883e-05 -0.0008758625 0.0048472653 -0.0048982794 -0.0007854918 -0.00011620953 0.0035014842 -0.002333196 0.0015851316 0.0018293953 -0.0045897085 0.0002661524 0.0025645562 0.0027783734 -0.004250041 6.5889006e-05 -0.00466983 0.0017402658 0.0015379152 0.0034270766 0.0016221199 0.0025890395 -0.0021052607 0.0030852987 -0.0017778977 0.0011329163 0.004387237
开始 0.0041676452 -0.0049264855 -0.0021571687 -0.004205009 0.00022700214 0.001527496 0.004582056 -0.001813605 -0.0033218127 0.0039408817 -0.0024066293 0.003154489 0.0026294792 -0.0005130322 0.0026169994 -0.0030546656 0.00066142704 -0.0037334124 0.0026956492 -0.0037652531 0.0025733057 -0.003677093 -0.000812958 -0.0018358764 -0.0004065212 0.002158492 0.0035970006 0.0028348162 -0.0013462 -0.0015272646 0.0014566662 -0.0013293286 -0.0004101981 0.00403061 -0.004341854 -0.0015767306 -0.0049961004 0.0022299648 -0.000100636345 0.00089862494 0.0046595405 0.0005132944 0.00047636346 -0.0014219235 0.0032723125 -0.0025325373 0.00020296127 0.00040245987 0.004534942 -0.0021835181 -0.0013474283 -0.0013702874 -0.0027994462 -0.0020735483 0.0031154193 0.0019680827 0.0049000722 -0.0027364977 0.00040739198 -0.0034741494 0.0023918573 -0.0010529847 0.00044248792 -0.0035413215 0.0046409774 -0.0015730712 0.0009447023 -0.0030894517 -0.0028395592 0.0049048895 0.00468514 0.004370951 0.002813094 0.0046314825 0.0030435713 -0.00277085 0.0033446052 0.0029608833 -0.001795241 -0.001799986 -0.002614767 0.0044315076 -0.00088327454 -0.0012004838 0.0043281163 0.004137328 -0.0012660774 0.00014153437 -0.002538743 -0.0039072433 8.14424e-05 0.00051554455 -0.0015227186 0.00056000944 -0.00162137 0.0034365633 -0.004944885 0.0034323442 -0.0006272788 -0.0035024176
吐 0.0039699716 -0.0049622073 -0.004450291 0.0017054051 0.00059158576 -0.0037513077 -1.6205908e-05 0.0016106548 -0.0049525066 0.001319205 0.0026455454 -0.0012923229 0.0029546795 0.004945687 0.004686558 0.0048092795 0.0021263768 -0.0007804013 -0.0035896811 -0.0047120135 -0.0015033082 0.0001389777 0.004072255 -0.0030367693 -0.0034178253 -0.0030293784 0.0031671887 -0.003182266 -0.004523028 -0.00037579818 0.0038524903 0.00047686583 -0.0029774867 -0.004380595 -0.0006933852 -0.0009669015 0.003355656 -0.0022100336 0.00076811225 -0.0008984871 0.0048048627 -0.0029772848 0.00046969936 0.0008698318 0.0043307682 0.0027065556 0.0031951922 0.0013566251 0.001397682 -0.0017584368 -0.0005585427 0.002308569 -0.002590503 -0.004476326 -0.004339251 0.0025797116 0.002830663 -0.0032969476 -0.0044786814 -0.004385616 -0.0007565885 -0.0003120716 0.0022334505 -0.00031198413 0.00068500504 0.0023449839 0.00018190219 -0.0039832382 -0.0010765041 0.004848401 -0.0012917537 -0.0037989032 -0.0013030281 -0.00421252 0.0021139674 -0.0039103855 -0.001368143 -0.0041421894 0.00088624377 0.0027536724 0.00015657685 -0.001732266 -0.00010845624 0.004242985 -0.0024858 0.0024012309 -0.0036566583 -0.00058411673 -0.0009798277 -0.0015045768 -0.001469061 0.004911509 0.0035846927 0.0037738667 -0.004214232 0.002053757 0.002499351 -0.0011085583 -0.0023127738 0.004211642
验血 0.004281078 0.00339845 -0.0043288106 -0.0006458426 -0.0017556769 -0.0046624197 -0.0009097219 0.0041406713 -0.0044939662 0.0027855192 0.001380321 -0.0016254365 -0.0013225919 -0.0035437024 -0.0003596799 0.00029189995 -0.0018323936 0.0020973403 0.0025062645 -0.003996704 0.00033753627 0.00031420626 -0.0044116937 -0.0010903435 0.004601597 0.0035301768 -0.0014328668 -0.0017670012 -0.0017451807 0.002305666 0.0033586659 -0.003718917 -0.0033323278 0.0025167228 0.0017536818 -0.0035863563 -0.0036375434 0.0015080541 -0.0039384644 0.0034904627 0.0038723787 0.0030732544 0.0032636644 -0.00185115 0.0032336493 0.00071342237 0.0022897369 -0.00051084644 -0.0021119912 0.0029380363 -0.0025802704 -0.0032493537 -0.0005338869 0.0013606681 -0.0049874606 0.0015425872 -0.004532698 -0.0004230607 0.0007750491 -0.0028526357 -0.003825169 -0.0038889765 0.0031985578 -6.3946514e-05 -0.0027554515 -0.0049758153 -0.00484401 0.00251493 -0.0020684062 -0.0017969514 6.4441915e-06 0.0016726301 -0.0016727422 -0.00034808638 0.0011450663 -0.0005657163 0.0022778683 0.0035046043 0.0012018959 0.00026984312 0.0048993854 0.0042524743 0.003276087 -0.0009131412 -0.0010149984 -0.001721033 0.004456869 -0.0027215823 -0.0033895574 -0.0020518026 -0.002549176 -0.004041251 0.0036881615 -8.309566e-05 0.0023636024 0.004173012 -0.0017137604 0.002803938 0.0022404192 -0.004698559
后 0.0006899521 -0.002327101 -0.00478142 0.0049822456 -0.0019392414 -0.0015102291 0.0047200066 -0.0025121896 -0.0038781867 0.0013456501 -0.0044001257 -0.002476482 -0.0030743617 0.0010076354 -0.003591334 -0.0025055998 0.0031415273 0.00028944394 -0.004882224 0.0042907046 -0.0011990655 -0.0043537286 -0.004596837 0.0023535928 0.0013359719 0.00014955697 0.0032066302 0.0038811157 -0.0011929874 -0.0043477938 -0.004257816 0.0034546554 -0.0031477003 -0.0037777657 -0.0017068466 0.004234187 0.0033946906 -0.003861777 -0.0028406084 0.0006651915 -0.0015708633 0.004948261 0.0047816886 -0.0018124034 0.0037128355 0.0036574672 -0.0013104698 0.0011192863 -0.0023160044 0.0049399063 0.00019380939 0.00043945402 -0.00087053195 0.003207742 -0.004080033 0.0006160432 0.0035586043 0.0018640179 0.002576137 0.002748419 2.0565412e-05 -0.003937673 -0.0014313993 0.00020698448 0.0005399895 0.003277873 0.002237782 0.0016269014 -0.0011970004 0.001844332 0.0009982022 -0.00012611003 0.004305101 0.0032875955 -0.004707832 0.0017718213 0.0039352244 -0.0023300122 -0.0020505553 0.0008817624 0.0021121572 0.0004651676 4.0115814e-05 0.0013834328 0.0024326055 0.0033177207 -0.0035189935 0.0020425327 -0.0022344557 -0.0035221505 0.0039462293 0.0013163261 -0.0009380228 0.0049271807 0.0013346932 0.0033129328 0.00363276 0.003643214 -0.0012619802 -0.0034082104
都 -0.003991119 -0.0036968759 -0.0033112415 0.0023660797 0.00078739075 -0.0024705743 -0.002208778 0.0014260509 -0.0018234142 0.0012227352 -0.0030384418 0.003047809 0.00028165584 -0.00055943226 0.0033704839 -0.000770984 -0.00012210595 -0.0038335281 -0.0016126912 0.0029688184 0.0037588913 0.0025916868 0.0023423964 -0.0044593364 -0.0035829202 0.004376656 -0.0020875616 0.0026503713 -0.0031908106 0.0013598953 0.001449328 0.0016086955 0.003920789 -0.0024889857 -0.0042080246 -0.0016518818 -0.0010197326 0.0010935604 -0.0035466128 -0.0021808604 0.0004409564 -0.0011634503 0.0022804285 -0.00048027645 0.00060921436 -0.0036933925 0.0009012932 -0.0037163813 0.0033513163 0.002606097 -0.00096623815 0.0038255206 -0.001035072 0.0030772611 -0.0021578858 -0.0046998155 2.8618793e-05 -0.0018694903 0.0035720973 -0.004689081 -0.0027403245 0.0016138841 0.0017245946 -0.0021468534 7.637075e-05 0.0026794686 0.0017074962 -0.0020239623 0.0023789513 -0.0026972427 -0.001617735 0.00049114827 -0.0013130446 0.0018861174 0.0022865804 -0.0045479033 0.00093807885 0.0029633376 -0.0015051144 0.0029307334 -0.0011938306 0.0017791247 0.0009209303 0.0036759803 0.0018317337 -9.0635636e-05 -0.0042061266 0.00016932146 0.003064358 -0.004115771 -0.0004993893 0.0034364522 -0.0027491632 -0.0029702408 -0.0012016254 0.0015130115 0.0028980821 -0.0035183446 -0.0008601492 0.0035447758
吗 -0.0016776035 0.0016236596 -0.0016654228 0.0012523562 -0.00032424723 0.002222608 -0.0012199363 0.0016363253 -0.0015268577 -0.003599927 0.002476937 0.00016912239 0.00045184675 3.4928704e-05 0.0032131423 0.0044423314 0.0016959157 -0.0040296544 0.00030516 -0.0017668261 -0.0013917191 -0.0015290302 -0.0040451237 0.0046654437 -0.003279499 0.0035773877 -0.0024338989 0.0020360271 -0.0024599412 0.0008563543 0.0020107485 0.00037402977 -0.0018706033 0.0022636692 -0.00060531416 0.0040321406 -0.0029739519 0.0014818758 0.0039974507 -0.0015538355 0.0027625116 -0.0025646274 0.001968451 0.0008361137 -0.0024298313 0.0045313393 -0.0023716586 -0.0026685935 -0.0018231304 -0.0005877554 -0.00015400087 -0.003657961 -0.003622465 0.0015970663 -0.004492208 0.0030547683 -0.0018272862 0.004625882 0.0014430459 0.0010018821 0.0021876006 -0.0049680206 0.0014852447 -0.0015198286 0.004404844 0.0019623148 -0.0009553499 -0.003948728 0.004667648 0.0012266709 -0.0014324118 -0.002376855 -0.0021581503 0.0045322967 3.9029313e-05 0.000111594425 -0.0016860507 -0.0043301866 -0.0029806134 0.0044260263 -0.0041380445 0.0036197559 -0.0034148062 0.0036990072 -0.00096144463 -0.0010680754 0.0048390296 -0.0010455034 0.00044937772 -0.0012237054 0.0014935973 -0.0013268087 -0.00010494943 0.0012846418 0.0046478193 0.00043211778 -0.0041838107 0.004862022 -0.0042362968 0.0032724214
说 -0.004142087 -0.004251717 0.0018147698 -0.0038690444 0.0041471315 -0.0040331655 -0.0009977561 -0.0026322107 0.00011299722 0.0035616038 0.0039867046 -0.0010487384 0.0036183756 0.0013704405 0.0013158016 -0.0005113712 0.0036374116 -0.0018066815 0.004458959 0.004979712 0.0013678218 -0.0043902867 -0.0020108807 -0.0034850296 -0.0026237576 0.0031974697 0.0020486459 -0.0012280287 0.00033069667 -0.0030329484 0.0023602578 0.0040261005 -0.0047807996 0.002089625 0.0033910174 -0.0023585027 0.002615777 0.0018203922 -0.0016779602 0.0008880287 0.0023195732 -0.0035751706 -0.0022706497 -0.0050129755 -0.0030639747 0.0016587918 -0.0035229218 -0.0002490085 0.0020075648 0.0024075862 -0.0032255286 -0.0010792207 -0.002476067 0.004716141 -0.0011309321 -0.0011969621 0.0032696486 0.0033271858 0.0006932641 0.004802319 -0.0009629058 -0.0024665324 -0.0022913776 0.0049820263 0.003746945 -0.0042514037 -0.0028110433 -0.0006739004 -0.0038755627 0.0014278918 -0.004158681 0.0016461964 0.0013492018 0.0020867477 -0.004493762 -0.0043044393 -0.0014650178 -0.0005014503 0.002914494 2.4427081e-05 0.0018906118 0.0040331064 -0.0017220825 -0.0007212594 0.00037203074 0.0031667938 0.003089854 0.001771114 -0.0013765695 -0.0019764649 0.0045157135 0.0026845662 -0.0031467706 0.0019427896 -0.0007140276 0.0026009476 0.0038481469 0.0037590999 0.004476458 -0.0019926743
出来 -0.0009283403 -0.00459817 5.649649e-05 0.0031734363 0.0031639724 -0.0010432135 -0.0022992566 0.0039016067 0.0008503699 0.001047933 0.0020458156 -0.0017409914 -0.0006223023 0.0044357553 0.0012368986 -5.488351e-05 -0.00043227553 0.0015956542 -0.0018924633 -2.8099133e-05 -0.0017268672 -0.0014864384 0.004291095 0.0049071885 -0.0015650059 0.004002922 -0.0032473786 -0.00021398073 0.0022040934 0.002383779 -0.004600848 0.0020184398 -0.0036728496 0.0031725713 0.0048167827 0.0025139546 0.0019703514 0.0031358923 -0.0020533663 -0.0023189073 0.0038058152 -0.0047653574 0.0019491506 0.00037911336 -0.003499936 -0.0013565798 -0.003412759 0.00092262414 -0.0005342292 -0.0020907752 0.0045209504 -0.000119181415 -0.0049096965 0.0014334866 -0.0035740188 -0.00074572564 0.003084429 -0.00079494127 -8.802729e-05 -0.001978123 2.5893738e-05 0.0014450519 0.0025547727 0.0030807753 0.0037845639 0.0037740613 0.0035294085 0.0043183006 0.00017068467 -0.0017552444 -0.0023761338 -0.003545725 0.002169542 0.001316632 -0.00042438513 0.0041796104 0.0033603543 0.0025759372 -0.00078764855 -0.0013088315 0.004510423 0.0030546433 0.0023836186 0.00061917916 -0.0022678124 0.0029206886 -0.004504077 0.0016692368 -0.0044323104 -0.0013158505 0.003894274 0.004704032 0.0025826783 0.00019352321 0.0028404922 -0.001005554 0.0049698306 -0.0011584538 -0.00033705373 0.0031924697
因为 0.004291932 0.00015221443 0.0037233331 0.0035101753 0.0046937047 0.0028503474 -0.0008049839 0.0004753157 0.004297787 0.0027380295 0.0014008925 0.0012483548 0.0012557717 0.0043919934 0.0010095225 0.0023380336 -0.0008153279 0.0011799105 -0.00083100423 -0.0007580932 -0.0035206026 -0.0022464728 -0.0011965836 0.002441211 0.003864291 0.0016075278 0.003487623 0.0032883298 0.0041532563 -0.0048577264 -0.0035301603 0.000528597 0.003988358 -0.0014853905 0.000601477 -0.0025381765 0.0038878007 -0.0034382506 0.0035919764 -0.0006178442 -0.0048180493 0.0031812438 0.0039511663 -0.0014352398 0.003012456 -0.0022611397 0.0049066944 0.0033957527 0.0016172118 -0.0020510715 0.002297247 -0.0012349457 -0.0019079077 -0.0021957932 0.001613778 0.004703344 0.0010185995 0.0017969705 0.0023330506 -0.0020737122 0.0040055816 -0.004045149 -0.00067511003 0.0020379757 0.0020185676 -0.0025509845 -0.004975621 -0.00483288 -0.002685514 -0.0028011352 -0.004078652 -0.004956407 0.004376695 -0.0012680193 -0.0032554793 -0.00029973115 -0.0041340683 0.00067996647 -0.0039758547 -0.00052596064 0.00097078225 -0.0015017822 -0.0035157772 -0.00023967527 -0.00041094885 0.003106703 0.0022520765 -0.0016900856 -0.0035303615 -0.003718793 0.00025162802 -0.0019959407 0.00065427565 0.0033210714 0.0026934382 -0.0032501875 0.0049097273 -0.0022143507 -0.004183932 -0.0033349462
请问 0.0012585659 0.0039171814 0.0048941216 0.002879967 0.0021572688 -0.0033282433 0.0014213632 0.00268069 0.0015916631 0.0033488136 -0.0027637 0.0012670797 -0.00024905318 0.0012103519 0.00097474543 0.003125713 0.0009371844 0.0015170019 0.0038598117 -0.0020037019 -0.0025065974 -0.0011291231 -0.00237367 -0.0030678776 0.0024740382 0.003929229 -0.004638016 0.0028761963 -0.0033699006 -0.0034668113 0.0041123326 0.0033559897 -0.0016312341 -0.0005188435 -0.0014779913 -0.001210062 -0.0020795062 0.003259798 0.00017725275 0.002203745 0.00090700114 0.0028261042 -0.002448275 0.004067523 0.00032172757 0.002602429 0.002278293 -0.0013558049 -0.0046223463 -0.0036937427 0.0044841794 0.004554213 0.0021736876 0.0014191751 0.0043571126 -0.004262446 -0.00472855 0.0011732758 0.0033974836 0.004123893 0.0042377496 7.656783e-05 -0.0048290277 0.0023932029 0.0020886718 -0.0023747461 0.0048718816 -0.0047568274 0.0026306284 0.0002887384 0.003611167 -0.00056782574 -0.0022192115 0.0028038423 0.0035183954 0.0048201676 -0.004182051 -0.00015440298 -0.004620429 -0.003224016 0.0031769108 0.0028539153 0.0027373703 0.0022774797 0.002173124 0.0015175564 0.0003198615 -0.0011808448 -0.0026550198 -0.0014134395 0.0030857702 -0.0040551056 -0.0041794614 0.0018454024 0.0025853151 0.003183433 -0.0012658945 -0.0010017686 0.0046423534 -0.0036452971
这种 0.004030675 -0.0036597801 0.0040255827 0.0024620784 0.003728189 0.004315735 0.0014987583 0.004150634 -0.0019205734 0.0026948133 0.0013734567 -0.0018514404 -0.0002756617 -0.0004485199 -0.00018490705 -0.0035410575 0.0027606052 -0.0010085141 0.00016610899 -0.0010318167 -0.000832239 -0.00050891336 -0.0010304457 -0.0046790615 -0.003316368 0.002100567 0.0039710407 0.004239 0.0019280389 -0.002645713 0.0021493784 0.0045671184 0.001238774 0.0016882411 -0.0023501553 -0.0026612096 0.0015820775 -4.270689e-05 0.0011183573 -0.0022956098 -0.002133567 0.0007458464 0.0022386871 -0.0019003007 0.0019079038 0.0024377415 0.0020640874 -0.0017874857 -0.0031749965 -0.002158199 -0.00053189124 0.002910436 0.0021133584 0.003577346 -0.0031598387 -0.0011284163 -0.0019237956 0.00036670343 0.0014511041 0.0010973001 0.002811246 0.002317608 -0.0042687673 0.0023468884 -0.0021477721 -0.0010078208 0.0037365803 0.0045406856 0.001966071 -0.0004430476 0.0049109166 -0.0005844312 0.00025017228 -0.0011386984 0.003285879 0.0020279624 -0.004419552 0.004544169 -0.0013348353 -0.0038418176 0.0037486327 0.000935105 0.0022690184 0.004661662 -0.0045107966 0.0012109061 0.0038588594 0.00056614884 0.00082026824 0.004150586 0.0010409858 -0.00054498867 -0.00053003937 0.0036702838 0.0018216982 -0.0033018887 0.00499076 0.0020472317 0.0011223124 0.00096902
情况 -0.0038224636 0.00081803725 -0.0025894581 -0.0012659517 0.0031182843 -0.0023211702 -0.0023455548 0.00059600634 -0.0019331083 -0.0016649473 0.00026477658 -0.004962959 0.004689637 0.0013100046 0.0039699296 0.0011171246 -0.0033173936 0.0014830016 0.0016927738 0.0023495562 -0.0023828195 0.00033188335 0.0026754332 -0.0025193198 -0.0021088987 -0.0011497303 -0.0009148153 0.0019210649 0.00021994492 0.004780983 0.002192188 -0.003389947 0.002292865 -0.0030216854 0.0018598892 0.0015682641 0.00011518167 -0.004253602 0.0031249726 0.0047320924 -0.00076024065 -0.0020335964 0.0027286848 0.0010582877 0.001956379 0.0023682134 -0.0038891092 -0.0048785536 -0.0042254413 -0.0015722393 0.0049696392 0.0012557466 0.0007960361 -0.0017641311 0.0019899784 -0.0032564222 -8.843358e-05 0.001577583 0.0025652724 0.0006371036 -0.0037578305 -0.0048128986 -0.0012476204 -0.00040362144 0.0039002162 -0.0048481957 0.0011442483 0.00059483835 0.0031526454 0.0045754053 0.004783649 0.004626694 -0.002357319 -0.0040999623 -0.0030428895 0.0012919598 0.0011495142 0.0027710018 0.0016634826 0.0041375966 0.0045684134 0.0046806787 0.0018791332 -0.0012409766 0.0008859206 0.0032851142 0.004175643 0.0042623915 -0.0036098233 0.0037405395 -0.002512482 -0.0017400857 0.0030686792 0.0022632892 0.0027790153 -0.0022719016 -0.001555574 0.0013256702 -0.0013845953 -0.00064654055
感冒 0.003355501 -0.0015691541 0.0015639645 0.0006270648 0.005021886 0.0013294779 0.0018787239 0.003076254 0.003409396 -0.003952997 -0.0016405757 0.004131182 -0.0020141504 -0.0011921999 -0.0009282335 9.45039e-05 0.0035338993 -0.00235466 -0.0018998986 0.0041426653 -0.0027683394 0.0037348315 -0.004503162 -0.003355789 0.0037116099 -0.0008166332 -0.0012989773 0.002887226 -0.0026911842 0.0044726045 0.0023579341 0.0029303103 -0.0026690054 0.0013666874 -9.9370685e-05 0.0033136164 -0.0022966973 -0.004980166 -0.00039321967 -0.00366844 -0.0017871688 -0.0043162885 -0.00031980197 -0.0014418248 -0.0011801044 0.0027118854 0.0022491824 -0.002193535 -0.004065725 -0.0021292202 -0.002084514 -0.003064518 0.0021704286 0.003330859 0.003639469 -0.0010862965 0.003613858 -0.00039136418 0.0017045512 -0.0013297206 -0.0029901643 0.0031443946 -0.004960827 0.0027430665 -0.0038672516 0.0041352473 -0.0037226675 -0.00042778446 0.0021099695 -0.0011740029 -0.0028241589 -0.00092029315 -0.0011324193 0.0047561573 -0.0024882925 0.004534724 0.0019056648 0.002071444 0.0027952925 -0.002990849 0.0014281762 -0.0008274305 -0.0009819111 -0.0016218068 0.00097230956 0.0026295192 0.00015711132 0.0031153308 -0.0007704485 0.004270705 -0.0029287115 0.0018934194 -0.00414034 0.0014051878 -0.0032134855 0.0014640586 0.0015199174 0.0021768964 0.0019892328 -0.0049150884
流鼻涕 -0.0025884877 0.002886735 -0.0046255495 0.0020193188 -0.0013703178 0.0021997879 0.0015269156 0.0020023542 0.004719704 0.0026117347 0.003549889 0.0036856134 0.001214056 8.2350336e-05 -0.0025616596 -0.0033346799 -0.0017701827 -0.0041052653 0.00024542128 -0.0016029157 0.0014721627 0.003195489 0.0046247956 0.00420683 -7.899108e-05 0.004926306 0.0032190871 0.0041727293 0.00466537 0.0049279225 -0.002720065 0.0041305115 0.0046051973 0.00081441825 -0.0034159773 0.00082610035 0.0016158937 -0.0039426386 -0.0038534726 -0.0003408356 -0.0020855977 -0.0013592613 -0.000646859 0.004326702 -0.0017187314 -0.004584829 0.001046467 0.0040401 -0.0023319034 0.004619402 -0.00044840603 -0.0012607174 0.0017617268 -0.0017024439 0.0023089151 -0.0024626926 -0.002989251 0.0005721254 -0.0030997903 0.003668419 0.0017223473 -0.0046739266 -0.003079784 -0.0042844606 -0.0037315164 -0.0050022164 -0.002296972 0.003310104 -0.004475968 -0.0010092261 0.0035905577 0.004457996 0.002800155 0.0033718352 0.00042124026 0.0018106428 0.0020340134 -0.0048047462 0.0014726365 0.00077432103 0.0032431511 0.0014361442 -0.0024517875 -0.0045885816 0.0027754216 0.0040502255 0.0035600879 0.00083161826 0.0020667936 -0.0038760605 -0.004246486 -0.0001621704 -0.0004038874 0.0033265618 -0.003665513 0.0043627336 -0.00063362316 -0.0020145178 -0.0034065486 0.0050123604
咨询 0.0032445935 0.003980792 0.0015879192 -0.0044810795 0.0036107134 -0.0011399369 -0.0025827202 0.0020799928 0.004706281 0.00338488 0.002607966 0.003275971 0.0018867615 -0.004484776 -0.004672438 -0.0021961017 -0.00014315543 0.00080180814 0.0033471778 -0.0045334985 0.002386114 0.003952777 -0.0039781565 0.0047728824 0.0045441836 0.0005669408 0.0048227254 -0.00022453762 -0.0019221717 0.00061735325 0.0018320394 0.002740712 -0.0019584415 0.0019661498 -0.000509859 -0.0031656572 -0.0032056493 0.0036025697 -0.00039887906 -0.0029226926 0.0042302688 0.00093480846 0.003989275 -0.0024757711 0.002810911 -0.0035485826 0.0013262854 -0.0032541996 -0.0005238607 0.0016680071 0.0007122309 -0.0006319526 0.00077259453 -0.0026596577 0.0023975845 0.0043277973 0.00024979058 0.0034444602 0.001807657 0.0033019038 0.00043856795 0.004206246 0.0046251905 0.0008948335 0.0013740147 0.0009953023 0.0017424088 -7.6866745e-05 -0.00270979 -0.0037891062 -0.00013582654 -0.0028691278 -0.0034438274 -0.00084419997 0.0045880033 -0.002322461 -0.0030276226 -0.00052553054 -0.0021566392 0.0023938112 0.003467945 0.0044743344 -0.0014865929 0.0004133296 -4.8894683e-05 -0.0033199324 -0.0027878487 -0.0029946207 -0.0015649267 6.301086e-05 0.0034921505 0.0013762487 0.0026513096 0.0008702601 -0.0028448603 0.0026470295 0.002043705 -0.004137327 0.0023069275 -0.0014567205
尤其 0.0030826896 0.002216197 0.0019304971 -0.0013989806 -0.00019046858 0.0042501776 -0.0025903508 0.00048085465 0.0015300491 0.002138556 0.0015247072 0.004947586 -0.00023029557 -0.0045952294 -0.0015229757 -0.0015094343 -0.004841278 0.000648703 -0.003563296 0.0032765397 0.0030331872 0.00091157027 0.0029052333 0.0044060135 0.003967058 0.004407017 -0.0017878643 -0.0046544336 0.0024260234 -0.004628886 0.00063740526 0.0001613281 0.0018477922 0.0026983647 -0.0029314626 0.004270275 0.0037012626 -0.0020646146 -0.0012129507 -0.0020069596 -0.001506622 0.0017250141 -0.0004946016 -0.0020162063 0.0023411498 0.0043005296 -0.0018106259 -0.004165736 0.0044306507 0.004610973 -0.0032810885 -0.0003028519 -0.00010978746 -0.0002770402 -0.000827691 -0.003651276 0.0033504565 0.0025863638 -0.0026288992 0.00334918 -0.0035355568 0.00067517156 0.0028846457 0.004031447 0.004361821 0.0027218873 0.0009695625 -0.0035764794 0.004366895 -0.0016773557 -0.0041946582 -0.0036345327 -0.0030105652 0.0013049851 0.00027820168 0.001216787 -0.00012153124 0.0015224374 0.0034808866 0.0043416717 -0.0047556446 0.0029160576 -0.001091597 1.6930746e-05 0.0004748961 0.0006498283 -0.0045306627 0.0024837558 -0.0027675147 -0.0030452425 -0.002046575 -0.0038232428 0.0013560569 -7.120171e-05 -0.0037284626 -0.0028804624 0.0022135184 -0.0012788469 0.004211057 -0.004059637
有时候 0.004392767 -0.0034544743 0.0032817728 -0.0036637592 0.0035897833 0.0011096144 -0.004716084 -0.003569906 0.0014227884 0.00084274507 -0.0044245757 -0.003777912 0.004461437 0.0043243677 0.00019041526 0.0022154562 0.0037188786 -0.004209669 0.0021547915 -0.004685501 0.004765911 5.006576e-06 0.0008694408 -0.00041618192 -0.0021760396 -0.00067527004 -0.0014588624 -0.0034459673 -0.0045057833 -0.0037611779 -0.002434655 0.004916816 -0.0042826845 0.0009192601 -0.0013610398 0.004981795 -0.0039280998 -0.0021919261 0.0028969506 -9.1771784e-05 0.0025491815 -0.0008106997 -0.0007982778 -0.0010887624 0.0010301607 -0.003869189 -0.0022336538 -0.0043586716 0.0019216423 0.0017374102 0.00073217624 0.001482253 -0.004045868 0.004614885 0.0032469302 -0.002485279 0.0034097943 -0.0013213252 -0.0039190697 0.0048792893 -0.002212986 -0.004136836 -0.0045565674 0.00079519354 -0.0013309455 -0.0027509124 -0.0020459916 0.005036531 -0.003583984 0.0007330189 -0.002181125 -0.0041687256 -0.00306185 -0.0030470376 0.0049351105 0.004033232 0.00031316825 0.0042319167 0.00030713264 -0.0012081551 0.0013910512 -0.003995458 -0.0048517026 -1.8562254e-05 -0.001283543 0.0037708431 -0.0025692678 0.0007107949 0.0014144909 -0.00017453953 0.0043335166 -0.0048307423 0.004431326 0.0032602863 0.0011971524 0.002140328 0.0020506247 -0.0006430271 0.0007966013 0.0043692123
儿童医院 -0.00013209264 -0.0010162124 0.0036640945 0.0050493595 0.0035873144 0.0006940286 -0.002537692 0.00047072748 0.0014637207 0.0032022567 0.0028684442 0.004888251 0.002330345 7.3674346e-05 0.0011967714 -0.0029797254 0.0030740085 0.0014232264 -0.002305064 -0.002507079 0.0020958416 -0.003440056 0.004358624 0.0041056336 -0.0022695563 -0.0037057714 -0.0015946713 0.00090805686 0.001344886 -0.0047959737 -0.0031101757 0.00023693989 -0.0020150144 0.0005688901 0.0024762447 -0.0017473814 0.003421855 0.00013036077 0.00076694967 -0.004283868 0.0045647854 0.00046922918 -0.0044976836 -0.0005951777 -0.0016419374 -0.0029911695 0.004481782 -0.00045516988 0.00019183314 0.0010195058 -2.9778208e-05 0.000103503655 0.0037641132 0.00022193414 0.00023469471 -0.0029555382 -0.0039806874 -0.004032654 0.000765693 -0.0019940445 0.0019025076 0.004834114 0.0017075178 -0.003809966 0.0018994084 -0.0011317901 -0.0037295553 -0.00091907097 0.0037146593 0.0043151025 0.0041191746 -0.0014322981 0.000589559 0.0020921398 -0.0030070585 -0.0022226165 0.0006900879 0.002971338 -0.004526824 0.00035273738 0.0009230417 0.0031465827 -0.004013584 -0.0029202988 0.002462412 0.00039598628 -0.0018560729 0.0042022606 0.0036093448 0.0030485026 -0.004799908 -0.0032679655 -0.002661859 -0.00051364506 0.004278444 -0.0013477488 -0.0040073292 -0.0008371826 0.0018668263 0.0006973417
CT 0.0023269083 0.0031295815 0.0042140144 -0.0039007682 -0.0027484712 -3.9827853e-05 -0.0010236109 -0.0012066793 -0.0032147884 0.0026586507 -0.0008362939 -0.0049913265 -0.0038060907 -0.0035056046 -0.00052223925 -0.001644419 0.002757768 0.004065933 -0.0024568527 0.0022457833 -0.003121388 -0.0008491364 -0.0009776975 0.0003586809 0.004633883 -0.0009746641 0.0016902172 -0.0022902442 0.004935664 0.0049642967 -0.0018992452 -0.0020185453 0.0013490395 -0.0010308513 -0.0043216925 0.0025520425 -0.0009685915 0.003275073 0.0006976005 -0.004997926 0.00027646462 -0.0030303495 -0.0033368613 0.0006562905 0.0027972364 -0.004047855 -0.0025504483 0.0034311186 -0.0011281305 -0.0014298614 -0.0032729248 -0.0029489184 -0.0029997549 -0.0031687047 0.00064695964 -0.0010368495 0.0007821787 0.0012448305 0.0016474416 -0.0042138016 -0.0007946846 -0.00196305 6.621032e-05 -0.0014803923 -0.00075464253 -0.0029679744 -0.0048465477 0.0017559672 0.0024888047 0.00220916 7.9438156e-05 0.0012671233 0.00426704 -0.0012458746 -0.0014254441 -0.004538434 0.0001487603 -0.00019429484 -0.0002159422 0.0034767622 0.002932184 -0.00017635751 -0.0036385828 4.4374057e-05 0.003864958 -0.0014744959 0.00097223854 -0.0032281033 0.004048864 0.004195432 -0.0034764109 0.003404217 0.004261438 -0.00077484554 -0.0022897576 0.0041751564 0.002697037 0.004900788 -0.0029755866 0.004385961
腺样体 -0.0015881804 0.00016259716 -0.0035418125 -0.003818951 -0.004900988 -0.0021360428 -0.003949835 -0.0040711532 0.0029582072 -0.0001151344 0.0027791571 -0.00314916 0.0022637974 0.00041531265 0.0035521565 -0.0028742575 -0.0035037063 -0.0011939103 -0.0012004521 0.0036176017 -1.123419e-05 0.0020898043 -0.002529343 -0.0005376164 0.00028439792 0.004271865 -0.0003026374 0.004068848 -0.0043473095 -0.002220491 -0.0037631139 -0.0034287334 -0.0039895256 0.00339602 0.00020092295 -0.00094009587 -0.0047603096 0.0021516304 -0.004017853 0.00042854785 0.0038046553 -0.0028364286 0.0044932533 -0.00088048866 0.0026179128 0.0020485695 0.0027665996 -0.0008176037 -0.0010298983 0.001252958 -0.0012017877 0.004150072 0.002123665 -0.00020449625 0.00072217383 -0.0034268878 -0.00056829274 0.0017795732 -0.0021512662 0.000107030566 -0.002877201 0.0019014992 -0.0006717381 -0.004088764 0.0005868146 -0.0033629877 -0.0030785622 0.0038963468 -0.0026330212 -0.00013207631 0.0021433956 -0.0031659706 -0.00056842953 0.004805216 0.00292202 0.004881466 -0.0030722169 0.0026076462 -0.0017043877 0.0003893609 -0.003477604 0.003798685 0.0011544338 -0.0017047565 -0.0014482724 -0.004406814 -0.0013782168 0.00426254 -0.0038068986 -0.0022453475 -0.00069642847 0.00014389264 -0.0014158026 0.0045807366 -0.0029456858 -0.004050616 -0.0010832659 -0.004870673 0.00218513 0.0012406972
和 -0.0041178856 0.0025881657 -0.0028060386 0.0022301825 0.003331985 -0.0014973329 -0.0019272537 0.002620758 0.002390021 0.0047407886 6.0385828e-05 0.0020605207 0.0024041205 -0.0041855285 0.0033325737 0.0038665535 0.0025044528 -0.0008509501 -0.0041344743 0.004618088 0.001204294 0.00271126 0.00252835 -0.0031959938 -0.0017155944 0.0012313023 0.0043768142 0.0033793533 0.00087857846 -0.0013241707 0.0024564457 -0.0036763835 0.0047712517 -0.0040342007 -5.171271e-05 -0.004504519 -0.0023371987 0.0029079742 -0.002507237 -0.0027495788 0.004498213 0.002251446 0.0004881657 -0.0007669453 0.004851282 -0.0037456744 -0.0028122445 -0.0017808609 0.001208076 0.000684868 -6.419166e-05 0.0036134215 0.0016486893 0.0037811138 0.003135658 -0.0035068009 0.00078685256 -0.0009459843 0.001704297 0.002739011 0.0012331202 0.00047351795 -0.0048173433 -0.00020197015 0.0025313832 -0.0019832463 0.0006217247 0.004991477 -0.004504073 0.0020978888 -0.002945301 -0.001743903 -0.0012182519 0.00084579655 0.0018583462 0.00080270926 0.0024334623 -0.004623518 0.0014872571 -0.00442843 0.002496061 -0.0027086637 0.0023240908 -0.003178707 -0.0014218644 0.0049332106 -0.0035870324 -0.004564176 0.0030384373 -0.00079279835 -0.0042149313 -0.0026686296 -0.0016481772 -0.0025307282 0.0048906654 -0.0044292263 0.0003820162 -0.0033537254 -0.0039900513 0.0027687259
肺炎 0.002513707 0.0024390128 0.0009978237 0.0006378528 0.00027033722 -0.002428217 -0.002128557 -0.0025892875 0.0016586814 0.004119446 0.003148076 -0.0005997538 0.003609639 1.09273815e-05 0.004783627 0.0027213527 -0.004216393 0.002769229 0.003159802 0.0047761416 -0.0021981073 0.0030144104 0.00295001 -0.0022730595 0.0035203097 0.00043255693 0.0025566055 0.002890274 0.0006225493 -0.004835608 -0.0020325969 0.0014847114 -0.0045467904 0.0045402967 0.0031702698 -0.0034296245 0.00088177674 0.0026968196 -0.0017487513 -0.003756311 -0.0019603262 0.00070888386 0.0003640203 -0.00071675127 0.002324454 -0.002065679 0.0017017709 -0.0014989361 -0.0045442786 0.0021722151 -0.0019615092 0.0015831207 0.00065364334 -0.0026101873 -0.0037987288 -0.0018870864 0.0044646296 0.0020516638 0.004195951 0.0033955725 -0.0018211295 0.0021642658 0.002276532 -0.0021935438 -0.004225233 -0.0033750318 -0.0009218538 -0.003035682 -0.0035318483 0.00025560783 0.00092285464 0.0002947355 -0.0016854757 0.004398951 -0.002669386 -0.0046769963 0.0003779734 0.0030970268 -0.004819591 -0.0037572715 -0.0016163158 0.0039278865 -0.00035559136 -0.0040810993 0.003341645 -0.002901793 0.0039986977 0.004459201 0.00071983266 -0.0005024063 0.0006055805 0.004194933 -0.0020838804 -0.00033069795 0.0034687452 0.0021884267 0.0026470644 -0.00072711817 0.00013941784 -0.004091318
感觉 -0.00047970438 0.0016193903 0.004568721 -0.002565443 0.0041077402 -0.0031748423 -0.0011633037 0.0011495734 -0.0043075196 -0.0013081011 -0.0032273491 -0.0012768342 -0.0026941826 -0.004604522 0.0033438886 -0.0021832073 0.0034386816 0.004737367 -0.0027081724 -0.0020876587 0.003645433 -0.0022052545 0.00054914627 0.00241945 0.0003958338 -0.003326112 0.002910313 0.0026088662 0.002125669 0.0013084684 -0.0041480954 -0.0023919812 -0.0022951313 0.0050149513 0.0031244135 -0.003623103 0.0025397646 0.002524144 -0.004947259 0.0039534424 0.003278605 0.0045658345 0.0025895268 0.0022912843 0.0030329463 -0.0032657904 -0.004500188 -0.0018633406 0.0017306657 -0.0015621867 0.0011636551 0.0048643686 -0.0044863704 -0.0031167697 0.002526463 -0.0039224178 -0.0025457803 -0.0020204843 0.0034563793 -0.0037851376 0.002291236 0.004943322 -0.0012987792 0.0030280577 -0.00028538788 0.0046613016 0.0046928874 -0.003887315 -0.0036956372 0.0028754843 0.0029826534 -0.0048775114 -0.0045351246 0.00446403 -0.0046714717 -0.004747454 -0.0032135067 0.0004706315 -0.0046499074 0.00014250343 -0.0017628468 0.004828024 -0.0040901867 0.0043598986 -0.00075242156 -0.0042075897 0.004560237 -0.003109852 -0.0048727603 0.0015873775 0.0018081691 -0.001649121 -0.0017529638 -0.0014080475 -0.0039221626 -0.0047326013 -0.0019383684 0.004178626 0.00050108286 -7.3473035e-05
但是 -0.0032082717 -0.00031515327 -0.004092153 0.0003039135 -0.0034256836 -0.003181608 0.0013521035 -0.003294403 0.00095015584 -0.0010345185 -0.0026822626 0.0009305912 -0.0022133098 -0.0032124189 -0.0037033816 -0.00047002887 -0.000784909 0.0037546388 -0.00248204 -0.0021767365 -0.003173108 -0.0043293093 -0.0019167719 -0.00397703 0.00234936 0.002606911 0.0032665592 -0.00044486232 0.00069998926 0.0043559233 0.003915385 0.003921168 -0.0015522608 0.00408736 0.0017409754 -0.001217198 0.0044510914 0.00047851587 0.00335884 0.00071788154 -0.001560343 -0.0048598154 -0.0013516509 0.0041392474 -0.002407721 0.00048350013 0.0046224026 -0.0015950536 0.0034297516 -0.0009485436 -0.0008955331 -0.0016182836 -0.00417723 -0.0012108217 -0.0047681695 0.0010552898 -0.004782369 0.0048388164 -0.0048517357 -0.003970175 0.0047622705 0.0008283006 -0.004798068 -0.002023254 -0.0032851147 -0.00046628754 8.487234e-05 0.0030852545 -0.0024957275 -0.0023575162 -0.0048576496 -0.0027404814 -0.0017260179 0.004210392 -0.0025902973 0.0029069216 -0.00031172 -0.0027882264 -0.0046901116 0.00022351815 0.0048444476 0.0009294232 -0.0023910068 -0.0022147256 -0.0028074367 -0.0012575965 0.00047476037 0.004215273 0.0026869546 -0.0004221425 -0.004214124 0.0033112762 -0.0025202546 0.0032138384 0.0011019625 0.002418416 0.004654038 -0.00072960864 -0.0022385546 -0.00047579024
让 0.0044498285 -0.0020985396 -0.0013305569 -0.0013451475 -0.0038147038 0.00085869746 0.0009951849 -0.0015389159 -0.00060894364 -0.002382407 -0.0036359823 -0.004447585 -0.004182134 0.003627076 0.0030104339 -0.0035155471 0.0008431207 -0.0048972345 -0.004067815 0.0042706127 0.002922294 -0.004821753 -0.0021797365 -0.0037532598 -0.0011448393 -0.004567542 -0.0024192838 0.0011441342 0.00076983636 -0.0038529672 -0.0002319389 -0.002729299 -0.000601652 -0.0046833484 -0.0004289588 -0.0047823093 -0.0006777918 -0.0018051224 -0.0005908322 -0.0042536957 0.00048586837 0.0008061984 -0.002720403 0.00092598965 -6.43862e-05 -0.0026703102 0.0034847269 -0.0038863434 -0.0013908817 0.0020570983 -0.0036202453 -0.0025540586 0.0029912216 -0.0021677145 -0.003877746 0.0009652845 0.00042829753 -0.001308978 -0.00060581195 -0.00061633723 -0.001913978 0.0015679525 -0.00414203 -0.00268805 0.00023932508 0.004091886 0.0048401244 0.0026127405 -0.00415458 -0.0035324336 -0.0022322554 -0.0037112683 -0.00076601026 -0.0021864418 0.0007653954 -0.0034816412 0.00050917035 -0.0019610398 -0.0031484305 -0.002936838 0.0042609316 -0.0030975866 0.0014353942 0.0042282376 -0.0037108215 0.0011749564 0.0041330443 -0.001712552 -0.00054122857 -0.0009020401 -0.0033596158 -0.0032852595 -0.0042023556 -0.0025926975 -0.0040370845 0.001997067 0.0047403723 0.0036656603 0.00042806004 0.001411285
其他 -0.0023492728 0.0018436696 0.0043070773 0.0040747365 0.0031669065 0.00097087095 0.0037477307 0.0019571672 0.00470729 -0.0014598796 -0.0035106104 -0.003156393 0.0033778644 -0.0036204478 0.0027816403 0.0024805446 -0.001109867 0.0030376886 0.00014581335 0.0012038072 0.00015908992 0.004744664 0.0011636786 -0.00072884 -0.002413285 -0.0043903426 -0.0028326972 -0.0003916273 -0.0040944046 -0.0016781122 -0.003957072 0.0016383533 -0.004866205 -0.0026535788 0.0034196922 0.00093887636 0.0032614197 0.0010691578 0.0049649123 -0.002133079 0.00063333876 -0.0034962245 -0.0040570195 0.002472351 0.0009167496 0.0019791685 0.0037616247 -0.0033206062 -0.004017285 0.0017228151 0.0025917792 -0.0030343197 -0.002926225 -0.0017284096 -0.004947975 0.002671101 0.0036884558 -0.0018871981 -0.0038033638 -0.0008310451 0.0018499478 0.00486533 -0.0031371135 0.004792058 -0.004907661 -0.0034393528 -0.0012720656 -0.0027372171 0.0013942808 -0.00304125 0.002953595 -0.0029874144 0.0027864254 0.0045540323 0.000871791 -0.0007068785 -0.002688677 1.6947683e-05 0.0047531934 -0.0013871747 0.0044920403 0.0027484344 0.0006509081 0.0046037324 0.0012131267 -0.003257836 0.0050298106 -0.0027571977 0.0029421514 0.0008346915 0.00093573926 -0.0027869025 -0.00023108197 0.0015061205 -0.0040992787 -0.004176962 0.004558986 0.002119222 -0.004794029 0.003404099
没 0.0006989515 0.003226644 0.004393898 -0.0018026399 -0.0041224607 0.0003772583 0.0023190596 0.002956318 0.00016078097 0.004012093 -0.0020123078 -0.0005378948 -0.0047008186 0.0041689263 -0.003980095 -0.0023838724 -0.0009868632 0.0038072336 -0.0038853562 -0.0029211622 -0.0037207415 0.0015593425 0.0043670526 -0.0015144477 -0.0024053492 0.0030777985 -0.0018979826 0.0027248159 0.004122388 -0.0016871309 0.0034763599 0.0034254002 -0.0025437719 0.004195679 0.0044745123 0.0032569265 -0.0019455194 0.0049758395 0.0038881823 -0.00059750205 0.0030019032 0.0030624806 -0.00390848 -0.0014994846 0.00013751978 -0.0011008542 -0.000956678 0.000765693 -0.003906521 -0.0048575997 0.0044793882 0.0004487676 0.0044333246 -0.0011187134 -0.0033511813 0.0041291057 0.0023482507 0.0021662111 0.00016940002 0.0018849482 -0.0043009357 0.0028136563 0.002569994 0.0029222039 0.001695713 0.0030580007 0.00054774457 0.003740491 0.001019445 0.0048973844 -0.0003045107 0.0007262238 0.0005204148 0.0035345964 -0.0006425676 -0.004209649 0.0009029086 0.0029138294 0.004273966 0.0026332496 0.0010952334 0.00057922775 0.00016069696 -0.001050131 -0.0042047384 -0.0021398896 0.0045614536 -0.0024006783 -0.0032030959 0.0035464643 -0.0044991365 -0.0007695185 0.002556069 -0.003585321 0.0013113597 -0.0031884906 0.0012099616 0.0010993151 -0.004438125 0.000686515
幼儿园 9.116343e-05 0.0017366476 -0.0013597724 0.004091168 -0.0028876597 0.0026729384 0.0009802313 -0.0045241327 -0.0025109497 -0.0012581906 0.0012642125 0.00017039868 -0.0042226575 -0.0003393456 0.002520161 -0.004052922 -0.0018116324 0.0033766595 0.0011950029 -0.0001418891 0.00219233 -0.0030640333 0.0010207258 -0.003018146 -0.0010960965 -0.0027354218 -0.00379067 0.0032411488 0.002219891 0.0033182558 -0.0016320538 0.0023606375 0.0045569986 -0.004353693 0.0025338826 0.0035167811 -0.001970667 0.00039837582 0.0028481558 -0.0018836337 0.0042961747 -0.0029689714 0.0010016767 -0.0028256394 -0.0022196851 -0.0027474468 0.002003823 0.00038819804 -0.0006637931 0.004226542 -0.002200104 0.0049069803 0.00015129597 0.00073520077 -0.0025443002 -0.00024105037 2.532632e-05 -0.00484065 -0.0038340015 0.0012500241 0.0050549377 -0.0025448834 0.0019492982 -0.0025994515 -0.0024839519 -0.0017803068 -0.00010568505 0.0015362636 0.0007061726 0.0017616834 0.003217911 0.003146035 -0.001750347 -0.0026029977 -0.0027379096 -0.001416223 -0.0016893112 0.0021688305 -0.00014613132 -0.0048379404 -0.003170822 -0.0026511059 0.0036535244 -0.004639533 0.0027402604 -0.001219835 -0.004926782 0.0004667397 0.0012892885 -0.0032155905 0.004639983 0.0013952105 0.0044677416 0.001274288 0.0041398164 0.00063218246 -0.00078220665 -0.004087434 0.0010315757 0.00432551
晚上 -0.0021561722 5.2181633e-05 0.0022994818 0.0026307695 0.004308111 0.00031461072 0.004139489 0.0036892705 -0.001379841 -0.0043203803 0.0034036685 -0.0020964025 0.0039278343 -0.004854929 0.0029365725 0.00013700503 -0.0012247704 0.003366271 0.0006555249 -0.0042084875 0.0014605641 0.00443724 0.0021443253 -0.002614825 0.004080591 -0.0025735956 0.0011280141 -0.00031409969 -0.001996661 0.0038891821 -0.00014793577 -0.0045231055 0.004784336 5.208106e-06 0.0043967124 -0.0026026613 0.0047732783 -0.0041832076 0.004483761 -0.00092567573 0.0018830412 0.0035745017 0.0041909544 0.0049331263 -0.0012433355 -0.0010812128 0.003139387 -0.0049459706 -0.00300633 0.0012399064 0.0002103768 0.0030059277 0.0041447636 0.003418027 -0.000236694 -0.0010704071 0.0014014543 0.0012097133 -0.003319144 -0.0015627248 0.004805443 0.0007690851 0.0013767402 -0.00240717 0.0028821044 0.0014789286 -0.0016287221 0.00481628 0.0021308928 -0.0024988896 0.003593872 -0.0023119492 0.0006688708 -1.1802067e-05 0.0022180108 0.00019231079 -0.00042956392 -0.001862109 0.001156831 2.5911697e-05 0.00010887008 0.0048206705 -0.00068405416 0.0008914506 -0.004490418 0.0021536937 0.004926609 -0.003826102 0.0012482837 0.0034917274 0.0035113352 -0.003461657 4.090264e-05 -0.0019113709 -0.002480328 0.004060576 -0.0022300747 0.0014005074 0.004499865 -0.0040787715
当天 0.0048012407 0.001675718 0.0010596245 -0.0032686682 0.0048975563 0.003133002 0.0039198855 -0.0024456435 -0.002349291 -0.000730505 0.0014433411 -0.0037387975 -0.000636712 -0.0009188375 -0.00090467505 0.0026895767 0.0019050882 -0.0019393074 -0.0010760762 -0.0032732734 -0.0028359073 -0.0005003352 0.00085077557 0.003023198 -0.0011664826 0.0046777846 0.00186812 -0.004373653 -0.0035722144 0.00077187474 0.0018909817 -0.0019133908 0.0044080447 0.0009002599 -0.0046499646 -0.0018983167 0.004522735 0.0039142966 0.0022588163 0.0042445185 -0.00071955833 0.0012177323 -0.0043071355 -0.00072885933 -0.00029052654 0.00032905737 -0.0033550397 -0.00012655502 -0.0017345437 -0.0016069264 0.0030154076 -0.0018777467 0.0007354197 0.0044478606 -0.0022984499 -0.00019245979 -0.0021650172 -0.0014231259 -0.0038758705 0.0006422327 0.004074244 -0.0035044209 0.0017350941 6.5338834e-05 0.0033924503 0.00047262662 -0.0011460648 0.00443029 0.004747176 0.0044685034 0.0047897385 -0.002442071 -0.004091597 -0.004787844 -0.004867245 -0.00010913604 0.0037588738 -0.0017498962 -0.0020994833 -0.003449295 -0.0021978512 0.0011903396 -0.0033674252 0.004808287 -0.00013837924 -0.003127954 -0.0036376982 0.0005541051 0.0028613752 0.0031584383 -0.0007778701 0.00153474 0.0013039684 -0.001643954 -0.0008539186 -0.0047497726 -0.00091497094 2.3784916e-05 -9.421286e-05 -0.004034553
是不是 0.00058442034 0.0018993104 0.0025998296 0.0048509496 -0.002951426 -0.0013263171 0.0048705707 0.0044883997 -0.0037199906 0.0049348767 -0.0048966543 0.0036926768 -0.0042906706 -0.0030428418 -0.0036347804 -0.00012670591 -0.0016979726 -0.0044030584 -0.0022417833 -0.0042184927 -0.0019510614 -0.0015403723 0.0039220727 0.0032920435 -0.00343177 -0.0004998292 0.004488478 -0.0040790155 0.0019362883 -0.0028257878 0.0036439614 0.0040160213 -0.0024311198 0.0042564506 -0.0016043045 -0.0041649383 5.7007986e-05 -0.0027525548 0.0043432014 -0.0042580585 0.0007656647 0.00040360534 0.0014567776 -0.001369211 -0.0022422525 0.003938865 0.0023927065 0.0034475964 0.0041776607 -0.0009235074 -0.0021014707 0.0019967053 -0.0016374676 0.004565497 -0.0029129568 -0.00015056293 0.00087210565 0.0006855509 0.003308884 -0.0021658964 0.0018721739 0.00092845235 -0.0031908765 -7.483835e-05 0.0010130396 -0.003045947 -0.0021883638 -0.0024710114 -0.0046237675 0.0014265242 0.0034612846 -0.0014807126 0.002684263 0.00040819045 0.0031629484 0.00413524 0.0005303045 -0.002107062 -0.0031594483 0.0035397913 0.004487834 -0.0034132872 0.0039543584 0.0040739123 0.0042391564 -0.0034249078 0.0050414237 -0.0011867653 0.00045852165 0.003453132 -0.0010204279 0.0018607312 -0.0025336568 0.00034535895 -0.00043680277 0.0043477924 0.0036370438 -0.0042528883 0.0028909275 0.0035111667
早上 -0.0044296114 0.001871704 -0.0026305034 -0.0018306043 7.501062e-05 0.0046546306 0.00056746206 -0.0040121726 -0.0045011444 0.0017622143 -0.004127095 -0.0034614557 0.002437689 -0.0008014783 -0.00412821 -0.0008827729 -0.0048269182 -0.0030761005 0.0037528635 0.003735385 0.002351015 -0.00062363606 0.002198529 -0.0030095899 0.004391377 0.0030928068 -0.00049027195 -0.004279867 -0.0031718696 -0.0011621048 -0.001923395 -0.0047140745 -0.0039266353 -5.99176e-05 0.0032925347 0.0026612643 -0.0025476513 0.00012621902 0.002226468 -0.0043643527 0.0026565518 -0.00244736 0.0007966594 -0.0012919257 -0.0011902008 0.0011664811 0.0016620172 -0.0045002564 -0.00027180035 -0.0041215885 -0.002487981 3.1624062e-05 -0.00038302617 0.00408537 -0.004077786 -0.0014375855 -0.0036828995 0.004402378 0.001224191 0.0048175515 0.00016085018 0.00087955705 0.0048031653 -0.0049557406 0.0035102374 0.00021499043 -0.0009611664 -0.0028664698 0.0035303822 0.0010547981 -0.0032714517 0.0014561539 0.004972523 0.0031376143 -0.0022029462 0.0016841856 0.00048067464 -0.0025801756 0.0014819027 -0.00034742983 -0.003125885 -0.0037735857 0.003341278 -0.0037741652 -0.0016516285 0.004826668 0.001903444 0.0005617719 0.0007863608 -0.0018845679 -0.0005606205 0.0010410218 0.004517112 -0.004722701 0.0003358062 -0.0042382795 -0.004394317 -0.0032922484 -0.0024427103 -0.0019237095
一直 0.003797368 0.004324843 -0.0010169756 -0.0039747604 0.0001846174 -0.005002526 -0.0006820625 -0.0029875734 -0.0019348308 -0.0015966535 0.000134303 -0.0005010868 0.004953533 0.00012414195 0.0028003461 -0.0014178926 -0.0030373456 0.0034923884 -0.0020770396 -0.00032197603 -0.00323941 -0.0021222844 -0.0041875397 -8.480214e-05 -0.003201736 0.0003225055 0.0030273166 0.0025356605 -0.0009949849 0.000105238905 -0.0031238021 -0.00023064233 -0.001639066 0.0007911213 -0.0049282094 0.0037905525 0.0042056898 -0.00035624974 0.0015552142 0.00015480154 0.00043890544 -0.0031979727 0.0012769238 -0.0013455806 -0.0014494237 -0.004058273 -0.0015228409 0.0031908578 0.0029348258 0.0029472332 0.0014880829 -0.0030905213 -0.0044091474 0.0016844627 0.004813566 0.003168118 -0.0046186056 -0.00026769293 -0.0037681279 -0.0049556284 -0.0009240044 0.004317788 -0.0026266722 -0.0023098544 0.0039007252 0.0025880118 0.0030412306 0.0014191 -0.0033092934 -0.003281917 0.0028600516 -0.0020487662 0.0022638938 -0.0007465013 0.0022788553 -0.0036886698 -0.00012477768 -0.0021826276 0.0031358872 0.003919815 -0.0048552756 0.00073653256 -0.0031615542 0.0045819343 -0.0030227345 0.0028011983 -0.0010710078 0.0011312439 0.0011301319 0.0040715095 -0.0027752507 -0.0030784535 -0.004002642 -0.0008377255 0.0022217766 -0.0044978317 0.00086410344 -0.0044589047 0.0023122204 -0.0023899626
就是 0.0027670895 -0.0019610461 0.004440168 -0.00023557885 0.0036027273 -0.0018694551 -0.003927777 -0.002002346 0.00067932985 0.0020991464 0.0008171204 0.0018255836 0.0017943251 -0.00322394 0.003957049 -0.0048032887 0.0031823786 -0.004217998 0.0021758992 -0.0012778888 0.0030362585 -0.0018341632 -3.5360925e-05 -6.0828108e-05 -0.004848916 -0.0048778346 0.0013453756 -0.003619268 -0.0017016025 0.0017536624 0.002783434 0.004243158 0.0005764834 -0.00027438093 0.00142559 -0.0007173613 -0.002893247 -0.0004236189 -0.0016552412 -0.0018908539 -0.00032294673 -0.0006739068 0.003700787 0.0034387019 0.0031584592 0.001787693 0.0033573264 0.0020318737 0.0013021475 -0.00094919314 0.0013821247 0.004971455 -0.00327876 0.0015943284 0.004099268 0.0015487316 -0.0031988139 0.0023894391 0.0014795793 -0.0022966324 -0.0037828393 -0.0014224172 0.004832231 -0.0031277025 0.0019771412 -0.00097533123 -0.002180775 0.004025121 -0.0013430666 0.0018214397 -0.0015218233 -0.00336989 0.0008726276 0.0032488944 -0.0028494596 0.0011207705 -0.0015031059 0.0018104471 0.0034850033 -0.0009195315 -0.0016786802 -0.002392495 0.0031353843 -1.5313135e-05 0.0017502846 -0.0043790936 0.004652038 0.0027240848 0.00018709074 -0.0035721364 -0.0043646283 0.0045395494 -0.0019186073 5.2813386e-05 -0.0011405507 -0.0046065757 0.0014657534 -0.0018255163 -0.0007557029 -0.0048069283
全吐 -0.001081494 -0.0047362284 -0.0025229445 0.00076817477 0.0024948516 -0.004380962 0.0015919744 4.03905e-05 -0.003015723 -0.0009503992 0.0030715738 -0.0022378264 -0.0015425282 0.0034513273 -0.0018771548 0.00015795698 0.0022754455 -0.0010729459 -0.0045088585 0.0034737466 -0.004611591 -0.0018393057 -0.004264084 -0.0028630984 -0.0034202915 0.00050510163 -0.0014990572 0.0006017957 -0.0028680426 -0.001064008 -0.00040747185 0.0010334803 -0.0046331296 -0.0017916249 0.0035098225 -0.0038323307 0.003325736 0.0030290964 -5.228169e-05 0.004050924 -0.0031233842 -0.0008231436 -0.0022462448 -0.0044829333 -0.0019082527 -0.0015612267 0.0002576549 0.0035205132 0.0035560646 -0.0031128144 0.002149867 0.0028397741 -0.0049776547 0.0040275557 -0.0029034181 0.0019172528 0.004254341 0.0035951268 0.00122763 -0.00222501 -0.0048859343 0.0047823284 0.0030034182 -0.004893823 0.0020556094 0.0018019932 0.0029291552 -0.003377848 -0.0038795 -0.0022857285 -0.00029674318 -0.0033938286 0.0017634855 0.0017181581 -0.0049119685 -0.0019751762 0.004653979 -0.0010693513 -0.0031564399 -0.00073760987 -0.0047995127 -0.00075656374 0.0046733697 0.0032377448 0.0033621332 0.0030536742 0.0042361864 0.004283478 -0.00010804879 0.0002659858 0.0041986355 -0.00016221758 -0.0038571907 0.000648176 -0.0006891133 0.0036074035 -0.0005616176 0.0042772326 0.0008739744 0.0020175825
下午 0.0043750787 -0.0030831455 -0.0041622347 -0.0014205528 -0.0037501524 -0.0014045726 0.0048438646 -0.0028241167 0.003494874 0.0011536706 -0.0006776675 0.0019656958 -0.0027129573 -0.0017479721 0.0017915268 0.002567846 0.0016355626 0.0018402063 -0.0023244172 0.0012499985 0.0018435017 -0.004208965 0.0005555995 -0.003098196 0.00016473404 -0.0025809915 -0.001269383 -0.000394728 0.001764593 -0.0027799685 0.00082517136 -0.0042894166 -0.0036618924 -0.0032058472 -0.0032134072 -0.004903157 0.0044744103 0.0020093694 0.003640203 0.002815888 -0.0013269682 0.00040645504 -0.001356779 -0.0035441103 0.003976867 0.0029867608 0.0023392902 0.0029169507 -0.0038152102 0.00048488678 -0.0015538101 0.004949182 0.0006993024 0.003899905 -0.0010669595 0.0009120784 0.003030814 -0.0031585682 0.0022969104 0.00016512474 -0.0034861183 0.0003764364 -0.004351074 0.0037037598 0.00048066652 -0.0002370996 -0.004647438 -0.0013298223 0.0009805497 0.0047794995 0.0043034456 0.0030610627 -0.0035898031 0.0034730488 -0.00021294627 0.0023168437 -0.0049364646 3.2082622e-05 -0.002017492 0.0035403983 -0.0020416523 -0.0046074027 -0.0032843503 0.0033681865 0.003528282 -0.0021106906 0.00246179 -0.0031265384 -0.00044188733 -0.0005115735 0.0038749126 -0.0010664253 0.0041471254 -0.0007182691 0.0043939366 -0.0044147545 0.00031418755 0.0013816641 0.0028506874 0.003726565
然后 -0.002141203 4.5877765e-05 0.004306113 0.0041759866 0.0019136938 0.0021245547 0.0046298243 0.0030755177 0.0023986513 -0.0025769928 0.0035776247 -0.00072637125 -0.0032202674 -0.0005738481 0.0001602294 0.0037787731 0.003312361 0.00023546231 0.0044467887 0.0013905538 0.0034509387 -0.0045084367 -0.004158323 0.0042572245 -0.004500957 0.0021029103 0.00067324034 0.00417637 -0.0025693409 -0.00151954 0.0037091824 0.0028140044 0.0012725132 -0.0018787901 0.0027742053 -0.0048305895 0.0045740814 0.00047435996 -0.0007151953 -0.0004531138 0.000810122 -0.001100821 -0.00034470554 0.0022500446 -0.0019066553 -0.0024427238 0.0028948877 -0.0017218797 0.00017266006 0.0043053413 -0.00048906356 -0.0033272307 0.0013969004 0.0007155546 0.0029611643 0.0015125587 0.004532996 0.003027371 0.0012707445 -0.0028513132 -0.0013511193 -0.0018303496 0.0026999738 0.0029480497 -0.0033287061 0.00020830783 -0.0031275577 -0.003916378 -0.003825603 0.0017016398 -0.001847344 0.0023273055 -0.0037212695 0.001167663 -0.0048618754 -0.0049372325 -0.00198149 -0.0011293523 -0.0042446307 0.00049827015 -0.0032868122 -0.0023170738 0.0004942098 0.0015239025 -0.0018066528 -0.0034550054 0.0017973976 0.001391874 -0.0036312523 -0.004859249 -0.0008734314 -0.0019557895 -0.0015684328 -0.0032898085 -0.003961153 0.0028969967 0.0011090343 -0.0017045168 0.0014665006 -0.004322748
她 0.0026506707 0.0012599498 -0.00023619029 -0.0042453543 0.0028705846 0.00288611 0.0013600748 -0.0025902526 -0.00021122846 -0.0017592987 -0.0035275908 0.0027086295 -0.0046678754 0.00332335 0.0018518849 0.0019361628 -0.0018525869 -0.0007048475 -0.00018254748 0.0032229633 0.004061811 0.004611933 0.0022261327 -0.0038435368 -0.0050028474 -0.001762594 -0.00041648207 -0.0022430047 0.0044808486 0.0011287539 -0.00025297125 0.0003630795 -0.002407864 0.0034799585 -0.0028755786 0.004544425 -0.0010753134 -0.00011899325 0.004566317 -0.0005828755 0.0046690893 0.0030906973 0.001941208 0.0001804264 -0.001001634 -0.00086009805 -0.001991403 0.0012218497 0.0026809114 -0.0048530013 -0.0013697603 -0.0015720903 -9.905068e-06 -0.003631482 -0.0020965226 -8.051136e-05 0.0008176144 -0.00056006387 0.00014184378 -0.004999084 -0.0043990216 -4.509129e-06 0.0019398634 -0.003162963 -0.00014228134 -0.0022070059 -0.0023309323 0.0004392376 -0.00018036533 -0.0010847555 0.0035603053 -0.0024704991 -0.003106942 -0.0032765765 0.0037610354 -0.0009600145 -0.0016277195 -0.0035543647 0.00051204005 -0.0036368172 -0.0006673163 0.004489393 -0.0028690642 0.0017108909 0.0012335336 0.0026934065 -0.0047154785 0.0032425032 0.0013910865 -0.004268675 -0.0024547423 -0.00066689256 0.0029792779 0.00015163807 -0.004464292 -0.0017127878 -0.003789306 -0.0032029555 -4.8467136e-05 0.002405321
发现 -0.0019662958 0.001501872 -0.0003686586 0.0027079694 0.0022881702 3.3736666e-05 -0.0018928283 0.0023225443 0.00193145 0.0049342234 0.0038000217 -0.0038539022 0.0009505327 -0.0018582827 -0.00445635 0.003643174 -0.0015672285 -0.0030998583 0.0031562056 0.0021163127 -0.0019513732 -0.00042565164 -0.0049528424 0.0013117392 0.0021657145 -0.0044763098 -0.0035104086 -0.0043764855 0.0009822667 -0.000548263 -0.0035409757 0.004584028 -0.0045568366 0.0015119591 -0.003271856 0.0036297236 -0.0012341429 4.3855398e-05 0.004807024 -0.0024158752 -0.0016187907 0.0040194285 0.0003834677 -0.0007202741 0.0044204313 -0.00026933418 -0.0039028844 -0.0007166104 0.0048993067 0.0025390785 0.0009402378 0.0014142022 0.00305029 0.0044219936 0.0001516365 0.0027825634 -0.004313431 -0.003229376 -0.00023349709 -0.0026228898 -0.0015546278 0.0024498578 -0.003247399 -0.0015785681 0.004286106 -0.00076894445 -0.0024966903 -0.0013254886 -0.0048647895 -0.004751506 0.00025876286 0.003864326 0.0039934297 0.0014845565 0.0042268103 -0.004112329 0.0019405632 0.0032956211 0.003985019 0.00088776933 0.0009123296 -0.0025680936 -0.0036831708 0.0012649656 0.0039217817 -0.0009116835 -0.0006764091 0.0020511486 -0.0046670972 -0.0020260378 0.0028920018 -0.00015046746 -0.0036381604 0.0038519332 -0.0024024495 0.004206549 -0.004877227 -0.0032468839 0.00018907087 0.0029376172
白细胞 -0.0015012512 0.004763126 -0.000555682 -0.0012079801 -0.002657623 -0.0038715603 -0.002846958 -0.0017035822 0.00048573848 0.0032985436 -0.0042859176 0.001642341 0.0026315267 -0.0025269992 -3.389096e-05 0.004768666 0.0024941964 -0.0014115095 0.0014447127 0.0045983754 0.003645121 -0.0024280245 0.0006707989 0.0022149559 0.0029503624 0.0029832402 0.0021510741 -0.00091564254 0.003389924 -0.0045981 -0.004630645 0.003432261 -0.004003265 0.0002866914 0.0028853314 0.00063539733 0.0033295907 0.0022118052 -0.0008214969 -0.00096633146 -0.0038134416 0.0018399466 2.7212369e-05 0.001044137 0.0031567218 -0.0018598501 -0.000526582 0.004633923 -0.0027525062 -0.0008410799 -0.004835204 -0.0011113462 0.0017457866 0.004187384 -0.0025712585 -0.0023680923 -2.7044946e-06 0.0027157182 0.0008878507 0.004528843 -0.0015461526 0.0021470224 0.0009004843 0.0031818582 0.001927423 0.0013231506 -0.0038211853 0.0032571522 -0.0012649078 0.0021040372 -0.002578029 -0.0021051418 0.004412864 0.002350341 0.0019917241 -0.0020543362 0.0020299219 -0.0005497026 -0.002405435 0.0016253585 -0.0014605618 -0.0004991863 0.0032556497 0.0016271617 -0.0017449807 0.0002454168 0.0021543857 0.0007318658 -0.0030796495 -0.0019106057 0.001279997 0.0015993253 -0.002084972 -0.0009939509 0.0007066376 0.00048348276 -0.0046829376 0.0014393338 -0.0019103192 -0.0015146162
感染 -0.004760324 0.0035592548 0.0017109769 -0.0010660248 0.0011941091 0.0018595464 -0.0050216396 0.00044500208 -0.0029598104 -4.130009e-05 0.0033398569 0.0023551872 0.0020657168 0.0033928968 0.0022916056 0.002605414 -0.0044290526 0.0039314283 0.0045213844 -0.0010221902 0.001100762 0.0034223348 -0.0010565125 -0.0021681774 -0.002929915 -0.0028782384 -0.00043167468 -0.002500353 -0.0005007883 0.0021401548 -0.0025100112 0.00097040244 0.002355701 0.0017559392 -0.0024145206 -0.002286527 -0.004410895 -0.000943291 0.0022179505 -0.00034705142 -0.0037368631 -0.0005141047 0.0025807368 0.0030639987 -0.0033238013 -0.0009031936 -0.00035259573 0.004654863 0.0031187248 0.0009840506 0.0046589407 0.0014086933 0.0010078825 0.00031707654 -0.00060712604 0.0047960426 -0.00030859333 0.004415478 -0.004274782 -0.00055019587 -0.0015822857 -0.0040863226 0.004831278 -0.0013753278 0.0031668392 -0.0049397517 0.0030104106 0.0019253856 -0.0024083774 0.002611823 0.004462787 -0.004290696 0.004844006 0.0043971306 -0.003045767 -0.0022709756 -0.00019029215 -0.0012430857 0.00034982667 -0.00064423715 -0.0009814347 0.002065117 -0.00070245756 0.00018949516 -0.0032515496 0.0035462622 -0.0019993961 -0.0035663426 -0.0045500244 0.0035799483 0.0028566706 -0.0013290517 -0.00095344905 0.0006389038 0.0032496117 0.004069883 0.00283024 -0.0007453414 -0.004211882 0.003313023
咽炎 0.0039055583 -0.0042757997 -0.0014447856 0.0019664909 -0.0026102932 -0.0035099732 0.0006066689 -0.00023782309 0.0019764362 0.0021023955 -0.0010029897 -0.0038714625 -0.00033680422 0.0021692591 0.00050869404 -0.0022306284 -0.0045957034 0.0021329299 0.0017664297 -0.004820578 0.0027009302 0.0012602978 0.00389632 0.004147341 -0.002562702 -0.0028859621 -0.0035741962 -0.00025381945 0.0017737973 0.003066138 -0.002778127 -0.0023731797 0.0007990452 0.004318671 -0.0006631383 0.0030984974 0.0016379758 0.0012363296 -0.003060169 0.002150947 -0.000513272 -0.00013673866 2.7290134e-05 -0.0047776713 -0.004281777 -0.0020504012 0.0046781693 0.0027638734 -0.003690638 0.00029141005 -0.003750999 0.0042019836 0.00021278296 0.004561512 0.0033297816 0.0035279226 -0.000111231166 -0.002307322 -0.00073474355 0.0008790588 -0.0030484153 0.0016857816 -0.0013816471 0.0048923725 0.003817452 0.0005902988 0.0017759715 -5.1923646e-05 -0.0015817708 -0.0007114132 0.0028073192 0.0027549888 -0.0026011395 -0.000957939 -0.0033484497 0.0019334338 0.004281243 0.0017371947 0.003927633 -0.0033526672 0.004817062 -0.0043074675 -0.0024204715 -0.0038164575 0.004662688 -0.004343516 0.0021370784 0.0019865336 -0.0017799559 0.003040703 -0.0024479092 -0.0007753483 0.0032648381 -0.0001669913 0.003309763 0.001754495 -0.0006792359 0.00023260797 -0.0022621034 0.00052960054
杨 0.0019834505 -0.0026544197 0.0039021878 0.000731967 -0.0027527872 -0.0005903049 -0.0037630291 -0.0028659685 -0.0010351408 0.0017034542 -0.0006791873 0.0041953796 -0.0036655772 -0.004167496 0.0021541796 -0.002421853 0.00474054 -0.0025418922 -0.0035787083 0.0002011385 -0.002608608 -0.003442729 0.001388946 0.0033014636 -0.0035227595 -0.0011436883 -0.003930668 0.0020164473 0.00027409362 0.002917145 -0.0016741973 -0.003531174 -0.0030423098 -0.0042559146 -0.0010290584 0.0046347887 0.0048087803 0.004912058 0.003707043 0.0012969867 0.0030241127 -0.0035579307 -0.004333069 0.00052476395 -0.0040792366 0.000328287 0.00232316 0.0048858686 -0.0040204655 0.0020464298 0.00012153078 0.00030411463 0.0003484121 0.0029115009 0.0032538152 8.302882e-05 0.0038565432 -0.0041459524 0.00329552 0.004080373 0.003234998 0.0007966708 -0.00016257018 0.00047957597 -0.0038645961 -0.004578332 -0.0029340594 0.0021988398 0.0032179237 -0.004957927 -0.0043220907 -0.0035775965 -0.00036340117 0.003843938 0.0013581808 -0.0013709848 -0.0017540518 -0.0016532002 0.004403509 0.00089542795 0.004374465 0.002654494 -0.0010155364 0.0041868333 -0.00396332 0.0025888588 -0.0007178798 1.2937294e-05 -0.0012390551 0.00027261098 0.0024073727 0.0015105458 0.0039588204 0.00018465154 0.001766126 0.004567612 -0.00063216814 0.00434942 0.0021462115 -0.000654625
